-4.845971986651420593e-02 -6.113333255052566528e-02 3.976809978485107422e-02 3.408766165375709534e-02 7.708494365215301514e-02 1.302252430468797684e-02 -5.342586338520050049e-02 -3.782587870955467224e-02 1.105572432279586792e-01 -5.335416272282600403e-02 -8.992783725261688232e-02 1.411618590354919434e-01 5.696740746498107910e-02 -7.247888296842575073e-02 -1.285384036600589752e-02 -1.266664713621139526e-01 -8.314254879951477051e-02 1.014473363757133484e-01 -1.176384389400482178e-01 2.050094678997993469e-02 3.175171464681625366e-02 5.661009624600410461e-02 -3.749502822756767273e-02 -3.046726249158382416e-02 3.567571565508842468e-02 5.592549219727516174e-02 3.309595957398414612e-02 2.657434940338134766e-01 9.948717802762985229e-02 -1.516809966415166855e-02 3.944026678800582886e-02 1.962112039327621460e-01 9.955688379704952240e-03 4.034624248743057251e-02 -8.587493561208248138e-03 6.549931317567825317e-02 7.222452014684677124e-02 -1.954502053558826447e-02 -4.334375560283660889e-01 2.067984938621520996e-01 -8.236875385046005249e-02 1.310869902372360229e-01 1.071293279528617859e-02 -1.577198505401611328e-02 -7.358416914939880371e-02 -2.569034881889820099e-02 -1.605707406997680664e-02 3.943153470754623413e-02 3.167153149843215942e-02 -2.301428839564323425e-02 5.822526291012763977e-02 1.531864851713180542e-01 -1.362043712288141251e-02 -4.158884659409523010e-02 1.026814803481101990e-01 -8.010818064212799072e-02 8.653318509459495544e-03 -9.268563240766525269e-03 2.512442171573638916e-01 1.749319583177566528e-01 6.284933686256408691e-01 1.649271696805953979e-01 -4.771624878048896790e-02 -1.066689752042293549e-02 -3.543334454298019409e-02 -6.860193610191345215e-02 -6.889757513999938965e-02 1.057603582739830017e-01 -2.033167928457260132e-01 -2.286878786981105804e-02 7.334304600954055786e-02 4.998853895813226700e-03 8.804799616336822510e-02 -3.803896158933639526e-02 8.489573746919631958e-02 3.107358701527118683e-02 -3.955342248082160950e-02 4.937541857361793518e-02 2.178399860858917236e-01 -3.496395647525787354e-01 2.742240577936172485e-02 7.532956451177597046e-02 7.497064769268035889e-02 -4.838032126426696777e-01 3.108591772615909576e-02 3.491992130875587463e-02 -5.081350728869438171e-02 -1.008687689900398254e-01 -1.727265492081642151e-02 -1.202014833688735962e-01 8.580333553254604340e-03 -1.611984148621559143e-02 -9.196633100509643555e-02 1.369609236717224121e-01 -8.991346694529056549e-03 3.078868053853511810e-02 -6.071335077285766602e-02 -4.417361691594123840e-02 3.347990289330482483e-02 5.505611002445220947e-02 -1.602229028940200806e-01 6.036840006709098816e-02 -4.722961038351058960e-02 2.373335659503936768e-01 4.769803956151008606e-02 3.147298842668533325e-02 3.765434026718139648e-01 5.476713180541992188e-02 -1.229560300707817078e-01 -4.048470035195350647e-02 -5.838622897863388062e-02 3.041265532374382019e-02 -9.899669140577316284e-02 1.742918491363525391e-01 1.657074838876724243e-01 -5.601809546351432800e-02 -8.056095987558364868e-02 9.652130305767059326e-02 -9.304717928171157837e-02 -3.112439438700675964e-02 -3.999566286802291870e-02 -6.021521613001823425e-02 3.668217957019805908e-01 2.069912385195493698e-03 -2.466134354472160339e-02 7.402795553207397461e-02 9.399455040693283081e-02 -2.234335057437419891e-02 -4.858215525746345520e-02 1.025479659438133240e-01 -9.378035552799701691e-03 2.240424156188964844e-01 1.518531329929828644e-02 3.970130532979965210e-02 4.694606177508831024e-03 8.553477935492992401e-03 -1.070683598518371582e-01 -1.139931380748748779e-02 1.161062344908714294e-02 1.328604221343994141e-01 -7.055073976516723633e-02 1.038974709808826447e-02 -4.807448387145996094e-02 3.216136246919631958e-02 -3.366414830088615417e-02 1.379931066185235977e-02 2.587959356606006622e-02 -8.149842172861099243e-02 -3.315286934375762939e-01 -1.737494766712188721e-01 8.030338585376739502e-02 1.061036959290504456e-01 -3.626272082328796387e-02 7.302882522344589233e-02 1.507798768579959869e-02 1.261686831712722778e-01 5.238711088895797729e-02 -2.274768799543380737e-02 9.843752533197402954e-02 9.171788394451141357e-02 -4.667297378182411194e-02 1.882614940404891968e-02 8.665837347507476807e-02 7.613637298345565796e-02 -1.996028004214167595e-03 9.612307697534561157e-02 -8.357013761997222900e-02 -2.043769881129264832e-02 3.098276630043983459e-02 -7.539322134107351303e-03 4.450429230928421021e-02 9.300210326910018921e-02 9.990251809358596802e-02 -2.483668550848960876e-02 -4.038763418793678284e-02 1.833793073892593384e-01 1.992754638195037842e-01 -7.479829341173171997e-02 -6.790847331285476685e-02 7.761410437524318695e-03 5.970805138349533081e-02 -6.429421156644821167e-02 5.466286838054656982e-02 -2.988354302942752838e-03 -6.826495379209518433e-02 3.339348733425140381e-02 1.137003004550933838e-01 2.329469174146652222e-01 4.387924820184707642e-02 -6.776666641235351562e-02 4.255116451531648636e-03 -6.136712059378623962e-02 7.313517481088638306e-02 3.653949499130249023e-01 -2.482720464468002319e-02 -7.451140135526657104e-02 3.348020091652870178e-02 -1.951714605093002319e-02 1.907223090529441833e-02 4.067803546786308289e-02 -1.245651021599769592e-01 -3.131426929030567408e-04 -1.872219890356063843e-02 9.107766300439834595e-02 4.342973604798316956e-02 3.222503140568733215e-02 -4.669060558080673218e-02 4.634891450405120850e-02 -4.559459164738655090e-02 -4.627721756696701050e-02 -8.192177861928939819e-03 -1.661609858274459839e-02 -2.933614142239093781e-02 -2.133026719093322754e-02 6.191721186041831970e-02 4.941312596201896667e-02 6.340530235320329666e-03 1.236480474472045898e-01 9.340195357799530029e-02 -9.329739958047866821e-03 8.532871305942535400e-02 -8.258287608623504639e-02 -3.733081044629216194e-03 -3.150580078363418579e-02 -2.782522141933441162e-02 7.669623941183090210e-02 3.634283244609832764e-01 -7.320138067007064819e-02 -3.394426405429840088e-02 1.183642446994781494e-01 4.676761105656623840e-02 -1.286908704787492752e-02 7.248287647962570190e-02 3.966415300965309143e-02 -4.418142139911651611e-03 1.089229136705398560e-01 3.060565888881683350e-02 2.244906034320592880e-03 3.472205996513366699e-02 -3.819504380226135254e-02 -3.424489870667457581e-02 -2.265521325170993805e-02 8.480352163314819336e-02 2.098938450217247009e-02 1.525210123509168625e-02 8.897976018488407135e-03 -3.247180879116058350e-01 3.348060324788093567e-02 3.854616358876228333e-02 -6.673984229564666748e-02 3.001192770898342133e-02 1.436704397201538086e-01 1.165470108389854431e-02 -2.561166323721408844e-02 -4.430993497371673584e-01 -1.344012469053268433e-01 2.852669171988964081e-02 -3.900511562824249268e-02 -2.901373989880084991e-02 1.740036159753799438e-01 1.329832337796688080e-02 -4.846167936921119690e-02 -3.899315744638442993e-02 6.524678319692611694e-02 -6.975088035687804222e-04 6.487774662673473358e-03 1.817322568967938423e-03 5.191589705646038055e-03 -6.540891528129577637e-02 2.149821072816848755e-02 -2.465747296810150146e-02 -1.095160841941833496e-04 4.499690607190132141e-02 4.424395505338907242e-03 -3.481949567794799805e-01 -2.778344415128231049e-02 -9.054011851549148560e-02 3.116148896515369415e-02 -9.093712270259857178e-02 -7.579303532838821411e-02 -4.666768014430999756e-02 2.806962467730045319e-02 2.870438247919082642e-02 5.429410934448242188e-02 3.099435754120349884e-02 4.609641805291175842e-02 1.667745411396026611e-02 -5.219069123268127441e-02 -1.165542379021644592e-02 -8.514870703220367432e-02 7.369469385594129562e-03 4.168656305409967899e-04 4.015858098864555359e-02 7.432683557271957397e-02 3.398446738719940186e-02 -2.171521447598934174e-02 -2.758576162159442902e-02 1.775926537811756134e-02 -1.044614613056182861e-01 -3.607225045561790466e-02 -3.675107657909393311e-02 5.484047904610633850e-02 -7.157409191131591797e-02 2.757883071899414062e-02 -7.129564764909446239e-04 -8.432357013225555420e-02 9.180792607367038727e-03 1.507734972983598709e-02 1.689410395920276642e-02 -1.399534661322832108e-02 1.118978336453437805e-01 -3.092318214476108551e-02 -3.310523461550474167e-03 1.157814264297485352e-01 2.949929237365722656e-02 -6.153522431850433350e-02 4.850070923566818237e-02 4.547490179538726807e-02 1.603613048791885376e-01 2.038184180855751038e-02 1.354601979255676270e-02 3.611488342285156250e-01 -1.357491128146648407e-02 -5.621742457151412964e-03 9.100279957056045532e-02 -7.179017644375562668e-03 8.557979017496109009e-02 2.771289460361003876e-02 5.761814303696155548e-03 7.672202587127685547e-02 2.560652419924736023e-02 -5.377245694398880005e-02 -3.661538660526275635e-02 1.952867209911346436e-02 7.373618334531784058e-02 3.691108226776123047e-01 1.388259883970022202e-02 -5.650546774268150330e-02 -3.042305074632167816e-02 3.420589119195938110e-02 2.224837988615036011e-01 -8.468369394540786743e-02 -1.398092359304428101e-01 -1.463664323091506958e-02 -2.991649881005287170e-02 1.207812875509262085e-02 1.068499162793159485e-01 7.938869297504425049e-02 2.744806408882141113e-01 8.641894161701202393e-02 1.575730182230472565e-02 2.229537628591060638e-02 2.010099291801452637e-01 -6.445661932229995728e-02 6.509960442781448364e-02 -5.036154761910438538e-02 2.581971883773803711e-02 -2.350008301436901093e-02 -2.619360573589801788e-02 -1.407815609127283096e-02 5.369644239544868469e-02 -2.927217073738574982e-02 -1.623335778713226318e-01 -9.491345845162868500e-03 1.809498295187950134e-02 5.319111794233322144e-02 3.653078898787498474e-02 5.456053838133811951e-02 5.668198317289352417e-02 6.890621781349182129e-02 -4.108142107725143433e-02 -3.103584051132202148e-02 4.870681092143058777e-02 -2.440925128757953644e-02 -6.132618337869644165e-02 -1.477964315563440323e-02 -2.674634940922260284e-02 1.491677109152078629e-02 -7.052861154079437256e-02 -1.143601536750793457e-02 -7.182953506708145142e-02 -5.826235562562942505e-02 -7.009336352348327637e-02 1.730800122022628784e-01 -8.475834131240844727e-02 -8.330642245709896088e-03 -1.015475317835807800e-01 2.459718845784664154e-02 8.721169829368591309e-02 -1.962783513590693474e-03 1.300103217363357544e-02 -3.031898522749543190e-03 1.215911060571670532e-01 1.289168093353509903e-02 9.835775941610336304e-03 3.270136192440986633e-02 2.087593227624893188e-01 -5.765680596232414246e-02 3.107394091784954071e-02 1.173575222492218018e-01 1.064678728580474854e-01 2.059367857873439789e-02 4.431908205151557922e-02 1.143681001849472523e-03 2.781262993812561035e-02 5.113760009407997131e-02 9.331574290990829468e-02 8.274241536855697632e-02 1.446633785963058472e-01 3.250342234969139099e-02 -1.268368493765592575e-02 -5.628395825624465942e-02 -3.625342845916748047e-01 -1.318232249468564987e-02 -3.622829169034957886e-02 -9.761245548725128174e-02 -2.288644760847091675e-01 -2.381029911339282990e-02 1.168143451213836670e-01 -6.054663658142089844e-02 -1.292555686086416245e-02 1.719295606017112732e-02 2.305870875716209412e-02 -5.739369988441467285e-02 -1.070027984678745270e-02 -4.278191551566123962e-02 1.040231212973594666e-01 -5.729404464364051819e-02 -4.602821543812751770e-02 -3.567469120025634766e-02 -3.656359389424324036e-02 7.422141730785369873e-02 -4.834259673953056335e-02 -3.608412295579910278e-02 1.814162135124206543e-01 -7.417611777782440186e-02 -5.162601824849843979e-03 6.156680360436439514e-02 1.704560220241546631e-01 -1.545422524213790894e-02 7.748056203126907349e-03 2.594321221113204956e-02 -7.764091342687606812e-02 8.177381008863449097e-02 8.781083673238754272e-02 -9.571533650159835815e-03 -3.290915861725807190e-02 -8.366581797599792480e-02 -5.311749503016471863e-02 -1.146006956696510315e-01 1.119026169180870056e-01 1.151536926627159119e-01 -1.264641433954238892e-01 -3.309391438961029053e-02 1.011690311133861542e-02 -7.557438313961029053e-02 -6.477160751819610596e-02 -3.378660976886749268e-02 -1.753885531798005104e-03 1.294756829738616943e-01 -1.663945266045629978e-03 -7.019820809364318848e-02 -3.826447203755378723e-02 -2.490568347275257111e-02 6.277249008417129517e-02 -8.171071112155914307e-02 -3.826852515339851379e-02 -8.241244405508041382e-02 -7.291863113641738892e-02 3.997960686683654785e-02 -3.456947952508926392e-02 2.229964360594749451e-02 4.291529580950737000e-02 5.103604122996330261e-02 9.367944300174713135e-02 1.066082045435905457e-01 2.487700805068016052e-02 -1.730334572494029999e-02 5.021395087242126465e-01 -6.367857009172439575e-02 -6.585078686475753784e-02 -4.201275110244750977e-02 -1.336688101291656494e-01 -2.073112316429615021e-02 -1.103411195799708366e-03 -2.828468568623065948e-02 -2.781955599784851074e-01 6.244518607854843140e-02 8.405734598636627197e-02 5.792135372757911682e-02 -2.162936888635158539e-02 -4.005237668752670288e-02 2.565559446811676025e-01 -2.232685685157775879e-02 -4.132012650370597839e-02 -2.526634186506271362e-02 2.511901855468750000e-01 7.789677381515502930e-02 -3.364384919404983521e-02 3.254734445363283157e-03 1.934585124254226685e-01 1.127648539841175079e-02 6.621211301535367966e-03 -3.986292704939842224e-02 6.285610049962997437e-02 2.347922474145889282e-01 -4.078513011336326599e-02 5.782196670770645142e-02 1.348180174827575684e-01 -5.286634713411331177e-02 8.375725895166397095e-02 -1.263074576854705811e-02 3.760975226759910583e-02 2.052736282348632812e-02 6.063244119286537170e-02 3.236364573240280151e-02 6.454476621001958847e-03 -5.815135687589645386e-02 7.584447972476482391e-03 -5.867254734039306641e-02 9.039154648780822754e-02 -6.910383235663175583e-03 -9.184836409986019135e-03 2.607185840606689453e-01 1.142979413270950317e-02 -5.011029243469238281e-01 1.751064062118530273e-01 1.155736967921257019e-01 -5.869020521640777588e-02 -7.410048693418502808e-02 7.409295439720153809e-02 3.498446196317672729e-02 8.934839628636837006e-03 8.587913960218429565e-02 3.131549060344696045e-01 -3.676905855536460876e-02 -1.750570535659790039e-02 -3.855970501899719238e-02 -2.172638662159442902e-03 1.073935441672801971e-02 7.740219831466674805e-01 -5.865421146154403687e-02 5.904608219861984253e-02 3.984811715781688690e-03 1.875416561961174011e-02 -3.026476129889488220e-02 -7.532610744237899780e-02 2.854603109881281853e-03 3.198934718966484070e-02 -8.021669462323188782e-03 1.116820275783538818e-01 6.753884255886077881e-02 -2.477305755019187927e-02 -5.855952948331832886e-02 4.903180003166198730e-01 -4.725285340100526810e-03 -1.257070004940032959e-01 5.135339498519897461e-01 1.557079423218965530e-02 -6.184427440166473389e-02 -3.672018274664878845e-02 -7.552232593297958374e-02 2.551280148327350616e-02 1.009409204125404358e-01 7.198382169008255005e-02 -1.057774871587753296e-01 -1.036622375249862671e-01 5.477205291390419006e-02 -8.137309551239013672e-02 2.909052651375532150e-03 2.631504833698272705e-02 1.526075694710016251e-02 1.518169045448303223e-02 9.435232728719711304e-02 4.847127571702003479e-02 -6.589398835785686970e-04 -8.246371150016784668e-02 -2.867801580578088760e-03 3.477029735222458839e-03 -3.451555669307708740e-01 -2.543608099222183228e-02 -4.710951447486877441e-02 9.763434063643217087e-04 -8.412312716245651245e-02 1.251745074987411499e-01 -2.895211242139339447e-02 -2.369708567857742310e-01 -8.990509808063507080e-02 -2.889176271855831146e-02 -4.102825745940208435e-02 7.952378392219543457e-01 -4.411063715815544128e-02 -2.738507986068725586e-01 1.015475168824195862e-01 -7.111585885286331177e-02 -5.720163509249687195e-02 -5.756674706935882568e-02 9.129099547863006592e-03 8.724164217710494995e-03 -1.018805503845214844e-01 3.939674422144889832e-02 -3.176844865083694458e-02 -4.138948395848274231e-02 -5.841510370373725891e-02 6.484790891408920288e-02 3.322831168770790100e-02 3.059361279010772705e-01 -7.808317244052886963e-02 7.504321634769439697e-02 -1.202300190925598145e-01 2.933304905891418457e-01 -1.870809122920036316e-02 2.295399457216262817e-02 -2.116830796003341675e-01 2.110359966754913330e-01 -5.575737357139587402e-02 -3.188380599021911621e-02 4.221848770976066589e-02 8.409040570259094238e-01 -3.015628608409315348e-04 -2.387992478907108307e-02 1.399212628602981567e-01 -2.498772740364074707e-01 5.532102659344673157e-02 1.245663035660982132e-03 -6.268409639596939087e-02 -6.001481786370277405e-03 1.615337328985333443e-03 1.389039400964975357e-02 1.368734985589981079e-01 -5.424879025667905807e-03 1.072313785552978516e-01 3.865476325154304504e-02 -7.770320773124694824e-02 -1.774863898754119873e-02 -1.598431020975112915e-01 -1.884740889072418213e-01 1.523345056921243668e-02 5.981431156396865845e-02 -8.107984066009521484e-02 -6.114228442311286926e-02 2.727040834724903107e-02 5.353281740099191666e-03 -9.377557784318923950e-02 9.896817058324813843e-02 8.578395470976829529e-03 7.395440479740500450e-04 -1.755360662937164307e-01 -7.185888290405273438e-02 -3.095849824603646994e-04 9.958521695807576180e-04 2.169859409332275391e-02 -3.738819807767868042e-02 -1.099488511681556702e-01 2.550157532095909119e-02 -7.772783935070037842e-02 4.559080302715301514e-02 -3.247931227087974548e-02 7.130128890275955200e-02 1.222403571009635925e-01 -2.008688449859619141e-02 5.908799171447753906e-02 7.484177127480506897e-03 3.049152903258800507e-02 -1.036037504673004150e-01 -3.180670440196990967e-01 8.749361336231231689e-02 -6.965302675962448120e-02 9.232945740222930908e-02 -2.369415909051895142e-01 -1.063416004180908203e-01 1.854021102190017700e-02 3.995308279991149902e-02 5.869973450899124146e-02 -1.109618693590164185e-01 2.828396558761596680e-01 8.340293914079666138e-02 -4.125886783003807068e-02 2.095830813050270081e-02 -6.700020283460617065e-02 7.158339023590087891e-02 -1.812191563658416271e-03 1.433836296200752258e-02 -1.164651848375797272e-02 -1.996543258428573608e-03 -1.344529073685407639e-02 2.310720086097717285e-02 -6.519144028425216675e-02 -5.236441642045974731e-02 4.947718605399131775e-02 1.716300472617149353e-02 -3.108971379697322845e-02 -7.485367357730865479e-03 2.680978551506996155e-02 -8.848006278276443481e-02 5.247508883476257324e-01 -4.906583949923515320e-02 6.438508629798889160e-03 3.670406341552734375e-02 -3.935541585087776184e-02 6.983435899019241333e-02 6.187633424997329712e-02 -8.957888931035995483e-03 -4.117238521575927734e-02 1.529615670442581177e-01 -3.712999448180198669e-02 -9.875118732452392578e-02 -6.017338484525680542e-02 -8.894213289022445679e-02 -1.620918139815330505e-02 6.399282813072204590e-02 1.957037001848220825e-01 4.149400442838668823e-02 8.077236264944076538e-02 2.703072316944599152e-02 -5.905136466026306152e-02 -3.037521848455071449e-03 -1.853128150105476379e-02 3.909860551357269287e-02 -1.954925060272216797e-02 -1.072576362639665604e-02 -3.800252825021743774e-02 3.065575659275054932e-01 -7.206087559461593628e-02 -3.107907250523567200e-02 1.772752255201339722e-01 1.009624674916267395e-01 -2.649509310722351074e-01 5.791323725134134293e-03 4.977640137076377869e-02 6.701049208641052246e-02 5.605545639991760254e-02 -7.761175930500030518e-02 3.676699474453926086e-02 -8.637604117393493652e-02 -1.104582217521965504e-03 -9.748957119882106781e-03 7.464117556810379028e-02 -5.786771327257156372e-02 -3.188824281096458435e-02 1.203235145658254623e-02 4.245841503143310547e-01 5.777576193213462830e-02 -2.319546043872833252e-02 2.242277562618255615e-02 -1.886427551507949829e-01 -9.845073521137237549e-02 1.304804980754852295e-01 8.417145162820816040e-02 -2.931711636483669281e-02 2.881611697375774384e-02 4.610119760036468506e-02 -3.639630228281021118e-02 1.229127049446105957e-01 1.434981916099786758e-02 -2.608016505837440491e-02 7.576441019773483276e-02 -6.615372002124786377e-02 1.806472539901733398e-01 -4.737336561083793640e-02 6.990422308444976807e-02 -4.873431287705898285e-03 2.429831773042678833e-02 6.451088935136795044e-02 -4.323820397257804871e-02 1.005713120102882385e-01 3.006611764430999756e-02 8.815521001815795898e-02 2.695561572909355164e-02 3.543716669082641602e-01 -8.471026271581649780e-02 2.111857570707798004e-02 8.442731574177742004e-03 -3.049136837944388390e-03 9.078085422515869141e-02 -6.044058501720428467e-02 -3.857196122407913208e-02 4.744567722082138062e-02 2.907075546681880951e-02 1.080354005098342896e-01 -7.605683803558349609e-02 3.914871066808700562e-02 3.985448181629180908e-02 3.136990219354629517e-02 -1.371821463108062744e-01 2.544785737991333008e-01 5.302903056144714355e-02 -4.771235585212707520e-02 -9.313777089118957520e-02 -1.992156170308589935e-02 -7.109671086072921753e-02 -7.066943496465682983e-02 -2.767415903508663177e-02 4.139775410294532776e-02 4.038063585758209229e-01 1.209046691656112671e-01 -2.129950188100337982e-02 5.912564322352409363e-02 -1.056576371192932129e-01 -5.282146856188774109e-02 -4.732502624392509460e-02 -1.173139549791812897e-02 2.615192718803882599e-02 -1.360415071249008179e-01 2.839283347129821777e-01 -1.764252968132495880e-02 -6.329431384801864624e-02 1.349477935582399368e-02 2.113757468760013580e-02 8.375281095504760742e-02 -5.185002461075782776e-03 2.337163686752319336e-01 -1.684284210205078125e-02 -9.084213525056838989e-02 3.278249129652976990e-02 -4.003190621733665466e-02 -8.346920460462570190e-02 5.074551329016685486e-02 -1.205523535609245300e-01 -5.187201499938964844e-02 -8.316604793071746826e-02 6.474182754755020142e-02 -4.984225332736968994e-02 -4.067920520901679993e-02 -6.243241578340530396e-02 -1.218115072697401047e-02 -3.256848827004432678e-02 8.228864520788192749e-02 8.101566880941390991e-02 3.486977890133857727e-02 -2.332323640584945679e-01 4.738298058509826660e-02 -5.081559531390666962e-03 1.782002300024032593e-01 -8.274569362401962280e-02 1.695267856121063232e-02 1.398221850395202637e-01 4.418249428272247314e-02 -5.087729170918464661e-02 -6.104175001382827759e-02 3.199573606252670288e-02 -1.715568602085113525e-01 -1.303824931383132935e-01 -2.644202485680580139e-02 -7.090069819241762161e-03 -7.785239722579717636e-03 -2.625459572300314903e-03 -1.543198972940444946e-01 2.646501362323760986e-02 -1.282089203596115112e-01 -5.590652674436569214e-02 -8.720431476831436157e-02 -5.548871587961912155e-03 -3.768831863999366760e-02 -1.999186351895332336e-02 7.347241789102554321e-02 8.688370138406753540e-02 -5.489232763648033142e-02 4.981547221541404724e-02 4.596557840704917908e-02 3.968722000718116760e-02 -1.006236374378204346e-01 -6.136449053883552551e-02 -5.666471645236015320e-02 1.808886975049972534e-02 1.468356549739837646e-01 2.689196467399597168e-01 7.213118672370910645e-02 1.863936483860015869e-01 -4.233349487185478210e-02 -6.687180697917938232e-02 -7.959027588367462158e-02 1.270239800214767456e-01 2.730531059205532074e-02 -2.678510174155235291e-02 1.245393883436918259e-02 1.397783607244491577e-01 1.009004488587379456e-01 1.066287383437156677e-01 9.047245234251022339e-02 3.250462561845779419e-02 -3.976320326328277588e-01 2.689289152622222900e-01 -6.276856362819671631e-02 2.288569882512092590e-02 2.123037166893482208e-02 1.459612548351287842e-01 4.092461243271827698e-02 3.229623660445213318e-02 4.027261584997177124e-02 -5.955286324024200439e-02 8.577330410480499268e-02 3.260387480258941650e-02 3.949312493205070496e-02 -1.141982451081275940e-01 3.779333084821701050e-02 1.796339079737663269e-02 -6.641006469726562500e-02 4.385286942124366760e-02 -7.534999400377273560e-02 -1.585419662296772003e-02 -1.754530891776084900e-02 -3.072728961706161499e-02 -7.834547758102416992e-02 -6.338813900947570801e-02 1.017591357231140137e-01 1.142311394214630127e-01 -3.131887316703796387e-02 5.529625713825225830e-02 -5.041318014264106750e-02 1.718646846711635590e-02 -3.467334434390068054e-02 5.215850472450256348e-02 3.986131399869918823e-02 1.717211157083511353e-01 -4.220677316188812256e-01 1.330924499779939651e-02 5.037671327590942383e-02 4.783792886883020401e-03 5.937701463699340820e-02 9.892933815717697144e-02 6.397221982479095459e-02 3.481065481901168823e-02 -6.333952397108078003e-02 5.003108978271484375e-01 -4.269582685083150864e-03 6.964186206459999084e-03 -1.580420285463333130e-01 6.318094208836555481e-03 -1.778510957956314087e-02 8.968676626682281494e-02 -6.251998129300773144e-04 -3.477227389812469482e-01 6.511048227548599243e-02 9.556286782026290894e-02 7.334311306476593018e-02 4.297276958823204041e-03 -6.678724288940429688e-02 -9.181292727589607239e-03 2.440640144050121307e-02 1.407997496426105499e-02 6.969710439443588257e-02 -1.967237703502178192e-02 6.097946898080408573e-04 2.071491479873657227e-01 1.934053003787994385e-01 -1.425957656465470791e-03 1.362797245383262634e-02 2.998734451830387115e-02 -1.885508596897125244e-01 5.760255083441734314e-02 -1.003337278962135315e-01 4.906235262751579285e-02 8.426776528358459473e-02 -3.236087262630462646e-01 1.022036224603652954e-01 -5.275483243167400360e-03 1.971730263903737068e-03 2.412231639027595520e-02 -3.295898437500000000e-01 4.709170758724212646e-02 -1.454562228173017502e-02 -6.866161525249481201e-02 -5.559756979346275330e-02 -1.071382761001586914e-01 3.365139290690422058e-02 3.192160977050662041e-03 -5.649705976247787476e-02 1.256991028785705566e-01 -5.890548229217529297e-02 2.760564684867858887e-01 -1.189883239567279816e-02 -7.946547865867614746e-02 -9.329392760992050171e-02 -6.711118668317794800e-02 -8.991837501525878906e-02 -5.455553159117698669e-02 5.098289996385574341e-02 3.766553476452827454e-02 -6.385026127099990845e-02 -1.758482865989208221e-02 5.007179081439971924e-02 6.754120439291000366e-02 -1.528223454952239990e-01 -5.378881841897964478e-02 -2.780153881758451462e-03 6.303206831216812134e-02 8.355829119682312012e-02 2.370265722274780273e-01 9.619019110687077045e-04 -1.081953197717666626e-02 6.590691953897476196e-02 -6.084970384836196899e-02 -9.550600498914718628e-02 1.428707838058471680e-01 1.553521305322647095e-02 1.569610834121704102e-02 -6.662016361951828003e-02 -6.386088579893112183e-02 -5.643524974584579468e-02 1.761076748371124268e-01 -1.559974104166030884e-01 4.874567687511444092e-02 -4.315450787544250488e-02 -2.193326689302921295e-02 -9.685099124908447266e-02 -8.840813301503658295e-03 -9.714105725288391113e-02 1.890500076115131378e-02 -1.345028728246688843e-02 -4.772935807704925537e-02 1.894035190343856812e-02 2.267779782414436340e-02 -1.907153241336345673e-02 -2.850495465099811554e-02 2.726099453866481781e-03 -8.654404282569885254e-01 1.031156256794929504e-01 1.073722466826438904e-01 -7.478144019842147827e-02 1.340086758136749268e-01 1.654815301299095154e-02 -1.405094861984252930e-01 -9.659643471240997314e-02
4.213401675224304199e-02 6.702138483524322510e-02 -2.907616458833217621e-02 2.035851357504725456e-03 7.823855429887771606e-02 5.300207063555717468e-02 -7.203398272395133972e-03 -4.724254831671714783e-02 9.414544701576232910e-02 4.650067165493965149e-02 -1.194129581563174725e-03 -2.498854324221611023e-02 -1.755191758275032043e-02 -5.889716558158397675e-03 4.832796007394790649e-02 -8.077788352966308594e-02 1.042455658316612244e-01 1.724240928888320923e-01 -5.438585951924324036e-02 9.051553159952163696e-02 2.332983538508415222e-02 -2.723951078951358795e-02 3.965199738740921021e-02 7.102120667695999146e-02 2.061527222394943237e-02 -8.688409812748432159e-03 -4.420130699872970581e-02 1.262147426605224609e-01 1.372656673192977905e-01 -3.231256082653999329e-02 9.324724785983562469e-03 1.620859205722808838e-01 -8.187612146139144897e-02 -8.688370883464813232e-02 -5.220919102430343628e-02 -6.788963079452514648e-02 -5.318263173103332520e-02 -8.462960249744355679e-04 -5.981451272964477539e-01 6.028563976287841797e-01 -5.285959318280220032e-02 1.146825551986694336e-01 -5.523863248527050018e-03 5.025605484843254089e-02 -1.475707441568374634e-01 4.591410607099533081e-02 -4.384755343198776245e-02 4.003310576081275940e-02 -4.863273352384567261e-02 2.165330760180950165e-02 -6.396702490746974945e-03 -1.248571947216987610e-01 2.074425667524337769e-01 6.813673675060272217e-02 5.209552869200706482e-02 2.501517301425337791e-03 -4.537508822977542877e-03 -3.651422262191772461e-02 4.652166068553924561e-01 7.641742825508117676e-01 7.149149775505065918e-01 1.549839694052934647e-02 -5.052979290485382080e-02 -4.273906722664833069e-02 6.940467655658721924e-02 4.558895900845527649e-02 -7.264991756528615952e-03 2.736059762537479401e-02 -5.217281356453895569e-02 1.889787986874580383e-02 -6.712706387042999268e-02 5.259967222809791565e-02 -9.023207426071166992e-02 -4.131792113184928894e-02 -8.500500023365020752e-02 -4.202286899089813232e-02 1.169161647558212280e-01 6.702672690153121948e-02 2.952772080898284912e-01 -4.941973984241485596e-01 -4.645832255482673645e-02 -6.717309355735778809e-02 -2.284183166921138763e-02 -6.311032772064208984e-01 1.581385545432567596e-02 8.384544402360916138e-03 -5.591756198555231094e-03 -3.061670660972595215e-01 1.895722001791000366e-02 -2.488830685615539551e-01 -6.526179611682891846e-02 4.325221851468086243e-02 8.673913031816482544e-02 1.753538381308317184e-03 1.567297615110874176e-02 -2.687401510775089264e-02 -1.372542530298233032e-01 -2.872468903660774231e-02 6.564121693372726440e-02 -6.240780651569366455e-02 -2.185913622379302979e-01 -5.305195972323417664e-02 4.567605257034301758e-02 1.585428118705749512e-01 -6.848547607660293579e-02 -1.380509696900844574e-02 4.769192337989807129e-01 -2.064942941069602966e-02 -1.944702118635177612e-01 1.167881265282630920e-01 1.809302903711795807e-02 -3.498538210988044739e-02 2.195584587752819061e-02 8.004102110862731934e-02 1.736950129270553589e-01 -5.825901031494140625e-02 3.955020755529403687e-02 5.665489286184310913e-02 -6.539050489664077759e-02 -1.562795415520668030e-02 -4.042454436421394348e-02 -6.020723283290863037e-02 -6.487590074539184570e-02 -7.820184342563152313e-03 2.874512970447540283e-02 -3.276534005999565125e-02 2.108030021190643311e-01 1.064951494336128235e-01 4.780865833163261414e-02 -4.068532213568687439e-02 2.664658799767494202e-02 4.022181034088134766e-01 -5.748426076024770737e-03 1.075721532106399536e-02 9.020572900772094727e-02 -1.609598658978939056e-02 4.274988919496536255e-02 -5.722008273005485535e-02 -1.828496158123016357e-02 -4.784928634762763977e-02 -2.975196950137615204e-02 2.817796193994581699e-04 -6.807792931795120239e-02 -8.984236046671867371e-03 2.833334961906075478e-03 5.550352856516838074e-02 -3.289712592959403992e-02 -7.430311292409896851e-02 -2.815323472023010254e-01 -2.407070696353912354e-01 6.779335439205169678e-02 3.718761354684829712e-02 -1.144961714744567871e-01 -9.009531140327453613e-02 3.080340102314949036e-02 3.084351494908332825e-02 -9.131976962089538574e-02 5.150368437170982361e-02 2.415341883897781372e-02 -7.736935466527938843e-02 9.416802972555160522e-02 -3.195949643850326538e-02 2.178118079900741577e-01 -8.535930514335632324e-02 3.595592826604843140e-02 5.113060772418975830e-02 8.145121857523918152e-03 -1.681284047663211823e-02 -2.311282046139240265e-02 -3.364010155200958252e-02 -4.982488602399826050e-02 7.137680798768997192e-02 -8.438810706138610840e-02 -9.052588045597076416e-02 -1.346983462572097778e-01 1.818576902151107788e-01 2.634176313877105713e-01 -2.547443471848964691e-02 3.028862178325653076e-03 6.695576012134552002e-02 1.679159402847290039e-01 -4.610290005803108215e-02 2.962089329957962036e-02 5.757448449730873108e-02 5.782491341233253479e-02 -1.836176589131355286e-02 1.617087125778198242e-01 3.185276687145233154e-01 -5.039265006780624390e-02 6.204276904463768005e-02 2.679099515080451965e-02 2.776030637323856354e-02 -9.388192743062973022e-02 2.873181700706481934e-01 -6.756570190191268921e-02 3.968866541981697083e-02 -3.644211962819099426e-02 1.195132881402969360e-01 -1.370914187282323837e-02 -3.645310178399085999e-02 7.164435088634490967e-02 5.615009367465972900e-02 7.568202912807464600e-02 2.972679212689399719e-02 -2.447750419378280640e-02 -2.939886972308158875e-02 -5.286923050880432129e-02 -8.921489119529724121e-02 3.911545500159263611e-02 1.319453269243240356e-01 -3.903362667188048363e-03 4.494382441043853760e-02 -4.296574741601943970e-02 -3.133803978562355042e-02 4.170287400484085083e-02 6.536605302244424820e-03 6.801060587167739868e-02 6.279519200325012207e-02 7.642427459359169006e-03 -3.037183918058872223e-02 -5.928333848714828491e-02 -1.040207371115684509e-01 -1.976928906515240669e-03 2.222149074077606201e-02 2.811646088957786560e-02 7.328901439905166626e-02 7.314667701721191406e-01 5.981817469000816345e-02 3.640262782573699951e-02 1.493255347013473511e-01 3.242309391498565674e-02 2.037653699517250061e-02 1.138449832797050476e-02 6.414376199245452881e-02 -5.018081516027450562e-02 1.085299178957939148e-01 2.731266617774963379e-02 -3.433536738157272339e-02 -3.472561389207839966e-02 3.550126031041145325e-02 -3.935404494404792786e-02 1.221805159002542496e-02 7.315915077924728394e-02 -2.497165277600288391e-02 -7.960301637649536133e-02 -7.191814482212066650e-02 -4.267764091491699219e-01 -2.801863476634025574e-02 1.791686564683914185e-02 -5.870551243424415588e-02 4.104543011635541916e-03 1.827498227357864380e-01 -5.412641167640686035e-02 7.403334230184555054e-02 -3.577893376350402832e-01 -3.728422895073890686e-02 -3.651413321495056152e-02 -8.341260254383087158e-03 1.943902485072612762e-02 1.932586133480072021e-01 -9.555078297853469849e-02 7.219905406236648560e-02 6.235453858971595764e-02 -8.005107939243316650e-02 -9.071802347898483276e-02 2.794994041323661804e-02 2.669231966137886047e-02 3.534051030874252319e-02 -7.931626588106155396e-02 2.820437774062156677e-02 -1.152022853493690491e-01 -1.050459817051887512e-01 -5.306571722030639648e-02 -7.118800189346075058e-03 -5.597097277641296387e-01 2.737314254045486450e-02 -9.307569265365600586e-02 2.991844341158866882e-02 1.041268464177846909e-02 -8.601474016904830933e-02 -3.838745132088661194e-02 4.809039831161499023e-02 3.374830633401870728e-02 -7.024701684713363647e-02 4.041877761483192444e-02 -1.312906593084335327e-01 -6.045913789421319962e-03 -1.268718093633651733e-01 -9.118908643722534180e-02 3.761984780430793762e-02 4.802472144365310669e-02 -4.549273289740085602e-03 1.146937087178230286e-01 1.013759821653366089e-01 5.708013847470283508e-02 -9.455147385597229004e-02 -9.168101102113723755e-02 -6.875108927488327026e-03 -6.382814794778823853e-02 -1.499522291123867035e-02 2.904516644775867462e-03 5.238347128033638000e-02 1.241852939128875732e-01 -2.194558270275592804e-02 5.782755557447671890e-03 -8.694453537464141846e-02 -1.918130367994308472e-02 6.465205550193786621e-02 -6.100434809923171997e-02 -1.026597544550895691e-01 9.385041147470474243e-02 4.320075735449790955e-02 1.906077191233634949e-02 1.026463359594345093e-01 1.010381057858467102e-01 9.686601348221302032e-03 -9.217829257249832153e-02 2.830665744841098785e-02 8.616455644369125366e-02 -7.373417168855667114e-02 3.106017410755157471e-02 3.191792070865631104e-01 -4.630763083696365356e-02 -1.751887202262878418e-01 -3.175134211778640747e-02 -7.048943080008029938e-03 3.225433081388473511e-02 -2.646675147116184235e-02 1.164030469954013824e-02 -7.752183824777603149e-02 -2.678622305393218994e-02 3.739342838525772095e-02 -3.245379030704498291e-02 -1.871540211141109467e-02 2.725912071764469147e-02 5.928629040718078613e-01 1.086328327655792236e-01 -5.387525260448455811e-02 5.071271955966949463e-02 6.261018663644790649e-02 7.750708609819412231e-02 -6.693822145462036133e-02 -3.573819100856781006e-01 -4.192416369915008545e-02 -1.363480277359485626e-02 -4.917410388588905334e-02 1.139137893915176392e-02 -9.197810292243957520e-02 2.256035804748535156e-01 8.475280553102493286e-02 -2.137313410639762878e-02 -4.628097638487815857e-02 2.422343492507934570e-01 1.845727674663066864e-02 1.964542828500270844e-02 5.187401175498962402e-02 1.145725371316075325e-03 2.784876152873039246e-02 3.326531499624252319e-02 2.175527624785900116e-02 -2.548878192901611328e-01 -1.361406594514846802e-02 -2.142629772424697876e-01 -1.746862195432186127e-02 -3.997735213488340378e-03 4.165341705083847046e-02 -9.232659637928009033e-02 -5.498559027910232544e-02 3.942140936851501465e-02 -5.706045776605606079e-02 3.214794769883155823e-02 -2.287300303578376770e-02 -5.097009614109992981e-02 2.251385897397994995e-01 3.672622144222259521e-01 -2.848863787949085236e-02 1.389248762279748917e-03 -2.688370645046234131e-02 2.545008249580860138e-02 6.452377140522003174e-02 -3.582320734858512878e-02 4.194097220897674561e-02 -1.863157562911510468e-02 1.269933879375457764e-01 -6.889660656452178955e-02 3.200877085328102112e-02 -7.846537977457046509e-02 -2.977477386593818665e-02 1.126528382301330566e-01 7.574981451034545898e-02 -8.769792504608631134e-03 5.939966998994350433e-03 3.706915676593780518e-02 -1.575507782399654388e-02 9.011703729629516602e-02 1.369354277849197388e-01 2.141411155462265015e-01 -3.317323327064514160e-02 1.421167049556970596e-02 3.197142109274864197e-02 2.716411836445331573e-02 -2.732392214238643646e-02 -1.381696481257677078e-02 -1.241054385900497437e-02 2.666321583092212677e-02 6.264399737119674683e-02 -7.443691790103912354e-02 -8.615019917488098145e-02 3.345473408699035645e-01 7.062973827123641968e-02 1.645767875015735626e-02 -5.069131776690483093e-02 -3.567951321601867676e-01 -5.880371318198740482e-04 -7.557774335145950317e-02 1.434687583241611719e-04 -5.148221850395202637e-01 -3.981821984052658081e-02 -1.927451789379119873e-02 5.625828728079795837e-02 1.973531395196914673e-02 -5.500314757227897644e-02 -1.893058791756629944e-02 4.927092045545578003e-02 -2.097532898187637329e-02 1.746909879148006439e-02 3.602284938097000122e-02 -5.945359542965888977e-02 2.075153775513172150e-02 -3.602610528469085693e-02 5.998913943767547607e-02 1.966794952750205994e-02 -7.751434575766324997e-03 3.635832667350769043e-02 2.129248380661010742e-01 -1.002295240759849548e-01 7.672341912984848022e-02 3.904056921601295471e-02 1.387869566679000854e-01 4.449789226055145264e-02 -4.086729511618614197e-02 -4.299347847700119019e-02 2.615048736333847046e-02 6.361891329288482666e-02 2.560230195522308350e-01 1.170020364224910736e-02 -9.382929652929306030e-02 7.448226958513259888e-02 -7.244896143674850464e-03 6.195887923240661621e-02 2.936843968927860260e-02 -6.897950917482376099e-02 -1.093855053186416626e-01 4.734445363283157349e-02 -3.322307765483856201e-02 6.635402143001556396e-02 5.129724740982055664e-02 2.182036638259887695e-02 -1.990066654980182648e-02 8.663522452116012573e-02 -1.247467659413814545e-02 6.591194868087768555e-02 1.215810887515544891e-02 -2.324124798178672791e-02 4.009331017732620239e-02 1.721666604280471802e-01 -1.017850935459136963e-01 4.031556099653244019e-02 -6.909333169460296631e-03 1.352012306451797485e-01 4.678511992096900940e-02 -1.291583105921745300e-02 3.087278269231319427e-02 -1.215655058622360229e-01 -1.722011342644691467e-02 3.190828952938318253e-03 -3.493960946798324585e-02 -6.631287932395935059e-02 6.945394873619079590e-01 5.612317100167274475e-02 -3.358056023716926575e-02 6.493180245161056519e-02 -1.217337846755981445e-01 -5.811147764325141907e-02 -1.038158982992172241e-01 -6.848332285881042480e-02 -5.943838357925415039e-01 2.673157304525375366e-02 -9.742548316717147827e-02 3.676431626081466675e-02 2.834768407046794891e-02 3.374553844332695007e-02 3.808611631393432617e-01 2.030436508357524872e-02 2.255300991237163544e-02 -6.107041612267494202e-02 1.798115819692611694e-01 8.488308638334274292e-02 -1.738006249070167542e-02 -2.619614452123641968e-02 2.320879399776458740e-01 -5.076549947261810303e-02 -5.869964137673377991e-02 4.066411033272743225e-02 -5.585633218288421631e-02 1.377865821123123169e-01 -6.078272126615047455e-03 1.301015913486480713e-01 -2.087792195379734039e-02 -1.173458993434906006e-01 -3.481922671198844910e-02 1.577198691666126251e-02 -9.239599108695983887e-03 4.830719903111457825e-02 1.039766073226928711e-01 -7.618753612041473389e-02 6.531497091054916382e-02 1.314055919647216797e-01 -9.968079626560211182e-03 -2.329803816974163055e-02 -4.154541343450546265e-02 -7.639023661613464355e-02 3.783768787980079651e-02 5.463333725929260254e-01 8.864142931997776031e-03 -7.805889248847961426e-01 1.029313728213310242e-01 8.175691217184066772e-02 3.567584604024887085e-02 -3.170901909470558167e-02 -6.230811774730682373e-02 -6.938446313142776489e-02 1.972479075193405151e-01 -2.043874375522136688e-02 2.271031141281127930e-01 -6.338422745466232300e-02 1.144808158278465271e-01 3.427394106984138489e-02 7.291414309293031693e-03 -2.847133437171578407e-03 1.196148395538330078e+00 -3.392120450735092163e-02 8.772341907024383545e-02 1.273742765188217163e-01 9.934552013874053955e-02 1.458108890801668167e-02 -7.726018130779266357e-02 1.049422174692153931e-01 -8.952571079134941101e-03 7.796903699636459351e-02 -7.575881667435169220e-03 -6.596181541681289673e-02 1.419993955641984940e-02 -5.397480353713035583e-02 2.657762169837951660e-01 -7.455905526876449585e-02 2.269828133285045624e-02 4.170534014701843262e-01 1.534883957356214523e-02 2.049842290580272675e-02 1.170331146568059921e-02 -1.933146640658378601e-02 -1.901986822485923767e-02 -1.563050597906112671e-02 -3.355174884200096130e-02 9.307406842708587646e-02 -1.092059761285781860e-01 1.270758640021085739e-02 -1.207658424973487854e-01 -4.037751350551843643e-03 5.193628370761871338e-03 -1.621372252702713013e-02 -2.780528366565704346e-02 3.844493255019187927e-02 1.905257701873779297e-01 8.245443552732467651e-02 8.057858794927597046e-02 -8.985982835292816162e-02 1.817880943417549133e-02 -1.343150734901428223e-01 -4.774575307965278625e-02 3.674291074275970459e-02 2.618553303182125092e-02 -1.175408214330673218e-01 1.015731841325759888e-01 3.936906810849905014e-03 -2.275354862213134766e-01 4.535996122285723686e-04 3.506571799516677856e-02 -3.277825936675071716e-02 3.817507624626159668e-01 3.558503091335296631e-02 -3.316312134265899658e-01 9.435120970010757446e-02 -1.668063998222351074e-01 -5.185008421540260315e-02 -6.205142289400100708e-02 7.190344482660293579e-02 -3.156365454196929932e-02 -2.726421877741813660e-02 -3.615074977278709412e-02 -1.374936010688543320e-02 4.370138049125671387e-02 4.315694794058799744e-02 1.695895195007324219e-01 1.524246633052825928e-01 2.929461896419525146e-01 6.827533245086669922e-02 -5.666140839457511902e-02 -2.024089694023132324e-01 2.881388962268829346e-01 -4.037525132298469543e-02 -5.897378921508789062e-02 2.872454524040222168e-01 2.692975997924804688e-01 6.013668701052665710e-02 2.745707146823406219e-02 5.035027861595153809e-02 7.906467914581298828e-01 1.250702538527548313e-03 -1.680628359317779541e-01 2.330984771251678467e-01 -5.207520723342895508e-01 3.972529992461204529e-02 -2.453790158033370972e-01 3.172374144196510315e-02 3.718680888414382935e-02 -5.894549190998077393e-03 4.699890688061714172e-02 -5.072173476219177246e-02 7.215860299766063690e-03 2.392767183482646942e-02 -2.558041177690029144e-02 8.731491863727569580e-02 5.681533366441726685e-02 -1.135724857449531555e-01 -1.986802965402603149e-01 2.131203003227710724e-02 2.419257164001464844e-02 -3.587488234043121338e-01 1.243651658296585083e-02 -1.266506407409906387e-02 -4.766117408871650696e-02 2.840398624539375305e-02 -1.236563473939895630e-01 3.135134279727935791e-02 -4.961985163390636444e-03 -3.715755343437194824e-01 -2.287364378571510315e-02 3.465437144041061401e-02 6.328821182250976562e-02 -3.845728561282157898e-02 -6.977710127830505371e-02 -6.689979135990142822e-02 -1.631823927164077759e-02 8.451829850673675537e-02 -4.391887784004211426e-02 3.587968274950981140e-02 -5.624420568346977234e-02 -7.611957192420959473e-02 1.993693783879280090e-02 -5.484445020556449890e-03 5.817359685897827148e-02 2.032642066478729248e-02 -8.021979779005050659e-02 2.107758074998855591e-02 1.708933711051940918e-01 1.734122037887573242e-01 -8.464873582124710083e-02 -4.220701754093170166e-02 6.239216774702072144e-02 -8.514096587896347046e-02 4.267401620745658875e-02 -2.497409097850322723e-02 -2.772765457630157471e-01 1.678287088871002197e-01 1.047307476401329041e-01 2.999025583267211914e-02 -2.236205898225307465e-02 3.348414227366447449e-02 1.025289669632911682e-02 4.480741918087005615e-02 -3.009673766791820526e-02 -4.882463719695806503e-03 6.511444225907325745e-03 -7.794955372810363770e-02 -2.974282391369342804e-02 6.650683283805847168e-02 -2.643437357619404793e-03 -3.965103253722190857e-02 6.953407544642686844e-03 7.998736947774887085e-02 4.238883964717388153e-03 6.304417736828327179e-03 3.234963119029998779e-02 5.678485035896301270e-01 7.433076947927474976e-02 4.074888676404953003e-02 -2.096777409315109253e-02 -5.782720074057579041e-02 -6.675966829061508179e-02 1.072691231966018677e-01 1.682746261358261108e-01 -3.085899166762828827e-03 3.770650923252105713e-02 -1.051111221313476562e-01 5.101226270198822021e-03 -6.877668946981430054e-02 8.051022887229919434e-02 6.427011638879776001e-02 3.619270920753479004e-01 2.126102000474929810e-01 -8.704636245965957642e-02 6.497707217931747437e-02 -4.169803857803344727e-02 4.325414076447486877e-02 7.250014692544937134e-02 1.954808644950389862e-02 -9.504698961973190308e-02 -1.388523429632186890e-01 -6.305029988288879395e-02 3.738219290971755981e-02 3.201959133148193359e-01 -5.171120166778564453e-03 -3.882789611816406250e-02 2.082610726356506348e-01 1.401996314525604248e-01 -4.225733578205108643e-01 -5.957677587866783142e-02 4.745301604270935059e-02 -6.046568974852561951e-02 -1.282716356217861176e-02 7.735556457191705704e-03 -2.114699967205524445e-02 -1.662165373563766479e-01 -1.725631393492221832e-02 3.238774836063385010e-02 6.715119630098342896e-02 4.805419966578483582e-02 3.679080307483673096e-02 -6.320618093013763428e-02 6.286549568176269531e-01 1.369110345840454102e-01 2.567039616405963898e-02 4.934124648571014404e-02 -1.718308031558990479e-01 -9.467786550521850586e-02 1.341049224138259888e-01 1.988530158996582031e-03 2.817414142191410065e-02 -4.899236187338829041e-02 -1.045088544487953186e-01 1.185994893312454224e-01 7.996661961078643799e-02 -1.729761064052581787e-02 -1.236844249069690704e-02 7.925166934728622437e-02 -7.615312188863754272e-02 6.626507267355918884e-03 4.327584803104400635e-02 -8.831139653921127319e-02 -7.228016108274459839e-02 1.099982038140296936e-01 7.748547941446304321e-02 4.669919237494468689e-02 -3.018814837560057640e-03 6.834691762924194336e-02 -8.791970461606979370e-02 -8.061491698026657104e-02 -3.937779366970062256e-01 1.152061447501182556e-01 -5.293620750308036804e-02 3.307190164923667908e-02 4.004701506346464157e-03 2.211117185652256012e-02 8.889526128768920898e-02 1.047978028655052185e-01 -2.788629382848739624e-02 -4.519359394907951355e-02 -7.853023707866668701e-02 -2.297889254987239838e-02 7.139886729419231415e-03 -9.037125855684280396e-02 -5.472477525472640991e-02 -3.529558479785919189e-01 2.430925518274307251e-01 -6.395325064659118652e-02 1.911333203315734863e-02 6.689774245023727417e-02 2.349788323044776917e-02 -9.898056089878082275e-02 -5.063219740986824036e-02 3.883116319775581360e-02 -6.175333261489868164e-02 5.600194931030273438e-01 1.985205262899398804e-01 3.873067721724510193e-02 -6.278909742832183838e-02 -7.981706410646438599e-02 3.883939236402511597e-02 -7.704005111008882523e-03 5.310782231390476227e-03 2.560608461499214172e-02 -1.817366033792495728e-01 2.774927914142608643e-01 -5.735160782933235168e-02 -6.985965371131896973e-02 -2.399591729044914246e-03 -3.193834424018859863e-02 -1.009798198938369751e-01 5.427944008260965347e-03 3.812194764614105225e-01 -2.623101137578487396e-02 -8.594880253076553345e-02 -2.944520488381385803e-02 -4.526603594422340393e-02 -1.653997451066970825e-01 -2.836515940725803375e-02 8.721719682216644287e-02 6.098826881498098373e-03 7.505854964256286621e-02 1.703103929758071899e-01 -9.048407897353172302e-03 -5.140018090605735779e-02 -6.046176329255104065e-02 -2.148578129708766937e-02 1.226023510098457336e-01 3.042513132095336914e-01 -6.971445679664611816e-02 3.308766335248947144e-02 -1.885885745286941528e-01 -1.939733140170574188e-02 5.806256085634231567e-03 -2.849023416638374329e-02 4.723492637276649475e-02 -5.426491051912307739e-02 2.299834415316581726e-02 1.250571012496948242e-01 -3.012033551931381226e-02 5.413816124200820923e-02 4.749488085508346558e-02 -1.133700981736183167e-01 -1.101091355085372925e-01 9.092841297388076782e-03 -1.608625054359436035e-02 1.959767788648605347e-01 7.493861764669418335e-02 -5.219117403030395508e-01 -7.933155633509159088e-03 -8.734124153852462769e-02 -4.408449865877628326e-03 7.938322424888610840e-02 -2.539746090769767761e-02 2.019427344202995300e-02 4.777859523892402649e-02 -2.844143845140933990e-02 -6.114112213253974915e-02 -6.890328973531723022e-02 -1.133759319782257080e-02 -3.976032137870788574e-02 -7.504249364137649536e-02 5.712667107582092285e-02 3.439470753073692322e-02 6.544237583875656128e-02 -2.568389661610126495e-02 4.358445480465888977e-02 2.041882276535034180e-01 2.645656652748584747e-02 2.144143283367156982e-01 4.456805996596813202e-03 -5.957226827740669250e-02 3.445851057767868042e-02 2.978717684745788574e-01 9.223607927560806274e-02 -1.706692576408386230e-02 -8.385182172060012817e-02 -3.511093556880950928e-02 9.155592322349548340e-02 -8.764804899692535400e-02 -8.906222879886627197e-02 -3.615483269095420837e-02 -6.585205793380737305e-01 1.777130216360092163e-01 4.885902255773544312e-02 7.509778253734111786e-03 4.125815257430076599e-02 2.100982964038848877e-01 1.335139945149421692e-02 7.003732770681381226e-02 1.124344915151596069e-01 -6.725277006626129150e-02 6.902669370174407959e-02 -4.055745154619216919e-02 -3.589015081524848938e-02 1.220326274633407593e-01 -1.865121535956859589e-02 4.272410273551940918e-02 -1.829380989074707031e-01 -2.382006682455539703e-02 6.803835928440093994e-02 1.114382222294807434e-01 -1.343477889895439148e-02 1.396808214485645294e-02 -6.520802527666091919e-02 4.920855909585952759e-02 1.462744176387786865e-01 -1.406766474246978760e-02 3.402896970510482788e-02 -1.262240391224622726e-02 9.769519418478012085e-02 -5.771336331963539124e-02 -8.875335007905960083e-02 -3.889553621411323547e-02 -3.481672704219818115e-02 1.939444243907928467e-01 -6.248434185981750488e-01 -8.641968481242656708e-03 3.286811336874961853e-02 3.663633018732070923e-02 -6.800590455532073975e-02 -6.677637994289398193e-02 -5.250106751918792725e-02 -2.202228456735610962e-02 -6.863284111022949219e-02 3.683993518352508545e-01 1.770274480804800987e-03 -4.352910444140434265e-02 -3.926897346973419189e-01 -2.077303652185946703e-04 -6.559053808450698853e-02 1.349178105592727661e-01 1.986117847263813019e-02 -5.617232248187065125e-02 3.610782697796821594e-02 5.083204433321952820e-02 -6.928245723247528076e-02 -7.424865849316120148e-03 4.175038635730743408e-02 1.283278167247772217e-01 4.300611466169357300e-02 4.594577942043542862e-03 9.517755359411239624e-03 -6.948457565158605576e-03 2.152097970247268677e-02 2.447731792926788330e-01 2.050350457429885864e-01 3.227863460779190063e-02 6.510847806930541992e-02 -4.140681400895118713e-02 -2.334070503711700439e-01 -6.400371203199028969e-04 -7.768627256155014038e-02 1.482085734605789185e-01 1.352464854717254639e-01 -3.129683434963226318e-01 9.516020119190216064e-02 5.908496095798909664e-04 1.073737395927309990e-03 -2.877185493707656860e-02 -3.144716322422027588e-01 -2.524457313120365143e-02 -4.203396663069725037e-02 9.243245422840118408e-02 -1.987919770181179047e-02 8.116287738084793091e-02 -2.777608670294284821e-02 -1.783821359276771545e-02 5.602256208658218384e-02 9.104088693857192993e-02 -4.147150367498397827e-02 3.843792676925659180e-01 3.113203495740890503e-02 -5.660641938447952271e-02 1.137816235423088074e-01 5.872097983956336975e-02 -4.790902510285377502e-02 4.073493182659149170e-02 -9.395113587379455566e-02 -2.631376124918460846e-02 3.158888965845108032e-02 -1.541439909487962723e-02 -7.267250865697860718e-02 7.002912461757659912e-02 -2.221526764333248138e-02 -8.841510862112045288e-02 -2.168375439941883087e-02 7.802988588809967041e-02 2.914091013371944427e-02 3.161163628101348877e-01 -5.032096430659294128e-02 1.864922046661376953e-02 8.644028007984161377e-02 -7.751730084419250488e-02 2.123053371906280518e-02 1.757193058729171753e-01 5.200346559286117554e-02 -1.643797010183334351e-02 -9.396544843912124634e-02 6.471538543701171875e-02 5.158155784010887146e-02 2.820778489112854004e-01 7.740422338247299194e-02 -2.612245082855224609e-02 8.018948882818222046e-02 1.056183944456279278e-03 -3.941187262535095215e-02 -8.416729979217052460e-03 7.492101192474365234e-02 4.114547744393348694e-02 -3.281816095113754272e-02 -6.450527161359786987e-02 4.684451967477798462e-02 -5.410366691648960114e-03 3.010655194520950317e-02 -1.200518570840358734e-02 -8.258651196956634521e-02 -1.185512185096740723e+00 -1.427232380956411362e-02 -1.679269820451736450e-01 4.882802441716194153e-02 -1.169089693576097488e-02 -2.022379450500011444e-02 -3.146765232086181641e-01 4.974893480539321899e-02
1.467376798391342163e-01 -8.222983777523040771e-02 -2.253106608986854553e-02 2.743939124047756195e-02 9.326802194118499756e-02 -8.236872032284736633e-03 4.292470961809158325e-02 -8.980794250965118408e-02 -4.745709709823131561e-03 -1.972908526659011841e-02 2.471839822828769684e-02 -5.108400061726570129e-02 1.970758587121963501e-01 5.336323287338018417e-03 -1.060258597135543823e-02 7.009441405534744263e-02 -2.338666468858718872e-02 -4.947430267930030823e-02 1.028650552034378052e-01 1.229827292263507843e-02 -1.339641585946083069e-02 -4.336952790617942810e-02 -2.475932799279689789e-02 -4.729361087083816528e-02 -4.921977967023849487e-02 1.046163216233253479e-01 2.430919744074344635e-02 3.733361139893531799e-03 1.050480990670621395e-03 4.161667078733444214e-02 3.288595750927925110e-02 -6.183943897485733032e-02 5.309671536087989807e-02 -5.434175580739974976e-02 8.748893439769744873e-02 -1.369125545024871826e-01 4.276734218001365662e-02 9.548950940370559692e-02 -1.422257535159587860e-02 -2.550874091684818268e-02 -8.345571905374526978e-02 6.919371336698532104e-02 1.191414147615432739e-01 1.205912698060274124e-02 9.181467816233634949e-03 -9.032322466373443604e-02 -3.667206317186355591e-02 -1.266368664801120758e-02 6.536190956830978394e-02 -6.023775413632392883e-02 5.150941759347915649e-02 -7.535550743341445923e-02 3.304222822189331055e-01 9.387932717800140381e-02 7.346483319997787476e-02 1.039540693163871765e-01 1.358762383460998535e-01 -2.745236828923225403e-02 6.109210848808288574e-02 2.027315497398376465e-01 -9.942393004894256592e-02 -1.855792291462421417e-02 6.860364694148302078e-03 -3.077539615333080292e-02 -2.983460389077663422e-02 7.613062858581542969e-02 -7.630129903554916382e-02 -9.081287682056427002e-02 6.454884540289640427e-03 9.004989638924598694e-03 5.056481808423995972e-02 3.207403421401977539e-02 -3.153715282678604126e-02 -1.772409118711948395e-02 -7.129589468240737915e-02 -3.501110896468162537e-02 -6.657420098781585693e-02 4.941296204924583435e-02 1.962095312774181366e-02 -3.667891770601272583e-02 8.412045985460281372e-02 -3.535953536629676819e-02 1.533219311386346817e-02 1.675918698310852051e-02 4.243728518486022949e-02 5.547441542148590088e-02 5.044563487172126770e-02 3.059408441185951233e-02 -3.620976954698562622e-02 2.281848527491092682e-02 -2.016148120164871216e-01 -5.923704709857702255e-03 1.867078128270804882e-03 9.361994266510009766e-02 1.653096638619899750e-02 -6.974536180496215820e-02 6.058510765433311462e-02 5.918093025684356689e-02 -5.617616698145866394e-02 6.182146817445755005e-02 1.120180636644363403e-02 -7.383477687835693359e-02 -6.489957869052886963e-02 -4.945646971464157104e-02 -2.237732708454132080e-02 -3.050765208899974823e-02 -2.120185047388076782e-01 -4.635022208094596863e-02 -6.264537572860717773e-02 -6.992993503808975220e-02 -2.139886096119880676e-02 5.206784978508949280e-02 -6.168368458747863770e-02 -8.736495673656463623e-02 5.246284604072570801e-02 -1.496646553277969360e-02 -4.669126123189926147e-02 1.801228150725364685e-03 1.050679460167884827e-01 -1.677690073847770691e-02 -7.310243695974349976e-02 -5.039976537227630615e-02 -1.502823531627655029e-01 1.927330344915390015e-02 4.069451242685317993e-02 9.274472296237945557e-02 6.914101541042327881e-02 1.568688079714775085e-02 1.100609917193651199e-02 -5.246071889996528625e-02 -1.100030839443206787e-01 -1.239836886525154114e-01 -4.503498971462249756e-02 -8.546679466962814331e-02 3.843386843800544739e-02 -2.294800058007240295e-02 3.482971340417861938e-02 -5.298627540469169617e-02 -1.414795517921447754e-01 1.003112643957138062e-01 -2.481075935065746307e-02 -7.385904341936111450e-02 -3.590851277112960815e-02 7.204273343086242676e-02 1.705226022750139236e-03 3.546237945556640625e-02 3.429815545678138733e-02 -5.830392614006996155e-02 2.460682094097137451e-01 -5.757383070886135101e-03 -7.408529520034790039e-02 -7.766887545585632324e-03 2.062022387981414795e-01 -5.700022727251052856e-02 -2.998088672757148743e-02 -3.171803057193756104e-02 -6.926381587982177734e-02 1.977392472326755524e-02 -8.451033383607864380e-02 -7.172008045017719269e-03 4.537403210997581482e-02 -4.635051265358924866e-02 2.320806086063385010e-01 9.374498575925827026e-02 -2.315686084330081940e-02 -8.144509047269821167e-03 -9.292776137590408325e-02 1.074164435267448425e-01 3.800785169005393982e-03 -7.038596272468566895e-02 -7.276291958987712860e-03 -1.674776524305343628e-02 -6.098586320877075195e-02 -2.266334183514118195e-02 8.536425232887268066e-02 -3.011141344904899597e-02 -8.997429162263870239e-03 1.324320137500762939e-01 -8.825410902500152588e-02 -6.706608925014734268e-03 2.419575750827789307e-01 1.167550161480903625e-01 1.439713984727859497e-01 3.871582075953483582e-02 5.814890936017036438e-02 -1.399164050817489624e-01 -1.231747344136238098e-01 1.869957149028778076e-02 8.775001019239425659e-02 -9.076674282550811768e-02 8.150056749582290649e-02 -1.491532009094953537e-02 9.495209902524948120e-02 1.557863503694534302e-01 3.572760522365570068e-02 5.407564714550971985e-02 -8.238703757524490356e-02 -6.532967090606689453e-02 6.965578347444534302e-02 1.309636887162923813e-02 -6.790459901094436646e-02 8.621202409267425537e-02 1.576444506645202637e-02 -1.298742927610874176e-02 -5.971235688775777817e-03 -8.952616900205612183e-02 1.341568529605865479e-01 -6.066992506384849548e-02 -8.041480183601379395e-02 1.612483263015747070e-01 -1.195146590471267700e-01 1.109508574008941650e-01 5.334540829062461853e-02 -5.910921841859817505e-03 -2.978758187964558601e-03 4.776774719357490540e-02 7.321462035179138184e-02 5.364946275949478149e-02 1.699703484773635864e-01 8.084379136562347412e-02 1.483682356774806976e-02 -4.175289068371057510e-03 1.007139608263969421e-01 -1.410310156643390656e-02 -3.872930258512496948e-02 -7.407403551042079926e-03 -6.980145722627639771e-02 6.749258190393447876e-02 6.048450246453285217e-02 1.406487170606851578e-02 7.462245225906372070e-02 1.744388975203037262e-02 2.750891260802745819e-03 -7.116015255451202393e-02 -1.122250035405158997e-02 4.460167512297630310e-02 8.402707427740097046e-02 9.898953139781951904e-02 -1.783466525375843048e-02 -5.553931370377540588e-02 -2.720431797206401825e-02 1.652865558862686157e-01 -2.683570608496665955e-02 4.061110690236091614e-02 8.410769701004028320e-02 -2.789672464132308960e-02 3.558520972728729248e-01 -4.124778136610984802e-02 4.814285784959793091e-02 1.350175403058528900e-02 7.572596520185470581e-02 1.710738688707351685e-01 -1.758063025772571564e-02 4.673719231504946947e-04 3.845592960715293884e-02 3.018082082271575928e-01 5.127922073006629944e-02 -4.014317691326141357e-02 1.603563129901885986e-02 -1.316681690514087677e-02 -4.955476522445678711e-02 -4.613688215613365173e-02 -3.684250265359878540e-02 -8.121304214000701904e-02 -4.061834514141082764e-02 -2.750346250832080841e-02 6.500846892595291138e-02 -8.326883427798748016e-03 7.336513698101043701e-02 -1.105289682745933533e-01 -1.030925065279006958e-01 -3.412564843893051147e-02 -1.065015271306037903e-01 8.335808664560317993e-02 -2.507157623767852783e-01 -6.056709587574005127e-02 -1.122284457087516785e-01 1.370100583881139755e-02 6.625987589359283447e-02 -8.421517908573150635e-02 2.714439034461975098e-01 1.181435585021972656e-02 2.919274941086769104e-02 -6.200329586863517761e-02 1.706399396061897278e-02 -3.226544335484504700e-02 -3.053286857903003693e-02 -1.710309833288192749e-02 -7.568795979022979736e-02 -9.688524156808853149e-02 6.473714485764503479e-03 -6.778646493330597878e-04 -7.174639031291007996e-03 -2.282361732795834541e-03 -4.252253472805023193e-02 8.608648180961608887e-02 2.860595472157001495e-02 6.754657626152038574e-02 -4.654269199818372726e-03 8.989153802394866943e-02 -6.764635443687438965e-02 -1.579628586769104004e-01 8.509179204702377319e-02 -5.380684509873390198e-02 4.178302362561225891e-02 -2.886022627353668213e-02 1.315424311906099319e-02 -8.449452370405197144e-02 -4.795984178781509399e-02 1.198061481118202209e-01 3.271409869194030762e-02 8.306024596095085144e-03 9.749675169587135315e-03 2.570883557200431824e-02 6.523057818412780762e-02 -5.284948274493217468e-02 -9.608767926692962646e-03 -7.105877250432968140e-02 3.488397225737571716e-02 9.756302833557128906e-02 -8.814150840044021606e-02 -2.312230020761489868e-01 -8.791608363389968872e-02 -2.710551954805850983e-02 2.943105995655059814e-03 -8.460696786642074585e-02 -1.312393695116043091e-02 -2.122064307332038879e-02 -6.943025439977645874e-02 1.739609614014625549e-02 -5.523313581943511963e-02 -7.896932959556579590e-02 -3.004522249102592468e-02 -4.208626691251993179e-03 6.746992468833923340e-02 4.712171852588653564e-02 6.752727925777435303e-02 -3.582856431603431702e-02 -2.112200669944286346e-02 5.704919248819351196e-02 -6.877373158931732178e-02 -6.240078806877136230e-02 2.843616902828216553e-02 -8.953566104173660278e-02 3.019685670733451843e-02 8.115155994892120361e-02 7.275895029306411743e-02 -1.369205582886934280e-02 1.142756175249814987e-02 9.816551208496093750e-02 -4.787563160061836243e-02 8.308875560760498047e-02 3.502571955323219299e-02 2.886886894702911377e-02 -8.328454196453094482e-02 -1.503569260239601135e-02 -5.414945259690284729e-02 4.116529226303100586e-02 6.560822576284408569e-02 2.331535069970414042e-04 4.593219459056854248e-01 3.941601142287254333e-02 2.089902609586715698e-01 -2.894897200167179108e-02 4.405960440635681152e-02 9.102102369070053101e-02 3.966650739312171936e-02 1.624339967966079712e-01 -2.887429855763912201e-02 5.896286293864250183e-02 -6.964896805584430695e-03 -4.769837856292724609e-02 8.231102675199508667e-02 8.101490885019302368e-02 -7.347930967807769775e-02 9.192823618650436401e-02 9.024126455187797546e-03 -7.314578443765640259e-02 8.102700114250183105e-03 1.387684643268585205e-01 -6.328643858432769775e-02 9.934818372130393982e-04 4.923273995518684387e-02 -2.335854806005954742e-02 9.811545163393020630e-02 -1.337860822677612305e-01 7.039244472980499268e-02 -1.510330755263566971e-02 9.227639436721801758e-02 6.933124270290136337e-03 -7.344435155391693115e-02 -3.865171968936920166e-02 5.571947433054447174e-03 -1.046944595873355865e-02 -2.928222157061100006e-02 6.796089559793472290e-02 3.835704643279314041e-03 8.964318782091140747e-02 -1.146901678293943405e-02 4.832386970520019531e-02 1.791119389235973358e-02 1.482043601572513580e-02 5.406327545642852783e-02 -4.981195926666259766e-02 -4.580465331673622131e-02 9.148437529802322388e-03 7.683065719902515411e-03 8.628620207309722900e-02 2.603496657684445381e-03 9.896638989448547363e-02 1.573352515697479248e-02 7.459164410829544067e-02 -2.797658927738666534e-02 -2.471220865845680237e-02 -4.821246117353439331e-02 1.066320091485977173e-01 -7.712875306606292725e-02 -1.953233033418655396e-02 1.329916343092918396e-02 1.933755725622177124e-02 -3.456688718870282173e-03 -2.985125966370105743e-02 5.316512659192085266e-02 -4.112270474433898926e-02 -5.652055889368057251e-02 5.824295431375503540e-02 9.083341807126998901e-02 1.127435639500617981e-02 -7.206065952777862549e-02 -3.380366787314414978e-02 2.701933309435844421e-02 2.827761322259902954e-02 8.138266205787658691e-02 -3.556522727012634277e-02 -6.060124933719635010e-02 2.176605165004730225e-02 -5.803806334733963013e-02 9.853975474834442139e-02 -4.861608892679214478e-02 -1.993346773087978363e-02 -2.120763622224330902e-02 2.046208828687667847e-02 5.200082436203956604e-02 9.938762523233890533e-03 -1.670350693166255951e-02 5.330356955528259277e-02 1.923443228006362915e-01 7.144318521022796631e-02 -5.004617571830749512e-02 -5.481854453682899475e-02 2.591434493660926819e-02 -3.881281614303588867e-02 2.359001636505126953e-01 -1.348591595888137817e-01 1.013257876038551331e-01 -8.595696091651916504e-02 5.971567239612340927e-03 -1.129962652921676636e-01 2.001158148050308228e-02 -4.704955592751502991e-02 -7.106707990169525146e-02 2.010919898748397827e-02 1.924273185431957245e-02 -4.509612545371055603e-02 1.198446303606033325e-01 -3.781402856111526489e-02 1.175666451454162598e-01 1.401285268366336823e-02 -6.195457652211189270e-02 3.979240544140338898e-03 9.008085727691650391e-02 -6.873081624507904053e-02 2.122411504387855530e-02 1.420540958642959595e-01 2.118334174156188965e-02 7.630038540810346603e-03 -1.153640598058700562e-01 -7.298537343740463257e-02 9.678490459918975830e-02 -8.912081271409988403e-02 1.227274015545845032e-01 6.202162504196166992e-01 2.640530765056610107e-01 3.015425428748130798e-02 1.260407567024230957e-01 -2.216101810336112976e-02 -1.629210636019706726e-02 1.400699019432067871e-01 9.073798358440399170e-02 -1.418204512447118759e-03 4.888131469488143921e-02 -1.451071351766586304e-01 8.759363740682601929e-02 2.748725377023220062e-02 -8.651540428400039673e-02 3.561498969793319702e-02 3.262498602271080017e-02 -3.940719738602638245e-02 1.047400534152984619e-01 9.907687455415725708e-02 7.620950341224670410e-01 -1.086733769625425339e-02 6.539320945739746094e-02 -6.492833048105239868e-02 -3.133029490709304810e-02 -3.787719085812568665e-02 2.805915474891662598e-02 -2.865783870220184326e-03 -6.351380050182342529e-02 1.901343762874603271e-01 1.545508950948715210e-02 6.196035817265510559e-02 4.208824411034584045e-02 -7.065597921609878540e-03 7.330866158008575439e-02 2.476476281881332397e-01 4.822617396712303162e-03 -1.312423776835203171e-02 -1.868034340441226959e-02 -1.168895289301872253e-01 6.165271624922752380e-02 -6.192209944128990173e-02 -1.912762038409709930e-02 -1.557333767414093018e-01 7.636406272649765015e-02 -5.695536732673645020e-02 -4.702809825539588928e-02 1.989113353192806244e-02 6.269647926092147827e-02 7.139485329389572144e-02 -8.814280852675437927e-03 -4.711088165640830994e-02 -1.323798000812530518e-01 -9.923649951815605164e-03 -5.027664452791213989e-02 8.622099459171295166e-02 -2.910207398235797882e-02 1.636653542518615723e-01 1.638999208807945251e-02 -1.336390059441328049e-02 4.564146101474761963e-01 -1.558502204716205597e-02 1.503311693668365479e-01 -5.527098104357719421e-02 9.319603443145751953e-02 -8.511834591627120972e-02 4.275917634367942810e-02 4.380196705460548401e-02 2.578561305999755859e-01 3.704085014760494232e-03 6.688120216131210327e-02 3.289287164807319641e-02 4.096976947039365768e-03 -3.813752904534339905e-02 -1.257053166627883911e-01 -9.063733369112014771e-02 1.381291747093200684e-01 6.299998611211776733e-02 -4.462848231196403503e-02 -3.209589049220085144e-02 7.578090298920869827e-03 -1.044011414051055908e-01 6.487451493740081787e-03 2.029693871736526489e-02 1.881150342524051666e-02 9.270175546407699585e-02 2.843434549868106842e-02 -1.217072606086730957e-01 -1.123423650860786438e-01 -4.994397610425949097e-02 -3.700011596083641052e-02 -2.836736850440502167e-02 3.236634656786918640e-02 8.381127566099166870e-02 -5.335385724902153015e-02 6.299922708421945572e-03 -3.465911746025085449e-02 -5.706049501895904541e-02 -2.329949662089347839e-02 5.579605326056480408e-02 -1.219443604350090027e-02 1.502522379159927368e-01 9.850664436817169189e-02 1.755039989948272705e-01 6.184806302189826965e-02 3.159899637103080750e-02 6.038000807166099548e-02 9.327569603919982910e-02 -2.648164518177509308e-02 -2.847998775541782379e-02 -5.048709362745285034e-02 1.075906828045845032e-01 -1.192594319581985474e-01 -4.344063997268676758e-02 5.169646069407463074e-02 6.772343814373016357e-02 1.066812947392463684e-01 -5.890093743801116943e-02 2.232346497476100922e-02 -1.226051300764083862e-01 1.759432721883058548e-03 -4.672887548804283142e-02 -8.503557741641998291e-02 -3.825935721397399902e-02 -9.279868006706237793e-02 2.662707865238189697e-02 -2.453660219907760620e-02 5.105818063020706177e-02 -2.931158989667892456e-02 -2.229220233857631683e-03 8.797680027782917023e-03 7.406245917081832886e-02 1.364746838808059692e-01 8.632853627204895020e-02 4.103616178035736084e-01 -2.332583302631974220e-03 -3.880243748426437378e-02 -3.078142404556274414e-01 -1.225172802805900574e-01 -1.356798596680164337e-02 5.148468539118766785e-02 2.395979613065719604e-01 -3.440063074231147766e-02 -2.105031907558441162e-01 -1.981415152549743652e-01 9.829315543174743652e-02 -5.709242448210716248e-02 8.302899450063705444e-02 1.743789389729499817e-02 -2.528798580169677734e-02 4.548216238617897034e-02 5.716042965650558472e-02 -4.246658645570278168e-03 7.112245261669158936e-02 4.932627198286354542e-04 2.066222280263900757e-01 -5.553859844803810120e-02 7.486128062009811401e-02 9.941749274730682373e-02 -7.352913916110992432e-02 -8.088064938783645630e-02 8.129434287548065186e-02 -1.052841767668724060e-01 -1.047100201249122620e-01 -5.093888565897941589e-02 -5.368057172745466232e-03 2.958272770047187805e-02 -2.291428111493587494e-02 7.706034928560256958e-02 -2.704862970858812332e-03 2.188828960061073303e-02 -2.449165284633636475e-02 7.512361556291580200e-02 -7.962960749864578247e-02 -5.911710113286972046e-02 -5.667389929294586182e-02 -3.938016667962074280e-02 1.980597712099552155e-02 -1.085932832211256027e-02 -2.150768972933292389e-02 3.685932606458663940e-02 1.546267699450254440e-02 1.048129051923751831e-01 -5.760529264807701111e-02 -4.899984970688819885e-02 3.484043478965759277e-02 7.535221427679061890e-02 4.535143971443176270e-01 -6.131533067673444748e-03 2.691549062728881836e-01 3.041177242994308472e-02 -8.028496801853179932e-02 2.183058559894561768e-01 -5.005871411412954330e-03 -1.041784733533859253e-01 -1.159947831183671951e-02 -8.179732598364353180e-03 7.292929291725158691e-02 2.789495140314102173e-02 -1.501994766294956207e-02 1.463375091552734375e-01 -7.911434024572372437e-02 3.301902115345001221e-02 1.908030956983566284e-01 -7.666017115116119385e-02 -6.184342876076698303e-02 -1.303513534367084503e-02 -4.239975288510322571e-02 -4.418919235467910767e-02 -1.071144477464258671e-03 -2.884066198021173477e-03 6.197384372353553772e-02 9.208273887634277344e-02 4.665683954954147339e-03 -1.782246530055999756e-01 5.175750702619552612e-02 -3.254512324929237366e-02 2.294818311929702759e-02 -8.329239487648010254e-02 5.234089493751525879e-02 2.622182713821530342e-03 -1.095941886305809021e-01 4.979609325528144836e-02 -2.942288815975189209e-01 -9.837438911199569702e-02 1.926350891590118408e-01 -8.077917248010635376e-02 2.163857407867908478e-02 1.864946819841861725e-02 7.477570325136184692e-02 7.879950106143951416e-02 3.173905909061431885e-01 7.805061340332031250e-02 -8.436750620603561401e-02 1.082810983061790466e-01 1.127744764089584351e-01 7.668344676494598389e-02 1.187983155250549316e-01 1.568470597267150879e-01 6.380125880241394043e-02 -8.696058392524719238e-02 2.938578091561794281e-02 -1.080053448677062988e-01 -2.259534783661365509e-02 -1.061192527413368225e-01 -8.964829146862030029e-02 7.919514924287796021e-02 -2.606800524517893791e-03 -6.025524809956550598e-02 -1.012180224061012268e-01 -6.989972293376922607e-02 1.052727550268173218e-01 -1.216661632061004639e-01 -9.724187664687633514e-03 -6.192325428128242493e-02 6.336323916912078857e-02 -2.055350877344608307e-02 -3.003058582544326782e-02 5.992862954735755920e-02 4.641239717602729797e-02 3.367722779512405396e-02 3.866963386535644531e-01 -5.557185970246791840e-03 1.078232899308204651e-01 4.934429004788398743e-02 4.353041760623455048e-03 -1.049820035696029663e-01 5.076984688639640808e-02 1.770318299531936646e-02 3.574550896883010864e-02 -2.310554124414920807e-02 3.051689825952053070e-02 -1.257293820381164551e-01 -9.680780582129955292e-03 4.855691641569137573e-02 3.574590384960174561e-01 -1.271543502807617188e-01 8.782880753278732300e-02 -5.965796485543251038e-02 -5.877965595573186874e-03 -3.730157017707824707e-02 -8.940650522708892822e-02 -5.521116778254508972e-02 -9.391156584024429321e-02 5.212942883372306824e-02 -6.413946300745010376e-02 2.233889885246753693e-02 -7.885442674160003662e-02 -1.192709896713495255e-02 -8.450379595160484314e-03 -4.686280339956283569e-02 -9.265203773975372314e-02 -1.217205077409744263e-01 -5.157178267836570740e-03 3.606171533465385437e-02 1.765997260808944702e-01 -4.146244842559099197e-03 4.579214751720428467e-02 -2.203907072544097900e-02 3.240513056516647339e-02 -7.474146783351898193e-02 -1.521693821996450424e-02 5.397357419133186340e-02 -9.482387453317642212e-02 -1.191697418689727783e-01 -1.824342273175716400e-02 -4.811532795429229736e-02 -5.889034643769264221e-02 6.327442079782485962e-02 4.967940226197242737e-02 2.540445029735565186e-01 -8.002457022666931152e-02 -9.605819359421730042e-03 -8.659447729587554932e-02 4.194703325629234314e-02 1.496237516403198242e-01 -5.566000938415527344e-02 2.325188182294368744e-02 1.861553755588829517e-03 -3.646181523799896240e-02 -1.027570590376853943e-01 6.262110918760299683e-02 -2.614894136786460876e-02 1.090190783143043518e-01 -2.614798769354820251e-02 4.618458449840545654e-02 -6.907230615615844727e-02 1.140749454498291016e-02 1.682301796972751617e-02 -8.185801655054092407e-02 -1.049323603510856628e-01 -3.170948103070259094e-02 -6.056917831301689148e-02 6.352538242936134338e-03 -3.675463423132896423e-02 8.285895735025405884e-02 3.372875750064849854e-01 -1.074177175760269165e-01 7.993219792842864990e-02 4.149877652525901794e-02 2.351892553269863129e-02 -8.512777090072631836e-02 -2.537649273872375488e-01 -2.423146367073059082e-02 -4.012660309672355652e-02 1.692564785480499268e-01 8.078327402472496033e-03 6.834350526332855225e-02 -7.663495372980833054e-03 5.536885582841932774e-04 6.439569592475891113e-02 -4.500968754291534424e-02 -9.166636317968368530e-02 -4.233289882540702820e-02 -1.008943188935518265e-02 5.236184969544410706e-02 -2.485847473144531250e-02 1.252146996557712555e-02 8.283746242523193359e-02 -4.185782745480537415e-02 9.021500498056411743e-02 1.295731589198112488e-02 3.923786059021949768e-02 4.083398357033729553e-02 -6.898960471153259277e-02 5.592648312449455261e-02 9.189832955598831177e-02 -3.341678902506828308e-02 -1.473896801471710205e-01 1.548325121402740479e-01 -8.485026657581329346e-02 1.819661259651184082e-02 4.025383666157722473e-02 5.515397340059280396e-02 7.276520133018493652e-02 2.785580977797508240e-02 -2.432292886078357697e-02 5.160840600728988647e-02 -2.708157300949096680e-01 -7.373066246509552002e-02 4.499323293566703796e-02 1.441038548946380615e-01 -9.220510721206665039e-02 -6.033286824822425842e-02 4.871116206049919128e-02 7.153770327568054199e-02 -1.184001192450523376e-02 2.946204692125320435e-02 1.498951110988855362e-02 1.514535397291183472e-01 3.890511393547058105e-02 2.539596147835254669e-02 -2.047406509518623352e-03 6.246852129697799683e-02 7.543338928371667862e-03 8.320496976375579834e-02 1.795228011906147003e-02 -9.668612480163574219e-02 5.805410072207450867e-02 -3.278943942859768867e-03 3.235624730587005615e-02 -3.154876455664634705e-02 6.341698765754699707e-02 8.985160966403782368e-04 3.268419951200485229e-02 4.471984691917896271e-03 -1.337083280086517334e-01 2.596884779632091522e-02 4.367790371179580688e-02 5.600158497691154480e-02 1.061889752745628357e-01 1.142530422657728195e-02 2.314291521906852722e-02 3.162757307291030884e-02 -4.721220210194587708e-02 1.454813927412033081e-01 1.115170046687126160e-01 -4.309800639748573303e-02 -9.290308505296707153e-02 -7.721840590238571167e-02 -3.988011181354522705e-02 -2.634948678314685822e-02 2.237041667103767395e-02 6.249249912798404694e-03 3.953141719102859497e-02 6.330254673957824707e-02 1.142896413803100586e-01 -7.970271259546279907e-02 2.874955534934997559e-02 4.413591697812080383e-02 2.527626696974039078e-03 -6.444285809993743896e-02 2.965690568089485168e-02 -3.679892281070351601e-03 -4.925119131803512573e-02 -4.855054616928100586e-02 5.914496630430221558e-02 -1.154035180807113647e-01 1.934121735394001007e-02 -7.699389010667800903e-02 7.733427733182907104e-02 3.849465865641832352e-04 5.534065142273902893e-02 1.248808205127716064e-02 -3.270068764686584473e-02 1.246894523501396179e-02 -4.743800312280654907e-02 -1.484679281711578369e-01 1.124470494687557220e-02 9.961575269699096680e-03 1.565616428852081299e-01 4.275305196642875671e-02 1.838483512401580811e-01 1.828920841217041016e-02 -5.428316816687583923e-02 -1.494810171425342560e-02 5.599932372570037842e-02 1.305047720670700073e-01 -1.277510542422533035e-02 2.439958229660987854e-02 -6.473306566476821899e-02 8.077034354209899902e-02 2.641938626766204834e-02 3.089802153408527374e-02 -1.490728557109832764e-01 -2.463251501321792603e-01 -8.088798820972442627e-02 -3.695065155625343323e-02 2.823903560638427734e-01 -1.450900882482528687e-01 -7.673685997724533081e-02 -3.228068584576249123e-03 3.154384717345237732e-02 -7.604545354843139648e-02 1.262583397328853607e-02 1.207360923290252686e-01 -4.287688434123992920e-02 3.032300807535648346e-02 5.166234448552131653e-02 7.182443886995315552e-02 7.476371526718139648e-02 1.182621419429779053e-01 8.953031897544860840e-02 -5.508687719702720642e-02 3.081035567447543144e-03 4.084417223930358887e-02 -4.899516329169273376e-02 -1.611451990902423859e-02 9.684152901172637939e-02 4.993236437439918518e-02 -2.724188007414340973e-02 2.035893872380256653e-02 -9.475046396255493164e-02 8.283937722444534302e-02 4.338639602065086365e-02 -3.319514542818069458e-02 1.106895431876182556e-01 -2.338832616806030273e-02 1.585525646805763245e-02 8.132403343915939331e-02 1.153671219944953918e-01 -1.647423952817916870e-01 -1.672989316284656525e-02 4.761759638786315918e-01 1.935395449399948120e-01 4.859504476189613342e-02 -4.502246528863906860e-02 -1.969261281192302704e-02 4.008466750383377075e-02 9.223145991563796997e-02 1.052209548652172089e-02 1.760033331811428070e-02 -1.581197790801525116e-02 1.068579554557800293e-01 -5.111020430922508240e-02 8.153674751520156860e-02 1.760440319776535034e-02 3.837238997220993042e-02 -8.358848839998245239e-02 -5.522671341896057129e-02 -3.073044680058956146e-02 -9.052629582583904266e-03 6.590215116739273071e-02 -7.260908186435699463e-02 -9.728182107210159302e-02 3.460552170872688293e-02 1.152922771871089935e-02 -2.234512194991111755e-02 -8.950319141149520874e-02 1.094447895884513855e-01 -2.430746518075466156e-02 4.755929112434387207e-03 7.233790308237075806e-02 1.027972530573606491e-02 -1.456241402775049210e-02 -8.914200961589813232e-02 4.718011245131492615e-02 1.790771447122097015e-02 1.587494462728500366e-01 -8.647757023572921753e-02 5.036195740103721619e-02 -1.031819079071283340e-02 9.781655669212341309e-02 -1.708288490772247314e-02
1.490449607372283936e-01 1.114623993635177612e-02 1.665586680173873901e-01 5.280172079801559448e-02 2.952850423753261566e-02 1.149509474635124207e-01 -7.950102537870407104e-02 9.449510276317596436e-02 -2.113189697265625000e-01 3.317879140377044678e-01 5.632031336426734924e-02 -1.246311739087104797e-01 1.182111054658889771e-01 3.302376344799995422e-02 -1.404859311878681183e-02 -4.136776328086853027e-01 -6.719692796468734741e-02 -1.643379628658294678e-01 -1.734953224658966064e-01 9.258117526769638062e-02 -5.166298244148492813e-03 -2.887103855609893799e-01 1.416500471532344818e-02 4.478903114795684814e-02 1.344204545021057129e-01 2.298356033861637115e-02 1.085704341530799866e-01 5.693524703383445740e-02 -2.984890341758728027e-01 -1.308547109365463257e-01 6.885657459497451782e-02 -3.446283563971519470e-02 8.454857766628265381e-02 7.006248831748962402e-02 3.789838030934333801e-02 -3.927763924002647400e-02 -7.959982007741928101e-02 1.086841449141502380e-01 8.983159810304641724e-02 -4.743163883686065674e-01 -5.101280659437179565e-02 3.573334589600563049e-02 1.306962370872497559e-01 4.819215089082717896e-02 1.344222724437713623e-01 1.022213473916053772e-01 -1.027164608240127563e-02 7.576625794172286987e-03 1.103375805541872978e-03 -4.578172415494918823e-02 -9.533338248729705811e-02 -1.123329773545265198e-01 -4.482738673686981201e-01 -2.134074084460735321e-02 -8.301664888858795166e-02 -3.606664240360260010e-01 1.439676806330680847e-02 -6.263574585318565369e-03 1.685970574617385864e-01 -6.689113378524780273e-01 8.935283869504928589e-02 -3.580998480319976807e-01 -7.042107731103897095e-02 2.668278664350509644e-02 -7.160837948322296143e-02 7.795036584138870239e-02 4.402296990156173706e-02 -4.835387319326400757e-02 -2.052013128995895386e-01 3.971756622195243835e-02 -1.391900777816772461e-01 -5.026463419198989868e-02 -2.074789255857467651e-01 -6.105328723788261414e-02 -4.007507860660552979e-02 5.168945714831352234e-02 -2.402275949716567993e-01 -7.353764027357101440e-02 -5.817961692810058594e-02 -3.666796982288360596e-01 -9.906842559576034546e-02 -8.223657310009002686e-02 1.390157151035964489e-03 -5.757607817649841309e-01 -6.203303113579750061e-02 8.880769461393356323e-02 -3.337679803371429443e-02 4.555048421025276184e-02 -2.214248478412628174e-02 1.117456927895545959e-01 -9.281382896006107330e-03 -1.054464057087898254e-01 -3.132802248001098633e-02 -1.861497312784194946e-01 4.793237149715423584e-02 1.291217356920242310e-01 -2.350030243396759033e-01 1.052913516759872437e-01 4.444988071918487549e-02 1.113487966358661652e-02 -6.456092000007629395e-01 -2.614087611436843872e-02 2.731008455157279968e-02 3.452129289507865906e-02 3.494361340999603271e-01 9.492584504187107086e-03 -1.496673583984375000e+00 6.696768105030059814e-02 -1.774151772260665894e-01 -1.447828561067581177e-01 -5.084357783198356628e-02 -5.593055114150047302e-02 -4.049643874168395996e-02 -9.689388424158096313e-02 -9.251439571380615234e-02 -1.016808971762657166e-01 1.204668954014778137e-01 -6.589919328689575195e-02 -7.845654338598251343e-02 -2.221142314374446869e-02 5.276872217655181885e-02 -7.589221000671386719e-02 -4.645237624645233154e-01 2.294753305613994598e-02 1.734267361462116241e-02 -1.393192075192928314e-02 -5.904212966561317444e-02 8.534695953130722046e-02 5.114451050758361816e-02 -3.601495325565338135e-01 -5.088867247104644775e-02 -5.965000391006469727e-01 5.933077260851860046e-02 -2.901778370141983032e-02 -1.057451888918876648e-01 6.878901273012161255e-02 9.482397884130477905e-02 7.428734749555587769e-02 9.988398849964141846e-02 -4.576443508267402649e-02 3.362544998526573181e-02 -3.046566247940063477e-02 -1.772965304553508759e-02 -1.623896136879920959e-02 -3.537670522928237915e-02 -2.059470489621162415e-02 -3.090341202914714813e-02 -9.110861457884311676e-03 5.895660519599914551e-01 1.151360496878623962e-01 9.840682893991470337e-02 -6.325192749500274658e-02 3.751510083675384521e-01 -6.559306383132934570e-02 2.320444583892822266e-02 -5.414722487330436707e-03 -1.511222869157791138e-01 4.837413504719734192e-02 -9.903416037559509277e-03 -9.379857033491134644e-02 -2.325585782527923584e-01 -8.686077594757080078e-02 -5.074667930603027344e-01 -5.081901699304580688e-02 -8.941160142421722412e-02 9.621614217758178711e-02 -3.003724478185176849e-02 8.727817982435226440e-02 -4.850385338068008423e-02 7.283601164817810059e-02 -7.252991944551467896e-02 1.012193337082862854e-01 1.663690619170665741e-02 3.111801482737064362e-02 -2.401643097400665283e-01 1.867135912179946899e-01 4.909520968794822693e-02 -3.756282851099967957e-02 7.466413825750350952e-02 5.181247740983963013e-02 3.285506367683410645e-02 2.122778147459030151e-01 7.306261360645294189e-02 8.056925982236862183e-02 -1.308851293288171291e-03 1.864800043404102325e-02 -5.945685505867004395e-02 -3.005398809909820557e-01 4.189461469650268555e-02 -1.197206508368253708e-02 -8.520027250051498413e-02 -2.247561141848564148e-02 -6.127914413809776306e-02 -3.137291669845581055e-01 -1.044659540057182312e-01 1.084284633398056030e-01 5.321680009365081787e-02 -6.560438871383666992e-02 1.047614961862564087e-01 3.335260599851608276e-02 -4.269463196396827698e-02 3.849101439118385315e-02 -2.870096862316131592e-01 1.561020612716674805e-01 5.921963229775428772e-02 -5.391214787960052490e-02 -3.536325991153717041e-01 -8.290229737758636475e-02 7.848618179559707642e-02 3.809827268123626709e-01 4.883770365267992020e-03 2.010123431682586670e-01 -8.098421990871429443e-02 -1.136450842022895813e-02 -1.613118946552276611e-01 7.013351470232009888e-02 -1.232171989977359772e-02 -5.562578141689300537e-02 -7.508324086666107178e-02 1.234788671135902405e-01 -1.012025624513626099e-01 1.339005529880523682e-01 1.073979586362838745e-01 3.026779973879456520e-03 7.244206964969635010e-02 -6.901550292968750000e-02 2.502584457397460938e-01 -5.748197063803672791e-02 -4.141072556376457214e-02 -9.215407073497772217e-02 7.720141112804412842e-02 1.555764228105545044e-01 -4.525138065218925476e-02 -4.013973101973533630e-02 7.341785728931427002e-02 6.390822678804397583e-02 -3.815711662173271179e-02 7.533635944128036499e-02 1.629408262670040131e-02 -7.977087050676345825e-02 -8.187592029571533203e-02 -7.222332805395126343e-02 -7.124493271112442017e-02 2.537400089204311371e-02 -7.420420646667480469e-02 -2.678025700151920319e-02 4.998196363449096680e-01 -6.067327689379453659e-03 -2.453538030385971069e-02 4.496693983674049377e-02 1.024036705493927002e-01 1.219624578952789307e-01 4.406573623418807983e-02 1.011925283819437027e-02 8.232863545417785645e-01 3.025727868080139160e-01 1.197590082883834839e-01 2.341083995997905731e-02 -1.221742555499076843e-01 -8.344626054167747498e-03 7.156487554311752319e-02 7.368014007806777954e-02 7.532949745655059814e-02 4.766587540507316589e-02 6.813667714595794678e-02 -6.236036866903305054e-02 -2.624161308631300926e-03 3.651616722345352173e-02 1.237613856792449951e-01 4.860600829124450684e-02 -5.680334568023681641e-02 -5.945106223225593567e-02 5.636547505855560303e-02 1.215156465768814087e-01 2.263516485691070557e-01 4.645960777997970581e-02 -9.258653223514556885e-02 -4.249682277441024780e-02 5.999971926212310791e-02 6.033602729439735413e-02 -4.469918459653854370e-02 6.861513853073120117e-02 3.813004121184349060e-02 6.288535147905349731e-02 6.478554755449295044e-02 1.077886894345283508e-01 4.767299164086580276e-03 -2.307523041963577271e-01 1.498285382986068726e-01 6.429092586040496826e-02 -3.182987123727798462e-02 1.304120104759931564e-02 8.041208982467651367e-02 4.344185441732406616e-02 -4.349536076188087463e-02 -8.349791914224624634e-02 -5.964270979166030884e-02 4.642050340771675110e-02 1.481748372316360474e-01 8.738919347524642944e-02 1.229458376765251160e-01 -9.076461195945739746e-02 -1.571013033390045166e-01 -9.564629197120666504e-02 -9.081101976335048676e-03 -4.692056030035018921e-02 -2.083617029711604118e-03 6.588625162839889526e-02 -7.785335648804903030e-03 3.002339899539947510e-01 -4.263471439480781555e-02 -8.070665597915649414e-02 2.668878063559532166e-02 9.451630711555480957e-02 3.585430085659027100e-01 -1.552898287773132324e-01 -4.147037118673324585e-02 -1.499788314104080200e-01 -2.187084220349788666e-02 -6.445688009262084961e-02 6.605649739503860474e-02 -1.192622780799865723e+00 3.222339786589145660e-03 -1.237069442868232727e-01 -7.050991058349609375e-02 -6.046156398952007294e-03 2.868630737066268921e-02 6.072558835148811340e-02 3.103469498455524445e-02 -6.943877041339874268e-02 7.434818148612976074e-02 8.211463689804077148e-03 -1.202496699988842010e-02 7.730471342802047729e-02 -1.251997649669647217e-01 5.426704883575439453e-01 -4.394484683871269226e-02 6.613620370626449585e-02 8.403366804122924805e-02 -2.682728767395019531e-01 3.323935344815254211e-02 4.896606504917144775e-02 -3.958328068256378174e-01 6.311487406492233276e-02 -4.726448282599449158e-02 -1.034695878624916077e-01 -5.530014634132385254e-03 -5.881254747509956360e-02 1.911160200834274292e-01 -4.976068157702684402e-03 -1.082901284098625183e-02 -4.298887774348258972e-02 -8.827228844165802002e-02 -8.446332067251205444e-02 5.536901205778121948e-02 1.475487370043992996e-03 -8.011530339717864990e-02 1.001292392611503601e-01 6.119544617831707001e-03 2.592573463916778564e-01 3.089323043823242188e-01 2.654155530035495758e-02 8.713361620903015137e-02 7.388142496347427368e-02 -1.142544485628604889e-02 -7.425700128078460693e-02 6.135770305991172791e-02 -8.283818140625953674e-03 -1.217603087425231934e-01 9.263099730014801025e-02 -3.944009542465209961e-02 7.622079551219940186e-02 -7.373222708702087402e-02 2.366077452898025513e-01 -1.283158212900161743e-01 5.249522998929023743e-02 6.904334574937820435e-02 -4.161224141716957092e-02 -4.424792900681495667e-02 -3.363831639289855957e-01 -1.213955879211425781e-02 -9.955016896128654480e-03 4.552868008613586426e-02 -5.624287128448486328e-01 1.447755843400955200e-02 -1.078468710184097290e-01 -4.095017015933990479e-01 2.815590798854827881e-02 -6.084075570106506348e-02 -1.596924364566802979e-01 5.842426791787147522e-02 -1.038229092955589294e-02 -9.433563053607940674e-02 -3.303570672869682312e-02 -4.103779327124357224e-03 -2.502539455890655518e-01 2.448609471321105957e-01 1.019049212336540222e-01 2.858107164502143860e-02 -3.676572442054748535e-01 5.488926172256469727e-02 -3.245099261403083801e-02 -2.418243139982223511e-02 -8.568055927753448486e-02 -1.503865607082843781e-02 -8.304871618747711182e-02 1.240221261978149414e-01 3.230034559965133667e-02 2.652521431446075439e-01 -1.805918514728546143e-01 1.746346242725849152e-02 -1.249157711863517761e-01 3.189259469509124756e-01 1.935477554798126221e-02 8.093354851007461548e-02 -2.671602368354797363e-02 3.582477867603302002e-01 1.662888973951339722e-01 -6.393431872129440308e-02 3.309000283479690552e-03 5.258691683411598206e-02 -2.765579149127006531e-02 9.556721150875091553e-02 -3.255471959710121155e-02 2.020267993211746216e-01 1.497780531644821167e-01 4.112673550844192505e-02 3.491791710257530212e-02 -1.015178021043539047e-02 1.744111627340316772e-01 -1.825466156005859375e-01 -2.958907047286629677e-03 3.197397664189338684e-02 -1.400000299327075481e-03 -2.075452059507369995e-01 2.102603018283843994e-01 2.149006724357604980e-01 -1.567436195909976959e-02 -1.861029118299484253e-02 6.529360543936491013e-04 1.956003159284591675e-01 -7.939352095127105713e-02 -6.895017623901367188e-02 -8.268205821514129639e-02 1.833206973969936371e-02 -1.359453946352005005e-01 7.639518380165100098e-02 9.403063356876373291e-02 -8.099756087176501751e-04 -7.060233503580093384e-02 2.668350934982299805e-02 1.102491840720176697e-02 3.195679783821105957e-01 -6.760634481906890869e-02 -1.839911937713623047e-02 -1.093693897128105164e-01 -4.110497981309890747e-02 -4.084735736250877380e-02 5.691221728920936584e-02 5.346390232443809509e-02 4.453164525330066681e-03 -5.364389717578887939e-02 -3.254483267664909363e-02 5.552649125456809998e-02 1.004624590277671814e-01 7.388826459646224976e-02 3.811464086174964905e-02 6.339545547962188721e-02 1.690361648797988892e-02 -6.567043066024780273e-02 9.080720692873001099e-02 -7.858770340681076050e-02 1.971878558397293091e-01 -3.186971545219421387e-01 -7.508789002895355225e-02 1.630151122808456421e-01 -9.706180542707443237e-02 -8.305650949478149414e-02 -2.956571877002716064e-01 1.933508738875389099e-02 -5.049645900726318359e-02 -2.429270744323730469e-02 -5.856975913047790527e-02 5.100732669234275818e-02 -2.814849317073822021e-01 -1.458778977394104004e-01 -5.896171927452087402e-01 6.418262422084808350e-02 -1.562825888395309448e-01 -7.906809449195861816e-02 7.484588027000427246e-02 -2.550521492958068848e-02 -3.233716487884521484e-01 9.443285316228866577e-02 -6.689809262752532959e-02 7.990784198045730591e-02 -2.156571000814437866e-01 1.179706752300262451e-01 1.510013788938522339e-01 -7.200246211141347885e-03 -6.092449426651000977e-01 3.496180102229118347e-02 -2.696471661329269409e-02 -2.344161085784435272e-02 8.243616670370101929e-02 -5.129387229681015015e-02 4.570874199271202087e-02 -6.964663267135620117e-01 -8.631078526377677917e-05 4.051259532570838928e-02 -2.209558337926864624e-02 6.728152185678482056e-02 -1.864319741725921631e-01 -5.937238037586212158e-02 -5.012036114931106567e-02 -2.423158288002014160e-02 1.833605915307998657e-01 -1.466557532548904419e-01 -1.858340762555599213e-02 2.675679698586463928e-02 -1.089908555150032043e-01 6.183005869388580322e-02 -7.852273061871528625e-03 4.466252326965332031e-01 -6.180487573146820068e-02 1.391194760799407959e-01 -4.008552134037017822e-01 -1.134485229849815369e-01 -2.182369232177734375e-01 -8.644243329763412476e-02 2.883077831938862801e-03 -7.145488262176513672e-02 -3.154504001140594482e-01 4.836994782090187073e-02 3.750258684158325195e-01 8.075617998838424683e-02 -6.684070825576782227e-02 8.846587501466274261e-03 -1.819103397428989410e-02 5.200751870870590210e-02 1.721880584955215454e-01 -4.817946255207061768e-02 1.178998872637748718e-01 -1.100109517574310303e-01 1.111799385398626328e-02 -1.168581843376159668e-01 1.856707222759723663e-02 -2.396433986723423004e-02 9.286949038505554199e-02 -2.901781499385833740e-01 1.096581444144248962e-01 6.113027036190032959e-02 -5.318987742066383362e-02 1.765433251857757568e-01 1.634720712900161743e-01 5.520817264914512634e-02 1.266903579235076904e-01 2.864813208580017090e-01 -9.880295395851135254e-02 5.664533749222755432e-02 -5.242341384291648865e-02 5.394561961293220520e-02 -1.343571115285158157e-02 8.277148753404617310e-02 -1.492562443017959595e-01 -1.456312537193298340e-01 1.178796067833900452e-01 7.034950703382492065e-02 1.315732747316360474e-01 3.166839107871055603e-02 -4.776979237794876099e-02 -9.938520193099975586e-02 1.332868188619613647e-01 7.183614652603864670e-03 -2.447409927845001221e-01 3.567646257579326630e-03 -4.184543341398239136e-02 3.701142966747283936e-02 -7.943564653396606445e-02 -1.436540782451629639e-01 -1.604537218809127808e-01 1.513343956321477890e-02 5.934650450944900513e-02 2.716648280620574951e-01 5.474253743886947632e-02 -6.351798772811889648e-02 3.466643020510673523e-02 1.470172107219696045e-01 6.024743244051933289e-02 -2.387817390263080597e-02 1.028860330581665039e+00 6.094612181186676025e-02 1.203712001442909241e-01 1.469530910253524780e-02 -1.559583246707916260e-01 4.564235731959342957e-02 5.267976969480514526e-02 -8.490838110446929932e-03 -1.869821101427078247e-01 -2.117278799414634705e-02 2.116657420992851257e-02 1.141933500766754150e-01 3.127388283610343933e-02 -7.726547867059707642e-02 2.281129658222198486e-01 -2.932927310466766357e-01 -4.713428318500518799e-01 4.928876087069511414e-02 4.464650526642799377e-02 -5.010735392570495605e-01 9.814778715372085571e-02 4.395759105682373047e-02 1.763180196285247803e-01 -1.312037110328674316e-01 -8.516907691955566406e-02 9.439881891012191772e-02 -1.116783618927001953e-01 -1.800109148025512695e-01 1.709040164947509766e+00 5.587826296687126160e-02 -1.045301649719476700e-02 -2.951326966285705566e-01 -8.096181154251098633e-01 -9.355944395065307617e-02 -2.305787988007068634e-02 7.889594882726669312e-02 1.262437924742698669e-02 -6.304114311933517456e-02 1.362965255975723267e-01 -7.895610481500625610e-02 2.161492407321929932e-02 5.443008616566658020e-02 -3.901582583785057068e-02 9.157802909612655640e-02 8.371698111295700073e-02 1.261386275291442871e-02 2.449231781065464020e-02 -3.550866544246673584e-01 -1.398217678070068359e-01 -1.229103356599807739e-01 -8.648611605167388916e-02 -1.985879987478256226e-02 3.650488704442977905e-02 -3.266787156462669373e-02 -6.431715190410614014e-02 1.295749749988317490e-02 6.023460254073143005e-02 2.272949665784835815e-01 1.213194336742162704e-02 -2.350338548421859741e-02 -3.852942585945129395e-02 -6.731733679771423340e-02 7.327242940664291382e-02 -2.427612990140914917e-02 -2.848972380161285400e-02 -1.085591763257980347e-01 -4.557046666741371155e-02 -2.606153860688209534e-02 3.047793507575988770e-01 6.845036149024963379e-02 2.760633639991283417e-02 -8.255270868539810181e-02 1.161133050918579102e-01 1.261556446552276611e-01 -7.657902240753173828e-01 2.664776742458343506e-01 -7.158652693033218384e-02 1.491575967520475388e-02 -5.434196069836616516e-02 -9.628123641014099121e-01 4.449250549077987671e-02 1.285018026828765869e-02 -2.660818696022033691e-01 -9.100611321628093719e-03 -1.458433151245117188e+00 -8.809697031974792480e-01 -2.155456990003585815e-01 -5.257490649819374084e-02 -1.706177555024623871e-02 3.333523124456405640e-02 -2.853332757949829102e-01 -1.203443668782711029e-02 -6.895314902067184448e-02 -4.297734424471855164e-02 2.229025214910507202e-02 -8.772711455821990967e-02 1.113188341259956360e-01 1.024094000458717346e-01 -8.319325000047683716e-02 -2.703171223402023315e-02 2.235838398337364197e-02 1.758006587624549866e-02 -9.342814795672893524e-03 4.746999964118003845e-02 -1.038188636302947998e-01 5.186283960938453674e-02 9.133700281381607056e-03 8.149918168783187866e-02 3.840719163417816162e-02 -1.541694998741149902e-01 2.171850390732288361e-02 3.160642459988594055e-02 1.366706043481826782e-01 1.444965600967407227e-01 -4.265055060386657715e-02 1.574794352054595947e-01 2.723311632871627808e-02 -1.059149131178855896e-01 3.138826414942741394e-02 3.360598161816596985e-02 1.807836741209030151e-01 7.867130637168884277e-02 3.659773468971252441e-01 9.315361827611923218e-02 -6.147156655788421631e-02 7.366255670785903931e-02 4.886664077639579773e-02 -3.167579770088195801e-01 -1.405126750469207764e-01 1.128389611840248108e-01 8.765497803688049316e-02 -2.411424368619918823e-02 -4.408120214939117432e-01 -8.291191607713699341e-02 -4.580348730087280273e-02 1.332331001758575439e-01 5.140494182705879211e-02 -7.703137397766113281e-02 -8.017817139625549316e-02 -1.624826900660991669e-02 -8.462879806756973267e-03 2.838396131992340088e-01 -8.238552510738372803e-02 8.782040327787399292e-03 -1.147202968597412109e+00 -7.423016428947448730e-02 -8.453808724880218506e-02 -6.895302236080169678e-02 -6.791394203901290894e-02 -1.191771328449249268e-01 2.448493055999279022e-02 -9.486918151378631592e-02 -5.391527712345123291e-02 1.903118938207626343e-02 -3.224444016814231873e-02 2.702135741710662842e-01 -2.370295673608779907e-01 1.943683996796607971e-02 1.834962517023086548e-02 -7.198631018400192261e-02 1.134828180074691772e-01 -5.006577074527740479e-02 -9.233588725328445435e-02 4.182340204715728760e-02 1.872914656996726990e-02 8.485693484544754028e-02 6.201411783695220947e-02 -1.578362584114074707e-01 4.013952612876892090e-02 3.744741529226303101e-02 -4.517769068479537964e-02 8.717131800949573517e-03 -1.177436336874961853e-01 -3.125812113285064697e-02 1.129751466214656830e-02 7.219488173723220825e-02 5.420378223061561584e-02 -2.957098744809627533e-02 2.182381041347980499e-02 -4.620974138379096985e-02 7.258071750402450562e-02 -1.832846924662590027e-02 7.048071175813674927e-02 -1.652500778436660767e-02 -2.784179151058197021e-02 7.852998375892639160e-02 -7.926772534847259521e-02 -3.628491982817649841e-02 2.372322045266628265e-02 -1.213901042938232422e-01 -6.061442568898200989e-02 -8.412522077560424805e-02 -2.903467975556850433e-02 2.983249723911285400e-03 -6.345645338296890259e-02 -1.149998754262924194e-01 -2.143166586756706238e-02 5.075409077107906342e-03 3.033200651407241821e-02 5.480588600039482117e-02 2.061093747615814209e-01 -9.118093550205230713e-02 -3.095963038504123688e-02 -3.324910253286361694e-02 5.216550827026367188e-01 -4.961231946945190430e-01 -6.101822108030319214e-02 -6.363344937562942505e-02 -1.150906383991241455e-01 -6.123968958854675293e-02 1.138504594564437866e-02 -1.440417766571044922e-02 -5.506269633769989014e-02 7.486911863088607788e-02 -2.612449228763580322e-01 -8.512345701456069946e-02 -1.500045694410800934e-02 -3.510747477412223816e-02 -2.113368548452854156e-02 -1.276990473270416260e-01 -5.123045295476913452e-02 -4.358809292316436768e-01 -4.481490328907966614e-02 1.362091302871704102e-01 2.467367984354496002e-02 3.217533603310585022e-02 -4.422255158424377441e-01 6.523150950670242310e-02 7.399196922779083252e-02 -1.428158432245254517e-01 -7.259957026690244675e-03 -4.580035433173179626e-02 -8.294906467199325562e-02 -4.914163798093795776e-02 -2.564037963747978210e-02 -2.816563472151756287e-02 -3.970334678888320923e-02 -1.968272924423217773e-01 8.505763858556747437e-02 8.567554876208305359e-03 -2.462494522333145142e-01 -1.333204954862594604e-01 2.917866967618465424e-02 -8.350184187293052673e-03 -2.323267161846160889e-01 1.678274720907211304e-01 3.411067426204681396e-01 1.869731396436691284e-02 -2.016392201185226440e-01 7.148010656237602234e-03 3.287873417139053345e-02 -6.104135513305664062e-01 2.815624512732028961e-02 6.900878250598907471e-02 5.585346370935440063e-02 -8.217409253120422363e-02 8.101879805326461792e-02 9.254335165023803711e-01 -6.486901640892028809e-02 7.050225976854562759e-03 -6.634387536905705929e-04 