8.197342045605182648e-03 1.005829125642776489e-01 5.170049145817756653e-02 1.098441109061241150e-01 1.033963710069656372e-01 -4.329845681786537170e-02 -4.876359552145004272e-02 8.162636309862136841e-03 -1.420311480760574341e-01 -1.154084876179695129e-01
1.036630794405937195e-01 4.329867660999298096e-02 -2.653462886810302734e-01 -4.399869218468666077e-02 -1.446253657341003418e-01 6.433052476495504379e-03 -1.045946329832077026e-01 6.340046972036361694e-02 -9.889294952154159546e-02 4.993956163525581360e-02
-1.447020322084426880e-01 1.317891329526901245e-01 -3.630758076906204224e-02 6.780467182397842407e-02 3.491758182644844055e-02 -2.046766579151153564e-01 9.963253140449523926e-02 1.915520429611206055e-02 -3.233209997415542603e-02 -1.572839468717575073e-01
-4.661366343498229980e-02 -1.701240986585617065e-02 -5.582717712968587875e-03 -8.212447166442871094e-02 -6.829927861690521240e-02 3.603675216436386108e-02 -5.279063060879707336e-02 -8.105667680501937866e-02 -2.293898724019527435e-02 -1.256245970726013184e-01
-5.916558578610420227e-02 -4.971651732921600342e-02 8.639186620712280273e-02 -5.833726748824119568e-02 -4.907656461000442505e-02 8.663385361433029175e-02 -7.208995521068572998e-02 5.725079402327537537e-02 4.782248660922050476e-02 6.382221728563308716e-02
-7.598774880170822144e-02 9.316424280405044556e-02 -8.208066225051879883e-02 -8.768200874328613281e-02 4.619536176323890686e-02 -1.380547732114791870e-01 6.697808951139450073e-02 -1.548836529254913330e-01 2.614886313676834106e-02 -5.788176134228706360e-02
-1.213648542761802673e-01 -8.596746250987052917e-03 -2.729733660817146301e-02 -1.051375716924667358e-01 5.845560505986213684e-02 -2.833549678325653076e-02 -5.110455304384231567e-02 -1.791527308523654938e-02 -7.417007815092802048e-03 8.370321989059448242e-02
7.253541052341461182e-02 -4.726228490471839905e-02 -1.607869192957878113e-02 -1.074510905891656876e-02 -1.087375953793525696e-01 -4.083031415939331055e-02 4.851355031132698059e-02 2.866326645016670227e-02 1.750239543616771698e-02 -4.818532615900039673e-02
3.353900462388992310e-02 -1.667405515909194946e-01 -8.178737014532089233e-02 -5.468700826168060303e-02 1.219132617115974426e-01 1.121696829795837402e-01 1.756003648042678833e-01 -9.754879027605056763e-02 8.735235035419464111e-02 -3.372304439544677734e-01
-1.250792145729064941e-01 -2.037642478942871094e+00 -7.033599913120269775e-02 -5.094934254884719849e-02 -1.724842637777328491e-01 -1.078398078680038452e-01 1.963631808757781982e-02 7.168181240558624268e-02 -1.369778811931610107e-01 -1.191957145929336548e-01
1.013604328036308289e-01 1.017550751566886902e-01 -1.321277115494012833e-02 2.038125135004520416e-02 -7.231420278549194336e-02 4.664063826203346252e-02 -8.916123956441879272e-02 -4.562852159142494202e-02 1.156890578567981720e-02 -4.100886359810829163e-02
-1.074116304516792297e-01 -9.374395012855529785e-02 -8.790111541748046875e-02 8.023940026760101318e-02 3.502415493130683899e-02 -8.677816949784755707e-03 3.315448760986328125e-02 -7.518567889928817749e-02 -1.635933965444564819e-01 -3.136537224054336548e-02
1.659238897264003754e-02 1.372999548912048340e-01 9.922305122017860413e-03 9.051217138767242432e-02 -2.730847299098968506e-01 -5.638526999973692000e-05 -1.933383047580718994e-01 5.412386730313301086e-02 -1.261572986841201782e-01 3.437563404440879822e-02
5.778573453426361084e-02 -1.025525406002998352e-01 -2.627281844615936279e-02 -7.744208723306655884e-02 -9.886285662651062012e-02 1.703611575067043304e-02 6.665261834859848022e-02 -6.070746108889579773e-02 4.676216747611761093e-03 5.996628850698471069e-02
-4.230582714080810547e-02 5.101103708148002625e-02 5.240561440587043762e-03 -6.111801601946353912e-03 3.032304532825946808e-02 -1.095468401908874512e-01 1.279575377702713013e-02 -4.653901979327201843e-02 -1.527660638093948364e-01 5.988445132970809937e-02
-3.435804694890975952e-02 -7.857292145490646362e-02 -7.085360586643218994e-02 -2.452357113361358643e-02 -6.350403279066085815e-02 1.758867315948009491e-02 2.971913516521453857e-01 4.366161301732063293e-02 -1.399657130241394043e-01 -6.664219498634338379e-02
-2.684077061712741852e-02 4.638481512665748596e-02 -4.163571074604988098e-02 -4.950622096657752991e-02 -8.520660549402236938e-02 4.469673708081245422e-02 1.451723128557205200e-01 2.158212289214134216e-02 -1.303898096084594727e-01 1.661900430917739868e-02
-2.483193390071392059e-02 4.254679754376411438e-02 -1.331418305635452271e-01 5.335616692900657654e-02 -1.451580226421356201e-01 1.492875069379806519e-01 -1.756020784378051758e-01 1.394655406475067139e-01 3.083717077970504761e-02 7.788889110088348389e-02
-3.659184277057647705e-02 -2.845976054668426514e-01 9.343498200178146362e-02 4.847535863518714905e-02 1.650593802332878113e-02 -6.660325080156326294e-02 3.351736441254615784e-02 -4.823524951934814453e+00 -1.077422797679901123e-01 -8.928348124027252197e-02
3.314427286386489868e-02 -8.158212900161743164e-02 -3.715362772345542908e-02 -1.015987992286682129e-01 -6.391664594411849976e-02 7.174930721521377563e-02 -5.696327891200780869e-03 8.349724113941192627e-02 2.743416279554367065e-02 -3.727739676833152771e-02
-3.763324320316314697e-01 4.177137836813926697e-02 1.179590970277786255e-01 -2.922636223956942558e-03 -6.663290411233901978e-02 -5.377010628581047058e-02 9.413092583417892456e-02 -1.939403126016259193e-03 -3.503786399960517883e-02 -3.355662920512259007e-04
-5.441097021102905273e-01 -2.703953981399536133e-01 9.514676406979560852e-03 5.281998589634895325e-02 5.133162438869476318e-02 1.389491856098175049e-01 3.706456720829010010e-02 -1.115378141403198242e-01 -4.923408105969429016e-02 -7.709851861000061035e-02
-6.722021847963333130e-02 1.075408328324556351e-02 -3.762308880686759949e-02 -8.996278792619705200e-02 -3.675859421491622925e-03 -4.299043118953704834e-02 -5.151709541678428650e-03 -8.110317401587963104e-03 -1.006751582026481628e-01 -1.202589422464370728e-01
3.302245214581489563e-02 -3.643556684255599976e-02 -3.524249792098999023e-02 4.925310611724853516e-02 -8.600820600986480713e-02 5.211616680026054382e-02 -6.431213766336441040e-02 -1.402834802865982056e-02 -5.431875120848417282e-03 -2.551429439336061478e-03
-9.784665703773498535e-02 7.423558831214904785e-02 -3.364749252796173096e-01 9.191975742578506470e-02 -7.582264952361583710e-04 7.487615942955017090e-02 -1.790330111980438232e-01 -1.676641963422298431e-02 -6.648706644773483276e-02 -3.405671566724777222e-02
-4.549381881952285767e-02 -8.413316681981086731e-03 -6.324896961450576782e-02 4.233105480670928955e-02 -6.797387264668941498e-03 -6.645420100539922714e-03 -2.710907533764839172e-02 1.690724119544029236e-02 8.287190459668636322e-03 8.956097066402435303e-02
-1.062238514423370361e-01 2.773400396108627319e-02 -5.450926721096038818e-03 -6.749750673770904541e-02 7.318250089883804321e-02 6.265612784773111343e-03 -2.542199194431304932e-01 4.005670174956321716e-02 -3.751068189740180969e-02 1.080420389771461487e-01
-1.807219833135604858e-01 -2.286902815103530884e-01 8.639102801680564880e-03 4.053743183612823486e-02 8.325077593326568604e-02 1.612383276224136353e-01 -5.739271044731140137e-01 1.442401409149169922e-01 1.093472316861152649e-01 2.171270996332168579e-01
5.276270583271980286e-02 1.524071674793958664e-02 1.157077103853225708e-01 8.039377629756927490e-03 -1.515230257064104080e-02 -4.778845235705375671e-03 2.529209479689598083e-02 1.709242463111877441e-01 -1.387501060962677002e-01 2.215732075273990631e-02
-6.164884939789772034e-02 -1.645085662603378296e-01 9.092824161052703857e-02 7.514505833387374878e-02 -6.857306230813264847e-03 -1.699764281511306763e-02 8.659550547599792480e-02 -1.165514290332794189e-01 -1.292750332504510880e-02 1.467206981033086777e-02
-5.000411719083786011e-02 7.768977433443069458e-03 3.368792682886123657e-02 -6.665378808975219727e-02 1.446860376745462418e-03 7.624427229166030884e-02 -7.123443484306335449e-02 1.064952742308378220e-02 -1.161836907267570496e-01 -1.872489042580127716e-02
-7.349172979593276978e-02 1.227359548211097717e-01 -3.422958552837371826e-01 -7.791955024003982544e-02 -2.993552386760711670e-02 1.107505783438682556e-01 -1.290952712297439575e-01 5.466322228312492371e-02 8.026940375566482544e-02 1.154398312792181969e-03
-4.315016791224479675e-02 -5.091325193643569946e-02 5.581937730312347412e-03 -7.920139282941818237e-02 -1.561156194657087326e-02 -3.891033679246902466e-02 -2.842489778995513916e-01 2.708850055932998657e-02 -5.604368448257446289e-02 -4.137053713202476501e-02
-1.069277301430702209e-01 -4.159766063094139099e-02 8.764741569757461548e-02 -2.523610368371009827e-02 1.089889332652091980e-01 -6.861558556556701660e-02 -3.716485202312469482e-02 5.913602188229560852e-02 4.675073921680450439e-02 1.478810608386993408e-01
-1.934698037803173065e-02 7.446771860122680664e-02 -1.954208128154277802e-02 7.176902145147323608e-02 1.338632591068744659e-02 -8.348944783210754395e-02 7.620282471179962158e-02 2.729589305818080902e-02 -2.467196621000766754e-02 1.109838206321001053e-02
6.184146180748939514e-02 -7.242510328069329262e-04 1.516446918249130249e-01 8.834623731672763824e-03 -2.648174464702606201e-01 1.091220304369926453e-01 -3.113778233528137207e-01 3.279450582340359688e-03 -5.368088837713003159e-03 -6.595928966999053955e-02
-3.605255484580993652e-02 3.563225269317626953e-02 -2.427630126476287842e-02 1.069903895258903503e-01 -6.330332159996032715e-02 4.135628044605255127e-02 1.609519124031066895e-01 1.284320559352636337e-02 -1.437533497810363770e-01 -2.398204058408737183e-02
5.748878791928291321e-02 -1.513986587524414062e-01 1.219485178589820862e-01 6.291121244430541992e-04 -3.934472799301147461e-02 -1.536843925714492798e-01 1.906377375125885010e-01 -2.798510789871215820e-01 4.294166713953018188e-02 -1.056544408202171326e-01
2.120696455240249634e-01 8.828926831483840942e-02 -1.936036795377731323e-01 2.251780033111572266e-02 6.361994892358779907e-02 -2.859706804156303406e-02 1.245448887348175049e-01 -2.078152149915695190e-01 -3.182344138622283936e-02 2.267895266413688660e-02
-8.017424494028091431e-02 3.587486594915390015e-02 -6.714629381895065308e-02 -1.818515919148921967e-02 2.034856081008911133e-01 -8.932980895042419434e-02 4.102255702018737793e-01 -7.510445266962051392e-02 -4.836302399635314941e-01 -7.440837472677230835e-02
-3.978493064641952515e-02 -5.347566679120063782e-03 3.359780833125114441e-02 -4.572227597236633301e-02 -7.620600517839193344e-03 2.308474294841289520e-02 6.935264915227890015e-02 -5.889185518026351929e-02 5.684363469481468201e-02 6.836237013339996338e-02
-7.029715925455093384e-02 8.351802825927734375e-02 4.535201564431190491e-02 -9.059666842222213745e-02 -2.989622391760349274e-02 -1.208380758762359619e-01 2.433573603630065918e-01 -1.404432803392410278e-01 1.886362731456756592e-01 -7.508254051208496094e-02
4.732035845518112183e-02 7.938440889120101929e-02 -9.680841118097305298e-02 4.093160107731819153e-02 6.041300017386674881e-03 -1.981807947158813477e-01 4.382506478577852249e-03 3.986599296331405640e-02 -8.887242525815963745e-02 5.944613367319107056e-02
5.126342922449111938e-02 -8.216920495033264160e-02 -2.903331816196441650e-02 9.784676879644393921e-02 -3.368458151817321777e-02 -2.535194857046008110e-03 -1.918599158525466919e-01 -1.653245538473129272e-01 -9.129763394594192505e-02 -7.664437592029571533e-02
-1.355418842285871506e-02 1.742151826620101929e-01 2.199630439281463623e-02 -9.277004748582839966e-02 5.119527876377105713e-02 -2.155906558036804199e-01 1.155819073319435120e-01 -3.693983703851699829e-02 -5.901296064257621765e-02 -4.677379876375198364e-02
-1.064533367753028870e-02 -2.832896262407302856e-02 -2.025391906499862671e-02 -7.857757061719894409e-02 -1.093778237700462341e-01 7.084979116916656494e-02 -4.723871126770973206e-02 -2.671411447227001190e-02 -1.279706135392189026e-02 1.230154559016227722e-02
-6.008289009332656860e-02 -3.028234094381332397e-02 -4.152096807956695557e-03 -3.983489423990249634e-02 -2.768339216709136963e-02 -6.354108452796936035e-02 -4.246924072504043579e-02 -1.950968801975250244e-02 -7.388338446617126465e-03 3.057943284511566162e-02
2.872624062001705170e-02 -7.666700333356857300e-02 1.117132138460874557e-02 -5.776404961943626404e-02 -9.029401093721389771e-02 8.952175825834274292e-02 -1.351476367563009262e-02 5.980051681399345398e-02 1.538043841719627380e-02 -6.978069990873336792e-02
-2.247714065015316010e-02 -7.756312936544418335e-02 5.080493912100791931e-02 -9.646141529083251953e-02 -8.926733583211898804e-02 -2.527187019586563110e-02 9.347317367792129517e-02 -1.430338062345981598e-02 -4.615671350620687008e-04 2.837978489696979523e-02
-1.240547150373458862e-01 6.044882908463478088e-02 2.438372187316417694e-02 6.968805938959121704e-02 -5.864363908767700195e-02 -6.010274216532707214e-02 -1.623355597257614136e-01 9.330073953606188297e-04 -6.105200946331024170e-02 3.297292161732912064e-03
2.327001094818115234e-02 -3.723936155438423157e-02 -4.324701428413391113e-02 4.642730951309204102e-02 -7.149778306484222412e-02 8.975593000650405884e-02 1.225030571222305298e-01 -3.919320553541183472e-02 -6.502676010131835938e-02 1.123633310198783875e-01
-1.075620427727699280e-01 -1.483580917119979858e-01 -2.853004038333892822e-01 -1.343256980180740356e-02 4.111834615468978882e-02 -1.469456255435943604e-01 -4.659323021769523621e-02 -4.608204960823059082e-02 -9.961400926113128662e-02 2.285431325435638428e-02
-9.601966291666030884e-02 -1.262059956789016724e-01 2.513107098639011383e-02 -1.302786543965339661e-02 1.631646901369094849e-01 2.436967194080352783e-02 2.228012084960937500e-01 -4.046764224767684937e-02 -3.075706064701080322e-01 -2.025453932583332062e-02
8.829763531684875488e-02 -9.298337996006011963e-02 -1.080593615770339966e-01 1.897452585399150848e-02 -1.092194914817810059e-01 -5.765919387340545654e-02 -1.165684759616851807e-01 -5.255495384335517883e-02 -1.017349436879158020e-01 -5.681881681084632874e-02
5.560928583145141602e-02 1.066850777715444565e-02 1.510848999023437500e-01 -5.753731355071067810e-02 1.087865903973579407e-01 1.175926774740219116e-01 6.883464753627777100e-02 -4.123381897807121277e-02 4.619161784648895264e-02 -2.999699302017688751e-02
1.088267266750335693e-01 9.736973792314529419e-02 -3.973674401640892029e-02 4.732993617653846741e-02 -3.532214032020419836e-04 -1.407653242349624634e-01 2.547469735145568848e-01 1.205903738737106323e-01 -6.901249289512634277e-02 -1.338540315628051758e-01
3.266658633947372437e-02 -1.755088269710540771e-01 1.230235621333122253e-01 4.421095550060272217e-02 -4.755454882979393005e-02 -7.521249353885650635e-02 -9.776771068572998047e-02 -1.458766590803861618e-02 1.578684300184249878e-01 1.072772219777107239e-02
-1.596822589635848999e-01 5.942852422595024109e-02 9.797452390193939209e-02 -7.382781058549880981e-02 1.394896805286407471e-01 -4.168783426284790039e-01 1.378469914197921753e-01 -4.395000338554382324e-01 1.378601640462875366e-01 -9.955447167158126831e-02
-3.518258631229400635e-01 -2.573690842837095261e-03 -1.833356320858001709e-01 -1.814812421798706055e-03 -3.278692960739135742e-01 2.764245867729187012e-02 -2.403103113174438477e-01 6.870300322771072388e-02 -2.099313288927078247e-01 -1.141195073723793030e-01
-2.615305483341217041e-01 -3.416040539741516113e-02 -1.276574730873107910e-01 -2.726291306316852570e-02 -5.778096318244934082e-01 1.310423165559768677e-01 -4.294060915708541870e-02 1.126623060554265976e-02 -1.499364823102951050e-01 1.170529872179031372e-01
7.558990269899368286e-02 1.425435394048690796e-01 -9.843905270099639893e-02 -7.856051623821258545e-02 -2.092368155717849731e-01 4.945211857557296753e-02 -8.953174203634262085e-02 1.965054869651794434e-01 -2.726134061813354492e-01 2.047481387853622437e-01
-6.067256256937980652e-02 -3.348842561244964600e-01 -5.520665273070335388e-02 5.437445640563964844e-02 1.434985101222991943e-01 1.451126933097839355e-01 9.790708869695663452e-02 -8.627552539110183716e-02 1.301038116216659546e-01 -5.448922514915466309e-02
-7.003746181726455688e-02 4.320510476827621460e-02 -2.837438695132732391e-02 1.779472455382347107e-02 6.984912604093551636e-02 -6.523609906435012817e-02 -4.674346745014190674e-02 1.440310105681419373e-02 -3.696735948324203491e-02 9.963235259056091309e-02
-3.695929795503616333e-02 -6.537728756666183472e-02 1.559406518936157227e-02 -4.994465410709381104e-02 -5.310087651014328003e-02 -2.496032230556011200e-02 2.853382565081119537e-02 -9.524308890104293823e-02 -5.288091953843832016e-03 -7.729560136795043945e-02
3.555054962635040283e-02 -8.600787818431854248e-02 3.124188166111707687e-03 -1.030423566699028015e-01 -7.849644124507904053e-02 8.692815899848937988e-03 6.190492212772369385e-02 4.628375172615051270e-03 2.663119509816169739e-02 9.322939813137054443e-02
8.708088845014572144e-02 -8.114608377218246460e-02 -8.384106308221817017e-02 -1.972788572311401367e-02 9.548000991344451904e-03 1.658108830451965332e-02 1.248678099364042282e-02 -1.576402038335800171e-02 -1.123100966215133667e-01 -4.789531603455543518e-02
4.090525209903717041e-02 -8.489587344229221344e-04 -7.033007591962814331e-02 5.207045003771781921e-02 3.929864987730979919e-02 -1.457920484244823456e-02 7.415583729743957520e-02 -1.059401705861091614e-01 -1.026342660188674927e-01 -1.523587666451931000e-02
-1.070319581776857376e-02 -2.515426576137542725e-01 -8.085842430591583252e-02 -5.891867727041244507e-02 1.345241218805313110e-01 1.158047020435333252e-01 1.305303573608398438e-01 -7.507964968681335449e-02 5.313234403729438782e-02 -3.386038541793823242e-01
1.255953162908554077e-01 -9.202860295772552490e-03 -9.807270765304565430e-02 4.559980332851409912e-02 -3.159067034721374512e-01 7.189618051052093506e-02 1.807917207479476929e-01 -2.418477088212966919e-02 1.773208007216453552e-02 -1.059938445687294006e-01
-7.661110907793045044e-02 -5.646154657006263733e-02 3.166605951264500618e-03 1.057791858911514282e-01 -5.626471713185310364e-02 3.518472425639629364e-03 -3.885573893785476685e-02 6.714403629302978516e-03 8.634727448225021362e-03 -8.228735066950321198e-03
1.323703825473785400e-01 -9.377612918615341187e-02 -7.359211798757314682e-03 -5.684021860361099243e-03 -3.366410359740257263e-02 -1.473489403724670410e-01 -1.666015535593032837e-01 -1.267026178538799286e-02 1.953260600566864014e-02 -2.349295839667320251e-02
-8.368223905563354492e-02 -9.656193107366561890e-02 2.432899177074432373e-02 -8.945232629776000977e-02 -4.678112268447875977e-02 7.015354000031948090e-03 -3.449112921953201294e-02 -3.078709244728088379e-01 -2.668251097202301025e-02 5.130835622549057007e-02
-1.068012788891792297e-01 -4.172923788428306580e-02 -2.549939453601837158e-01 -8.445238322019577026e-02 1.133868563920259476e-02 8.331924676895141602e-02 1.925347745418548584e-01 -1.033720523118972778e-01 -1.063816845417022705e-01 6.552461534738540649e-02
-1.797280274331569672e-02 8.355838246643543243e-03 -1.607175450772047043e-03 2.451071888208389282e-02 -9.063611179590225220e-02 -5.617325752973556519e-02 1.461985409259796143e-01 -6.469142390415072441e-04 -8.685103803873062134e-02 2.222705632448196411e-02
2.699801884591579437e-02 -2.707953937351703644e-02 5.637635290622711182e-02 -5.348071455955505371e-02 -1.657336950302124023e-01 1.981948129832744598e-02 5.198433995246887207e-02 -1.817796751856803894e-02 -1.526544094085693359e-01 -5.294041708111763000e-02
8.600810915231704712e-02 6.142921745777130127e-03 1.195355579257011414e-01 1.403518021106719971e-02 -1.665068864822387695e-01 6.900733802467584610e-03 -1.285711973905563354e-01 8.242214471101760864e-02 -5.751622468233108521e-02 1.277155894786119461e-02
-5.056368932127952576e-02 1.422002464532852173e-01 -1.596516370773315430e-01 3.345614299178123474e-02 -1.826404482126235962e-01 1.374976783990859985e-01 2.450961768627166748e-01 4.260936006903648376e-02 -1.198737770318984985e-01 -2.741548791527748108e-02
-3.175117075443267822e-02 1.167931780219078064e-02 -1.341150552034378052e-01 1.090586185455322266e-02 -1.465641707181930542e-01 8.930873125791549683e-02 9.079021215438842773e-02 9.291512519121170044e-02 -1.205036416649818420e-01 8.591177314519882202e-02
4.914587736129760742e-02 -8.468631654977798462e-03 -9.219674766063690186e-02 -2.860324457287788391e-02 -6.071916967630386353e-02 -3.158682584762573242e-01 1.430219411849975586e-01 8.715986460447311401e-02 -1.704770475625991821e-01 -2.541798632591962814e-03
2.184029370546340942e-01 1.981898397207260132e-02 -1.801039129495620728e-01 2.504613436758518219e-02 -2.516061067581176758e-03 -3.730377554893493652e-02 5.862734466791152954e-02 -2.235853224992752075e-01 -8.863155543804168701e-02 -7.859341055154800415e-02
-2.534520626068115234e-02 3.190264105796813965e-04 -7.873059064149856567e-02 -6.307892501354217529e-02 -9.283179789781570435e-02 -4.488481581211090088e-02 -1.635257899761199951e-02 4.523798823356628418e-02 2.080786228179931641e-02 2.595755457878112793e-02
3.197806328535079956e-02 -1.657687127590179443e-02 -2.109376937150955200e-01 8.782608807086944580e-02 6.587895750999450684e-02 -2.291154302656650543e-02 1.779822818934917450e-02 4.206230491399765015e-02 2.939631231129169464e-04 4.778886213898658752e-02
-3.408570960164070129e-02 -1.435609012842178345e-01 -5.982370674610137939e-02 1.058171838521957397e-01 -3.136839717626571655e-02 5.728254467248916626e-02 -2.987116873264312744e-01 -8.253318816423416138e-02 2.690975181758403778e-02 -1.302483975887298584e-01
1.260030716657638550e-01 8.656404912471771240e-02 -9.968753159046173096e-02 -4.062904417514801025e-02 -9.577621705830097198e-03 -2.172016650438308716e-01 1.934524774551391602e-01 1.088245287537574768e-01 -7.052365690469741821e-02 8.972095698118209839e-02
3.233383223414421082e-02 4.397513717412948608e-02 -4.099093377590179443e-02 4.697012528777122498e-02 -2.683677896857261658e-02 -4.079210385680198669e-02 -1.201591826975345612e-02 -7.363194972276687622e-02 -9.130693227052688599e-02 1.368940621614456177e-01
-6.250501424074172974e-02 -3.834365308284759521e-02 7.806289941072463989e-04 -5.113380961120128632e-03 -4.714854806661605835e-02 2.154191955924034119e-03 -1.738830469548702240e-02 5.559869483113288879e-02 -3.552240878343582153e-02 -8.268006891012191772e-02
7.395868003368377686e-02 9.188298881053924561e-02 -3.675338998436927795e-02 4.485085606575012207e-02 6.151827797293663025e-02 -2.872001007199287415e-02 1.979121267795562744e-01 -1.745887659490108490e-02 5.732044205069541931e-02 -2.082898654043674469e-02
1.159444674849510193e-01 -7.831168174743652344e-02 -1.041211858391761780e-01 -6.766912341117858887e-02 -2.321125566959381104e-01 -3.880102932453155518e-02 1.389682143926620483e-01 1.803941093385219574e-02 8.538982830941677094e-03 -8.376920223236083984e-02
-9.806269779801368713e-03 -4.898160696029663086e-02 -1.205839738249778748e-01 1.052675172686576843e-01 -1.386495381593704224e-01 1.299619860947132111e-02 1.496204882860183716e-01 2.892627008259296417e-02 -1.158398613333702087e-01 -5.285192281007766724e-02
1.475528813898563385e-02 -1.547697037458419800e-01 6.418999284505844116e-02 -1.837538182735443115e-02 -9.180854260921478271e-02 -1.671555936336517334e-01 2.842663526535034180e-01 2.654889822006225586e-01 6.192403286695480347e-02 2.078743129968643188e-01
2.197152674198150635e-01 4.119203239679336548e-02 -3.344128727912902832e-01 6.157182157039642334e-02 -7.252474129199981689e-02 -2.733074594289064407e-03 1.712151616811752319e-01 1.280517969280481339e-02 3.920185938477516174e-02 3.217735141515731812e-02
2.902305126190185547e-02 2.263715118169784546e-02 -3.376712277531623840e-02 1.474297605454921722e-02 1.987993158400058746e-02 2.924174442887306213e-02 2.116863727569580078e-01 -7.044124603271484375e-02 -1.276330798864364624e-01 -1.560344398021697998e-01
-5.287444964051246643e-02 4.335735365748405457e-02 -3.895726427435874939e-02 -1.481502782553434372e-02 -5.363500118255615234e-02 -5.014691501855850220e-02 -1.024596765637397766e-01 1.554814539849758148e-02 -1.579710096120834351e-02 -4.182785283774137497e-03
-4.597994312644004822e-02 1.099863573908805847e-01 7.925307005643844604e-02 -5.918476730585098267e-02 6.024857237935066223e-02 5.998133495450019836e-02 5.841732397675514221e-02 9.963676333427429199e-02 4.629568196833133698e-03 3.309836238622665405e-02
-3.053616546094417572e-02 4.041051492094993591e-02 1.742573827505111694e-02 1.769344508647918701e-02 -3.444524109363555908e-02 -5.581920966506004333e-02 -2.872535400092601776e-02 5.959123373031616211e-03 -1.876951605081558228e-01 3.992986306548118591e-02
-6.276684999465942383e-02 4.460154101252555847e-02 -8.092425763607025146e-02 -1.056711003184318542e-01 1.948661729693412781e-02 -9.878614544868469238e-02 6.173359602689743042e-02 -3.984172269701957703e-02 -1.931000798940658569e-01 -1.489813812077045441e-02
1.875818669795989990e-01 9.977113455533981323e-02 -1.691003143787384033e-01 9.707055985927581787e-03 -2.032491937279701233e-02 3.151626558974385262e-03 1.856198161840438843e-01 3.723013028502464294e-02 -1.264918688684701920e-02 -4.771961271762847900e-02
-2.322565019130706787e-02 4.127578809857368469e-02 -5.641927197575569153e-02 3.525281697511672974e-02 -6.418558210134506226e-02 -3.213371708989143372e-02 1.542105153203010559e-02 -4.981045611202716827e-03 4.588393494486808777e-02 3.289231657981872559e-02
-2.922293357551097870e-02 6.279690563678741455e-02 -7.498905062675476074e-02 1.095765158534049988e-01 -9.491939097642898560e-02 6.295233219861984253e-02 6.969362497329711914e-02 7.188224792480468750e-02 -1.129892170429229736e-01 7.354545593261718750e-02
-6.992167234420776367e-02 -3.825284913182258606e-02 1.574952714145183563e-02 -2.431569993495941162e-02 -3.252064436674118042e-02 -8.591362088918685913e-02 6.882212474010884762e-04 -1.652120053768157959e-02 -6.791419582441449165e-04 -1.132254954427480698e-02
-2.572618052363395691e-02 2.089521288871765137e-01 -1.635251045227050781e-01 -6.329580396413803101e-02 -3.601780533790588379e-01 -1.350661814212799072e-01 2.455025017261505127e-01 7.883521169424057007e-02 -9.471008926630020142e-02 6.640065461397171021e-02
2.903667278587818146e-02 -3.881303593516349792e-02 -9.189982898533344269e-03 -1.122122555971145630e-01 -5.156499519944190979e-02 -1.841329224407672882e-02 -2.371544390916824341e-02 -2.245977334678173065e-02 -4.074317961931228638e-02 1.620570546947419643e-03
-5.178447812795639038e-03 -5.429994314908981323e-03 -5.244848132133483887e-02 2.569555304944515228e-02 -4.011885076761245728e-02 -3.595233336091041565e-02 -1.327184736728668213e-01 -1.832391470670700073e-01 8.465567603707313538e-03 1.135807577520608902e-02
1.246105805039405823e-01 -1.527308076620101929e-01 -1.582359075546264648e-01 -4.421517625451087952e-02 4.409112967550754547e-03 -5.490900576114654541e-02 -1.580568850040435791e-01 2.423663139343261719e-01 1.379791460931301117e-02 1.248116344213485718e-01
-2.884394228458404541e-01 -6.059511378407478333e-02 2.727531455457210541e-02 -6.357093900442123413e-02 -4.614693820476531982e-01 -4.488243907690048218e-02 1.723015606403350830e-01 1.390907913446426392e-02 -6.132517009973526001e-02 -9.472415596246719360e-02
-5.687015596777200699e-03 7.004112936556339264e-03 -6.163102760910987854e-02 4.249206930398941040e-02 -8.762252330780029297e-02 -4.759368300437927246e-02 9.858497977256774902e-02 6.998818367719650269e-03 -2.368455566465854645e-02 7.646102458238601685e-02
2.335002422332763672e-01 -6.443827599287033081e-02 -9.540412575006484985e-02 -5.667960643768310547e-02 -1.783760190010070801e-01 2.273194305598735809e-02 3.411215916275978088e-02 2.169608920812606812e-01 -7.709210515022277832e-01 2.070252746343612671e-01
-9.887450933456420898e-02 -2.423045411705970764e-02 6.198013201355934143e-02 9.918823093175888062e-02 9.059029631316661835e-03 1.105429511517286301e-02 2.481931447982788086e-01 -1.655547916889190674e-01 -2.189682796597480774e-02 8.304089307785034180e-02
1.472198069095611572e-01 9.996850788593292236e-02 -1.411429643630981445e-01 9.553391486406326294e-02 -1.230314932763576508e-02 -3.538909181952476501e-02 -1.383271574974060059e+00 1.087659150362014771e-01 -1.657913997769355774e-02 -2.767765522003173828e-02
-4.036677628755569458e-02 -3.552441671490669250e-02 -1.381788495928049088e-02 -4.463900253176689148e-02 9.901219606399536133e-02 -5.838840082287788391e-02 1.960739940404891968e-01 2.808167040348052979e-02 -2.574704214930534363e-02 -2.370988577604293823e-01
-1.383523195981979370e-01 2.204175852239131927e-02 7.263978570699691772e-02 9.410116076469421387e-02 -8.789104968309402466e-02 1.616875827312469482e-02 -7.770471274852752686e-02 -2.579381689429283142e-02 -2.052174955606460571e-01 1.296572089195251465e-01
-4.131289198994636536e-03 3.795646131038665771e-02 -2.505101636052131653e-02 -6.378173828125000000e-02 1.255653565749526024e-03 -6.161012873053550720e-02 1.358688473701477051e-01 -6.490094587206840515e-03 -4.818715900182723999e-02 5.963248200714588165e-03
-2.842318266630172729e-02 -1.010114252567291260e-01 6.429851055145263672e-04 -6.378611177206039429e-02 -2.085105516016483307e-02 -5.416028201580047607e-02 -3.876467049121856689e-02 -1.888547837734222412e-02 7.548601180315017700e-02 -1.057053133845329285e-01
3.556069731712341309e-02 -9.610755741596221924e-02 2.821146324276924133e-02 2.621254324913024902e-02 -7.805003225803375244e-02 3.813472762703895569e-02 -6.748327612876892090e-02 1.707855165004730225e-01 1.250069737434387207e-01 1.186654046177864075e-01
3.832143917679786682e-02 -1.763346977531909943e-02 8.348748087882995605e-02 -1.046423539519309998e-01 -2.812729030847549438e-02 2.516792714595794678e-01 -8.888960629701614380e-02 1.601450331509113312e-02 1.702407747507095337e-02 -7.330622076988220215e-01
-5.639911070466041565e-02 3.288523852825164795e-02 -6.934487726539373398e-03 2.617739140987396240e-02 -4.402495920658111572e-02 -8.276411145925521851e-02 1.682013459503650665e-02 2.556272968649864197e-02 -8.719713985919952393e-02 7.461139559745788574e-02
1.934261918067932129e-01 -1.075413450598716736e-01 -3.618651926517486572e-01 -6.956108659505844116e-02 5.471576005220413208e-02 3.653033077716827393e-02 -7.664825022220611572e-02 -5.174744874238967896e-02 -1.784612536430358887e-01 9.787152707576751709e-02
1.752572134137153625e-02 1.551269441843032837e-01 -7.180396933108568192e-03 -1.519116666167974472e-02 -5.746204406023025513e-02 -1.178454831242561340e-01 -1.334514319896697998e-01 -2.044479846954345703e-01 1.228146702051162720e-01 -1.236949935555458069e-01
9.910528361797332764e-02 -1.025835052132606506e-01 -7.700739800930023193e-02 -6.056092679500579834e-02 3.618891816586256027e-03 -7.528524100780487061e-02 -1.600553840398788452e-02 4.662990570068359375e-03 4.983954504132270813e-02 -4.749079793691635132e-02
-1.010685227811336517e-03 4.791338741779327393e-02 -5.167387798428535461e-02 -4.647042974829673767e-02 3.207915276288986206e-02 -1.011946573853492737e-01 9.484682232141494751e-02 -8.997933007776737213e-03 -4.543082043528556824e-02 5.884676799178123474e-02
9.327626973390579224e-02 2.631720900535583496e-02 1.127313598990440369e-01 -2.150336466729640961e-02 -2.023210972547531128e-01 3.981998190283775330e-02 -6.419917196035385132e-02 -6.431228667497634888e-02 -3.099063038825988770e-02 -2.846343442797660828e-02
-5.997016653418540955e-02 -6.056536454707384109e-03 2.779922820627689362e-02 -4.121695458889007568e-02 3.069759532809257507e-02 5.139685422182083130e-02 1.320200134068727493e-02 -3.868749737739562988e-02 8.249339461326599121e-02 -5.438805371522903442e-02
-7.685321569442749023e-02 8.175217360258102417e-02 8.688182383775711060e-02 7.594655454158782959e-02 3.899717330932617188e-02 -8.314901031553745270e-03 2.500247582793235779e-02 1.780006438493728638e-01 1.196971386671066284e-01 -8.674437180161476135e-03
-9.224352240562438965e-02 6.521686166524887085e-02 1.037622150033712387e-02 1.710859127342700958e-02 5.663298070430755615e-02 5.912868306040763855e-02 -1.865679025650024414e-01 -1.327515952289104462e-02 4.447784647345542908e-02 -5.214674863964319229e-03
-1.092734038829803467e-01 1.385853141546249390e-01 5.799576640129089355e-02 -2.112827636301517487e-02 -1.780563294887542725e-01 -2.421833015978336334e-02 2.914468012750148773e-02 -1.719356700778007507e-02 6.816327571868896484e-02 3.346391394734382629e-02
1.969344913959503174e-03 -1.810957342386245728e-01 1.101087778806686401e-01 -9.004410356283187866e-02 -9.179827175103127956e-04 -1.026341319084167480e-01 2.442724108695983887e-01 -6.743631511926651001e-02 -1.866825073957443237e-01 2.813973724842071533e-01
7.913006097078323364e-02 2.317856810986995697e-02 4.411562532186508179e-02 4.106479510664939880e-02 -1.442998647689819336e-01 2.690193057060241699e-02 -1.468734443187713623e-01 2.207538038492202759e-01 5.823876336216926575e-02 1.311049461364746094e-01
1.379956305027008057e-02 -9.517237544059753418e-02 -1.005753967911005020e-02 8.063201606273651123e-02 1.810443960130214691e-02 5.048966407775878906e-02 3.336545825004577637e-02 -8.526161313056945801e-02 -1.218791399151086807e-02 -4.114469885826110840e-02
4.344585165381431580e-02 1.196119282394647598e-02 -3.568997606635093689e-02 9.267374873161315918e-02 -4.671451076865196228e-02 -9.107678197324275970e-03 -3.811792284250259399e-02 1.332484744489192963e-02 -1.314588934183120728e-01 4.206843674182891846e-02
5.969753861427307129e-02 -3.100476227700710297e-02 4.457715153694152832e-02 9.393874555826187134e-02 2.249652333557605743e-02 -7.494869828224182129e-02 2.750692963600158691e-01 1.366232633590698242e-01 -2.198684588074684143e-02 -4.016121849417686462e-03
1.559180915355682373e-01 -1.289905235171318054e-02 -3.266704082489013672e-01 9.037603437900543213e-02 -8.833174407482147217e-02 5.003213882446289062e-02 -3.766631335020065308e-02 -5.642480682581663132e-03 2.642410621047019958e-02 1.115258634090423584e-01
3.004912734031677246e-01 5.320490896701812744e-02 -3.646762371063232422e-01 -9.504447132349014282e-02 -1.399795711040496826e-01 -6.749864667654037476e-02 1.179911792278289795e-01 2.305963188409805298e-01 -5.414216518402099609e-01 2.214415371417999268e-01
-6.836342066526412964e-02 4.155227541923522949e-02 5.106575787067413330e-03 -1.113553494215011597e-01 3.036657534539699554e-02 -7.760064303874969482e-02 -1.106778234243392944e-01 -3.462004289031028748e-02 -1.072895377874374390e-01 6.536443531513214111e-02
2.462625503540039062e-02 -6.374923884868621826e-02 -4.211312532424926758e-02 -8.879621326923370361e-02 -2.723703533411026001e-02 -1.035594940185546875e-02 7.054150104522705078e-03 -9.881496429443359375e-02 -7.592430710792541504e-02 -2.652613818645477295e-02
1.484697014093399048e-01 -6.924626231193542480e-02 -2.002954334020614624e-01 3.644238412380218506e-02 -2.677331566810607910e-01 7.228925824165344238e-02 -8.000574260950088501e-02 2.251939848065376282e-02 -8.931118994951248169e-02 -5.627677217125892639e-02
-5.061902403831481934e-01 3.986844420433044434e-02 -2.968499064445495605e-01 7.987397909164428711e-02 -3.026615828275680542e-02 2.998407371342182159e-02 -2.121876180171966553e-02 -4.878306388854980469e-02 -1.444734483957290649e-01 -3.476076235529035330e-04
-1.660449504852294922e-01 -5.465798974037170410e-01 1.257192194461822510e-01 6.298689544200897217e-02 -6.615094095468521118e-02 2.506757900118827820e-02 2.398446351289749146e-01 -3.060046397149562836e-02 -2.841601334512233734e-02 -6.062971800565719604e-02
-1.770332455635070801e-04 -8.296056091785430908e-02 -3.762863576412200928e-03 4.793688654899597168e-02 -8.713359385728836060e-02 -5.039049685001373291e-02 -1.994149386882781982e-02 -6.975530087947845459e-02 -9.471981227397918701e-02 -6.369501352310180664e-04
-1.281248629093170166e-01 -5.998395755887031555e-02 4.267403483390808105e-02 2.969326265156269073e-02 -2.599841356277465820e-01 -4.466845840215682983e-02 6.438027322292327881e-02 -5.435097962617874146e-02 -4.614166542887687683e-02 4.650849848985671997e-02
-1.233307421207427979e-01 8.833708241581916809e-03 2.075546048581600189e-02 -4.961713775992393494e-02 -3.744874894618988037e-02 -1.462589204311370850e-01 2.282718196511268616e-02 1.279386784881353378e-02 -1.775742322206497192e-01 -1.618560403585433960e-02
9.293773770332336426e-02 -6.124318018555641174e-02 -4.557802528142929077e-02 -7.904024422168731689e-02 9.104365855455398560e-02 -5.461792275309562683e-02 1.030935123562812805e-01 -4.328873753547668457e-02 7.122316211462020874e-02 1.548381298780441284e-01
6.324703991413116455e-02 -2.178767509758472443e-02 -9.595047682523727417e-02 -5.332239344716072083e-02 4.844857007265090942e-02 -9.633390605449676514e-02 -2.154745161533355713e-03 -7.519797980785369873e-02 -6.745935976505279541e-02 -5.114915966987609863e-02
8.699029684066772461e-03 6.102960929274559021e-02 -3.680682182312011719e-02 -1.928897015750408173e-02 9.718284755945205688e-02 -2.076176740229129791e-02 1.657813973724842072e-02 -4.635579884052276611e-02 -7.756126672029495239e-02 6.734085828065872192e-02
-8.938985317945480347e-02 1.180917955935001373e-02 -2.016616286709904671e-03 -2.838415466248989105e-02 3.264725208282470703e-02 -3.056241385638713837e-02 -6.398722529411315918e-02 -1.747606247663497925e-01 -6.330090016126632690e-02 9.386077523231506348e-02
-9.591406583786010742e-02 -6.022297777235507965e-03 -4.736427068710327148e-01 -1.061659753322601318e-01 -1.586980372667312622e-01 9.223437868058681488e-03 8.676395565271377563e-02 3.778399899601936340e-02 -5.670647695660591125e-02 -1.150440350174903870e-01
-2.935224175453186035e-01 -5.887802224606275558e-03 6.672696769237518311e-02 -1.396614685654640198e-02 -7.641826570034027100e-02 -2.989463806152343750e-01 2.880805134773254395e-01 -1.073673218488693237e-01 4.883775487542152405e-02 -1.523971278220415115e-02
-9.980967640876770020e-02 9.587506204843521118e-02 3.634498268365859985e-02 -2.256492711603641510e-02 9.893453121185302734e-02 -5.154257640242576599e-02 -8.245500177145004272e-02 -9.256525663658976555e-04 -9.958750009536743164e-02 -2.802430689334869385e-01
-2.703336998820304871e-02 6.084859743714332581e-02 -6.523135304450988770e-02 7.253773510456085205e-02 3.255574032664299011e-02 3.078512102365493774e-02 -6.305715441703796387e-02 -4.289673641324043274e-02 9.437788277864456177e-03 -1.593102514743804932e-02
1.576482355594635010e-01 4.265896603465080261e-02 -1.156004816293716431e-01 -7.869117707014083862e-02 -6.515195965766906738e-02 -2.141236960887908936e-01 3.232190310955047607e-01 -2.623142242431640625e+00 -1.479705125093460083e-01 -1.852716952562332153e-01
9.005098044872283936e-02 -1.006368100643157959e-01 -3.625628948211669922e-01 -8.623242378234863281e-02 -3.471772372722625732e-01 -1.188283711671829224e-01 -1.079640761017799377e-01 -3.531344980001449585e-02 1.841221451759338379e-01 5.446043610572814941e-02
-3.539737313985824585e-02 -5.773474648594856262e-02 -6.069871038198471069e-02 -2.322465181350708008e-02 -4.048945382237434387e-03 1.030258089303970337e-01 -8.458498120307922363e-02 1.128457859158515930e-01 -4.529238212853670120e-03 1.606097631156444550e-02
-9.859189391136169434e-03 -8.205050975084304810e-02 -8.661248534917831421e-02 -3.423711657524108887e-02 -6.549917161464691162e-02 -5.449016019701957703e-02 4.989355802536010742e-04 2.770981192588806152e-02 -9.286048263311386108e-02 6.414252519607543945e-02
1.467649638652801514e-01 5.628966912627220154e-02 -6.265553832054138184e-02 7.990127056837081909e-02 -5.302087217569351196e-02 4.473366960883140564e-02 -1.019454672932624817e-01 4.140120465308427811e-03 -1.895222514867782593e-01 -1.088679581880569458e-01
2.618679404258728027e-02 -3.553345799446105957e-03 -3.332055360078811646e-02 -1.598100364208221436e-02 -5.578413233160972595e-02 2.065028250217437744e-02 -7.179501652717590332e-02 -9.877929091453552246e-02 -8.196461200714111328e-02 -1.334010064601898193e-02
2.223711088299751282e-02 1.517519354820251465e-03 -3.818629682064056396e-02 1.063091531395912170e-01 -4.403078556060791016e-02 6.400100886821746826e-02 -1.147417873144149780e-01 1.287294924259185791e-02 -8.102599531412124634e-03 -3.310495615005493164e-02
-5.011816322803497314e-02 -2.812310159206390381e-01 3.836144506931304932e-02 5.566516891121864319e-02 -1.696458458900451660e-02 1.382193714380264282e-01 1.933194249868392944e-01 8.009076863527297974e-02 4.181785508990287781e-03 -4.166991263628005981e-02
-1.284949034452438354e-01 -6.050003170967102051e-01 -1.027545571327209473e+00 9.835784137248992920e-02 1.711492985486984253e-01 -3.804989159107208252e-02 -1.056756544858217239e-02 -5.410033091902732849e-02 -4.953557625412940979e-02 1.083976924419403076e-01
-3.373005688190460205e-01 -4.176021218299865723e-01 2.097362466156482697e-02 -6.240242719650268555e-02 2.628604173660278320e-01 -6.217235922813415527e-01 -1.012204289436340332e+00 -4.633302986621856689e-01 1.117532625794410706e-01 -9.690591692924499512e-02
-4.696042835712432861e-02 2.512027323246002197e-02 -1.484197378158569336e-02 6.216672062873840332e-02 5.515275895595550537e-02 -1.024176999926567078e-01 -7.786027342081069946e-02 -1.401451975107192993e-02 -3.141026943922042847e-02 2.299012243747711182e-02
-6.848299503326416016e-02 -3.508627414703369141e-02 -6.871566176414489746e-03 -4.453221708536148071e-02 -7.490767538547515869e-02 2.994047850370407104e-02 -6.756836548447608948e-03 -4.613857716321945190e-02 6.903591006994247437e-02 8.342805504798889160e-02
1.302717160433530807e-02 9.608168900012969971e-02 1.021936088800430298e-01 8.904683589935302734e-02 1.023678854107856750e-01 9.568795561790466309e-02 1.815930455923080444e-01 -1.296411305665969849e-01 -1.505977213382720947e-01 -3.506959676742553711e-01
-7.744158804416656494e-02 -8.667186647653579712e-02 9.462386369705200195e-04 3.558921813964843750e-02 1.360365748405456543e-02 -2.283145487308502197e-02 1.348770409822463989e-02 6.329138576984405518e-02 -8.241334557533264160e-02 2.293823659420013428e-02
-3.537180647253990173e-02 1.689530313014984131e-01 -1.228539086878299713e-02 -5.721347033977508545e-02 -3.047721683979034424e-01 5.087920278310775757e-02 1.598251163959503174e-01 -7.088866829872131348e-02 -9.337136894464492798e-02 -3.069811128079891205e-02
-8.567646145820617676e-02 2.713976800441741943e-02 -4.861101508140563965e-02 7.497632503509521484e-02 6.125803291797637939e-02 -7.120268046855926514e-02 -4.595571756362915039e-02 -6.513674557209014893e-02 -1.035260632634162903e-01 -8.214555680751800537e-03
5.807280912995338440e-02 -6.738072633743286133e-02 -2.164885774254798889e-02 -5.397943779826164246e-02 -9.008864313364028931e-02 9.774623066186904907e-02 -2.045669257640838623e-01 -2.256063073873519897e-01 -3.704188764095306396e-02 -6.853005290031433105e-02
-5.197770893573760986e-03 3.135312290396541357e-04 1.924152486026287079e-02 3.591088578104972839e-02 -8.141042664647102356e-03 -4.242849722504615784e-02 -3.180450946092605591e-02 -7.761646807193756104e-02 -3.112735971808433533e-02 -1.181553602218627930e-01
-4.366575926542282104e-02 6.934645771980285645e-02 -2.239711815491318703e-03 9.570265561342239380e-02 -2.588945254683494568e-02 -3.107955679297447205e-02 1.096059195697307587e-02 -2.933790348470211029e-02 -2.463566325604915619e-02 5.150454118847846985e-02
-4.381861686706542969e-01 1.539210081100463867e-01 -3.415871262550354004e-01 -9.274432063102722168e-02 9.926564246416091919e-02 -1.741828024387359619e-02 -2.598058432340621948e-02 -3.188334777951240540e-02 -1.028008610010147095e-01 3.423866257071495056e-02
7.626763079315423965e-03 9.448352269828319550e-03 -7.954416796565055847e-03 4.155795276165008545e-02 -8.026317507028579712e-02 1.629615388810634613e-02 -1.296309232711791992e-01 3.047718293964862823e-02 6.807485967874526978e-02 5.748868919909000397e-03
-8.310730010271072388e-02 -6.876819580793380737e-02 -2.075091376900672913e-02 5.420045182108879089e-02 -1.085780635476112366e-01 3.151934593915939331e-03 2.303660288453102112e-02 -1.464331429451704025e-02 -5.597895011305809021e-03 6.294726580381393433e-02
-1.146551519632339478e-01 6.368035823106765747e-02 -5.554995313286781311e-02 8.421858400106430054e-02 -1.351155787706375122e-01 2.954743057489395142e-02 2.155706845223903656e-02 -3.250005468726158142e-02 -7.649043947458267212e-02 -2.274608425796031952e-02
2.973042428493499756e-02 -4.085636138916015625e-02 -5.223150923848152161e-02 9.357115626335144043e-02 3.949604928493499756e-03 -1.067783683538436890e-01 -3.874991834163665771e-02 1.065772771835327148e-02 -8.479114621877670288e-02 -8.198945224285125732e-02
-8.774992078542709351e-02 3.535018116235733032e-02 4.881933704018592834e-02 8.725486695766448975e-03 -5.794582515954971313e-02 -7.391165941953659058e-02 5.512437596917152405e-02 -4.397131502628326416e-03 3.374567627906799316e-02 7.416573166847229004e-02
1.442492008209228516e-03 -6.936503946781158447e-02 -2.424388378858566284e-02 -6.511224806308746338e-02 -6.667006015777587891e-02 -7.308209780603647232e-03 -4.476355761289596558e-02 3.915807604789733887e-02 6.202422827482223511e-02 -1.052279546856880188e-01
-6.615406274795532227e-02 -2.822560630738735199e-02 -5.746906995773315430e-01 -5.245744809508323669e-02 -1.771696805953979492e-01 -8.373270928859710693e-02 4.785372614860534668e-01 1.224742457270622253e-01 1.089034751057624817e-01 5.116035416722297668e-02
9.131164103746414185e-02 -1.423155069351196289e-01 -7.809200882911682129e-01 -2.274911105632781982e-02 -5.787926539778709412e-02 -8.652409911155700684e-02 -2.991076372563838959e-02 2.210978567600250244e-01 8.835997432470321655e-02 4.160288348793983459e-02
3.710781037807464600e-01 -2.002100050449371338e-01 -3.344258069992065430e-01 -1.553922891616821289e-03 -7.343902438879013062e-02 2.238194793462753296e-01 -4.241958558559417725e-01 1.991382390260696411e-01 1.205887794494628906e-01 4.014155268669128418e-02
5.789722129702568054e-02 -2.011379748582839966e-01 3.672570362687110901e-02 -3.789572790265083313e-02 -1.857964843511581421e-01 1.180676147341728210e-01 1.771323233842849731e-01 -1.671295017004013062e-01 1.072086626663804054e-03 1.263431739062070847e-02
-2.727551013231277466e-02 -1.914161443710327148e-02 -6.541412323713302612e-02 -8.069206029176712036e-02 -3.313045948743820190e-02 2.709074318408966064e-02 9.578150510787963867e-02 -1.070235893130302429e-01 -5.626633018255233765e-02 -1.013859510421752930e-01
1.297962944954633713e-02 -3.583191707730293274e-02 -7.257311791181564331e-02 -2.332067117094993591e-02 7.230579107999801636e-02 -2.010892927646636963e-01 3.345954716205596924e-01 -2.023259699344635010e-01 6.310989707708358765e-02 -3.352746367454528809e-02
-1.475785486400127411e-02 -1.248948797583580017e-01 6.853815168142318726e-02 3.211498260498046875e-02 -1.722337305545806885e-01 7.557682693004608154e-02 -9.065973013639450073e-02 -1.344711333513259888e-02 -2.827129065990447998e-01 -5.192815884947776794e-02
1.356468796730041504e-01 6.660402566194534302e-02 -4.316709563136100769e-02 4.588452354073524475e-02 4.816528782248497009e-02 1.989909447729587555e-03 9.073585271835327148e-02 -1.143659949302673340e-01 -1.233432590961456299e-01 1.254315581172704697e-02
1.080225631594657898e-01 -1.815757155418395996e-01 1.315313740633428097e-03 7.682551443576812744e-02 2.555077373981475830e-01 -2.241067588329315186e-01 1.372978440485894680e-03 -3.018395006656646729e-01 -3.071722947061061859e-02 -1.058190912008285522e-01
9.593333117663860321e-03 -5.113827064633369446e-02 2.434451691806316376e-02 1.042002141475677490e-01 -7.029461115598678589e-02 -1.143179610371589661e-01 -3.629171475768089294e-02 1.277380734682083130e-01 -2.562768012285232544e-02 3.776143305003643036e-03
-1.196377426385879517e-01 4.268293827772140503e-02 -1.375805586576461792e-02 -5.593336746096611023e-02 -6.653344631195068359e-02 -4.483722150325775146e-02 -8.655006438493728638e-02 -1.604378037154674530e-02 6.628456059843301773e-03 1.354979351162910461e-02
-1.744830608367919922e-02 -1.075746417045593262e-01 -7.359040528535842896e-02 -1.391602307558059692e-02 -7.374514639377593994e-02 -1.016099601984024048e-01 -1.459536422044038773e-02 -6.228658184409141541e-02 -1.410737782716751099e-01 9.661043435335159302e-02
5.248412489891052246e-02 -5.776534602046012878e-02 -6.032790243625640869e-02 -2.087751589715480804e-02 4.476955160498619080e-02 8.046358823776245117e-02 1.142672002315521240e-01 1.255524009466171265e-01 -1.026657670736312866e-01 7.447644323110580444e-02
1.148865558207035065e-02 -5.945578683167695999e-03 1.523696584627032280e-03 1.119137555360794067e-02 -5.414684861898422241e-02 1.617488265037536621e-01 -2.729506231844425201e-02 5.708585679531097412e-02 1.782493144273757935e-01 2.026867866516113281e-02
-1.176884956657886505e-02 -4.948253929615020752e-02 9.821578860282897949e-04 -4.333744570612907410e-02 -1.691373065114021301e-02 -3.608164936304092407e-02 4.049777984619140625e-02 7.013197522610425949e-03 -4.772747308015823364e-02 2.929659560322761536e-02
-4.914011061191558838e-02 -6.091616582125425339e-03 -2.648777142167091370e-02 -3.099548816680908203e-02 -4.606014117598533630e-02 3.519629128277301788e-03 2.772909402847290039e-02 -1.589547283947467804e-02 -1.076587885618209839e-01 -7.530710194259881973e-03
-3.715139627456665039e-02 5.128931254148483276e-02 -3.007365204393863678e-02 -4.493287950754165649e-02 -8.864582329988479614e-02 3.869009669870138168e-03 4.037657752633094788e-02 8.987237513065338135e-02 -9.859961271286010742e-02 -7.257080823183059692e-02
-9.811037220060825348e-03 9.273284673690795898e-02 -7.543321698904037476e-02 7.758408784866333008e-02 8.688885718584060669e-02 -4.279854893684387207e-02 -6.227945443242788315e-03 -1.495935115963220596e-02 3.929435089230537415e-02 1.121609732508659363e-01
1.215346157550811768e-02 -6.196299195289611816e-02 2.148410677909851074e-02 -1.778204739093780518e-02 -6.978845596313476562e-02 -3.199262917041778564e-02 -3.421100974082946777e-02 2.113088965415954590e-03 -6.953212618827819824e-02 -1.258429139852523804e-02
-5.916607752442359924e-02 1.691624373197555542e-01 -4.957165196537971497e-02 -8.006330579519271851e-02 8.084034547209739685e-03 1.037480831146240234e-01 1.645847782492637634e-02 7.484076917171478271e-02 -9.326752275228500366e-02 1.500000655651092529e-01
-1.470360346138477325e-02 -5.330091714859008789e-02 -8.216242305934429169e-03 1.902384567074477673e-03 4.538948833942413330e-02 -5.017104372382164001e-02 1.273484081029891968e-01 3.234640508890151978e-02 5.863196402788162231e-02 -6.821043044328689575e-02
-3.117245389148592949e-03 -2.634431123733520508e-01 8.983624726533889771e-02 6.878812611103057861e-02 8.043915033340454102e-02 -9.389713406562805176e-03 2.509278655052185059e-01 -8.511009812355041504e-02 3.570444136857986450e-02 -2.080361694097518921e-01
-8.715998381376266479e-02 -6.359875667840242386e-03 9.974965453147888184e-02 -4.131441935896873474e-02 -7.292775809764862061e-02 3.552865982055664062e-02 -2.371954917907714844e-02 -6.586845219135284424e-02 -1.319646090269088745e-01 6.464618444442749023e-02
-1.182772666215896606e-01 1.419447511434555054e-01 -7.668877393007278442e-02 1.115074194967746735e-02 1.768300831317901611e-01 -5.306370183825492859e-02 3.754323422908782959e-01 -1.613955944776535034e-01 3.254872560501098633e-02 -1.350282281637191772e-01
-1.362667977809906006e-01 2.612780220806598663e-02 -1.126149576157331467e-02 -3.374109789729118347e-02 -8.941046893596649170e-02 4.930052161216735840e-02 1.687386445701122284e-02 -6.772841513156890869e-02 -1.350315958261489868e-01 7.561916857957839966e-02
1.590077131986618042e-01 -5.625794082880020142e-02 -9.398599155247211456e-03 -3.189671784639358521e-02 -5.921275168657302856e-02 9.769165515899658203e-02 -9.754512459039688110e-02 -6.898520886898040771e-02 -8.019910752773284912e-02 1.780317723751068115e-01
-2.020664513111114502e-01 3.918632399290800095e-03 1.268869936466217041e-01 -8.813307434320449829e-02 -2.200761884450912476e-01 1.421188097447156906e-02 -1.396528035402297974e-01 1.048435121774673462e-01 -3.573907017707824707e-01 4.283121600747108459e-02
-7.224590331315994263e-02 -2.571825403720140457e-03 -6.576634012162685394e-03 -1.354346866719424725e-03 -7.406678795814514160e-02 -6.885938346385955811e-02 -1.351555734872817993e-01 -2.203492261469364166e-02 -1.017409190535545349e-01 -5.013018473982810974e-02
1.324503719806671143e-01 -1.553826332092285156e-01 -1.669552177190780640e-01 1.519786566495895386e-02 -2.276641279458999634e-01 -2.128300517797470093e-01 -3.907365500926971436e-01 2.723679840564727783e-01 -8.314356207847595215e-03 7.578812539577484131e-02
1.221042498946189880e-01 -4.543996974825859070e-02 -1.528733968734741211e-01 6.258078664541244507e-02 -7.465863972902297974e-02 -6.672010570764541626e-02 -1.189629435539245605e-01 1.743630617856979370e-01 3.560069575905799866e-02 4.042517393827438354e-02
-4.179004952311515808e-02 -2.379622869193553925e-02 2.202024625148624182e-04 8.241971582174301147e-02 -8.098988234996795654e-02 -1.853895373642444611e-02 -1.036116182804107666e-01 8.308380842208862305e-02 -8.749255537986755371e-02 2.482835389673709869e-02
-1.550517790019512177e-02 -2.864211238920688629e-02 1.920622214674949646e-02 5.005677789449691772e-02 -6.585106253623962402e-02 -5.299164727330207825e-02 7.949975132942199707e-02 -3.892231732606887817e-03 -1.476275175809860229e-01 -9.892125427722930908e-02
8.119179867208003998e-03 1.484474986791610718e-01 9.217828512191772461e-02 -1.019924655556678772e-01 5.032166838645935059e-02 -2.302688732743263245e-02 1.739936619997024536e-01 3.219516202807426453e-02 7.266914844512939453e-02 1.177159789949655533e-02
-2.348799817264080048e-02 7.683866191655397415e-03 -5.369498860090970993e-03 -1.940431818366050720e-02 6.229493021965026855e-02 -4.601498693227767944e-02 2.552024722099304199e-01 -3.687904030084609985e-02 -1.497580707073211670e-01 -1.422845274209976196e-01
2.119813673198223114e-02 -5.028444901108741760e-02 -9.543110616505146027e-03 8.608231693506240845e-02 -6.892292201519012451e-02 -2.998803742229938507e-02 -5.652802810072898865e-02 -3.670264407992362976e-02 -1.071665622293949127e-02 -1.339505543000996113e-04
5.821396410465240479e-02 -7.139700930565595627e-03 4.726372286677360535e-02 -5.430971458554267883e-02 1.310039125382900238e-02 2.674024999141693115e-01 3.748118132352828979e-02 -1.561947017908096313e-01 -1.120011582970619202e-01 3.835542201995849609e-01
-9.893146157264709473e-02 -1.641452684998512268e-02 2.272769249975681305e-02 9.591761231422424316e-02 -1.278099864721298218e-01 5.363904405385255814e-03 -3.911675885319709778e-02 2.103809639811515808e-02 -1.810655891895294189e-01 1.023784056305885315e-01
-7.108878344297409058e-04 1.230223104357719421e-01 8.100193738937377930e-02 -7.981801778078079224e-02 -1.201711222529411316e-01 1.304836720228195190e-01 -6.328968703746795654e-02 1.025724317878484726e-02 -2.813856303691864014e-01 1.138953939080238342e-01
7.135606557130813599e-02 9.970120340585708618e-02 -7.266236469149589539e-03 -8.656565099954605103e-02 -9.858456999063491821e-02 -4.024700820446014404e-02 8.426923886872828007e-04 2.655351767316460609e-03 -1.213579028844833374e-01 6.288237869739532471e-02
-2.682713419198989868e-02 3.340448439121246338e-02 -5.409191921353340149e-02 -1.296010147780179977e-02 7.615245878696441650e-02 -2.291274070739746094e-02 -3.978731110692024231e-02 -5.942212045192718506e-02 3.495025634765625000e-02 1.230333372950553894e-02
8.750803768634796143e-02 -5.056229233741760254e-02 -2.142650634050369263e-02 3.166319057345390320e-02 1.060151010751724243e-01 -1.390123367309570312e-01 1.616002619266510010e-01 2.067427933216094971e-01 4.615044966340065002e-02 5.109463818371295929e-03
2.250064536929130554e-02 1.349185407161712646e-02 -1.621846109628677368e-02 6.115158274769783020e-02 -3.635719791054725647e-02 2.550246007740497589e-02 -2.805936634540557861e-01 7.938046008348464966e-02 -1.129642575979232788e-01 -9.977852553129196167e-02
-5.212487280368804932e-02 7.854411751031875610e-02 -5.587112531065940857e-02 -1.200906187295913696e-02 -4.129919782280921936e-02 5.908049270510673523e-02 5.060075595974922180e-02 3.463268652558326721e-02 -6.226465851068496704e-02 6.604403257369995117e-02
8.497403562068939209e-02 -1.122128814458847046e-01 7.299046218395233154e-02 5.766325164586305618e-03 5.966528505086898804e-02 1.548904180526733398e-01 6.198859587311744690e-02 1.768333464860916138e-01 6.309401243925094604e-02 9.145499765872955322e-02
9.546501189470291138e-02 -1.137760356068611145e-01 1.102466434240341187e-01 6.233410909771919250e-02 1.292936801910400391e-01 8.476820588111877441e-02 1.128451004624366760e-01 4.574121534824371338e-02 1.156688854098320007e-01 -2.522260248661041260e-01
6.592776626348495483e-03 -2.689860463142395020e-01 -3.213448077440261841e-02 5.444084852933883667e-02 1.361315101385116577e-01 -4.948262940160930157e-04 2.236650325357913971e-02 -1.021826639771461487e-02 1.006391048431396484e-01 4.651153460144996643e-02
3.797644004225730896e-02 -8.159013837575912476e-02 -4.699529409408569336e-01 9.142368286848068237e-02 6.523466110229492188e-02 -8.361119776964187622e-03 3.431395813822746277e-02 8.989274501800537109e-02 -5.768259614706039429e-02 -1.234506489709019661e-03
5.470807105302810669e-02 1.042560935020446777e-01 1.038951277732849121e-01 7.477094233036041260e-02 8.407392539083957672e-03 -1.533301919698715210e-01 -1.633416265249252319e-01 7.824289798736572266e-02 5.277083255350589752e-04 -4.976369440555572510e-02
-7.653329521417617798e-02 -9.762319922447204590e-02 -1.875435747206211090e-02 -4.899581521749496460e-02 -1.479886174201965332e-01 -2.876725513488054276e-03 -1.983929574489593506e-01 -2.556239441037178040e-02 -1.233046725392341614e-01 1.343624293804168701e-02
6.887062638998031616e-02 -6.929432600736618042e-02 -8.841239847242832184e-03 -9.097056090831756592e-02 4.650209471583366394e-02 -3.939748927950859070e-02 1.222920715808868408e-01 -1.744966767728328705e-02 4.990311805158853531e-03 -8.139197598211467266e-04
-7.109951227903366089e-02 -7.480158656835556030e-02 1.873181201517581940e-02 -2.802710793912410736e-02 -6.581050902605056763e-02 2.115352265536785126e-02 -3.125321492552757263e-02 2.366061555221676826e-03 -1.479763239622116089e-01 -3.790726140141487122e-02
-9.449750185012817383e-02 1.848393864929676056e-02 7.250000536441802979e-02 8.162999898195266724e-02 7.669509202241897583e-02 1.055840253829956055e-01 1.417590491473674774e-02 1.304441243410110474e-01 -5.285981297492980957e-02 6.390308588743209839e-02
6.710163503885269165e-02 8.375930599868297577e-03 -7.271513342857360840e-02 -3.066243231296539307e-02 -2.204473316669464111e-01 4.316091537475585938e-02 -1.976717412471771240e-01 1.082296296954154968e-02 -3.771837055683135986e-01 2.279825955629348755e-01
9.895355999469757080e-02 -2.189065562561154366e-03 -1.142614632844924927e-01 -4.782987758517265320e-02 -1.415175944566726685e-02 -3.291331464424729347e-03 -6.142077967524528503e-03 -1.435072440654039383e-02 -1.284745782613754272e-01 -2.832430787384510040e-02
9.611747413873672485e-02 -5.540452152490615845e-02 7.659218460321426392e-02 -8.672918379306793213e-02 1.308348681777715683e-02 1.198084838688373566e-02 4.501539841294288635e-02 -2.914688922464847565e-02 -6.676520407199859619e-02 -6.146312877535820007e-02
3.734872862696647644e-02 -2.372040040791034698e-02 -8.856281638145446777e-02 -7.506396621465682983e-02 -3.231291100382804871e-02 1.150912716984748840e-01 3.218264505267143250e-02 1.409489065408706665e-01 -2.865378744900226593e-02 8.733490109443664551e-02
7.602568715810775757e-02 -8.236623369157314301e-03 6.339287012815475464e-02 3.428012132644653320e-03 3.068643063306808472e-02 1.745097488164901733e-01 5.224678292870521545e-02 -1.680451631546020508e-01 -1.238783597946166992e-01 5.349586009979248047e-01
8.122803270816802979e-02 -6.837432831525802612e-02 6.908924132585525513e-02 -2.659502811729907990e-02 4.879834875464439392e-02 9.952521324157714844e-02 7.607839256525039673e-02 -1.572536379098892212e-01 -1.160676926374435425e-01 -1.062238775193691254e-02
-1.172791942954063416e-01 -2.713804133236408234e-02 5.392480641603469849e-02 -6.068363785743713379e-03 -1.216940656304359436e-01 -6.183681637048721313e-02 9.655848145484924316e-02 -4.699991643428802490e-02 8.860088884830474854e-02 8.323271572589874268e-02
-9.704078733921051025e-02 -1.158805936574935913e-01 4.935855045914649963e-02 -8.445706963539123535e-02 -2.128227613866329193e-02 -8.042909204959869385e-02 7.084287703037261963e-02 -6.748708337545394897e-02 -8.525290340185165405e-02 -2.707442641258239746e-02
-4.570183902978897095e-02 -1.095253527164459229e-01 3.475442528724670410e-02 1.490217167884111404e-02 1.988508924841880798e-02 -1.307530514895915985e-02 -4.980904608964920044e-02 -4.874972160905599594e-03 -4.824452567845582962e-03 4.764240700751543045e-03
2.174568921327590942e-02 -3.374413028359413147e-02 -2.910036593675613403e-02 -1.039059311151504517e-01 -6.376029551029205322e-02 1.194050014019012451e-01 -1.166881397366523743e-01 1.106355488300323486e-01 -1.658516824245452881e-01 7.086581736803054810e-02
-3.050760179758071899e-02 -9.544701129198074341e-02 -3.528207540512084961e-03 -7.819369435310363770e-02 -1.205591708421707153e-01 4.617515578866004944e-02 1.717573590576648712e-02 -7.801206409931182861e-02 -1.108007729053497314e-01 -1.944439858198165894e-02
-7.251205295324325562e-02 1.729656606912612915e-01 1.235572174191474915e-01 5.138628184795379639e-02 2.072051726281642914e-02 8.810378611087799072e-02 -1.964618116617202759e-01 -3.403306007385253906e-02 -3.800175711512565613e-02 5.876391381025314331e-02
1.543985679745674133e-02 -5.872108042240142822e-02 1.551846507936716080e-03 5.834813788533210754e-02 2.405381761491298676e-02 -4.285081475973129272e-02 3.824118524789810181e-02 1.849262043833732605e-02 -4.984023422002792358e-02 -6.756005808711051941e-03
-8.794425427913665771e-02 -2.485756203532218933e-02 -1.148256380110979080e-02 4.547118395566940308e-02 -1.530437171459197998e-02 1.265084836632013321e-02 3.484618663787841797e-02 -3.162078186869621277e-02 -1.106509342789649963e-01 8.069697767496109009e-02
7.523020356893539429e-02 -6.113447248935699463e-02 -3.042956441640853882e-02 -7.617240399122238159e-02 -6.738106906414031982e-02 -1.537671312689781189e-02 -5.134666571393609047e-04 2.391109801828861237e-02 -2.889080159366130829e-02 5.434649437665939331e-02
-6.301886588335037231e-02 -7.331594824790954590e-02 5.237728357315063477e-02 8.469855040311813354e-02 -9.885891340672969818e-03 -5.702701956033706665e-02 -7.061808556318283081e-02 -2.768190801143646240e-01 -1.927801966667175293e-01 7.555331289768218994e-02
-3.102431446313858032e-02 2.207184955477714539e-02 9.415457956492900848e-03 1.429406832903623581e-02 -6.976199150085449219e-02 2.578426003456115723e-01 -2.213486880064010620e-01 -5.660347938537597656e-01 1.192817557603120804e-02 -2.363841533660888672e-01
-2.680838853120803833e-02 -3.940699622035026550e-02 -9.737720340490341187e-02 -1.692309044301509857e-02 -4.473424330353736877e-02 -2.998820133507251740e-02 6.108092889189720154e-02 -5.513425450772047043e-03 -6.036739423871040344e-02 4.269884526729583740e-02
1.092788800597190857e-01 -8.766710013151168823e-02 6.111413612961769104e-02 7.692183862673118711e-05 -4.887751117348670959e-02 -2.721443772315979004e-01 2.358702272176742554e-01 -4.440901428461074829e-02 9.818567335605621338e-02 -8.515837043523788452e-02
6.630390137434005737e-02 -9.095931798219680786e-02 3.479249030351638794e-02 5.971454083919525146e-03 2.365100234746932983e-01 -1.682110726833343506e-01 3.713054582476615906e-02 1.121973991394042969e-01 6.962593644857406616e-02 -7.737765461206436157e-02
1.709619164466857910e-01 1.279944330453872681e-01 -1.463847160339355469e-01 -1.602136343717575073e-02 2.917967922985553741e-02 -1.615353301167488098e-02 2.115197777748107910e-01 -1.884430795907974243e-01 -1.750512123107910156e-01 2.013407275080680847e-02
3.962588496506214142e-03 -7.348488271236419678e-02 1.011928170919418335e-02 -9.770654886960983276e-02 -6.710790842771530151e-02 -1.635630428791046143e-02 1.280419062823057175e-02 -2.320872433483600616e-02 -1.420977711677551270e-01 1.357126608490943909e-02
-4.942456725984811783e-03 -1.194189265370368958e-01 2.175083942711353302e-02 5.043394118547439575e-02 2.666508220136165619e-02 1.426276750862598419e-02 3.283637762069702148e-02 -3.863248229026794434e-02 -2.609064429998397827e-02 5.946451798081398010e-03
7.218943536281585693e-02 -3.428965806961059570e-01 3.383838757872581482e-02 7.966038584709167480e-02 4.278825130313634872e-03 -1.312268137931823730e+00 2.781121730804443359e-01 -7.966984063386917114e-03 -1.367301400750875473e-02 1.062708646059036255e-01
4.575513303279876709e-02 -4.730760678648948669e-02 -3.039238229393959045e-02 4.564966633915901184e-02 3.205122426152229309e-02 2.776364050805568695e-02 -8.681330084800720215e-02 3.862243518233299255e-02 3.604546072892844677e-04 -1.158490553498268127e-01
-1.323174983263015747e-01 1.796563267707824707e-01 -3.062712773680686951e-02 -2.904406748712062836e-02 5.572367459535598755e-02 -3.943496197462081909e-02 3.337778151035308838e-01 -2.180312722921371460e-01 -2.282231301069259644e-02 -2.973425090312957764e-01
-6.665783375501632690e-02 -7.964982092380523682e-02 4.855431988835334778e-02 3.547531366348266602e-02 -2.829494699835777283e-02 -4.623422771692276001e-02 2.118164114654064178e-02 9.184575639665126801e-03 -1.297070062719285488e-03 -1.997617818415164948e-02
8.143687993288040161e-02 -9.254795499145984650e-03 9.777310490608215332e-02 6.996162235736846924e-02 1.406768802553415298e-02 -7.529623806476593018e-02 -2.212041169404983521e-01 -6.731937825679779053e-02 -1.926261186599731445e-02 2.143360078334808350e-01
-5.202941894531250000e-01 -1.451446563005447388e-01 -5.988318324089050293e-01 9.241353720426559448e-03 -5.819844007492065430e-01 -1.741147483699023724e-03 1.965821981430053711e-01 1.469483785331249237e-02 -3.148774057626724243e-02 -5.167203769087791443e-02
1.118629947304725647e-01 -7.645166665315628052e-02 5.488455668091773987e-02 1.062235385179519653e-01 1.487075537443161011e-01 -9.413091838359832764e-02 1.393854767084121704e-01 -6.546606421470642090e-01 -3.917615860700607300e-02 1.043787375092506409e-01
-9.138813614845275879e-02 7.025752216577529907e-02 1.486098673194646835e-02 7.865951210260391235e-02 -1.292252242565155029e-01 1.152852457016706467e-02 -5.335949733853340149e-02 6.852068938314914703e-03 2.974149957299232483e-02 3.723662346601486206e-02
-4.532564282417297363e-01 1.494926810264587402e-01 -5.429847165942192078e-02 -9.762125462293624878e-02 -6.760372780263423920e-03 -1.350729018449783325e-01 4.653928801417350769e-02 3.298195824027061462e-02 -1.543788015842437744e-01 1.052372995764017105e-02
-6.714343279600143433e-02 -4.350118711590766907e-02 -1.240956317633390427e-02 8.259699493646621704e-02 3.995094448328018188e-02 -8.172466605901718140e-02 -7.346265017986297607e-02 -4.426760226488113403e-02 -1.556657999753952026e-01 -4.118098318576812744e-02
6.560601759701967239e-03 6.579312495887279510e-03 -3.295481577515602112e-02 -7.672761380672454834e-02 -9.115151315927505493e-02 2.474127262830734253e-01 2.122464478015899658e-01 -8.694459199905395508e-01 -5.552314966917037964e-02 -2.053368464112281799e-02
1.530977897346019745e-02 -4.009522125124931335e-02 -8.986058086156845093e-02 -6.994494795799255371e-02 -1.080083623528480530e-01 3.500787541270256042e-02 -1.575144529342651367e-01 2.673670276999473572e-02 -1.017727628350257874e-01 -4.608513414859771729e-02
-3.271614760160446167e-02 -1.076344326138496399e-01 -4.978267475962638855e-02 1.008635759353637695e-01 3.296498954296112061e-02 5.528758466243743896e-02 -3.645388036966323853e-02 -2.535983175039291382e-02 -5.729927122592926025e-02 5.396202206611633301e-03
-1.210791291669011116e-03 -8.496492169797420502e-03 -9.353227913379669189e-02 -9.970656782388687134e-02 -4.444893449544906616e-02 -2.437037229537963867e-02 -2.175486460328102112e-02 -9.543905965983867645e-03 -1.462209038436412811e-02 -2.212874218821525574e-02
-7.777748256921768188e-02 3.639042750000953674e-02 3.536769375205039978e-02 -2.346122637391090393e-02 -6.736523658037185669e-02 1.058087125420570374e-02 1.207224465906620026e-02 -2.937428839504718781e-02 -9.730715304613113403e-03 -7.897356897592544556e-02
-2.525189146399497986e-02 -5.435918644070625305e-02 2.568066865205764771e-02 4.466715455055236816e-02 -1.567777059972286224e-02 3.223621100187301636e-02 -6.257068365812301636e-02 3.525288403034210205e-02 3.660630807280540466e-02 1.921093836426734924e-02
-8.605578541755676270e-02 1.094448566436767578e-02 2.902618236839771271e-02 -9.193710237741470337e-02 -9.322769194841384888e-02 2.432393468916416168e-02 -7.226649671792984009e-02 2.709297277033329010e-02 -8.373877033591270447e-03 -7.894583791494369507e-02
-1.085885912179946899e-01 -9.743707627058029175e-02 6.079364684410393238e-04 -1.025992631912231445e-01 -6.565223634243011475e-02 -8.983154594898223877e-02 6.180676072835922241e-02 -1.428749412298202515e-03 -1.200572177767753601e-01 -1.233523488044738770e-01
1.512178312987089157e-02 -7.708411663770675659e-02 4.045465961098670959e-02 1.098098233342170715e-01 4.503590520471334457e-03 2.911990135908126831e-02 1.920916698873043060e-02 -8.184339851140975952e-03 -1.224528774619102478e-01 3.747248277068138123e-02
1.344263851642608643e-01 7.007697969675064087e-02 2.846682444214820862e-02 7.053581625223159790e-02 -6.729824841022491455e-02 -6.338638067245483398e-02 1.291000396013259888e-01 -8.968901634216308594e-02 -5.479508638381958008e-02 5.384704098105430603e-03
-1.483513135462999344e-02 2.645880542695522308e-02 1.041089929640293121e-02 5.432629585266113281e-02 -7.835642248392105103e-02 -6.956671923398971558e-02 -1.080061122775077820e-01 1.126073449850082397e-01 -1.041290909051895142e-01 -5.481613054871559143e-02
2.675536572933197021e-01 3.489541634917259216e-02 -2.669937908649444580e-01 -2.541554905474185944e-02 1.933434754610061646e-01 -2.269755303859710693e-02 -1.166403666138648987e-02 1.930431276559829712e-02 5.796293541789054871e-02 4.178101569414138794e-02
-1.014594286680221558e-01 -7.324156165122985840e-02 -9.144004434347152710e-02 -4.353978484869003296e-02 -9.441489726305007935e-02 -1.023872494697570801e-01 -7.240299135446548462e-02 6.848916411399841309e-02 -5.494752526283264160e-02 -6.440585851669311523e-02
-1.739550568163394928e-02 -8.455185219645500183e-03 1.132096350193023682e-01 2.130508422851562500e-02 -1.330122798681259155e-01 -2.029776573181152344e-01 1.023750379681587219e-01 -9.234738349914550781e-02 7.792498171329498291e-02 2.258180826902389526e-01
1.525644510984420776e-01 -1.652398109436035156e-01 3.891164064407348633e-02 4.734130203723907471e-02 9.253980964422225952e-02 -1.620081067085266113e-02 1.030837818980216980e-01 -1.718600988388061523e-01 4.712400026619434357e-03 2.834624983370304108e-02
2.062887251377105713e-01 3.264419734477996826e-02 -1.607915908098220825e-01 -4.339931905269622803e-02 2.217637002468109131e-02 -1.139543950557708740e-01 1.231985613703727722e-01 5.775419622659683228e-02 -1.633560867048799992e-03 1.052494868636131287e-01
1.620674319565296173e-02 2.121225558221340179e-02 -2.289010770618915558e-02 -3.429465368390083313e-02 -4.417525976896286011e-02 -2.710557542741298676e-02 -4.442485421895980835e-02 4.322391375899314880e-02 -7.760435342788696289e-02 -9.443143755197525024e-02
-9.189230948686599731e-02 5.322161130607128143e-03 3.046964481472969055e-02 -5.151680856943130493e-02 1.172846648842096329e-02 -6.305267661809921265e-02 -9.603184461593627930e-02 4.667082801461219788e-02 7.425768673419952393e-02 -2.535293810069561005e-03
6.416270136833190918e-02 2.577189914882183075e-02 -4.640267044305801392e-02 9.478781372308731079e-02 3.405315056443214417e-02 -1.209402307868003845e-01 -4.256759956479072571e-02 -1.706279814243316650e-02 -1.944360733032226562e-01 -1.910273544490337372e-02
7.309866696596145630e-02 -6.992141902446746826e-02 -4.424296319484710693e-01 -5.576255917549133301e-02 -1.982389986515045166e-01 9.234781563282012939e-02 1.122610736638307571e-02 -9.236881509423255920e-03 -1.087254732847213745e-01 7.201058417558670044e-02
-3.798864781856536865e-02 5.521130934357643127e-02 -2.558016404509544373e-02 -1.634029299020767212e-02 5.794660001993179321e-02 -5.152088031172752380e-02 -3.484367625787854195e-03 -5.495139863342046738e-03 5.227468907833099365e-02 6.506605073809623718e-03
-2.296407222747802734e-01 -1.661290675401687622e-01 1.437963247299194336e-01 -4.805685952305793762e-02 -4.689467139542102814e-03 -1.127780452370643616e-01 1.027592923492193222e-03 -8.539686352014541626e-02 -5.335299670696258545e-02 -1.775608514435589314e-03
5.546419881284236908e-03 2.804868109524250031e-02 -5.965681746602058411e-02 1.036253124475479126e-01 -5.671109259128570557e-02 -1.128120999783277512e-02 -3.416058793663978577e-02 -3.928263857960700989e-02 -3.730639815330505371e-02 4.369441792368888855e-02
-1.223621144890785217e-01 7.032975554466247559e-02 1.446824893355369568e-02 -3.828360466286540031e-03 -2.135119140148162842e-01 -9.780636429786682129e-02 -3.360921740531921387e-01 7.605943828821182251e-03 -1.130851581692695618e-01 4.989335313439369202e-02
-8.681667968630790710e-03 6.804507225751876831e-02 -9.978639893233776093e-03 4.224397242069244385e-02 2.543295919895172119e-02 1.919713616371154785e-02 4.557828605175018311e-02 -1.433261577039957047e-02 2.444080263376235962e-02 4.981721565127372742e-02
-7.845932245254516602e-02 1.206498593091964722e-01 -5.124348029494285583e-02 4.832226037979125977e-02 6.908234208822250366e-02 -8.047686517238616943e-02 1.382079571485519409e-01 -1.538025736808776855e-01 -1.085929200053215027e-01 -1.541602760553359985e-01
-3.770466521382331848e-02 -1.407214999198913574e-01 5.394402146339416504e-02 -7.790546864271163940e-02 -1.839287281036376953e-01 2.034547505900263786e-03 2.327432669699192047e-02 -4.361525550484657288e-02 -2.198955863714218140e-01 2.871754579246044159e-02
2.385603636503219604e-02 -9.713206440210342407e-02 -8.200998604297637939e-02 -9.309805184602737427e-02 2.681128447875380516e-03 -5.438820272684097290e-02 6.329043209552764893e-02 -5.045440047979354858e-02 -7.246161252260208130e-02 -8.641202002763748169e-02
5.802486836910247803e-02 -6.791314482688903809e-02 1.033080443739891052e-01 4.922439157962799072e-02 -1.143816187977790833e-01 -7.744437456130981445e-02 2.841048538684844971e-01 6.250055879354476929e-02 1.010368540883064270e-01 2.039801701903343201e-02
9.513954631984233856e-03 1.627784967422485352e-01 3.539655357599258423e-02 4.429401457309722900e-02 -7.274830341339111328e-02 -1.255946755409240723e-01 6.312554329633712769e-02 -2.197492681443691254e-02 2.132129482924938202e-02 -8.231390267610549927e-02
1.312669645994901657e-02 -7.005873322486877441e-02 2.267380990087985992e-02 7.448177039623260498e-02 -1.786433905363082886e-02 -9.917993098497390747e-03 -3.108183853328227997e-02 -2.490367740392684937e-02 2.450313977897167206e-02 -6.001088023185729980e-02
-2.696041204035282135e-02 -1.739839650690555573e-02 1.297819800674915314e-02 -1.611059531569480896e-02 -7.200627028942108154e-02 1.147073581814765930e-01 1.963523961603641510e-02 4.468183964490890503e-02 -7.973720133304595947e-02 1.029568389058113098e-01
-6.055134162306785583e-02 -1.603125222027301788e-02 -4.418742284178733826e-02 -7.369737327098846436e-02 -8.506540209054946899e-02 -5.364418402314186096e-02 1.342473458498716354e-02 -1.329481042921543121e-02 -6.909644603729248047e-02 -1.667761802673339844e-02
-6.673330068588256836e-02 6.777843832969665527e-02 -7.585248909890651703e-03 -2.171855792403221130e-02 1.865986175835132599e-02 -8.566964417695999146e-02 -4.350667446851730347e-02 1.526180803775787354e-01 2.200015261769294739e-02 2.260403633117675781e-01
-3.147886320948600769e-02 1.475889980792999268e-02 -4.756014049053192139e-02 -1.019599288702011108e-01 5.306411534547805786e-02 1.083562448620796204e-01 -1.146540403366088867e+00 -1.380587965250015259e-01 3.038916178047657013e-02 -1.126674413681030273e-01
-6.588827073574066162e-02 -6.066663935780525208e-02 -1.208418905735015869e-01 -1.234194962307810783e-03 2.915414795279502869e-02 1.005673781037330627e-01 4.358924552798271179e-02 3.867826238274574280e-02 2.373045310378074646e-02 -9.447235614061355591e-02
5.172667279839515686e-02 1.498633474111557007e-01 -6.857772916555404663e-02 -6.539452821016311646e-03 6.406214833259582520e-02 -3.897220361977815628e-03 -1.204787101596593857e-02 -7.082277443259954453e-03 -4.715454578399658203e-02 -1.691785291768610477e-03
-7.363295555114746094e-02 -7.132211327552795410e-02 9.291541576385498047e-02 9.921778738498687744e-02 -7.569280266761779785e-02 -9.457129240036010742e-02 2.297091111540794373e-02 3.405398502945899963e-02 -6.794390082359313965e-02 5.065726488828659058e-02
-4.215723648667335510e-02 2.390096895396709442e-02 -3.367766365408897400e-02 1.057408526539802551e-01 -3.352364525198936462e-02 -5.988828837871551514e-02 -7.633417408214882016e-05 -1.972774043679237366e-02 -1.067287921905517578e-01 -3.497625142335891724e-02
6.011085212230682373e-02 1.326167583465576172e-01 -1.799583137035369873e-01 -9.418153762817382812e-02 9.922284632921218872e-02 -4.874239210039377213e-03 -9.817743301391601562e-02 -1.390103995800018311e-01 8.419900387525558472e-02 -1.236305981874465942e-01
8.383513242006301880e-02 -3.903359547257423401e-02 6.087194010615348816e-02 1.374434772878885269e-02 -7.036480307579040527e-02 7.163035217672586441e-03 -3.329977160319685936e-03 -2.845070697367191315e-02 2.593437209725379944e-02 8.655768632888793945e-02
6.290423870086669922e-02 1.419035941362380981e-01 -7.222668826580047607e-02 -2.848367951810359955e-02 -1.206915080547332764e-02 -1.582980751991271973e-01 4.263626411557197571e-02 -3.082925267517566681e-02 7.739704847335815430e-02 -2.574109472334384918e-02
-7.959704101085662842e-02 -1.152157559990882874e-01 7.266893237829208374e-02 7.120528817176818848e-02 -2.178911864757537842e-02 1.311396360397338867e-01 1.096601318567991257e-02 -3.221898525953292847e-02 2.533858641982078552e-02 2.916642231866717339e-03
-6.136390566825866699e-02 1.589046567678451538e-01 -7.099226117134094238e-02 9.394697844982147217e-02 -1.302874684333801270e-01 1.071823909878730774e-01 1.578132659196853638e-01 3.173973783850669861e-02 -9.008553624153137207e-02 -2.955952659249305725e-02
3.998431190848350525e-02 3.258568793535232544e-02 -1.003324389457702637e-01 -3.276829048991203308e-02 -5.028857290744781494e-02 -1.147412732243537903e-01 -1.233327165246009827e-01 9.759085252881050110e-03 -1.097233369946479797e-01 -1.615139245986938477e-01
3.685485944151878357e-02 -2.981649711728096008e-02 -6.062391400337219238e-02 -9.090086817741394043e-02 5.485834088176488876e-03 2.264709211885929108e-03 -4.566034302115440369e-02 -5.437436699867248535e-02 -1.369193661957979202e-02 -7.833894342184066772e-02
-2.533411234617233276e-02 -9.708320349454879761e-02 -8.730386197566986084e-02 6.965926289558410645e-02 6.528696417808532715e-02 -1.190572232007980347e-02 8.936896920204162598e-02 -4.839481413364410400e-02 -4.846099019050598145e-02 7.260580360889434814e-02
-1.547333598136901855e-01 1.227460876107215881e-01 -9.195016697049140930e-03 8.469666354358196259e-03 -3.300855681300163269e-02 -3.248511254787445068e-02 -9.365716949105262756e-03 -2.291514724493026733e-02 -1.044752299785614014e-01 -6.231497228145599365e-02
-2.603492699563503265e-02 -1.800381578505039215e-02 -8.546034246683120728e-02 -4.672041907906532288e-02 -1.248907223343849182e-01 -8.700705319643020630e-02 -4.512873291969299316e-02 1.342375576496124268e-02 -1.504020113497972488e-02 -8.771190792322158813e-02
-7.461305242031812668e-03 3.279467672109603882e-02 -6.314692646265029907e-02 7.366207242012023926e-02 -8.303564041852951050e-02 1.427028607577085495e-02 9.891885519027709961e-02 -1.039792969822883606e-01 1.998172327876091003e-02 -3.491041436791419983e-02
1.062848195433616638e-01 1.865806616842746735e-02 1.247904449701309204e-02 -1.333974301815032959e-03 6.226291880011558533e-02 -2.355580776929855347e-01 2.623085975646972656e-01 3.215348580852150917e-03 -4.382014647126197815e-02 1.292582601308822632e-01
-2.687648683786392212e-02 -2.185189165174961090e-02 -7.356125861406326294e-03 -8.759346604347229004e-02 -6.366910785436630249e-02 1.434195935726165771e-01 9.642831236124038696e-02 2.697536908090114594e-02 8.358873426914215088e-02 1.803047396242618561e-02
-1.630094647407531738e-02 -5.395531281828880310e-02 1.258872356265783310e-02 -5.858584493398666382e-02 -8.703076839447021484e-02 3.312833979725837708e-02 1.244233995676040649e-01 4.388078302145004272e-02 -4.881422594189643860e-02 2.598971873521804810e-02
-4.131988435983657837e-02 5.917968600988388062e-02 -9.658536873757839203e-03 4.050495848059654236e-02 -1.346036791801452637e-01 -9.792249649763107300e-02 -1.485099736601114273e-02 2.920447476208209991e-02 -1.060600727796554565e-01 -1.244457066059112549e-01
7.719360291957855225e-02 -7.129443436861038208e-02 -1.055759750306606293e-02 5.919829756021499634e-02 1.098223030567169189e-01 1.007076632231473923e-02 5.616933479905128479e-02 1.926580220460891724e-01 -2.322053164243698120e-02 -9.959565401077270508e-01
-1.803282648324966431e-02 3.291531233116984367e-03 8.645422011613845825e-02 7.782681286334991455e-02 3.237330913543701172e-02 1.980932652950286865e-01 7.971879094839096069e-02 -2.152799069881439209e-01 -1.065248697996139526e-01 -5.469735264778137207e-01
-3.014465793967247009e-02 -4.896860942244529724e-02 -2.661389410495758057e-01 1.055467352271080017e-01 -1.245625913143157959e-01 3.174564242362976074e-02 1.877787709236145020e-01 -1.238139811903238297e-02 -4.765438288450241089e-02 -7.461944967508316040e-02
-9.212136268615722656e-02 -5.910310521721839905e-02 -2.292639762163162231e-02 -9.782762825489044189e-02 -9.918440878391265869e-02 9.093239903450012207e-03 -1.043577492237091064e-01 -1.866182684898376465e-02 6.637603044509887695e-02 8.521737158298492432e-02
-3.211417421698570251e-02 2.783803083002567291e-02 6.836533546447753906e-02 -1.861175894737243652e-02 2.561407350003719330e-02 -6.431978940963745117e-02 -4.673147797584533691e-01 -4.368565231561660767e-02 1.504847705364227295e-01 -1.074374914169311523e-01
8.109615882858633995e-04 -1.298843473196029663e-01 -5.692091956734657288e-02 9.029896557331085205e-02 8.935023844242095947e-02 1.071771010756492615e-01 1.657474637031555176e-01 2.208958417177200317e-01 -5.915445089340209961e-02 7.604803144931793213e-02
1.221514344215393066e-01 6.870394200086593628e-02 -3.323691710829734802e-02 -8.861017972230911255e-02 -1.856427937746047974e-01 1.539953169412910938e-03 8.692033588886260986e-02 1.178931631147861481e-02 -3.728920593857765198e-02 -2.456436865031719208e-02
7.453651633113622665e-03 9.015946649014949799e-03 -8.331904560327529907e-02 -3.633742779493331909e-02 7.927857339382171631e-02 -5.569935962557792664e-02 8.499738760292530060e-04 6.615804973989725113e-03 -8.534095436334609985e-02 4.583567380905151367e-02
3.612792491912841797e-01 -4.417169839143753052e-02 -4.360749125480651855e-01 9.958058595657348633e-03 1.337650930508971214e-03 4.412866756319999695e-02 6.312047690153121948e-02 1.305180937051773071e-01 -3.979978263378143311e-01 1.865682601928710938e-01
-9.750531613826751709e-02 3.642477467656135559e-02 2.742157503962516785e-02 -8.173450827598571777e-02 6.477625668048858643e-02 2.156075462698936462e-02 -6.890109181404113770e-02 -4.667935520410537720e-02 5.714814178645610809e-04 -4.162655025720596313e-02
4.312151670455932617e-02 1.020617559552192688e-01 -3.716784715652465820e-02 3.721716254949569702e-02 -2.456666380167007446e-01 4.283817112445831299e-02 1.555921882390975952e-01 -6.049599498510360718e-02 -1.800263300538063049e-02 -1.113414093852043152e-01
-6.580668687820434570e-02 1.867721974849700928e-02 -5.642537027597427368e-02 -3.387428820133209229e-02 -4.729607328772544861e-02 -9.200014173984527588e-02 -3.833618760108947754e-02 -2.839469909667968750e-02 -6.191082671284675598e-02 3.532084822654724121e-02
2.914104796946048737e-02 -1.960063725709915161e-02 1.757598854601383209e-02 3.699243813753128052e-02 -6.328959763050079346e-02 -5.230496078729629517e-02 6.930817663669586182e-02 -5.970297753810882568e-02 -5.576879158616065979e-02 -9.480139613151550293e-02
-1.127891987562179565e-02 4.978971183300018311e-02 -2.900930494070053101e-02 -4.527349770069122314e-02 2.358490228652954102e-02 -6.898000836372375488e-02 -7.608979940414428711e-02 6.100907921791076660e-03 -8.424134552478790283e-02 9.526121616363525391e-02
-9.507152438163757324e-02 1.435551606118679047e-02 4.539236798882484436e-02 5.434069037437438965e-02 -1.019068658351898193e-01 2.955541014671325684e-02 -2.981141582131385803e-02 -3.521498665213584900e-02 -1.301055997610092163e-01 4.640480130910873413e-02
-5.582408979535102844e-02 2.562434040009975433e-02 -3.772437339648604393e-04 3.752551227807998657e-02 -4.225116968154907227e-02 7.006793469190597534e-02 -1.810831725597381592e-01 4.302893951535224915e-02 -9.789406612981110811e-05 1.138465628027915955e-01
-3.045829012989997864e-02 4.342271015048027039e-02 -1.168795488774776459e-02 9.099784493446350098e-02 -5.957625340670347214e-03 -5.810899659991264343e-03 -2.785777300596237183e-02 -3.020215220749378204e-02 -3.699839115142822266e-02 4.596207663416862488e-02
-2.236070632934570312e-01 -2.368306517601013184e-01 1.040277704596519470e-01 1.162028312683105469e-02 -3.064280934631824493e-02 -5.452750623226165771e-02 1.069553494453430176e-01 -2.167888358235359192e-02 -2.279631793498992920e-01 9.902348369359970093e-02
-4.713207855820655823e-02 -8.912600576877593994e-03 -9.057333320379257202e-02 1.354394108057022095e-02 -7.741358131170272827e-02 -9.402473270893096924e-02 -3.842356801033020020e-02 2.334390580654144287e-02 -5.952652543783187866e-02 -7.097099721431732178e-02
-4.743482172489166260e-02 -5.945346504449844360e-02 3.286327933892607689e-03 9.085933864116668701e-02 -2.242060936987400055e-02 3.215286135673522949e-02 -9.504950791597366333e-02 -9.090380370616912842e-02 -9.210192412137985229e-02 9.305810928344726562e-02
-5.516437813639640808e-02 1.154500059783458710e-02 -1.580500230193138123e-02 -6.943859905004501343e-02 -4.952199757099151611e-02 -3.678154572844505310e-02 1.116005610674619675e-02 9.210347197949886322e-03 -1.097224727272987366e-01 -4.224130418151617050e-03
-7.836210727691650391e-02 4.615877941250801086e-02 -8.210560679435729980e-02 3.762497752904891968e-02 1.301236543804407120e-02 4.117630794644355774e-02 1.132738515734672546e-01 -7.921396195888519287e-02 -1.423390656709671021e-01 1.332921441644430161e-03
-1.220414787530899048e-02 7.527586817741394043e-02 -1.406793892383575439e-01 -1.010430082678794861e-01 -2.218437492847442627e-01 -7.465311884880065918e-02 -9.904159605503082275e-02 2.240803092718124390e-01 -1.303026266396045685e-02 -5.183292627334594727e-01
1.649713516235351562e-02 2.484266832470893860e-02 -6.056655663996934891e-03 -4.171632602810859680e-02 7.559224218130111694e-02 -1.539356857538223267e-01 -2.263514399528503418e-01 1.027466431260108948e-01 -1.245387196540832520e-01 5.621487647294998169e-02
-6.614589691162109375e-02 5.367865040898323059e-02 -3.598079830408096313e-02 -3.183784335851669312e-02 1.480897068977355957e-01 -7.882906123995780945e-03 1.000258922576904297e-01 -8.148913830518722534e-02 -2.165343761444091797e-01 -6.312435865402221680e-02
-6.820606440305709839e-02 -4.022576659917831421e-02 -4.714653640985488892e-02 -7.386431843042373657e-02 -3.238542005419731140e-02 1.412012055516242981e-02 -6.940534710884094238e-02 -1.491432357579469681e-02 -2.335826121270656586e-02 -7.572036981582641602e-02
5.138780176639556885e-02 1.084529235959053040e-01 3.031811211258172989e-03 -6.182505283504724503e-03 -5.040629301220178604e-03 1.409554779529571533e-01 -3.273405507206916809e-02 7.082699448801577091e-04 -1.287807971239089966e-01 -9.808637946844100952e-02
-3.265796974301338196e-02 -2.916096448898315430e-01 -7.776533812284469604e-02 4.524663090705871582e-02 1.087045893073081970e-01 1.593601405620574951e-01 -3.232425749301910400e-01 1.619034856557846069e-01 2.449399977922439575e-02 -3.881965205073356628e-02
-1.385251432657241821e-01 1.207510083913803101e-01 -5.068501923233270645e-03 7.117363810539245605e-02 7.968662679195404053e-02 2.766235731542110443e-03 -9.532009065151214600e-02 -2.418129704892635345e-02 8.691068738698959351e-02 -5.499660596251487732e-02
-3.521830737590789795e-01 1.063657999038696289e-01 -2.186673926189541817e-03 6.466491520404815674e-02 -4.233610033988952637e-01 -2.811309415847063065e-03 2.983433008193969727e-01 1.037353649735450745e-02 -1.098820753395557404e-02 -1.566729322075843811e-02
-1.073931306600570679e-01 6.754276901483535767e-02 -3.904671967029571533e-02 3.727284818887710571e-02 1.111352741718292236e-01 -3.157195448875427246e-02 -1.102918162941932678e-01 3.514681383967399597e-02 -6.058728694915771484e-02 4.431770183145999908e-03
-2.850286066532135010e-01 5.181046202778816223e-02 1.290602982044219971e-01 -8.081948757171630859e-02 -1.838756054639816284e-01 -5.096253938972949982e-03 3.281364738941192627e-01 3.695161268115043640e-02 6.571718305349349976e-02 9.908439218997955322e-02
-4.885763674974441528e-02 -9.123853594064712524e-02 -5.451655387878417969e-02 -5.332223698496818542e-02 -6.058733165264129639e-02 3.551725298166275024e-02 -2.974525466561317444e-02 -2.831399207934737206e-03 4.210156574845314026e-02 -5.701798573136329651e-02
-5.514542385935783386e-02 -4.096210002899169922e-03 6.258983910083770752e-02 -7.433539628982543945e-02 -3.268065303564071655e-02 2.858115732669830322e-02 -3.760723769664764404e-02 -9.661691635847091675e-02 -6.017290055751800537e-03 2.983726561069488525e-03
-9.614080935716629028e-02 2.681440114974975586e-02 5.482056736946105957e-02 4.275156185030937195e-02 6.736969202756881714e-02 -5.689210724085569382e-03 -1.327272057533264160e-01 6.053571403026580811e-02 -4.503175988793373108e-02 1.189916729927062988e-01
-4.114637896418571472e-02 1.253617852926254272e-01 -2.770555913448333740e-01 2.439783513545989990e-02 -1.236909721046686172e-02 -5.079131126403808594e-01 1.079370975494384766e-01 1.285998225212097168e-01 -6.142145767807960510e-02 1.267201602458953857e-01
-8.368872106075286865e-02 -4.549634456634521484e-02 -4.056403040885925293e-02 1.816603541374206543e-02 -7.047984749078750610e-02 8.071570098400115967e-02 3.662614524364471436e-02 -9.009239822626113892e-02 6.588321924209594727e-02 -4.612638801336288452e-02
-9.013714641332626343e-02 5.563111230731010437e-02 -4.774005338549613953e-02 -1.772230607457458973e-03 -1.774519234895706177e-01 -5.275243893265724182e-02 9.693182259798049927e-02 -3.287236019968986511e-02 -9.794402122497558594e-02 2.062056958675384521e-02
8.954074233770370483e-02 7.480358704924583435e-03 -4.440680891275405884e-02 6.520917522720992565e-04 3.083139285445213318e-02 -1.026002876460552216e-02 -4.201730713248252869e-02 -2.533768117427825928e-02 -1.290537118911743164e-01 -1.048662140965461731e-01
5.064837634563446045e-02 -2.198376357555389404e-01 -2.829948663711547852e-01 -2.416661381721496582e-02 2.121977806091308594e-01 -2.452182173728942871e-01 6.776743531227111816e-01 -2.589161098003387451e-01 -2.098707705736160278e-01 -1.269540548324584961e+00
-1.271306071430444717e-02 -1.252382695674896240e-01 4.921037703752517700e-02 2.509610168635845184e-02 -2.181573957204818726e-01 1.955813914537429810e-02 2.648601233959197998e-01 5.283332616090774536e-02 1.941986940801143646e-02 1.266742795705795288e-01
4.107475280761718750e-02 -1.522332429885864258e-01 -3.715253621339797974e-02 1.297175325453281403e-02 -1.253384649753570557e-01 1.721731014549732208e-02 -1.148002520203590393e-01 1.300403177738189697e-01 -1.500619351863861084e-01 -1.649311557412147522e-02
-7.317002117633819580e-02 -2.367176115512847900e-02 1.063339784741401672e-01 1.440697582438588142e-03 3.495412692427635193e-02 -3.854773193597793579e-02 5.720673128962516785e-03 3.462760150432586670e-02 -8.863309770822525024e-02 1.010114848613739014e-01
4.141047969460487366e-02 -3.978429362177848816e-02 -1.004921197891235352e-01 -2.570226974785327911e-02 -2.107330411672592163e-02 9.352817386388778687e-02 1.303722383454442024e-03 -5.112351936986669898e-05 4.873057827353477478e-02 -3.622179478406906128e-02
4.984317347407341003e-03 -2.733882982283830643e-03 -3.341081738471984863e-02 3.714181855320930481e-02 4.240620508790016174e-02 -5.242730975151062012e-01 -1.560011804103851318e-01 -4.602683335542678833e-02 5.649449303746223450e-02 2.940116524696350098e-01
6.918183062225580215e-03 4.713249579071998596e-02 1.486965920776128769e-03 -1.010044962167739868e-01 -6.625012308359146118e-02 5.634392425417900085e-02 -1.005864515900611877e-01 4.096541181206703186e-02 -1.260545384138822556e-02 -1.658528149127960205e-01
9.461947716772556305e-03 4.908084496855735779e-02 -2.522486150264739990e-01 5.306343361735343933e-02 -1.997461542487144470e-02 -1.597087085247039795e-01 -7.484225183725357056e-02 2.194035798311233521e-01 2.840620465576648712e-02 2.152695879340171814e-02
-1.020280420780181885e-01 1.846332252025604248e-01 -5.549479648470878601e-02 6.745806336402893066e-02 9.996131062507629395e-02 1.061433646827936172e-02 -6.487598270177841187e-02 -4.131079476792365313e-04 -4.304205775260925293e-01 2.616678774356842041e-01
4.101923201233148575e-03 2.492166240699589252e-04 -4.021808505058288574e-02 -2.314553037285804749e-02 2.989673241972923279e-02 3.152216598391532898e-02 2.823752537369728088e-02 -4.480985924601554871e-02 -2.357613993808627129e-03 -3.927132347598671913e-04
1.335874646902084351e-01 1.356481760740280151e-02 -7.157906889915466309e-02 -8.053667098283767700e-02 -3.611699491739273071e-02 -9.723372012376785278e-02 6.579680740833282471e-02 -5.675884485244750977e-01 -1.575152724981307983e-01 -3.534738719463348389e-02
7.628341205418109894e-03 3.227290883660316467e-02 -4.860295727849006653e-02 -6.226457189768552780e-03 -9.802971966564655304e-03 7.710561156272888184e-02 -3.935690596699714661e-02 -1.183138638734817505e-01 4.125294461846351624e-02 -5.408086255192756653e-02
-8.062317967414855957e-03 -6.429462693631649017e-03 -7.712703198194503784e-02 -3.483892977237701416e-02 -6.784135103225708008e-02 -6.033294275403022766e-02 6.286428123712539673e-02 -1.387600507587194443e-02 -2.226231694221496582e-01 -1.923092901706695557e-01
1.571655273437500000e-02 -8.690673857927322388e-02 -1.032211631536483765e-01 -8.719149976968765259e-02 -6.953100860118865967e-02 -3.400829434394836426e-02 -1.052058115601539612e-01 -6.176071241497993469e-02 -9.510755538940429688e-02 -2.632854878902435303e-02
1.178229749202728271e-01 -3.810229152441024780e-02 5.888697132468223572e-02 2.835328318178653717e-02 -1.321333646774291992e-01 3.812045790255069733e-03 7.357300072908401489e-02 -5.380564182996749878e-02 8.688416332006454468e-02 -1.357784569263458252e-01
-9.839509613811969757e-03 -5.352171882987022400e-02 -5.543125271797180176e-01 1.353235263377428055e-02 -5.286009609699249268e-02 -2.479819767177104950e-02 1.186783760786056519e-01 3.983101248741149902e-02 1.407859195023775101e-02 -9.942623972892761230e-02
6.860930472612380981e-02 -6.386461108922958374e-02 5.659175291657447815e-02 -1.629104092717170715e-02 -4.152550697326660156e-01 -1.457599103450775146e-01 -8.714093267917633057e-02 -1.649874076247215271e-02 4.155847802758216858e-02 -1.523757912218570709e-02
4.196242855414311634e-07 2.651537954807281494e-02 -3.655590862035751343e-02 -1.443809457123279572e-02 -1.002225354313850403e-01 -2.397467847913503647e-03 6.408894807100296021e-02 -7.328797876834869385e-02 -5.191380903124809265e-02 4.047975316643714905e-02
-3.269401937723159790e-02 -5.220234394073486328e-02 -2.840332873165607452e-02 -3.820688650012016296e-02 -1.768369041383266449e-02 -7.740814983844757080e-02 -8.745398372411727905e-02 -5.382229015231132507e-02 -5.978329852223396301e-02 -3.744596987962722778e-02
-1.117937192320823669e-01 3.980621322989463806e-02 -2.178061986342072487e-03 -4.564243182539939880e-02 4.748780280351638794e-02 -4.534697905182838440e-02 4.932886734604835510e-02 -3.169552609324455261e-02 -8.899455890059471130e-03 1.189139857888221741e-02
-2.341866120696067810e-02 4.536997899413108826e-02 -3.597575798630714417e-02 9.054432064294815063e-02 2.871903404593467712e-02 -4.922853037714958191e-02 7.075774669647216797e-02 -4.660027474164962769e-02 -1.160424128174781799e-01 -8.382254838943481445e-02
3.106074407696723938e-02 -7.177077978849411011e-02 -3.092864528298377991e-02 -5.503337085247039795e-02 -3.275665342807769775e-01 7.885172963142395020e-02 -1.215312629938125610e-01 -5.053902789950370789e-02 -2.475180290639400482e-02 6.802433729171752930e-02
4.359658434987068176e-02 -2.499052509665489197e-02 1.901839859783649445e-02 -7.847839593887329102e-02 -2.965106666088104248e-01 1.793593764305114746e-01 -9.442941844463348389e-02 4.208687320351600647e-02 -1.339948326349258423e-01 -4.049730896949768066e-01
8.317029103636741638e-03 1.247822679579257965e-02 1.163336914032697678e-03 7.029154151678085327e-02 6.271472573280334473e-02 -3.890642896294593811e-02 1.454329192638397217e-01 8.456415496766567230e-03 9.504557400941848755e-02 6.720440927892923355e-03
2.038636207580566406e-01 -6.410941947251558304e-03 -3.194155395030975342e-01 -9.791413694620132446e-02 -1.045086607336997986e-01 5.404505506157875061e-02 -3.442548215389251709e-03 -1.717506535351276398e-02 1.079699210822582245e-02 -4.055015742778778076e-03
-4.230335354804992676e-03 -7.373671233654022217e-02 -9.000325202941894531e-02 -1.007450520992279053e-01 -2.198334969580173492e-02 -7.979041401995345950e-05 -6.906597316265106201e-02 4.201178997755050659e-02 -6.199853029102087021e-03 8.961518853902816772e-02
-8.685837499797344208e-03 -1.378460526466369629e-01 -3.121923469007015228e-02 -1.321275625377893448e-02 3.658877313137054443e-02 -1.703339070081710815e-01 -9.516260027885437012e-01 2.229399830102920532e-01 6.452746689319610596e-02 8.030728250741958618e-02
6.696173548698425293e-02 -4.853073507547378540e-02 5.952636525034904480e-02 1.885724440217018127e-02 3.393835946917533875e-02 1.376542598009109497e-01 9.745710343122482300e-02 -7.740186061710119247e-03 -2.152181118726730347e-01 -2.557331919670104980e-01
1.204846519976854324e-02 -3.792818402871489525e-03 3.696559369564056396e-02 3.011297807097434998e-02 -8.248145133256912231e-02 -2.794209681451320648e-02 1.711139082908630371e-01 -1.648198068141937256e-02 2.720137871801853180e-02 3.550145030021667480e-02
6.727052479982376099e-02 -1.716860756278038025e-02 -9.089373052120208740e-02 -5.785899981856346130e-02 -2.744212746620178223e-02 6.895236670970916748e-02 -1.057568117976188660e-01 -1.078184023499488831e-01 4.534718394279479980e-02 5.482153594493865967e-02
5.476133152842521667e-02 -2.499470859766006470e-02 -2.136050909757614136e-02 9.770764037966728210e-03 -6.564661860466003418e-02 -2.079117484390735626e-02 8.756580948829650879e-02 -4.287420958280563354e-02 3.101668879389762878e-02 1.043232716619968414e-02
-4.080013632774353027e-01 -1.551861912012100220e-01 1.228799372911453247e-01 -5.234739556908607483e-02 5.311222001910209656e-02 1.639989763498306274e-01 3.621683642268180847e-02 -2.183311618864536285e-02 5.535775050520896912e-02 2.792655117809772491e-02
7.392777502536773682e-02 -7.317541539669036865e-02 -7.319092750549316406e-02 -6.037276238203048706e-02 -1.729968935251235962e-02 -8.373152464628219604e-02 -7.860677689313888550e-02 -4.475099593400955200e-02 -3.675413876771926880e-02 -7.184213399887084961e-02
9.293476492166519165e-02 -1.635512150824069977e-02 -2.944920659065246582e-01 -2.361903339624404907e-02 -4.534033313393592834e-02 1.890541426837444305e-02 2.914944477379322052e-02 1.002229526638984680e-01 -9.178962558507919312e-02 -8.902619034051895142e-02
1.234431788325309753e-01 9.861462563276290894e-02 -1.084309294819831848e-01 3.793349862098693848e-02 -1.903160102665424347e-02 -5.221764370799064636e-02 2.165258228778839111e-01 7.170402258634567261e-02 -7.942765951156616211e-02 -1.189488265663385391e-02
-3.451821953058242798e-02 5.785645451396703720e-03 3.996995277702808380e-03 -1.259448472410440445e-03 -2.026535943150520325e-02 -8.261247538030147552e-03 -6.780066341161727905e-02 -2.239413931965827942e-02 -1.526688933372497559e-01 7.602096349000930786e-02
-3.638975694775581360e-02 -9.907176718115806580e-04 4.400043562054634094e-02 -7.163254916667938232e-02 9.824424982070922852e-02 9.625396877527236938e-02 6.327764689922332764e-02 1.041340753436088562e-01 -4.963853582739830017e-02 4.977606609463691711e-02
-9.323619306087493896e-02 1.491243988275527954e-01 1.105530485510826111e-01 5.273498967289924622e-02 -2.134874612092971802e-01 -3.213815987110137939e-01 1.496097892522811890e-01 2.273851782083511353e-01 -2.199154719710350037e-02 1.765157133340835571e-01
-6.395317614078521729e-02 2.911892160773277283e-02 4.348743706941604614e-03 5.188446119427680969e-02 -1.240160502493381500e-02 -3.632974997162818909e-02 -7.788759469985961914e-02 1.909982878714799881e-03 -5.531096458435058594e-02 4.297041147947311401e-02
