-9.826725348830223083e-03
-3.541567325592041016e-01
-2.403116673231124878e-01
-2.884131669998168945e-01
-4.031293690204620361e-01
-2.687079906463623047e-01
1.476070284843444824e-01
-1.648380458354949951e-01
-2.580739855766296387e-01
3.436480835080146790e-02
-3.113923072814941406e-01
2.128761857748031616e-01
7.714749127626419067e-02
-7.948615401983261108e-02
2.458159774541854858e-01
1.535272598266601562e-01
-6.929291039705276489e-02
1.293733417987823486e-01
-6.033943220973014832e-02
-2.965482473373413086e-01
8.629705756902694702e-02
-2.987720072269439697e-01
-8.648979663848876953e-02
1.776983439922332764e-01
1.912125498056411743e-01
9.737960249185562134e-02
-4.966247081756591797e-02
-6.542055308818817139e-02
-2.816613912582397461e-01
1.138140186667442322e-01
4.000620916485786438e-02
1.737855374813079834e-01
1.388738118112087250e-02
-3.182801604270935059e-01
-3.836925327777862549e-02
-3.395266830921173096e-01
3.519433364272117615e-02
-2.267763614654541016e-01
-1.650407016277313232e-01
1.322244554758071899e-01
1.564850807189941406e-01
1.390055660158395767e-02
1.912241578102111816e-01
5.541764572262763977e-02
1.028994247317314148e-01
-1.917101889848709106e-01
-2.121628969907760620e-01
8.889674395322799683e-02
1.508578807115554810e-01
2.876181304454803467e-01
-1.957477927207946777e-01
-9.563473053276538849e-03
-1.377935856580734253e-01
1.547367125749588013e-01
2.065635770559310913e-01
-1.950975507497787476e-01
1.286880671977996826e-02
-6.884565949440002441e-02
4.484664276242256165e-02
-2.402199059724807739e-01
-2.773675918579101562e-01
-3.724523484706878662e-01
-2.989312112331390381e-01
-1.945499330759048462e-01
4.583375528454780579e-02
-3.387591242790222168e-01
-1.440970748662948608e-01
-3.984222114086151123e-01
-2.018702328205108643e-01
-1.711270362138748169e-01
8.628751337528228760e-02
-1.473359912633895874e-01
-3.636341989040374756e-01
-1.876436769962310791e-01
7.823295891284942627e-02
-2.504562139511108398e-01
4.147721827030181885e-02
-4.554685056209564209e-01
-3.712131679058074951e-01
-1.241086274385452271e-01
1.397580951452255249e-01
2.389109432697296143e-01
1.071216017007827759e-01
2.114543020725250244e-01
1.077606827020645142e-01
1.194681599736213684e-02
8.397036790847778320e-02
-1.338994204998016357e-01
-1.903765834867954254e-02
7.393033057451248169e-02
-3.019416630268096924e-01
2.015214115381240845e-01
1.385272145271301270e-01
-3.124522566795349121e-01
-1.901016980409622192e-01
1.568021029233932495e-01
1.993960589170455933e-01
-1.070183701813220978e-02
-1.186168640851974487e-01
-2.073175311088562012e-01
5.774023756384849548e-02
-3.245826810598373413e-02
2.309429943561553955e-01
-4.653521627187728882e-02
-4.011208564043045044e-02
-1.696402132511138916e-01
7.713999599218368530e-02
-2.397122234106063843e-01
1.456520557403564453e-01
-2.104556858539581299e-01
3.012290894985198975e-01
-1.903111338615417480e-01
-1.707857400178909302e-01
7.525315880775451660e-02
-6.285845488309860229e-02
1.227569282054901123e-01
-2.763142585754394531e-01
1.032730098813772202e-02
-2.887956798076629639e-01
-4.449148103594779968e-02
1.510642170906066895e-01
-1.347400844097137451e-01
-2.433707118034362793e-01
4.540776833891868591e-02
9.096667170524597168e-02
-1.176459044218063354e-01
1.158876195549964905e-01
1.200138553977012634e-01
-2.480217963457107544e-01
-5.703370273113250732e-02
-1.356550902128219604e-01
-1.481771767139434814e-01
3.197851404547691345e-02
1.270191669464111328e-01
-3.680305778980255127e-01
-1.915397495031356812e-01
-2.351514697074890137e-01
1.206612735986709595e-01
2.808811068534851074e-01
2.666376829147338867e-01
-1.165731474757194519e-01
-2.297558188438415527e-01
-1.482721865177154541e-01
-2.460238039493560791e-01
8.963783085346221924e-02
2.701219320297241211e-01
1.401156932115554810e-01
-2.365981042385101318e-01
1.904098689556121826e-01
-2.674131989479064941e-01
-2.916618622839450836e-02
-1.853808313608169556e-01
-2.328471690416336060e-01
-1.396940201520919800e-01
3.028215840458869934e-02
1.038857474923133850e-01
1.534451395273208618e-01
-8.636647462844848633e-02
6.666547805070877075e-02
2.574519813060760498e-01
-3.110487461090087891e-01
-8.745145052671432495e-02
-2.498980015516281128e-01
-1.573454588651657104e-01
-2.819762229919433594e-01
-1.357397288084030151e-01
1.490360945463180542e-01
-1.365737766027450562e-01
-3.233760595321655273e-01
-2.727474272251129150e-02
7.726281881332397461e-02
3.421129882335662842e-01
-6.095579639077186584e-02
2.578257322311401367e-01
-2.071205675601959229e-01
1.972297951579093933e-02
-8.853786438703536987e-02
-1.988696902990341187e-01
-1.697550714015960693e-02
1.792142242193222046e-01
-1.104862019419670105e-01
2.341772764921188354e-01
6.921886652708053589e-02
-2.095900177955627441e-01
-2.958746552467346191e-01
-4.246447980403900146e-02
7.170142978429794312e-02
1.635408028960227966e-02
2.272066920995712280e-01
-1.765571832656860352e-01
6.795814633369445801e-02
5.691634863615036011e-02
-8.440493047237396240e-02
1.798001080751419067e-01
1.395886689424514771e-01
2.291253805160522461e-01
-3.273534178733825684e-01
2.655878476798534393e-02
1.501092910766601562e-01
-1.779014021158218384e-01
7.420177012681961060e-02
-1.551609784364700317e-01
-2.558912932872772217e-01
1.353019922971725464e-01
1.459634155035018921e-01
-9.926626086235046387e-02
-1.863835752010345459e-01
1.744565218687057495e-01
-9.268967807292938232e-02
-1.600785404443740845e-01
2.411262840032577515e-01
-1.144351288676261902e-01
-2.528384327888488770e-01
-2.761617600917816162e-01
1.444278359413146973e-01
4.655963741242885590e-03
2.916587889194488525e-01
-2.298229187726974487e-01
2.092368155717849731e-01
-2.747220993041992188e-01
-1.049514859914779663e-01
1.340071577578783035e-02
-1.570008136332035065e-02
2.001038789749145508e-01
-1.735699921846389771e-02
-8.942598104476928711e-02
1.945650205016136169e-02
9.040287137031555176e-02
1.018463820219039917e-01
-4.016556218266487122e-02
-1.010803952813148499e-01
1.401525735855102539e-01
-4.712106287479400635e-02
-1.151576116681098938e-01
-2.799407243728637695e-01
8.161057531833648682e-02
-2.656011879444122314e-01
-3.995451927185058594e-01
-1.973435133695602417e-01
-3.546714484691619873e-01
-2.089207023382186890e-01
1.590141355991363525e-01
1.892999112606048584e-01
1.841215193271636963e-01
-2.821758687496185303e-01
-6.721165031194686890e-02
-3.402876853942871094e-01
-2.519100904464721680e-01
-5.339573696255683899e-02
-2.643702030181884766e-01
-2.507733106613159180e-01
-2.139611840248107910e-01
1.865441203117370605e-01
-7.232494652271270752e-02
3.282750956714153290e-03
-1.285537481307983398e-01
-2.262320220470428467e-01
-5.774827003479003906e-01
-2.618941664695739746e-01
-3.003002107143402100e-01
1.247378960251808167e-01
-3.006410300731658936e-01
-3.641947209835052490e-01
7.313076406717300415e-02
1.089191343635320663e-02
-6.015587225556373596e-02
-8.576018363237380981e-02
1.864315569400787354e-02
-3.833304941654205322e-01
-1.911556273698806763e-01
1.441574096679687500e-01
-4.518795758485794067e-02
6.987982988357543945e-02
-1.276415288448333740e-01
6.646125018596649170e-02
-3.732832372188568115e-01
-3.206780254840850830e-01
8.609047532081604004e-02
9.452351927757263184e-02
-1.883603483438491821e-01
-3.587366938591003418e-01
7.651799917221069336e-02
-2.405515611171722412e-01
-1.147038638591766357e-01
-3.029698729515075684e-01
-4.461338818073272705e-01
3.112970665097236633e-02
1.769846491515636444e-02
-1.043953225016593933e-01
-3.487164378166198730e-01
1.060691252350807190e-01
2.012769281864166260e-01
1.690174788236618042e-01
-8.687548339366912842e-02
1.248442679643630981e-01
8.315972983837127686e-02
2.277305349707603455e-02
9.319195896387100220e-02
1.716578155755996704e-01
-1.369026303291320801e-01
9.920576959848403931e-02
2.893956899642944336e-01
1.874707639217376709e-01
8.716733753681182861e-02
-1.037171110510826111e-01
-1.169843673706054688e-01
-4.103295505046844482e-01
-6.195794418454170227e-02
-2.619067132472991943e-01
2.597026824951171875e-01
1.230699047446250916e-01
2.058571130037307739e-01
-2.838990986347198486e-01
1.396394520998001099e-01
-2.700636386871337891e-01
2.120794057846069336e-01
9.907221049070358276e-02
6.459332071244716644e-03
-7.655560970306396484e-02
-2.807701192796230316e-02
-3.161591589450836182e-01
-2.119181603193283081e-01
-1.179574895650148392e-02
-2.406437695026397705e-02
-1.708634793758392334e-01
-1.694876104593276978e-01
-2.143371105194091797e-01
7.761851698160171509e-02
-3.467286229133605957e-01
-1.724999696016311646e-01
1.216197386384010315e-01
-2.679584920406341553e-02
-3.928453847765922546e-02
-1.972099542617797852e-01
-1.568476706743240356e-01
-8.957219123840332031e-02
-3.959134817123413086e-01
-3.139857351779937744e-01
-2.984490394592285156e-01
-1.851433068513870239e-01
3.332243859767913818e-01
-2.840545177459716797e-01
-1.392508447170257568e-01
-1.505270041525363922e-02
1.924814432859420776e-01
-1.671281456947326660e-01
-1.786519587039947510e-01
1.648429483175277710e-01
-3.046295344829559326e-01
-3.437130749225616455e-01
-4.686417058110237122e-02
-3.148093074560165405e-02
-2.365694642066955566e-01
-1.987483650445938110e-01
-1.666351407766342163e-01
-1.484891772270202637e-01
-2.039826214313507080e-01
-2.965581603348255157e-02
-2.619996368885040283e-01
2.120078206062316895e-01
-1.187682896852493286e-01
-2.255196720361709595e-01
-2.469599992036819458e-01
-2.853038311004638672e-01
-3.631684184074401855e-02
-2.721875905990600586e-01
1.312643587589263916e-01
1.759979873895645142e-01
-1.157291904091835022e-01
2.370545640587806702e-02
9.954655915498733521e-02
1.139467284083366394e-01
-1.546943187713623047e-01
-6.709079444408416748e-02
-2.631443440914154053e-01
5.660871416330337524e-02
1.651327908039093018e-01
-2.401787787675857544e-01
-3.053380250930786133e-01
2.349212765693664551e-01
-2.965087294578552246e-01
6.787870824337005615e-02
-3.307770788669586182e-01
1.934695243835449219e-01
-3.102514147758483887e-01
1.295888721942901611e-01
-2.161063849925994873e-01
-1.776231974363327026e-01
-2.137763947248458862e-01
-9.035227447748184204e-02
1.761948131024837494e-02
2.862274348735809326e-01
4.845755174756050110e-02
1.811932474374771118e-01
-8.127944916486740112e-02
-2.419884055852890015e-01
2.223100960254669189e-01
4.625712707638740540e-02
-1.055188626050949097e-01
1.714300513267517090e-01
1.944625079631805420e-01
-2.159524261951446533e-01
-1.906882375478744507e-01
-1.634662747383117676e-01
-2.432786375284194946e-01
-2.652669847011566162e-01
1.689756959676742554e-01
-2.525330781936645508e-01
5.752983503043651581e-03
-2.823982834815979004e-01
-2.820847332477569580e-01
-3.979586437344551086e-02
1.155486330389976501e-01
2.590451538562774658e-01
1.203347668051719666e-01
-8.722653612494468689e-03
-1.847984194755554199e-01
-2.789866328239440918e-01
2.087139785289764404e-01
-9.140870720148086548e-02
1.712981462478637695e-01
-8.295079320669174194e-02
-2.008276283740997314e-01
-2.913534343242645264e-01
-1.057241410017013550e-01
3.616940602660179138e-02
4.724908247590065002e-02
2.813258469104766846e-01
-2.528321444988250732e-01
-1.031266078352928162e-01
2.779441475868225098e-01
-1.538176275789737701e-02
-2.280298620462417603e-01
-2.889453768730163574e-01
1.121260970830917358e-01
2.325580269098281860e-01
2.006191611289978027e-01
-2.655091583728790283e-01
1.367907077074050903e-01
1.017069537192583084e-02
1.031751111149787903e-01
1.987472623586654663e-01
-2.771280407905578613e-01
4.398253187537193298e-02
-1.946178525686264038e-01
-2.418109625577926636e-01
-3.053463995456695557e-01
-3.130454421043395996e-01
1.169297397136688232e-01
-1.338562667369842529e-01
-2.719921469688415527e-01
-1.338464021682739258e-01
-1.598517894744873047e-01
8.366489410400390625e-02
2.882489562034606934e-01
-2.064152359962463379e-01
1.555725932121276855e-01
1.790671348571777344e-01
-2.784504592418670654e-01
6.555694341659545898e-02
-1.578067094087600708e-01
1.604121923446655273e-01
2.173554152250289917e-01
1.496422011405229568e-02
-1.356123238801956177e-01
-5.116983875632286072e-02
-1.973508298397064209e-01
1.886558234691619873e-01
3.024291433393955231e-02
-2.334449440240859985e-01
2.298498526215553284e-02
-3.040604591369628906e-01
7.869938760995864868e-02
2.071137912571430206e-02
-2.365855127573013306e-01
-2.658337056636810303e-01
-2.821723520755767822e-01
-1.485994085669517517e-02
2.237799204885959625e-02
-2.723191976547241211e-01
-1.266116499900817871e-01
-2.716585695743560791e-01
1.943142563104629517e-01
-1.091503724455833435e-01
-1.521923393011093140e-01
-3.012260198593139648e-01
1.310602873563766479e-01
-1.489930301904678345e-01
1.137880161404609680e-01
1.714571863412857056e-01
1.281823962926864624e-01
3.210811316967010498e-01
-2.340810894966125488e-01
-2.272356152534484863e-01
-2.419024556875228882e-01
-2.157243192195892334e-01
-1.727571934461593628e-01
2.143669575452804565e-01
2.015569061040878296e-01
8.532798290252685547e-02
1.176251191645860672e-02
1.245535463094711304e-01
1.771977394819259644e-01
1.444523930549621582e-01
1.644086837768554688e-01
-3.060923218727111816e-01
-1.052812486886978149e-01
-2.024421393871307373e-01
-2.973091900348663330e-01
-2.293807119131088257e-01
-2.590726017951965332e-01
-7.750786095857620239e-02
1.146343275904655457e-01
-2.450270503759384155e-01
-2.347073256969451904e-01
-4.041838049888610840e-01
4.055519402027130127e-02
1.849620491266250610e-01
-4.021697640419006348e-01
1.340678632259368896e-01
6.572271231561899185e-03
1.179358959197998047e-01
-1.860831081867218018e-01
1.989956200122833252e-01
3.069424927234649658e-01
-2.692570388317108154e-01
5.443720892071723938e-02
2.327272146940231323e-01
1.735755354166030884e-01
-3.200066089630126953e-01
8.512194454669952393e-02
2.001154795289039612e-02
-1.676848903298377991e-02
-2.085838168859481812e-01
-2.116910219192504883e-01
-1.279023587703704834e-01
-2.867002785205841064e-01
-2.368501424789428711e-01
-6.694724410772323608e-02
1.748737543821334839e-01
-2.701076865196228027e-01
2.650349736213684082e-01
1.774356812238693237e-01
-4.482032954692840576e-01
1.175940334796905518e-01
-1.024550199508666992e-01
3.068206645548343658e-02
9.860820323228836060e-02
7.397513836622238159e-02
4.100672528147697449e-02
-2.872310280799865723e-01
-2.371706366539001465e-01
-2.606678605079650879e-01
1.343303024768829346e-01
-2.426931560039520264e-01
4.374117776751518250e-02
-2.965336441993713379e-01
-3.812032938003540039e-01
1.542344242334365845e-01
-1.574829369783401489e-01
-5.533251538872718811e-02
-1.553219556808471680e-01
5.849561840295791626e-02
1.977454684674739838e-02
1.081953123211860657e-01
-1.940388083457946777e-01
-5.016557127237319946e-02
-2.662274241447448730e-01
-3.220927342772483826e-02
-2.154920101165771484e-01
-2.589335739612579346e-01
8.069389313459396362e-02
-3.422259166836738586e-02
5.598175153136253357e-02
-2.617914676666259766e-01
5.081219598650932312e-02
-1.958064138889312744e-01
-4.539090394973754883e-02
-3.020786941051483154e-01
-3.032720088958740234e-01
-2.967241704463958740e-01
-7.025367021560668945e-02
-2.619995176792144775e-01
-9.115607291460037231e-02
2.162220925092697144e-01
-1.308830827474594116e-01
-3.002615869045257568e-01
-3.684374317526817322e-02
-8.504943549633026123e-02
-1.016110852360725403e-01
-3.450820744037628174e-01
1.558318585157394409e-01
-8.843356370925903320e-02
-1.264241188764572144e-01
-7.186343520879745483e-02
-3.004957139492034912e-01
-2.595955133438110352e-01
-3.251357078552246094e-01
2.038836777210235596e-01
-2.324851416051387787e-02
-1.359520554542541504e-01
1.545582115650177002e-01
-4.202013313770294189e-01
1.024193316698074341e-01
-2.444942295551300049e-01
1.349017024040222168e-01
4.387462511658668518e-02
1.765194684267044067e-01
5.069055780768394470e-02
-1.185529213398694992e-02
-2.044297521933913231e-03
1.039193868637084961e-01
-3.547577559947967529e-01
1.016202941536903381e-01
-2.551273405551910400e-01
4.885822162032127380e-02
-5.856682360172271729e-02
1.819412708282470703e-01
1.898967474699020386e-01
2.933464646339416504e-01
2.684927918016910553e-02
-3.676334396004676819e-03
-1.968924887478351593e-02
-1.489064246416091919e-01
-1.877208650112152100e-01
-4.595163464546203613e-02
-1.822029240429401398e-02
-3.111665844917297363e-01
-2.904748320579528809e-01
-1.104074493050575256e-01
-2.434731274843215942e-01
-1.997032016515731812e-01
-1.779439151287078857e-01
-3.290236592292785645e-01
-3.316182792186737061e-01
-8.008820563554763794e-02
2.026272863149642944e-01
-5.662771314382553101e-02
-2.888037264347076416e-01
-3.267988264560699463e-01
5.886507406830787659e-02
-1.180037409067153931e-01
2.204981148242950439e-01
2.798463404178619385e-01
1.888285279273986816e-01
-1.253649443387985229e-01
1.215897127985954285e-01
1.852456480264663696e-01
-3.056625425815582275e-01
-1.709186434745788574e-01
-1.165688112378120422e-01
-6.924368441104888916e-02
7.499468326568603516e-02
-1.874432712793350220e-01
7.255473732948303223e-02
-2.825924754142761230e-01
2.105786800384521484e-01
-1.851185262203216553e-01
-5.102969333529472351e-02
-5.910156667232513428e-02
1.115754172205924988e-01
2.508339285850524902e-02
-2.505138218402862549e-01
-2.293822020292282104e-01
-3.484674096107482910e-01
-7.811790704727172852e-02
-5.013516917824745178e-02
-2.738377153873443604e-01
-2.798163704574108124e-02
-5.311675369739532471e-02
1.696757972240447998e-02
7.848110795021057129e-02
-8.261863887310028076e-02
-2.889192998409271240e-01
2.111661434173583984e-01
-2.309318818151950836e-02
1.208819150924682617e-01
-1.466841995716094971e-01
3.083185553550720215e-01
-3.414829075336456299e-01
2.572287321090698242e-01
-1.055031865835189819e-01
-1.743073202669620514e-02
-3.862884044647216797e-01
-4.820860549807548523e-02
-6.264393776655197144e-02
-2.753988802433013916e-01
8.086930215358734131e-02
-1.957610398530960083e-01
2.058523446321487427e-01
-3.609406054019927979e-01
1.827248930931091309e-01
9.531310200691223145e-02
-2.329223603010177612e-01
1.997241377830505371e-01
5.245520547032356262e-02
-2.000348269939422607e-01
-2.993380129337310791e-01
-1.992973387241363525e-01
-8.422940224409103394e-02
2.274090647697448730e-01
4.276730492711067200e-02
-2.683537313714623451e-03
-1.426545083522796631e-01
8.356368541717529297e-02
-2.540137171745300293e-01
1.696173250675201416e-01
-2.215627282857894897e-01
1.867311447858810425e-01
-2.536962032318115234e-01
9.814211726188659668e-02
-1.497199237346649170e-01
-2.387333959341049194e-01
1.669865697622299194e-01
8.156632632017135620e-02
-5.434899032115936279e-02
2.109303474426269531e-01
2.200192958116531372e-01
3.033030331134796143e-01
6.819489598274230957e-02
2.562457621097564697e-01
5.942318588495254517e-02
4.217436164617538452e-02
-2.351316064596176147e-02
-1.130141317844390869e-01
-2.611018717288970947e-01
6.408917158842086792e-02
-1.372469663619995117e-01
-1.411059051752090454e-01
-1.964768916368484497e-01
-2.065314054489135742e-01
-2.964624464511871338e-01
-7.214111834764480591e-02
-2.469763755798339844e-01
-2.631901800632476807e-01
-2.708619832992553711e-01
-1.409450620412826538e-01
2.439683377742767334e-01
1.695200614631175995e-02
-5.033127591013908386e-02
1.571547389030456543e-01
-8.358521014451980591e-02
-3.347708880901336670e-01
-1.587267406284809113e-02
-2.115650624036788940e-01
-9.649255871772766113e-02
-4.350833967328071594e-02
-3.060598373413085938e-01
-2.615147531032562256e-01
1.785666793584823608e-01
-2.186296731233596802e-01
2.191040068864822388e-01
-2.945728898048400879e-01
-1.501408666372299194e-01
1.379495114088058472e-01
-3.063551783561706543e-01
2.804427742958068848e-01
2.041359990835189819e-01
-3.423397243022918701e-01
-2.390920966863632202e-01
-7.632484659552574158e-03
-2.325707823038101196e-01
-2.428695261478424072e-01
-2.384936213493347168e-01
-2.656972408294677734e-01
-8.888392895460128784e-02
-2.346392720937728882e-01
-1.430659741163253784e-01
-8.907266706228256226e-02
-1.355515867471694946e-01
9.095209091901779175e-02
-1.045338809490203857e-01
1.871493645012378693e-02
-2.641828954219818115e-01
1.530137807130813599e-01
-8.204436302185058594e-02
-1.147690564393997192e-01
-2.166857123374938965e-01
1.876085996627807617e-01
-2.555445730686187744e-01
-1.480766832828521729e-01
-1.970725953578948975e-01
2.861319668591022491e-02
2.290858030319213867e-01
5.942748486995697021e-02
1.717012971639633179e-01
-2.755293548107147217e-01
-2.905507981777191162e-01
-4.120203256607055664e-01
-1.247696131467819214e-01
-1.533075422048568726e-01
-3.096320331096649170e-01
-3.269180357456207275e-01
4.033238813281059265e-02
-1.016566455364227295e-01
-3.176039755344390869e-01
-2.171801328659057617e-01
-1.003315597772598267e-01
-2.956360876560211182e-01
-2.740691900253295898e-01
2.034259438514709473e-01
2.626499831676483154e-01
-7.992660999298095703e-02
-1.050740480422973633e-02
-2.957310378551483154e-01
2.405398339033126831e-01
6.556324660778045654e-02
1.172468662261962891e-01
-1.916399784386157990e-02
-1.014118865132331848e-01
1.529774069786071777e-01
-8.858275413513183594e-02
-3.435937687754631042e-02
-2.310039997100830078e-01
1.488188356161117554e-01
2.838038466870784760e-02
-4.736752510070800781e-01
-3.418820500373840332e-01
1.196483597159385681e-01
-2.377599775791168213e-01
1.605831533670425415e-01
-1.092430651187896729e-01
-2.776281833648681641e-01
-3.516664803028106689e-01
-1.535721421241760254e-01
9.327983856201171875e-02
-1.039622500538825989e-01
4.112783074378967285e-02
-1.843422055244445801e-01
-9.171412885189056396e-02
1.503419429063796997e-01
-2.894208729267120361e-01
7.640884071588516235e-02
-1.920881122350692749e-01
-1.860588639974594116e-01
-8.928973227739334106e-02
-1.326637715101242065e-01
-4.481132030487060547e-01
-2.272042185068130493e-01
-3.038811683654785156e-01
2.373833805322647095e-01
-1.953253746032714844e-01
-3.212068378925323486e-01
1.392942667007446289e-01
-2.351022511720657349e-01
-1.586598157882690430e-01
-2.435234934091567993e-01
8.062358200550079346e-02
1.107808724045753479e-01
2.212319821119308472e-01
-4.225192666053771973e-01
2.506814301013946533e-01
-2.112938761711120605e-01
-1.784040182828903198e-01
-2.560347914695739746e-01
-3.773306608200073242e-01
-1.360395252704620361e-01
-1.092733070254325867e-01
1.265117526054382324e-01
-2.894331514835357666e-02
-1.412015557289123535e-01
-2.745914757251739502e-01
-3.096161484718322754e-01
-1.506040841341018677e-01
-5.698196962475776672e-02
-5.457181483507156372e-02
-4.618853330612182617e-01
-3.095519244670867920e-01
1.140246763825416565e-01
-8.358932286500930786e-02
1.009651739150285721e-02
-1.404895335435867310e-01
-2.028994113206863403e-01
-5.422165617346763611e-02
5.460356548428535461e-02
-1.234610155224800110e-01
-3.859545290470123291e-01
1.829982846975326538e-01
-3.474576175212860107e-01
3.499099612236022949e-02
-2.790427505970001221e-01
-6.638457626104354858e-02
1.051507368683815002e-01
-3.268871605396270752e-01
-2.188091129064559937e-01
-2.951205074787139893e-01
1.374403536319732666e-01
1.948844939470291138e-01
-2.376081496477127075e-01
-2.769052684307098389e-01
-3.353987336158752441e-01
-1.072432920336723328e-01
9.483310580253601074e-02
1.543958038091659546e-01
-7.908125966787338257e-02
-3.709720373153686523e-01
3.253357484936714172e-02
-3.484396934509277344e-01
1.480501797050237656e-02
-1.824593693017959595e-01
1.286447197198867798e-01
2.629694044589996338e-01
8.123400062322616577e-02
-6.601880490779876709e-02
2.144544571638107300e-01
-7.884469628334045410e-02
1.130199246108531952e-02
1.353178769350051880e-01
2.257287800312042236e-01
1.242042854428291321e-01
-3.499552607536315918e-01
1.616507023572921753e-01
1.373617798089981079e-01
-2.444843500852584839e-01
2.809021621942520142e-02
-2.736450433731079102e-01
-2.264551818370819092e-01
8.239464834332466125e-03
-8.640361018478870392e-03
1.239017769694328308e-01
-9.777671098709106445e-02
2.765096127986907959e-01
1.287907660007476807e-01
-5.486207827925682068e-02
-5.195967853069305420e-03
1.126177683472633362e-01
1.486495137214660645e-02
-2.862925529479980469e-01
-2.111710160970687866e-01
-1.942610368132591248e-02
-1.558723449707031250e-01
-2.838676571846008301e-01
-1.160546168684959412e-01
-2.791724801063537598e-01
1.490570604801177979e-01
-3.248482048511505127e-01
1.460038423538208008e-01
-1.032044291496276855e-01
-3.179479539394378662e-01
-2.219364047050476074e-01
1.577646434307098389e-01
1.376957744359970093e-01
-4.176260530948638916e-01
1.700976490974426270e-01
1.210662275552749634e-01
3.187258243560791016e-01
-4.192776381969451904e-01
-2.391238361597061157e-01
-1.084256544709205627e-01
1.889880597591400146e-01
1.899829357862472534e-01
4.696274176239967346e-02
4.862531274557113647e-02
-2.983827292919158936e-01
-1.282436847686767578e-01
-2.374747544527053833e-01
2.528078258037567139e-01
2.100602537393569946e-01
-7.422387599945068359e-02
1.111391279846429825e-02
-2.454803138971328735e-01
6.918758153915405273e-02
-6.285976618528366089e-02
4.578671231865882874e-02
-2.143261283636093140e-01
8.480688929557800293e-02
-1.805638708174228668e-02
-6.111023202538490295e-02
-2.740449905395507812e-01
-6.665307283401489258e-02
-3.816135227680206299e-02
1.681464612483978271e-01
-1.873881667852401733e-01
-3.478877842426300049e-01
1.337462067604064941e-01
1.767934672534465790e-02
9.186969697475433350e-02
-1.150396093726158142e-01
-2.928586006164550781e-01
1.499209702014923096e-01
1.329225748777389526e-01
-1.209137141704559326e-01
1.653466373682022095e-01
-2.079163938760757446e-01
-1.905426084995269775e-01
2.542920112609863281e-01
-1.108429878950119019e-01
-1.791433691978454590e-01
6.879788637161254883e-02
-2.745433151721954346e-01
-3.634118661284446716e-02
-2.208399176597595215e-01
5.030499026179313660e-02
-3.623054027557373047e-01
1.089619621634483337e-01
1.044983118772506714e-01
1.231612786650657654e-01
4.786372184753417969e-02
1.530811563134193420e-02
2.554078698158264160e-01
1.603848785161972046e-01
3.821192309260368347e-02
-8.168227225542068481e-02
1.384363174438476562e-01
-1.522687524557113647e-01
-3.787523210048675537e-01
-3.575919270515441895e-01
-2.411987632513046265e-01
-1.840147525072097778e-01
-2.266320735216140747e-01
1.364063024520874023e-01
2.971007116138935089e-02
1.867739260196685791e-01
-1.122614890336990356e-01
-3.765512704849243164e-01
-2.546254098415374756e-01
1.650878041982650757e-01
2.897058427333831787e-01
-2.271364033222198486e-01
-2.475001476705074310e-02
-9.169470285996794701e-04
1.253023445606231689e-01
-1.993175595998764038e-01
1.571602821350097656e-01
