3.256133198738098145e-02
1.155939772725105286e-01
1.208614371716976166e-02
1.689208149909973145e-01
2.692848145961761475e-01
-3.328689932823181152e-02
6.659609079360961914e-02
2.271992117166519165e-01
-2.177224010229110718e-01
1.516962051391601562e-01
-2.469765245914459229e-01
-1.886969357728958130e-01
-1.376444939523935318e-02
2.540235519409179688e-01
1.370359808206558228e-01
-7.028728723526000977e-02
1.071040183305740356e-01
-1.136369779706001282e-01
1.002038568258285522e-01
1.900849044322967529e-01
-8.036122471094131470e-02
2.374934963881969452e-02
9.513217955827713013e-02
1.908967941999435425e-01
1.023907959461212158e-01
-2.237755060195922852e-01
-1.327811479568481445e-01
-2.743808627128601074e-01
-4.048727452754974365e-01
5.292483419179916382e-02
1.403165906667709351e-01
-2.291905879974365234e-01
1.214515566825866699e-01
6.254349835216999054e-03
1.076954156160354614e-01
-1.018307283520698547e-01
2.306419461965560913e-01
-1.522536128759384155e-01
-3.049103617668151855e-01
-2.326679378747940063e-01
1.512089818716049194e-01
-2.232713699340820312e-01
7.786253839731216431e-02
1.070452556014060974e-01
-3.928484022617340088e-02
1.280726045370101929e-01
-1.063993871212005615e-01
1.001295074820518494e-01
7.762411981821060181e-02
6.011680141091346741e-02
1.077734529972076416e-01
1.180614605545997620e-01
-3.559729754924774170e-01
-7.045054808259010315e-03
-2.345623821020126343e-01
-4.544859230518341064e-01
-3.018707036972045898e-01
-4.007635712623596191e-01
-2.382206320762634277e-01
5.819687619805335999e-02
-5.994747281074523926e-01
-2.930763661861419678e-01
1.016020998358726501e-01
-4.462916031479835510e-02
-3.208430409431457520e-01
-2.307486236095428467e-01
2.715927660465240479e-01
-1.667001992464065552e-01
-1.686453074216842651e-01
-2.297339029610157013e-02
-3.751562908291816711e-02
-1.136182099580764771e-01
1.260528862476348877e-01
2.336977422237396240e-01
1.102266162633895874e-01
-3.346446156501770020e-01
-2.054676413536071777e-01
2.077534049749374390e-01
2.098225057125091553e-01
-1.580400615930557251e-01
-2.429641485214233398e-01
-2.909715101122856140e-02
-1.062585562467575073e-01
-5.059664249420166016e-01
1.095563918352127075e-01
1.289639025926589966e-01
-8.072064071893692017e-02
7.117576897144317627e-02
1.589141935110092163e-01
-7.512714862823486328e-01
-5.853142216801643372e-02
1.135972961783409119e-01
1.808418631553649902e-01
-3.061704933643341064e-01
1.660334765911102295e-01
2.121045589447021484e-01
-1.726416349411010742e-01
1.858159154653549194e-01
8.494581282138824463e-02
-8.348200470209121704e-03
-2.611797749996185303e-01
8.791877329349517822e-02
-3.378030285239219666e-02
-6.540223956108093262e-02
4.732373729348182678e-02
1.536931693553924561e-01
-6.934047937393188477e-01
1.173532009124755859e-02
-1.168614160269498825e-02
-1.107014343142509460e-02
1.156021207571029663e-01
5.285357683897018433e-02
-2.508510947227478027e-01
-2.879722118377685547e-01
-3.158485591411590576e-01
-2.325540184974670410e-01
1.903504431247711182e-01
-1.431108117103576660e-01
-2.350086420774459839e-01
1.943276822566986084e-01
-1.436861511319875717e-02
2.906791865825653076e-02
-6.726099252700805664e-01
-7.056660950183868408e-02
-1.405183970928192139e-01
-2.605003416538238525e-01
-2.033813148736953735e-01
-3.068287670612335205e-01
1.541666984558105469e-01
-5.322114825248718262e-01
8.049385622143745422e-03
-4.364524781703948975e-01
8.031281083822250366e-02
-2.976794242858886719e-01
9.641256183385848999e-02
1.056050732731819153e-01
2.179302088916301727e-02
-1.789176911115646362e-01
-5.764608457684516907e-02
-3.139382004737854004e-01
8.763494342565536499e-02
-7.902712374925613403e-02
1.671922206878662109e-01
5.422255024313926697e-02
-8.294872939586639404e-02
-5.959830060601234436e-02
-4.022511839866638184e-02
1.875226348638534546e-01
-3.271214962005615234e-01
-2.701786160469055176e-01
2.192487865686416626e-01
-1.550978720188140869e-01
-3.891338407993316650e-01
-1.457019299268722534e-01
2.744066528975963593e-02
-2.426567114889621735e-02
1.639186218380928040e-02
-2.104516923427581787e-01
-1.481117755174636841e-01
-2.458109706640243530e-01
1.455179601907730103e-02
-2.755704820156097412e-01
-4.925593137741088867e-01
-1.643567085266113281e-01
8.263508975505828857e-02
-1.900866329669952393e-01
2.336265444755554199e-01
7.956888526678085327e-02
-3.254304230213165283e-01
1.278576552867889404e-01
9.445778280496597290e-02
-2.944427728652954102e-01
-3.022312223911285400e-01
-2.370509505271911621e-01
-2.095924019813537598e-01
-1.641624122858047485e-01
-2.691781222820281982e-01
-1.306039243936538696e-01
-2.168433070182800293e-01
-4.256634041666984558e-02
-1.360460668802261353e-01
-2.377935349941253662e-01
-3.102047741413116455e-01
1.387071311473846436e-01
-1.323739904910326004e-02
-9.918248979374766350e-04
1.128601878881454468e-01
-4.197344779968261719e-01
1.342252790927886963e-01
1.611500382423400879e-01
1.423252373933792114e-01
2.826558798551559448e-02
-1.857077628374099731e-01
-4.898618459701538086e-01
9.121376276016235352e-02
-9.422409534454345703e-02
1.623167246580123901e-01
-1.088814884424209595e-01
1.652878224849700928e-01
-1.644959449768066406e-01
8.193173259496688843e-02
5.430113151669502258e-02
-4.824911057949066162e-02
-5.644445773214101791e-03
1.966351866722106934e-01
1.158133745193481445e-01
-4.043613970279693604e-01
1.696600914001464844e-01
3.763911081477999687e-03
-5.085275769233703613e-01
2.056480050086975098e-01
-2.995135486125946045e-01
2.648157477378845215e-01
8.956143260002136230e-02
-1.048690751194953918e-01
1.400215774774551392e-01
2.266800701618194580e-01
-1.789181679487228394e-01
-2.714942693710327148e-01
-1.562582105398178101e-01
5.819517374038696289e-02
-2.829870022833347321e-02
5.363883450627326965e-02
-7.741468027234077454e-03
1.350532323122024536e-01
4.315333813428878784e-02
-2.826509773731231689e-01
1.441529095172882080e-01
6.882995367050170898e-02
-2.163261175155639648e-03
-3.274409174919128418e-01
2.205385640263557434e-02
-2.948948740959167480e-01
-9.816184639930725098e-02
5.944886803627014160e-02
2.026019245386123657e-01
-7.887971401214599609e-02
-2.608743011951446533e-01
9.039941430091857910e-02
1.349763572216033936e-01
-1.301124542951583862e-01
1.455816626548767090e-01
-1.393429487943649292e-01
3.634490072727203369e-02
-1.459191739559173584e-01
-2.344060093164443970e-01
-5.286500453948974609e-01
1.029740571975708008e-01
2.183357924222946167e-01
1.190039515495300293e-02
7.654793560504913330e-02
6.887423247098922729e-02
2.062025070190429688e-01
-3.331472873687744141e-01
-1.868169009685516357e-01
-1.717663407325744629e-01
-1.027250364422798157e-01
1.772514134645462036e-01
3.402405977249145508e-02
-1.281799972057342529e-01
-2.068253457546234131e-01
-2.587938308715820312e-01
1.967208534479141235e-01
8.497329801321029663e-02
-2.691884338855743408e-01
-2.194506078958511353e-01
4.393717274069786072e-02
1.002559661865234375e-01
-3.812289834022521973e-01
1.800646334886550903e-01
-2.112928628921508789e-01
-1.850302666425704956e-01
-2.252068668603897095e-01
-1.106135621666908264e-01
-4.670632481575012207e-01
9.077726304531097412e-02
2.630712389945983887e-01
1.400059461593627930e-01
9.948628395795822144e-02
1.855987459421157837e-01
-5.378567799925804138e-02
1.320783197879791260e-01
1.142043694853782654e-01
-2.300574444234371185e-02
9.557627886533737183e-02
1.429347395896911621e-01
6.411131471395492554e-02
-1.955965459346771240e-01
-2.653172612190246582e-01
2.354496419429779053e-01
8.923333883285522461e-02
2.602816931903362274e-02
-5.934472754597663879e-02
-1.098679825663566589e-01
1.252523511648178101e-01
-7.638811320066452026e-02
-2.792554199695587158e-01
1.036062166094779968e-01
-2.295713126659393311e-01
8.443380147218704224e-02
-8.908098191022872925e-02
-1.723071783781051636e-01
1.113091502338647842e-02
1.087122187018394470e-01
-1.516631338745355606e-02
-2.289395928382873535e-01
1.027076169848442078e-01
-1.522846668958663940e-01
1.105891615152359009e-01
-4.225873947143554688e-01
-2.042850852012634277e-01
5.811670050024986267e-02
1.259693801403045654e-01
-1.528112776577472687e-02
-1.347183883190155029e-01
3.049249574542045593e-02
-2.102953344583511353e-01
-4.420071840286254883e-01
3.765871375799179077e-02
-1.177878677845001221e-01
1.727421730756759644e-01
-5.626279711723327637e-01
1.563496440649032593e-01
-8.471160382032394409e-02
-2.607260346412658691e-01
1.266964524984359741e-01
-2.352679669857025146e-01
1.605812460184097290e-01
2.605466730892658234e-02
1.161121949553489685e-01
1.165101900696754456e-01
-2.863218188285827637e-01
-1.000195592641830444e-01
1.237139925360679626e-01
1.356984525918960571e-01
-1.972874104976654053e-01
1.368904411792755127e-01
-7.766398787498474121e-02
1.741179972887039185e-01
-2.543342411518096924e-01
-6.388853490352630615e-02
-1.139410361647605896e-01
-2.013077139854431152e-01
4.579592496156692505e-02
-9.202879667282104492e-02
-1.395788490772247314e-01
-1.937171220779418945e-01
5.531195923686027527e-02
-3.070381283760070801e-01
-2.675586640834808350e-01
1.099764853715896606e-01
1.396203637123107910e-01
-2.703668773174285889e-01
-4.053505510091781616e-02
2.454136312007904053e-01
9.906467795372009277e-02
-7.021506130695343018e-02
-1.602632403373718262e-01
-1.498765032738447189e-02
-8.622663468122482300e-02
-2.925025224685668945e-01
9.747934341430664062e-02
-2.704482376575469971e-01
3.727374970912933350e-02
2.172833979129791260e-01
-1.516495198011398315e-01
-2.666636705398559570e-01
-6.238821428269147873e-03
-2.013612985610961914e-01
2.112490236759185791e-01
3.235257789492607117e-02
9.586961567401885986e-02
1.282951682806015015e-01
-2.086080163717269897e-01
-2.644704878330230713e-01
-1.118799671530723572e-01
9.878122247755527496e-03
-3.102825284004211426e-01
-7.040762901306152344e-02
-4.318052232265472412e-01
1.043504849076271057e-01
-2.793372273445129395e-01
1.025752723217010498e-01
-4.077844023704528809e-01
-2.960951924324035645e-01
5.962110590189695358e-03
-2.236309796571731567e-01
1.800716072320938110e-01
4.314608871936798096e-02
-2.614949345588684082e-01
8.063135296106338501e-02
1.871330887079238892e-01
-1.876379549503326416e-01
8.646199107170104980e-02
-2.925780415534973145e-01
-5.361146330833435059e-01
-2.463454604148864746e-01
-5.610233545303344727e-02
-5.845077708363533020e-02
-3.097932338714599609e-01
7.233990728855133057e-02
-2.068899571895599365e-01
1.831787228584289551e-01
1.631693392992019653e-01
1.232892200350761414e-01
-1.875125914812088013e-01
-6.672184914350509644e-02
1.388650089502334595e-01
-8.763147890567779541e-02
-7.796130329370498657e-02
1.384037584066390991e-01
1.505507677793502808e-01
-2.013014405965805054e-01
-2.645150385797023773e-02
-7.101253420114517212e-02
-2.607296109199523926e-01
-1.805797368288040161e-01
-1.865522861480712891e-01
8.056478202342987061e-02
1.668494939804077148e-01
1.077275425195693970e-01
2.804749086499214172e-02
5.429301783442497253e-02
1.960397362709045410e-01
6.515655666589736938e-02
-2.209373414516448975e-01
-4.024308919906616211e-02
-1.036095246672630310e-01
-7.627211511135101318e-03
-2.418857999145984650e-02
-4.471234977245330811e-02
1.050992906093597412e-01
-3.220971524715423584e-01
1.404339671134948730e-01
-2.848861217498779297e-01
-7.076816260814666748e-02
-3.400748223066329956e-02
-1.991110295057296753e-01
1.740868687629699707e-01
4.444714635610580444e-02
-3.269828110933303833e-02
-1.542222797870635986e-01
6.950724124908447266e-02
2.003241926431655884e-01
-2.987098395824432373e-01
-5.834234505891799927e-02
-3.419893682003021240e-01
-3.324488550424575806e-02
1.360755264759063721e-01
-1.944998353719711304e-01
1.788237392902374268e-01
-2.734271883964538574e-01
-1.241741701960563660e-01
-2.844477891921997070e-01
4.467409476637840271e-02
1.158597543835639954e-01
8.513600379228591919e-02
3.853880614042282104e-02
1.660847067832946777e-01
1.092995554208755493e-01
-7.205256819725036621e-02
-2.047186344861984253e-01
-6.796373426914215088e-02
-2.595833837985992432e-01
-2.055969983339309692e-01
4.164211824536323547e-02
-3.155429288744926453e-02
1.527026593685150146e-01
-2.719740867614746094e-01
-1.847964078187942505e-01
8.885138481855392456e-02
1.577131450176239014e-01
-6.205356493592262268e-02
-2.284963726997375488e-01
1.599337160587310791e-01
-2.275346666574478149e-01
-1.440460234880447388e-01
2.025623321533203125e-01
-5.597436428070068359e-01
7.212178409099578857e-02
-1.439045369625091553e-01
-1.719285845756530762e-01
-1.718506515026092529e-01
-1.010962948203086853e-01
-2.360946983098983765e-01
-2.019086331129074097e-01
-4.757110476493835449e-01
3.612096887081861496e-03
-2.701737284660339355e-01
8.328583091497421265e-02
-3.515570238232612610e-02
-1.393644362688064575e-01
-3.520665168762207031e-01
9.944716095924377441e-02
1.189649850130081177e-02
-1.548955887556076050e-01
-3.520990312099456787e-01
9.402523189783096313e-02
-2.300886064767837524e-01
1.539275944232940674e-01
-3.430153131484985352e-01
-5.574669688940048218e-02
-3.530589342117309570e-01
-1.694027036428451538e-01
1.186018288135528564e-01
-1.496559232473373413e-01
-2.844187021255493164e-01
-4.354934990406036377e-01
-9.866691380739212036e-02
-2.339065372943878174e-01
-9.319616109132766724e-02
2.853914629667997360e-03
1.260780692100524902e-01
-1.729413419961929321e-01
-9.627874940633773804e-02
-2.609004378318786621e-01
5.935841798782348633e-02
-1.025087013840675354e-01
1.559809446334838867e-01
-7.832564115524291992e-01
1.432324051856994629e-01
-9.899759292602539062e-02
1.338000744581222534e-01
-3.697803020477294922e-01
-2.597305178642272949e-01
-4.518578350543975830e-01
-2.245964556932449341e-01
-1.034689769148826599e-01
1.130811348557472229e-01
1.961401700973510742e-01
7.861544936895370483e-02
1.296608000993728638e-01
-5.067915320396423340e-01
-1.216655671596527100e-01
-3.883564174175262451e-01
-1.586786359548568726e-01
1.098740845918655396e-01
9.839279204607009888e-02
1.971961259841918945e-01
-1.017938926815986633e-01
-4.177665412425994873e-01
1.056621894240379333e-01
-2.628601491451263428e-01
1.773336976766586304e-01
-2.985490560531616211e-01
-1.136010885238647461e-01
2.108580917119979858e-01
8.831153810024261475e-02
5.133891850709915161e-02
1.410964280366897583e-01
-5.344552919268608093e-02
1.863610148429870605e-01
7.497043162584304810e-02
-8.815846592187881470e-02
-4.112361371517181396e-01
2.462996244430541992e-01
-2.068561166524887085e-01
-3.075502216815948486e-01
4.280779138207435608e-02
1.633497886359691620e-02
-6.065830588340759277e-02
-2.736393809318542480e-01
6.113132834434509277e-02
-1.621005237102508545e-01
-7.070356979966163635e-03
2.179763913154602051e-01
-3.744864761829376221e-01
1.545079350471496582e-01
-1.735955923795700073e-01
7.134529948234558105e-02
-2.830215692520141602e-01
1.167384833097457886e-01
-9.713289141654968262e-02
-7.132790237665176392e-02
-3.310547471046447754e-01
1.124509051442146301e-01
-1.201182082295417786e-01
-5.233595520257949829e-02
1.025260984897613525e-01
1.309515535831451416e-01
1.159528046846389771e-01
-1.758671551942825317e-02
2.855439484119415283e-02
-3.577204644680023193e-01
-1.466815620660781860e-01
1.413680315017700195e-01
-7.556486129760742188e-02
-1.769475787878036499e-01
1.288710087537765503e-01
6.913150195032358170e-03
-4.362038671970367432e-01
-3.160456418991088867e-01
-2.134068757295608521e-01
-1.864595711231231689e-01
-3.164316713809967041e-01
5.312409251928329468e-02
-2.267079353332519531e-01
-2.629919648170471191e-01
-1.012541130185127258e-01
-4.516193866729736328e-01
6.250848621129989624e-02
2.303775213658809662e-02
5.423569679260253906e-02
-9.365990012884140015e-02
-1.550758332014083862e-01
-1.685882508754730225e-01
-1.564088612794876099e-01
1.194317415356636047e-01
1.636138856410980225e-01
-1.287842094898223877e-01
-3.709673285484313965e-01
-5.598237738013267517e-02
-2.597421705722808838e-01
-3.330229222774505615e-01
-3.569167852401733398e-01
9.481175243854522705e-02
2.412289194762706757e-02
-4.959902167320251465e-01
-5.398796200752258301e-01
-8.556143194437026978e-02
4.039115831255912781e-02
-4.337106943130493164e-01
-7.388717532157897949e-01
8.472234010696411133e-02
-1.257713288068771362e-01
-1.989982873201370239e-01
-2.113795429468154907e-01
8.239173889160156250e-02
-7.618804275989532471e-02
8.736482262611389160e-02
1.727380454540252686e-01
1.487120091915130615e-01
9.376340359449386597e-02
1.803472191095352173e-01
5.670839920639991760e-02
-2.842655777931213379e-01
-4.425286054611206055e-01
-1.115135848522186279e-01
-1.514509599655866623e-02
-2.383289337158203125e-01
-1.887108534574508667e-01
1.109440550208091736e-01
1.483202874660491943e-01
-3.042136728763580322e-01
-1.028762534260749817e-01
-2.414371818304061890e-02
-8.536557108163833618e-02
-3.559451103210449219e-01
2.393418401479721069e-01
-5.998263135552406311e-02
-2.649349272251129150e-01
-5.016765370965003967e-02
-2.941296398639678955e-01
-1.155276894569396973e-01
9.731130301952362061e-02
-2.270591706037521362e-01
1.866799443960189819e-01
8.557699620723724365e-02
-1.512762904167175293e-01
6.031466275453567505e-02
3.622578829526901245e-02
-2.385067939758300781e-02
1.809173077344894409e-01
-1.202826946973800659e-01
-2.759622335433959961e-01
-7.339814901351928711e-01
-3.678387105464935303e-01
-2.354850918054580688e-01
-1.930021792650222778e-01
-4.482192099094390869e-01
-1.469103991985321045e-01
-1.367589384317398071e-01
-2.543456852436065674e-01
1.339181810617446899e-01
-9.184595346450805664e-01
-4.123956859111785889e-01
-8.786250650882720947e-02
1.481749713420867920e-01
-6.838208436965942383e-02
-3.310876488685607910e-01
-3.958865702152252197e-01
-2.514868974685668945e-01
1.000756323337554932e-01
-3.704483062028884888e-02
-3.303447067737579346e-01
5.673270300030708313e-02
1.145151536911725998e-02
-2.853654921054840088e-01
2.083481997251510620e-01
1.618138104677200317e-01
1.313027441501617432e-01
-1.542133539915084839e-01
-1.566059589385986328e-01
-1.455330103635787964e-01
-1.464266330003738403e-01
-4.100669622421264648e-01
8.301079273223876953e-02
-3.106353580951690674e-01
5.224121268838644028e-03
-1.614480465650558472e-01
1.631154268980026245e-01
2.798374369740486145e-02
-1.752506196498870850e-01
-3.231117725372314453e-01
-1.476173996925354004e-01
-1.601808518171310425e-01
-1.523076295852661133e-01
7.522971183061599731e-02
1.571906358003616333e-01
1.953117549419403076e-01
-1.641309261322021484e-01
-1.737056523561477661e-01
-1.861704885959625244e-01
6.968811899423599243e-02
-6.271654367446899414e-02
3.117374889552593231e-02
2.150378227233886719e-01
-3.459489345550537109e-01
-1.713400334119796753e-01
-2.541812956333160400e-01
3.518061712384223938e-02
1.919855326414108276e-01
-4.250820875167846680e-01
4.832229577004909515e-03
-1.867174804210662842e-01
-3.810768425464630127e-01
5.124973505735397339e-02
-5.671586468815803528e-02
-1.301925927400588989e-01
1.906870007514953613e-01
1.058051586151123047e-01
-3.411728739738464355e-01
2.379761636257171631e-01
9.191029518842697144e-02
-5.613124966621398926e-01
1.322242170572280884e-01
1.540427058935165405e-01
1.245757043361663818e-01
6.916088610887527466e-02
1.511242240667343140e-01
-1.299077272415161133e-01
-5.826928615570068359e-01
1.403126120567321777e-02
7.496555801481008530e-03
1.076696664094924927e-01
-4.011920690536499023e-01
-2.372236549854278564e-01
1.127267181873321533e-01
-3.148691654205322266e-01
-2.030560821294784546e-01
1.930301338434219360e-01
-9.075248241424560547e-02
-8.082254230976104736e-02
9.466527402400970459e-02
1.896513998508453369e-01
-1.341971307992935181e-01
3.259851410984992981e-02
-1.457411199808120728e-01
1.940858364105224609e-01
1.215129867196083069e-01
6.085398420691490173e-02
-2.231998145580291748e-01
-1.582124382257461548e-01
-2.238725125789642334e-02
6.965310126543045044e-02
-2.935712039470672607e-01
1.686673015356063843e-01
2.023096382617950439e-02
2.031129747629165649e-01
-7.092567682266235352e-01
-2.724094986915588379e-01
-2.207394093275070190e-01
1.783996969461441040e-01
-1.123501881957054138e-01
1.161159425973892212e-01
-2.262531816959381104e-01
-2.974761091172695160e-02
4.952649399638175964e-02
1.998035013675689697e-01
-3.169445693492889404e-02
-2.443952411413192749e-01
8.999042212963104248e-02
2.309815585613250732e-01
-1.729187816381454468e-01
-3.053480386734008789e-01
-1.712461858987808228e-01
-8.479887992143630981e-02
2.177174389362335205e-01
-2.471936643123626709e-01
-7.702036947011947632e-02
-3.359648883342742920e-01
2.517476379871368408e-01
2.289894223213195801e-01
1.498959511518478394e-01
-4.105239510536193848e-01
-3.531002700328826904e-01
1.960500478744506836e-01
7.625457644462585449e-02
-1.094648316502571106e-01
-1.194539386779069901e-02
1.110879480838775635e-01
-8.025292307138442993e-03
8.858372271060943604e-02
-5.010884255170822144e-02
-3.770470023155212402e-01
1.771017163991928101e-01
1.816222220659255981e-01
-1.377576263621449471e-03
9.016921371221542358e-02
-1.086232811212539673e-02
1.125308647751808167e-01
-4.043895900249481201e-01
1.557854712009429932e-01
-3.511117398738861084e-01
1.060486137866973877e-01
-2.589504122734069824e-01
-3.976295888423919678e-01
6.790532916784286499e-02
2.087596654891967773e-01
-4.057549685239791870e-02
1.287565827369689941e-01
-8.672488480806350708e-02
-2.467480301856994629e-01
-1.851133704185485840e-01
2.068977952003479004e-01
-4.108463414013385773e-03
-1.633831858634948730e-01
-2.504884302616119385e-01
1.347554326057434082e-01
-1.192325130105018616e-01
-2.152993679046630859e-01
3.364624455571174622e-02
1.874486915767192841e-02
-1.213197633624076843e-01
-1.378971636295318604e-01
-5.349254608154296875e-01
-1.165014579892158508e-01
-1.831982731819152832e-01
-1.426645368337631226e-01
1.044393181800842285e-01
-3.046082854270935059e-01
-1.606735140085220337e-01
-2.255878895521163940e-01
-2.718991637229919434e-01
2.360635902732610703e-03
-1.812028288841247559e-01
1.787848323583602905e-01
-7.530903816223144531e-01
-5.784261971712112427e-02
-3.756336271762847900e-01
1.568163782358169556e-01
4.907874017953872681e-02
7.373979315161705017e-03
-2.915334329009056091e-02
2.413477599620819092e-01
-2.972390949726104736e-01
1.535012871026992798e-01
2.851538658142089844e-01
-4.983646273612976074e-01
1.630352437496185303e-01
-3.170354962348937988e-01
-2.438478022813796997e-01
2.151984423398971558e-01
1.246787533164024353e-01
-9.257374331355094910e-03
-1.820860952138900757e-01
-2.973147630691528320e-01
-2.062686532735824585e-02
-1.927666962146759033e-01
-3.346294462680816650e-01
-3.170421123504638672e-01
-6.092638373374938965e-01
-2.158410102128982544e-01
-8.326293528079986572e-02
4.065059870481491089e-02
-1.949124932289123535e-01
-2.592334151268005371e-01
-1.420481353998184204e-01
-2.085276097059249878e-01
1.431589126586914062e-01
3.645272180438041687e-02
-5.643919110298156738e-01
-2.075555473566055298e-01
-2.987917363643646240e-01
-4.953475296497344971e-02
-1.881441771984100342e-01
-8.587459451518952847e-04
-1.388222873210906982e-01
1.634533256292343140e-01
1.184716746211051941e-01
-1.473182141780853271e-01
9.748050570487976074e-02
7.214750349521636963e-02
2.053135447204113007e-02
-1.374661326408386230e-01
1.100760251283645630e-01
1.760386675596237183e-01
-3.774908781051635742e-01
-1.063162982463836670e-01
6.729577481746673584e-02
-1.050836890935897827e-01
1.545401513576507568e-01
-1.574942469596862793e-02
-1.797477304935455322e-01
-1.812061071395874023e-01
-3.341165184974670410e-01
1.241493076086044312e-01
4.646107263397425413e-04
1.567814946174621582e-01
-5.994543805718421936e-02
-1.570623368024826050e-01
2.442003041505813599e-01
1.557058990001678467e-01
-2.720564045011997223e-02
-1.761934459209442139e-01
-3.159388005733489990e-01
-4.224712774157524109e-02
4.521006718277931213e-03
-1.225881502032279968e-01
1.994019299745559692e-01
-8.274321258068084717e-02
-1.508778333663940430e-01
-1.822254061698913574e-01
1.654533743858337402e-01
-3.558908402919769287e-01
-1.564726680517196655e-01
7.699906826019287109e-02
-3.661704361438751221e-01
1.054998859763145447e-01
2.368239462375640869e-01
-4.803134500980377197e-02
-1.125107407569885254e-01
-1.806367635726928711e-01
1.862628501839935780e-03
5.913479626178741455e-02
-6.179041042923927307e-02
5.898029543459415436e-03
-8.845825493335723877e-02
-7.459854334592819214e-02
-1.692200750112533569e-01
1.001496165990829468e-01
6.287612766027450562e-02
-9.143631905317306519e-02
2.215620577335357666e-01
-2.582015991210937500e-01
-8.054475486278533936e-02
-6.788719296455383301e-01
-3.095080554485321045e-01
-1.229482665657997131e-01
-3.343702554702758789e-01
1.689253002405166626e-01
2.073075324296951294e-01
-9.088364988565444946e-02
-1.354061663150787354e-01
-2.619584500789642334e-01
-2.447877079248428345e-01
-2.161335200071334839e-02
9.687087684869766235e-02
2.297008037567138672e-02
-4.299519956111907959e-01
1.120163202285766602e-01
-2.203574776649475098e-01
-1.712551862001419067e-01
5.440430715680122375e-02
-1.615882217884063721e-01
-3.377887606620788574e-02
-1.165970116853713989e-01
-7.596071064472198486e-02
1.375195477157831192e-02
2.336617857217788696e-01
-2.466509342193603516e-01
-4.721241444349288940e-02
-2.217405587434768677e-01
-8.001327514648437500e-02
1.865140199661254883e-01
2.458922117948532104e-01
-1.918649300932884216e-02
-1.982665807008743286e-01
-6.191062275320291519e-03
-2.052097022533416748e-01
-3.041007556021213531e-02
-1.329891830682754517e-01
-9.511227160692214966e-02
-1.328727751970291138e-01
-4.603604972362518311e-01
-7.173738628625869751e-02
1.371339708566665649e-01
-1.382558345794677734e-01
-2.441978454589843750e-01
-1.069451346993446350e-01
-1.975269168615341187e-01
-3.417030870914459229e-01
-3.720604181289672852e-01
-1.187456622719764709e-01
-2.696582376956939697e-01
-2.959907352924346924e-01
-2.834378778934478760e-01
-2.702344059944152832e-01
8.697610348463058472e-03
4.876961931586265564e-02
-3.161311149597167969e-01
9.059250354766845703e-02
1.854663342237472534e-01
-1.377550512552261353e-01
2.934449352324008942e-03
-3.187306225299835205e-01
-6.757289916276931763e-02
-3.079968392848968506e-01
2.423859834671020508e-01
-1.565375477075576782e-01
-4.120620191097259521e-01
-2.580734789371490479e-01
7.054845243692398071e-02
-2.996277436614036560e-02
9.935477375984191895e-02
2.281183451414108276e-01
-6.934557557106018066e-01
-1.081562042236328125e-01
-2.175072133541107178e-01
2.131632268428802490e-01
-2.884077653288841248e-02
1.204764470458030701e-01
-2.374759614467620850e-01
-9.532071650028228760e-02
