-1.887211203575134277e-01 -2.862495183944702148e-01 -6.357669085264205933e-02 1.081491727381944656e-02 -7.111304998397827148e-02 -3.796037659049034119e-02 -8.457832038402557373e-02 4.671820625662803650e-02 4.952647909522056580e-02 2.348926477134227753e-02 3.348005563020706177e-02 -3.796096891164779663e-02
2.344545125961303711e-01 1.481619179248809814e-01 -1.761443167924880981e-02 -9.069260954856872559e-02 -1.122615262866020203e-01 6.102399528026580811e-02 -4.886847734451293945e-02 1.307260151952505112e-02 -5.734407529234886169e-02 -1.536774784326553345e-01 -8.961860835552215576e-02 4.222085699439048767e-02
-3.085620235651731491e-03 -2.726967632770538330e-01 2.630564942955970764e-02 6.768254563212394714e-03 1.504659801721572876e-01 -6.938315182924270630e-02 -2.649998478591442108e-02 -2.766008116304874420e-02 -7.201875746250152588e-02 -6.240114197134971619e-02 -4.020385071635246277e-02 2.876792103052139282e-02
-9.825328737497329712e-02 6.499201059341430664e-02 1.467708349227905273e-01 2.404089644551277161e-02 1.209243983030319214e-01 3.062379546463489532e-02 5.642751976847648621e-02 -8.593591302633285522e-02 -3.534995019435882568e-02 2.442684397101402283e-02 6.965647637844085693e-02 1.266404092311859131e-01
9.590747207403182983e-02 -1.324681788682937622e-01 -7.820837944746017456e-02 -8.903499692678451538e-02 7.110299915075302124e-02 -1.146386116743087769e-01 2.375573292374610901e-02 -8.772507309913635254e-02 -5.553899705410003662e-02 6.181132048368453979e-03 -5.045932531356811523e-02 -6.293194741010665894e-02
1.428204476833343506e-01 1.045033559203147888e-01 8.039469271898269653e-02 -6.325164344161748886e-03 -5.067720543593168259e-03 -1.866354979574680328e-02 4.570040851831436157e-02 -8.190760016441345215e-02 -1.190597936511039734e-01 -9.900145977735519409e-02 -5.688710510730743408e-02 5.752550438046455383e-02
-1.225147470831871033e-01 6.579042412340641022e-03 1.087222993373870850e-01 -1.356149911880493164e-01 -1.124157663434743881e-02 6.652037799358367920e-02 -8.939390070736408234e-03 -8.257666975259780884e-02 5.809149518609046936e-02 2.526963129639625549e-03 -9.384977817535400391e-02 -6.363002210855484009e-02
-5.818761140108108521e-02 5.324190855026245117e-02 -8.793278783559799194e-02 9.341350942850112915e-02 4.472976177930831909e-02 -8.687797188758850098e-02 3.943996876478195190e-02 1.134608387947082520e-01 -1.578770950436592102e-02 -2.965678274631500244e-02 -3.918401896953582764e-02 -1.832559891045093536e-02
1.151269972324371338e-01 -1.430967897176742554e-01 5.396971106529235840e-02 7.648858428001403809e-02 1.237679794430732727e-01 -3.982379287481307983e-02 -2.686470746994018555e-02 -5.417669564485549927e-02 2.449211850762367249e-02 -3.420647978782653809e-02 -3.070990554988384247e-02 -7.461149990558624268e-02
-9.916952252388000488e-02 2.072195149958133698e-02 1.098460778594017029e-01 3.455050289630889893e-02 1.277152299880981445e-01 3.022572491317987442e-05 8.483256399631500244e-02 -4.510483145713806152e-02 -1.585676819086074829e-01 1.387191750109195709e-02 5.929246172308921814e-02 1.823979243636131287e-02
-1.204240247607231140e-01 -9.256513416767120361e-02 -1.170747205615043640e-01 1.626121699810028076e-01 -1.181761994957923889e-01 6.585485767573118210e-03 -6.513816863298416138e-02 -1.538050472736358643e-01 9.573233313858509064e-03 3.630146756768226624e-02 1.172799691557884216e-01 1.132471114397048950e-01
6.696443259716033936e-02 -4.834895208477973938e-02 -1.479052901268005371e-01 -1.064431294798851013e-01 -3.227271884679794312e-02 7.744945585727691650e-02 -4.784946143627166748e-02 1.207516416907310486e-01 1.467011496424674988e-02 1.341216079890727997e-02 7.500214874744415283e-02 -7.058703899383544922e-02
8.513373136520385742e-02 -1.459910273551940918e-01 6.279571354389190674e-02 -6.711569428443908691e-02 5.416262894868850708e-03 1.597006572410464287e-03 5.704285576939582825e-02 -4.257486760616302490e-02 1.555647142231464386e-02 -4.442571103572845459e-02 4.387576878070831299e-02 -4.625169560313224792e-02
-2.001532353460788727e-02 -2.975100092589855194e-02 -1.258748322725296021e-01 -1.369199436157941818e-02 7.066931575536727905e-02 -9.961958974599838257e-03 1.519628427922725677e-02 -5.896370857954025269e-02 2.092386223375797272e-02 -3.878958150744438171e-02 1.235435232520103455e-01 -9.787032380700111389e-03
3.096968121826648712e-02 -1.531749516725540161e-01 -7.692010607570409775e-03 4.654628410935401917e-02 3.504227474331855774e-02 1.699357479810714722e-01 9.805298596620559692e-02 -8.352130651473999023e-02 2.352698473259806633e-03 -4.979199264198541641e-03 -4.776050336658954620e-03 -1.023254692554473877e-01
1.554989516735076904e-01 -5.718776583671569824e-02 -1.483595520257949829e-01 -6.158012151718139648e-02 1.220712717622518539e-02 1.725860498845577240e-02 1.018062513321638107e-02 3.047051094472408295e-02 1.004721410572528839e-02 9.581575286574661732e-04 9.676547348499298096e-02 -2.286678552627563477e-02
-1.373788416385650635e-01 -6.341387331485748291e-02 2.181873656809329987e-02 2.307097166776657104e-01 -1.827233843505382538e-02 -1.784089952707290649e-02 -1.137699037790298462e-01 -2.829441241919994354e-02 2.451558783650398254e-02 1.422743201255798340e-01 -4.466740787029266357e-02 -1.001750677824020386e-01
1.088387295603752136e-01 -9.582221508026123047e-02 7.497700303792953491e-02 -4.475848749279975891e-02 1.041083931922912598e-01 8.426851779222488403e-02 1.491132080554962158e-01 -4.753250163048505783e-03 2.163448836654424667e-03 -1.652405112981796265e-01 -2.847592113539576530e-03 -8.724120259284973145e-02
1.382363438606262207e-01 1.173960864543914795e-01 -5.982467159628868103e-02 -1.423801183700561523e-01 -1.077526658773422241e-01 8.221769332885742188e-02 4.437644779682159424e-02 6.986757367849349976e-02 -1.398943550884723663e-02 -1.507405936717987061e-01 6.739502400159835815e-02 5.496644601225852966e-02
-1.926076412200927734e-01 6.195580586791038513e-02 1.722148656845092773e-01 5.101083219051361084e-02 7.613006979227066040e-02 1.559751853346824646e-02 1.121822968125343323e-01 5.288361106067895889e-03 7.810044288635253906e-02 2.032875567674636841e-01 2.242097631096839905e-02 1.029797121882438660e-01
-1.420773332938551903e-03 1.753727346658706665e-02 -6.375417858362197876e-02 2.793083712458610535e-02 2.151602879166603088e-02 6.502503901720046997e-02 3.907613828778266907e-02 7.736151665449142456e-02 1.071765869855880737e-01 -9.447446465492248535e-02 7.136131823062896729e-02 -1.242649406194686890e-01
3.681581020355224609e-01 1.920686215162277222e-01 -2.070110887289047241e-01 2.029193043708801270e-01 9.129846096038818359e-02 2.857129573822021484e-01 -6.373462826013565063e-02 9.112590551376342773e-02 -2.674880325794219971e-01 2.424448281526565552e-01 -1.543904840946197510e-01 3.634582739323377609e-03
3.320012614130973816e-02 -1.512434706091880798e-02 1.028411015868186951e-01 -1.139438003301620483e-01 -1.981561072170734406e-02 2.002961561083793640e-02 -9.506926685571670532e-02 -9.262015670537948608e-02 5.339507013559341431e-02 2.614735998213291168e-02 -5.703448504209518433e-02 1.722989976406097412e-02
1.293779462575912476e-01 -7.755552977323532104e-02 -2.811240032315254211e-02 -9.545524418354034424e-02 -5.265024304389953613e-02 8.486738055944442749e-02 3.411224484443664551e-02 -4.584278911352157593e-02 3.515895514283329248e-04 2.154945209622383118e-02 1.461835056543350220e-01 -5.994756147265434265e-02
-5.985153466463088989e-02 -1.147937178611755371e-01 -8.593735843896865845e-02 1.259960681200027466e-01 3.348003700375556946e-02 1.379454880952835083e-01 -1.323966085910797119e-01 -6.231484189629554749e-02 1.017847135663032532e-01 1.071955449879169464e-02 -4.150941222906112671e-02 -8.974472433328628540e-02
1.122480072081089020e-02 1.425558049231767654e-02 -4.817525297403335571e-02 7.394108176231384277e-02 7.089506089687347412e-02 1.992231979966163635e-02 1.253347098827362061e-01 1.134017948061227798e-02 -9.558451920747756958e-02 1.038930192589759827e-01 -5.491536483168601990e-02 -1.376779228448867798e-01
4.219194874167442322e-02 1.136730331927537918e-02 2.424800768494606018e-02 -2.517056651413440704e-02 -8.250894397497177124e-02 -1.072810739278793335e-01 7.037419080734252930e-02 -1.191903278231620789e-01 -1.489116400480270386e-01 2.358626574277877808e-02 -9.697252511978149414e-02 -1.813014224171638489e-02
6.650242209434509277e-02 1.227271184325218201e-02 -4.794714227318763733e-02 -2.802179753780364990e-02 7.277416530996561050e-03 1.190226227045059204e-01 -9.018791466951370239e-02 4.311069473624229431e-02 -4.069897904992103577e-02 5.952930822968482971e-02 9.921891987323760986e-02 9.149643778800964355e-02
3.537573665380477905e-02 2.229245752096176147e-02 -9.004931151866912842e-02 -5.408755689859390259e-02 5.610357969999313354e-02 -2.860876172780990601e-02 -1.242388039827346802e-02 7.589838653802871704e-02 -5.934582278132438660e-02 1.572827994823455811e-02 4.898228496313095093e-02 1.342060416936874390e-02
-1.837903051637113094e-03 4.005127400159835815e-02 1.118652001023292542e-01 2.987986803054809570e-02 -1.343749910593032837e-01 1.187486201524734497e-01 4.086631350219249725e-03 -7.695334404706954956e-02 -3.911687806248664856e-02 1.084683239459991455e-01 -7.921618968248367310e-02 -1.321622878313064575e-01
5.996096506714820862e-02 -1.727725937962532043e-02 -6.888689100742340088e-02 2.975028939545154572e-02 1.172599848359823227e-02 9.889705479145050049e-02 -2.359054610133171082e-02 2.034364491701126099e-01 -7.460479158908128738e-03 -6.931178271770477295e-03 -7.157377153635025024e-02 -1.022082567214965820e-01
5.130723863840103149e-02 2.069816691800951958e-04 -2.524522691965103149e-02 -1.080762315541505814e-02 6.817284226417541504e-02 4.600357264280319214e-02 1.155289728194475174e-02 2.361732907593250275e-02 3.600862110033631325e-03 7.683710008859634399e-02 -9.655141085386276245e-02 -1.210088580846786499e-01
-4.616856109350919724e-03 4.334317892789840698e-02 4.474220797419548035e-02 -3.543071076273918152e-02 -4.077789932489395142e-02 -1.178827956318855286e-01 -5.287690833210945129e-02 6.983067840337753296e-02 7.802542299032211304e-02 -8.944334089756011963e-02 6.853981316089630127e-02 -5.584493651986122131e-02
1.628648489713668823e-01 5.234172940254211426e-02 1.944282092154026031e-02 -9.201442450284957886e-02 1.230495609343051910e-02 1.727691665291786194e-02 -1.295182704925537109e-01 -1.034072563052177429e-01 5.813960358500480652e-02 -4.003687202930450439e-02 -1.058336123824119568e-01 9.414578229188919067e-02
1.594795659184455872e-02 -5.642133578658103943e-02 -9.595265239477157593e-02 -8.181837387382984161e-03 -6.680255383253097534e-02 -1.408239360898733139e-02 -1.761030778288841248e-02 1.832887530326843262e-02 4.289309680461883545e-02 1.860708557069301605e-02 1.114679276943206787e-01 3.204521164298057556e-02
2.518343031406402588e-01 3.226629691198468208e-03 -1.147978473454713821e-03 5.172381177544593811e-03 -1.329597085714340210e-01 -7.396048307418823242e-02 -9.619630128145217896e-02 -1.583149470388889313e-02 -1.345321238040924072e-01 1.302556693553924561e-02 -7.095271348953247070e-02 1.320347934961318970e-01
2.263378351926803589e-01 -9.463340789079666138e-02 3.909830749034881592e-02 4.210667312145233154e-02 -1.701223291456699371e-02 2.023507803678512573e-01 -8.623187243938446045e-02 3.805461153388023376e-02 1.218286976218223572e-01 -1.635564118623733521e-01 1.735939830541610718e-01 7.183226197957992554e-02
8.357631415128707886e-02 -4.933288693428039551e-02 -1.011079773306846619e-01 -3.022326529026031494e-02 -7.483302056789398193e-02 5.891675502061843872e-02 7.940473407506942749e-02 -4.289156943559646606e-02 9.611107409000396729e-03 6.222922354936599731e-02 6.068705767393112183e-02 1.431684195995330811e-02
-1.571109890937805176e-01 1.254448890686035156e-01 9.079896658658981323e-02 -5.976773053407669067e-02 1.045051962137222290e-02 5.236800760030746460e-02 -9.462216496467590332e-02 -5.932407453656196594e-02 2.596273261588066816e-04 2.964017912745475769e-02 1.208894047886133194e-02 6.450396776199340820e-02
-8.806326240301132202e-02 -1.599856615066528320e-01 5.662539973855018616e-02 1.312760412693023682e-01 -5.313647538423538208e-02 1.306378096342086792e-02 -6.180167570710182190e-02 -1.115221157670021057e-01 9.667179733514785767e-02 -3.559980168938636780e-02 6.445621699094772339e-02 -1.338388025760650635e-01
1.529431529343128204e-02 -1.055454313755035400e-01 -2.581867575645446777e-02 5.607717484235763550e-02 1.646163500845432281e-02 2.768601523712277412e-03 8.269223570823669434e-02 -2.568830922245979309e-02 2.682126127183437347e-03 -4.113067407160997391e-03 -3.635385259985923767e-02 -1.667243242263793945e-01
1.080924794077873230e-01 -7.976611144840717316e-03 -1.602336019277572632e-01 7.392757385969161987e-02 -1.561683416366577148e-01 -5.706111714243888855e-02 -1.605489403009414673e-01 -2.577479928731918335e-02 7.133269309997558594e-02 -1.526384651660919189e-01 1.968035548925399780e-01 8.368509262800216675e-02
-2.391289686784148216e-03 -8.050278574228286743e-02 9.672351926565170288e-02 -2.294228971004486084e-02 1.209954991936683655e-01 -5.957173183560371399e-02 8.553001284599304199e-02 -3.663451969623565674e-02 -1.856847703456878662e-01 1.447328925132751465e-01 -1.240887343883514404e-01 -6.855378299951553345e-02
-9.573793970048427582e-03 -4.710523411631584167e-02 1.284494549036026001e-01 -6.646559387445449829e-02 -2.101774513721466064e-02 -8.787419646978378296e-02 1.616499014198780060e-02 -3.646866604685783386e-02 -5.343801900744438171e-02 5.081449053250253201e-04 9.419606626033782959e-02 -3.096986562013626099e-02
-9.393575787544250488e-02 -7.666061073541641235e-02 1.113529205322265625e-01 -7.315364480018615723e-02 -2.794173918664455414e-02 7.185500115156173706e-02 -6.495784968137741089e-02 9.724023938179016113e-02 -2.528025209903717041e-02 2.786113135516643524e-02 1.809337548911571503e-02 1.202680692076683044e-01
1.050366535782814026e-01 -1.645796373486518860e-02 -1.008491739630699158e-01 -4.914665967226028442e-02 -2.028321921825408936e-01 -1.558555215597152710e-01 2.917717956006526947e-02 -4.268215224146842957e-02 1.417680978775024414e-01 -3.400894999504089355e-01 2.413878738880157471e-01 3.782131010666489601e-03
6.051416322588920593e-02 -7.985658943653106689e-02 3.771862015128135681e-02 -2.722842060029506683e-02 -4.469275474548339844e-02 -7.669561356306076050e-02 -6.626203190535306931e-03 -5.000951513648033142e-02 6.256942870095372200e-04 -1.209097877144813538e-01 1.092920079827308655e-01 -6.253946572542190552e-02
1.364973336458206177e-01 -1.109458580613136292e-01 -9.360229223966598511e-02 -6.494736671447753906e-02 2.933024428784847260e-02 7.395285367965698242e-02 7.364778965711593628e-02 1.108789220452308655e-01 6.531055271625518799e-02 -1.475750803947448730e-01 -9.879762073978781700e-04 -3.530396847054362297e-03
-9.958653151988983154e-02 1.013137493282556534e-02 -1.085014864802360535e-01 4.159191995859146118e-02 1.195222213864326477e-01 6.740546971559524536e-02 -3.534057736396789551e-02 1.642103791236877441e-01 -5.693055316805839539e-02 4.450747743248939514e-02 -1.201346423476934433e-02 -1.603869459358975291e-04
3.700058907270431519e-02 -1.318821310997009277e-01 5.132677406072616577e-02 9.326143562793731689e-02 2.407602593302726746e-02 8.363305777311325073e-02 7.273182272911071777e-03 -3.399444743990898132e-02 -6.777768023312091827e-03 4.743154160678386688e-03 -1.352676376700401306e-02 -1.267223656177520752e-01
8.844456076622009277e-02 -1.000000312924385071e-01 -5.412592738866806030e-02 2.954360796138644218e-03 1.651370897889137268e-02 2.791320718824863434e-02 -8.988655358552932739e-02 -8.321879059076309204e-02 -8.602564036846160889e-02 5.065203830599784851e-02 -8.827091753482818604e-02 1.902533918619155884e-01
9.539925307035446167e-02 -4.742425680160522461e-02 1.059342455118894577e-02 1.439790613949298859e-02 -7.039699703454971313e-02 1.227484717965126038e-01 1.206948980689048767e-01 4.564760997891426086e-02 -9.877461940050125122e-02 2.981456369161605835e-02 3.383130207657814026e-02 -6.640880554914474487e-02
1.829094737768173218e-01 5.143694579601287842e-02 6.865214556455612183e-03 -2.276869267225265503e-01 -9.943187981843948364e-02 9.222306311130523682e-02 -3.038396127521991730e-02 -9.375927597284317017e-02 7.113397121429443359e-02 -7.520297914743423462e-02 -1.518305949866771698e-02 2.124799638986587524e-01
-7.528723776340484619e-02 7.983924821019172668e-03 3.938806056976318359e-02 1.550767105072736740e-02 1.693627983331680298e-02 7.334110140800476074e-02 1.124500632286071777e-01 -4.408054426312446594e-02 -6.117227952927350998e-03 6.024197861552238464e-02 -1.622437983751296997e-01 -8.694034814834594727e-02
-8.885593712329864502e-02 -6.123025715351104736e-02 6.321107596158981323e-02 8.050159364938735962e-02 7.546948641538619995e-02 -9.730586409568786621e-02 4.765376076102256775e-02 5.490395240485668182e-03 -4.139142483472824097e-02 8.070073276758193970e-02 3.279782831668853760e-02 1.111774817109107971e-01
-1.077843457460403442e-01 -7.955732196569442749e-02 -5.817774799652397633e-04 6.718265265226364136e-02 1.386868208646774292e-01 8.892849832773208618e-02 1.416163444519042969e-01 -4.194653406739234924e-02 2.084570750594139099e-02 3.777221590280532837e-02 -4.803477227687835693e-02 1.057453826069831848e-01
6.455289572477340698e-02 -2.084512822329998016e-02 9.440646972507238388e-04 4.882825538516044617e-02 4.976562224328517914e-03 -5.151069723069667816e-03 7.335923612117767334e-02 7.921184599399566650e-02 -3.869002684950828552e-03 -3.930615633726119995e-02 4.539381712675094604e-02 -1.684186607599258423e-01
-8.591357618570327759e-02 4.426935315132141113e-02 -2.311086468398571014e-02 -1.131297573447227478e-01 7.181606441736221313e-02 -6.441593170166015625e-02 1.154019385576248169e-01 -3.788012266159057617e-02 -4.376703873276710510e-02 -7.687045261263847351e-03 -1.671618968248367310e-02 6.386700272560119629e-02
-9.185982495546340942e-02 -1.463667955249547958e-02 5.998024344444274902e-02 8.605897426605224609e-02 5.211371183395385742e-02 -5.912313237786293030e-02 1.714850775897502899e-02 -2.344726398587226868e-02 2.259579673409461975e-02 3.547739610075950623e-02 -1.521612890064716339e-02 5.223300680518150330e-02
-1.886833608150482178e-01 -2.303220331668853760e-02 -4.292160272598266602e-03 2.733898162841796875e-01 4.279930889606475830e-02 1.939701437950134277e-01 6.488182395696640015e-02 -9.378474205732345581e-02 7.842561602592468262e-02 5.660348758101463318e-02 -9.749358147382736206e-02 -2.180516570806503296e-01
7.035525888204574585e-02 -5.480028688907623291e-02 -8.362284279428422451e-04 -1.554241925477981567e-01 1.376822441816329956e-01 -1.548797786235809326e-01 3.071148321032524109e-02 5.227566882967948914e-02 -2.657899260520935059e-01 6.659757345914840698e-02 -2.625865638256072998e-01 -8.060863614082336426e-02
1.069365441799163818e-01 -1.041510980576276779e-02 -8.900827169418334961e-02 -6.642985343933105469e-02 -3.402519226074218750e-02 -7.367568463087081909e-02 2.096460759639739990e-02 2.616695826873183250e-03 -9.632812440395355225e-02 -1.889505237340927124e-02 1.179858669638633728e-01 -5.506246164441108704e-02
-7.750564813613891602e-02 6.877070665359497070e-02 9.210971742868423462e-02 2.474140562117099762e-02 3.664870932698249817e-02 7.457219064235687256e-02 2.821052446961402893e-02 2.716466784477233887e-02 -9.021127969026565552e-02 -2.203823998570442200e-02 3.162948414683341980e-02 7.226701080799102783e-02
-6.541129201650619507e-02 8.807078003883361816e-03 7.550204545259475708e-02 5.388414859771728516e-02 -2.607025392353534698e-02 -1.140763163566589355e-01 9.055060893297195435e-02 4.785509407520294189e-02 7.095587998628616333e-02 -8.107993751764297485e-02 1.648813672363758087e-02 -1.612452976405620575e-02
-2.979680299758911133e-01 5.647616833448410034e-02 -4.237365722656250000e-02 1.274454146623611450e-01 1.068324223160743713e-02 2.223875746130943298e-02 1.086782738566398621e-01 -3.959435597062110901e-02 5.656882002949714661e-02 3.151834011077880859e-02 -1.226732209324836731e-01 -3.239719942212104797e-02
1.591217815876007080e-01 -1.931462287902832031e-01 -5.315130949020385742e-02 4.075036570429801941e-02 -1.054643988609313965e-01 -1.955160051584243774e-01 -4.916328936815261841e-02 -1.047872602939605713e-01 -4.888792708516120911e-02 3.196784108877182007e-02 1.288170665502548218e-01 4.116464033722877502e-02
-1.840286403894424438e-01 -1.515901368111371994e-02 2.427079714834690094e-02 1.317775398492813110e-01 1.763299256563186646e-01 2.795970253646373749e-02 1.200308874249458313e-01 9.782477468252182007e-02 -8.182591944932937622e-02 1.337907016277313232e-01 1.143549918197095394e-03 1.681487560272216797e-01
3.126847371459007263e-02 4.685042425990104675e-02 -2.209811359643936157e-01 -1.083691939711570740e-01 -1.015853360295295715e-01 -1.951357573270797729e-01 -3.457661345601081848e-02 -1.105660423636436462e-01 8.613990247249603271e-02 6.674333941191434860e-03 1.450709104537963867e-01 5.447818711400032043e-02
8.988747745752334595e-02 5.408480018377304077e-02 -1.473576482385396957e-02 3.272078465670347214e-03 -1.045180410146713257e-01 1.042209044098854065e-01 8.329548686742782593e-02 -1.502653062343597412e-01 1.303156912326812744e-01 3.586060134693980217e-03 -5.566611513495445251e-02 6.894043087959289551e-02
6.101005896925926208e-02 -1.088280454277992249e-01 -2.312385663390159607e-02 9.079430252313613892e-02 -3.043464571237564087e-02 1.151750534772872925e-01 -1.476951390504837036e-01 -5.596087872982025146e-02 6.608717888593673706e-02 -2.465127781033515930e-02 4.368688166141510010e-02 5.623689666390419006e-02
-7.105164229869842529e-02 -6.993179768323898315e-02 -6.145060434937477112e-02 1.389165073633193970e-01 1.005709692835807800e-01 1.277786940336227417e-01 9.591037407517433167e-03 1.493659452535212040e-03 1.079429015517234802e-01 -4.434162005782127380e-02 4.353388026356697083e-02 -1.015884876251220703e-01
-2.393425554037094116e-01 -1.256481409072875977e-01 1.605611592531204224e-01 8.433841913938522339e-02 1.609771326184272766e-02 9.778805822134017944e-02 2.730368636548519135e-02 2.082405239343643188e-01 6.484504323452711105e-03 -1.466644704341888428e-01 5.265988036990165710e-02 -2.164681674912571907e-03
1.500019878149032593e-01 -2.390642464160919189e-02 5.318510811775922775e-04 9.532871842384338379e-02 1.000628769397735596e-01 -4.244930744171142578e-01 7.719147950410842896e-02 -3.291896879673004150e-01 -1.026066467165946960e-01 3.434822335839271545e-02 4.145514219999313354e-02 3.724372014403343201e-02
1.605365797877311707e-02 -2.475991100072860718e-02 -1.964087635278701782e-01 -6.728959083557128906e-02 -1.431455761194229126e-01 -1.174165606498718262e-01 5.164202675223350525e-02 2.487155981361865997e-02 7.976526767015457153e-02 5.633252672851085663e-03 9.323523193597793579e-02 -7.443228736519813538e-03
-4.222769290208816528e-02 -2.139096111059188843e-01 -5.749593302607536316e-02 -4.419319704174995422e-02 -1.069564223289489746e-01 -3.252285532653331757e-03 6.523232161998748779e-02 -1.271752715110778809e-01 -3.926378861069679260e-02 -4.086208995431661606e-03 -5.620271712541580200e-02 -1.248354911804199219e-01
-7.007674872875213623e-02 4.269053414463996887e-02 6.475539505481719971e-02 4.870545491576194763e-02 9.577174484729766846e-02 6.663711369037628174e-02 3.858499228954315186e-02 1.014516949653625488e-01 -1.127144172787666321e-01 1.646972232265397906e-04 2.042486332356929779e-02 -2.416641823947429657e-02
2.560081183910369873e-01 -1.265584230422973633e-01 -1.401318460702896118e-01 2.073070779442787170e-02 -2.045914158225059509e-02 9.090184420347213745e-02 4.132430627942085266e-02 8.478599041700363159e-02 -7.353308796882629395e-02 1.293271929025650024e-01 2.615732699632644653e-02 1.990625448524951935e-02
-5.393909662961959839e-02 -9.728951007127761841e-02 1.741846092045307159e-02 -7.770660519599914551e-02 9.069883078336715698e-02 -2.417721552774310112e-03 -6.368594616651535034e-02 -7.000201195478439331e-02 -8.521734178066253662e-02 -3.009188920259475708e-02 1.234099194407463074e-01 -1.195716410875320435e-01
9.060639142990112305e-02 -6.667383015155792236e-03 -1.638296805322170258e-02 5.365176126360893250e-03 1.699454709887504578e-02 -5.234473571181297302e-02 -1.264194585382938385e-02 -1.452907919883728027e-01 -4.646792542189359665e-03 -7.532982528209686279e-02 1.649174988269805908e-01 -2.620613276958465576e-01
-4.134260118007659912e-02 -2.109225541353225708e-01 -1.597226224839687347e-02 2.365285716950893402e-02 2.458326518535614014e-02 2.878125384449958801e-02 9.616135060787200928e-02 -5.933159962296485901e-02 7.398194819688796997e-02 -6.318124383687973022e-02 1.490254551172256470e-01 9.297492355108261108e-02
-9.796440601348876953e-02 -1.055105999112129211e-01 -8.580562472343444824e-02 -6.908284127712249756e-02 8.887731470167636871e-03 1.043659448623657227e-01 1.146849710494279861e-02 -1.176050398498773575e-02 -8.077256381511688232e-03 1.174342706799507141e-01 -7.509168982505798340e-02 -2.081680297851562500e-01
-3.093780204653739929e-02 -1.677041649818420410e-01 -5.733462050557136536e-02 3.655828908085823059e-02 -3.454273939132690430e-02 -3.663564100861549377e-03 8.190583437681198120e-02 3.729720041155815125e-02 3.046763874590396881e-02 2.057421661447733641e-04 -3.645488247275352478e-02 -5.750006064772605896e-02
2.116918191313743591e-02 -5.063888803124427795e-02 9.621196985244750977e-02 3.448923677206039429e-02 -1.069389358162879944e-01 2.702127024531364441e-02 1.805762574076652527e-02 -1.530678421258926392e-01 2.130138128995895386e-01 -2.185284048318862915e-01 1.531287133693695068e-01 5.342044401913881302e-03
1.106217727065086365e-01 -5.045302957296371460e-02 2.631535194814205170e-02 -1.546115148812532425e-02 -6.092789769172668457e-02 -6.007460132241249084e-02 2.895656973123550415e-02 9.578537195920944214e-02 9.500645846128463745e-02 -1.034400388598442078e-01 9.389080852270126343e-02 -1.085596606135368347e-01
-1.236212328076362610e-01 1.006390377879142761e-01 -3.451716154813766479e-02 5.060392990708351135e-02 9.352943301200866699e-02 9.905274957418441772e-02 4.175376519560813904e-02 -2.799684554338455200e-02 1.167199388146400452e-01 2.603683620691299438e-02 -8.325545489788055420e-02 -1.400889754295349121e-01
8.317046798765659332e-03 -9.751258790493011475e-02 6.197671219706535339e-02 1.570229828357696533e-01 -5.050743371248245239e-02 1.668438166379928589e-01 -8.231545239686965942e-02 -1.026801541447639465e-01 -4.902765527367591858e-02 4.062292631715536118e-03 6.185189634561538696e-02 -5.796382576227188110e-02
-4.137765150517225266e-03 -2.374473959207534790e-01 -1.446054726839065552e-01 -7.788523286581039429e-02 -3.106902912259101868e-02 5.394132435321807861e-02 9.371738880872726440e-03 1.054282411932945251e-01 -9.638452529907226562e-02 -3.152918070554733276e-02 7.169188559055328369e-02 7.629908504895865917e-04
7.302957773208618164e-02 -9.576858952641487122e-03 -2.716548275202512741e-03 1.001110821962356567e-01 9.558007121086120605e-02 -6.880918890237808228e-02 4.436351358890533447e-02 -1.406770292669534683e-02 -4.752038046717643738e-02 -7.805485278367996216e-03 -3.554782271385192871e-02 -1.714646816253662109e-02
-4.478880390524864197e-02 -9.062338620424270630e-02 -4.604938253760337830e-02 1.508580893278121948e-01 -8.052930235862731934e-02 1.901395469903945923e-01 -1.390127837657928467e-01 -7.340051233768463135e-02 6.434927228838205338e-03 -3.169756755232810974e-02 -5.209319293498992920e-02 -2.410295419394969940e-02
1.477853977121412754e-03 -1.868152469396591187e-01 1.593681611120700836e-02 1.860858500003814697e-02 8.039680123329162598e-02 1.925551593303680420e-01 -3.364235162734985352e-02 8.311074972152709961e-02 4.481969866901636124e-03 1.743274927139282227e-02 -1.080214604735374451e-01 -5.211762711405754089e-02
-2.416625320911407471e-01 -2.637401595711708069e-02 -1.097487732768058777e-01 -1.001286283135414124e-01 -4.263496398925781250e-02 -1.814695149660110474e-01 -6.735412031412124634e-02 -2.043939679861068726e-01 1.591698676347732544e-01 3.002797365188598633e-01 -1.534348428249359131e-01 -1.318621784448623657e-01
-1.104099452495574951e-01 -6.131839472800493240e-03 1.074174642562866211e-01 -2.213162928819656372e-02 4.547092318534851074e-02 1.757440529763698578e-02 -8.496189117431640625e-02 -1.249718815088272095e-01 8.478857576847076416e-02 7.652364205569028854e-03 -1.140729039907455444e-01 -9.186626225709915161e-02
-1.189466640353202820e-01 6.549933552742004395e-02 1.524423435330390930e-02 2.203026786446571350e-02 1.611639112234115601e-01 -1.039771288633346558e-01 5.149853974580764771e-02 -1.069481894373893738e-01 -1.199549362063407898e-01 -2.026236243546009064e-02 -2.827471494674682617e-02 -8.990480750799179077e-02
1.526212245225906372e-01 -1.119069084525108337e-01 -9.798139333724975586e-02 -1.025757044553756714e-01 -9.732682257890701294e-02 -2.240493595600128174e-01 5.890034884214401245e-02 8.175323903560638428e-02 8.743364363908767700e-02 4.917427152395248413e-02 1.533315479755401611e-01 5.242379754781723022e-02
1.846930384635925293e-01 -1.223953887820243835e-01 -3.276331815868616104e-03 5.590389296412467957e-02 9.825731068849563599e-02 -2.561351284384727478e-02 1.189255341887474060e-01 -1.117858141660690308e-01 1.348973717540502548e-02 -3.351688012480735779e-02 -1.688860240392386913e-03 -1.294240206480026245e-01
1.137794926762580872e-01 -8.300028741359710693e-02 -7.636282593011856079e-02 -9.600181132555007935e-02 -4.435096867382526398e-03 2.859887853264808655e-02 6.724706292152404785e-02 5.008982121944427490e-02 -2.358587086200714111e-02 -9.643913805484771729e-02 1.057275161147117615e-01 -2.522483281791210175e-02
1.258536577224731445e-01 8.761812932789325714e-03 -6.564551033079624176e-03 -8.053195476531982422e-02 -7.477503269910812378e-02 -9.427239745855331421e-02 -1.176306530833244324e-01 3.099177591502666473e-02 -5.417956039309501648e-02 -1.507911533117294312e-01 8.218519389629364014e-02 5.776814743876457214e-02
4.449189454317092896e-02 -9.276805818080902100e-02 1.297025829553604126e-01 8.864389359951019287e-02 1.531752049922943115e-01 1.106370985507965088e-01 8.219254761934280396e-02 1.100451350212097168e-01 4.927659407258033752e-02 -3.291904181241989136e-02 -1.000795066356658936e-01 -9.902229160070419312e-02
-3.100375831127166748e-02 -1.915635913610458374e-01 2.745521813631057739e-02 2.881740406155586243e-02 1.291208416223526001e-01 1.034722775220870972e-01 1.315292865037918091e-01 1.181027665734291077e-01 -1.807380765676498413e-01 2.073960192501544952e-02 -7.170431315898895264e-02 -2.605074048042297363e-01
1.749452799558639526e-01 -6.271142046898603439e-03 7.754462957382202148e-02 9.684518724679946899e-02 1.184275746345520020e-02 1.901389211416244507e-01 -2.013594284653663635e-02 -1.152129098773002625e-01 1.507762670516967773e-01 1.262974366545677185e-02 -8.066875487565994263e-02 1.596979647874832153e-01
3.915323689579963684e-02 1.448074821382761002e-02 6.682808697223663330e-02 1.331348996609449387e-02 7.822894304990768433e-02 -4.694703221321105957e-02 -1.034995391964912415e-01 -1.738388538360595703e-01 4.756835103034973145e-02 1.910386839881539345e-03 -8.988215774297714233e-02 2.388640306890010834e-03
1.563292890787124634e-01 -1.230933293700218201e-01 3.781228139996528625e-02 7.978098839521408081e-02 -5.381330475211143494e-02 -7.246544212102890015e-02 1.347570270299911499e-01 -1.345740258693695068e-01 1.513235867023468018e-01 -1.702225506305694580e-01 -3.188635036349296570e-02 1.380977127701044083e-02
-2.256333269178867340e-02 -5.048483237624168396e-02 -8.724710904061794281e-03 -7.982429116964340210e-02 4.018656545667909086e-05 1.369224190711975098e-01 -6.102452427148818970e-02 -7.338882237672805786e-02 4.308160766959190369e-02 7.390752434730529785e-02 5.257448181509971619e-02 -1.553862541913986206e-01
-4.718903079628944397e-02 -2.030390687286853790e-02 -1.317143589258193970e-01 8.762058615684509277e-02 -7.200395315885543823e-02 -1.226581633090972900e-01 -3.235011920332908630e-02 -7.403755933046340942e-02 7.145369052886962891e-02 1.128027886152267456e-01 1.060680896043777466e-01 -1.110913828015327454e-01
-7.805547118186950684e-02 -1.680073328316211700e-02 4.625314846634864807e-02 -5.589738488197326660e-02 1.840015202760696411e-01 -3.288919851183891296e-02 9.389390051364898682e-02 -3.000965900719165802e-02 1.624995283782482147e-02 1.415270864963531494e-01 5.568544566631317139e-02 1.116019487380981445e-01
-5.749530345201492310e-02 -1.996561139822006226e-01 -1.521584764122962952e-02 1.123717725276947021e-01 -1.317235082387924194e-01 -7.596111297607421875e-02 -7.210285216569900513e-02 -4.540532082319259644e-02 4.214011505246162415e-02 -7.180038839578628540e-02 -1.076946705579757690e-01 -6.502943485975265503e-02
-1.604757830500602722e-02 -4.303684458136558533e-02 -2.918001078069210052e-02 8.650214970111846924e-02 7.896820455789566040e-02 1.091239452362060547e-01 6.528817117214202881e-02 8.374191820621490479e-02 -4.529368132352828979e-02 9.681765735149383545e-02 -3.478667885065078735e-02 -6.693851202726364136e-02
3.937475383281707764e-02 1.180922016501426697e-01 2.633951790630817413e-02 2.102157473564147949e-01 4.650961607694625854e-02 1.297220438718795776e-01 -6.047312542796134949e-02 -1.087734922766685486e-01 1.658340990543365479e-01 -5.978958681225776672e-02 4.588586464524269104e-02 -1.977896988391876221e-01
1.016965210437774658e-01 -1.104960497468709946e-02 6.574206054210662842e-02 -2.525026164948940277e-02 -1.293982937932014465e-02 1.054722443222999573e-01 -1.220300123095512390e-01 3.914754837751388550e-02 9.669241495430469513e-03 -1.282643526792526245e-01 -9.638107568025588989e-02 7.756519317626953125e-02
-7.097860425710678101e-02 9.516805410385131836e-03 8.948772400617599487e-02 5.651883035898208618e-02 1.786627620458602905e-02 -7.935328781604766846e-02 -5.824801325798034668e-02 8.051501959562301636e-02 1.125417649745941162e-03 -1.990832388401031494e-03 -7.886947691440582275e-02 3.838396817445755005e-02
-9.674610942602157593e-02 -6.540478020906448364e-02 8.852551132440567017e-02 3.107117488980293274e-03 -6.306165456771850586e-02 3.912675380706787109e-02 -1.979366317391395569e-02 -5.702824145555496216e-02 7.830680347979068756e-03 7.646572589874267578e-02 -7.588643580675125122e-02 -7.714043557643890381e-02
-2.053559124469757080e-01 -2.033517211675643921e-01 3.441460430622100830e-02 -1.002735923975706100e-02 1.904764771461486816e-02 3.755436837673187256e-02 1.176747605204582214e-01 1.197775453329086304e-01 2.052561938762664795e-01 -4.297955036163330078e-01 1.919175833463668823e-01 2.694634906947612762e-02
7.162066176533699036e-03 -3.545117215253412724e-04 -4.366681724786758423e-02 -5.244038626551628113e-02 -2.635177411139011383e-02 6.807528436183929443e-02 5.092291533946990967e-02 8.930427022278308868e-03 3.529214765876531601e-03 -5.707014352083206177e-02 6.665699928998947144e-02 -5.711681768298149109e-02
-1.092332825064659119e-01 1.498959660530090332e-01 1.329896897077560425e-01 -2.541635744273662567e-02 1.016141846776008606e-01 1.006243154406547546e-01 -8.047787100076675415e-02 -1.174163818359375000e-01 -1.140709817409515381e-01 -2.816970646381378174e-02 -1.427868455648422241e-01 1.010098680853843689e-01
-7.121167331933975220e-02 7.094883918762207031e-02 1.061111763119697571e-01 -4.285274073481559753e-02 -2.267084829509258270e-02 8.066193014383316040e-02 2.560209110379219055e-02 -4.688914865255355835e-02 -6.504296511411666870e-02 1.292481645941734314e-02 4.531798884272575378e-02 1.292365882545709610e-02
-1.609835922718048096e-01 2.020548097789287567e-02 5.129423364996910095e-02 5.345960147678852081e-03 1.568562686443328857e-01 -1.013790890574455261e-01 -2.673560939729213715e-02 -1.361075937747955322e-01 -1.261033564805984497e-01 6.349556148052215576e-02 1.495798118412494659e-02 -1.383855752646923065e-02
1.549113262444734573e-02 -3.612498939037322998e-02 -2.023587189614772797e-02 -8.260574191808700562e-02 -3.089104034006595612e-02 5.315499752759933472e-02 5.294078215956687927e-02 9.223248809576034546e-02 2.397255972027778625e-02 4.685120284557342529e-02 7.962889038026332855e-03 -1.953111775219440460e-02
1.456381827592849731e-01 3.805892914533615112e-02 6.898947060108184814e-02 -7.538574188947677612e-02 -4.183615371584892273e-02 -3.120571188628673553e-02 -1.918638008646667004e-03 -1.855740137398242950e-02 -1.002586260437965393e-02 -1.351470351219177246e-01 -7.619066536426544189e-02 1.767112524248659611e-03
-8.003637194633483887e-02 -9.016782790422439575e-02 -8.190678805112838745e-02 -1.219832673668861389e-01 4.592521861195564270e-02 -6.583035737276077271e-02 -5.629212036728858948e-02 -2.270207181572914124e-02 1.418019235134124756e-01 -3.318809717893600464e-02 -4.740015044808387756e-02 -1.068895012140274048e-01
-6.348059326410293579e-02 2.966875024139881134e-02 1.530769765377044678e-01 -3.433991223573684692e-02 2.275882102549076080e-02 1.987045817077159882e-02 -7.434716820716857910e-02 2.185540646314620972e-02 3.300376236438751221e-02 8.872147649526596069e-03 -9.882096201181411743e-02 -3.171855350956320763e-03
-1.408617850393056870e-02 -1.920274645090103149e-01 -1.385118216276168823e-01 -1.608106307685375214e-02 -1.901832967996597290e-02 7.030765712261199951e-02 5.375155806541442871e-02 7.753598690032958984e-02 -1.331970375031232834e-02 7.025981694459915161e-02 1.506764721125364304e-02 -4.442635551095008850e-02
9.017056971788406372e-02 -7.026027143001556396e-02 -1.208467707037925720e-01 -2.610374800860881805e-02 -6.402597296983003616e-03 2.560374140739440918e-02 -4.027082398533821106e-02 3.424561396241188049e-02 -4.612644389271736145e-02 7.861647009849548340e-02 1.172195151448249817e-01 -8.633989095687866211e-02
1.040849909186363220e-01 -1.111452132463455200e-01 -8.335576951503753662e-02 7.094151526689529419e-02 6.783320754766464233e-02 -9.785474836826324463e-02 -1.254716515541076660e-01 1.625285111367702484e-02 -4.353141784667968750e-02 -1.155646890401840210e-01 2.055187523365020752e-01 -2.529735863208770752e-02
-4.869548603892326355e-02 -2.228310704231262207e-02 -2.217203974723815918e-01 6.343542039394378662e-02 -1.652736961841583252e-01 1.425746232271194458e-01 -6.905563175678253174e-03 -7.975985109806060791e-02 -1.180931627750396729e-01 1.304239928722381592e-01 -1.519520394504070282e-02 -2.667601034045219421e-02
1.651257276535034180e-01 6.322314590215682983e-02 -6.649406999349594116e-02 7.704333961009979248e-02 -2.747642621397972107e-02 6.251285970211029053e-02 -9.839014708995819092e-02 1.946536451578140259e-02 -9.973429143428802490e-03 7.807815819978713989e-02 -1.656509190797805786e-02 8.380572497844696045e-02
1.879393011331558228e-01 -2.470654807984828949e-02 -2.094163000583648682e-01 -3.401307016611099243e-02 -9.053979814052581787e-02 -1.113744527101516724e-01 -3.644552081823348999e-02 -7.446129620075225830e-02 1.975104957818984985e-01 -2.500213384628295898e-01 1.161914840340614319e-01 1.748903188854455948e-03
-2.319563925266265869e-01 9.419713914394378662e-02 -1.755297929048538208e-02 -3.958239406347274780e-02 -5.966210365295410156e-02 8.904911577701568604e-02 -5.543031170964241028e-02 2.040882408618927002e-02 1.408759057521820068e-01 2.404959127306938171e-02 1.429280266165733337e-02 -7.774968445301055908e-02
-2.809447646141052246e-01 3.451779112219810486e-02 -7.893033325672149658e-02 1.233933269977569580e-01 1.006568148732185364e-01 -4.239580128341913223e-03 4.235275834798812866e-02 -1.326121855527162552e-02 -6.484933942556381226e-02 7.909183204174041748e-02 -7.327198982238769531e-02 -1.991599611937999725e-02
1.348537951707839966e-02 -9.628452360630035400e-03 -8.342175185680389404e-02 7.207397371530532837e-02 -1.035953238606452942e-01 -3.994648158550262451e-02 6.118432432413101196e-02 8.772072941064834595e-02 -1.375498622655868530e-02 -2.916935831308364868e-02 5.375771969556808472e-02 -3.511688113212585449e-02
-9.677407145500183105e-02 5.615067202597856522e-03 5.773519724607467651e-02 -1.531545165926218033e-02 4.181137681007385254e-02 -6.675992161035537720e-02 9.839247167110443115e-02 7.380276918411254883e-02 9.889032691717147827e-02 -2.691957727074623108e-02 4.609921574592590332e-02 -3.224630653858184814e-01
-2.549953944981098175e-02 -8.657751604914665222e-03 -1.600664556026458740e-01 -1.013459712266921997e-01 -7.308891415596008301e-02 -4.745931178331375122e-02 2.261802181601524353e-02 4.374965280294418335e-02 8.928266167640686035e-02 -1.475388407707214355e-01 1.750674284994602203e-02 -6.706359237432479858e-02
-9.444119781255722046e-02 1.007331237196922302e-01 -1.097348891198635101e-02 -9.508314728736877441e-02 -1.885493099689483643e-02 -3.598866984248161316e-02 6.155183166265487671e-02 1.640846580266952515e-02 1.913706064224243164e-01 -9.302274882793426514e-02 8.087030611932277679e-03 -6.728568673133850098e-02
-5.198194831609725952e-02 -4.159436747431755066e-02 4.638771340250968933e-02 6.777664273977279663e-02 8.640927076339721680e-02 1.534949988126754761e-01 1.448249220848083496e-01 1.118153557181358337e-01 3.721809387207031250e-02 -4.542280733585357666e-02 -7.617075741291046143e-02 -1.184630170464515686e-01
-1.240266412496566772e-01 -2.184173651039600372e-02 -1.452564597129821777e-01 -3.733803331851959229e-02 -1.608776003122329712e-01 -7.131184637546539307e-02 6.797611713409423828e-02 5.552540346980094910e-02 9.605930000543594360e-02 1.068916637450456619e-02 6.474920362234115601e-02 -6.729799509048461914e-02
1.871232688426971436e-01 2.097386308014392853e-02 -1.861728578805923462e-01 1.939549483358860016e-02 -2.087049633264541626e-01 -2.297212779521942139e-01 -4.492847248911857605e-02 -1.321389675140380859e-01 1.282376348972320557e-01 -1.507683992385864258e-01 2.461834102869033813e-01 1.273795664310455322e-01
2.470261156558990479e-01 9.780000895261764526e-02 -1.081027165055274963e-01 8.300036936998367310e-02 -7.474192976951599121e-02 1.400039345026016235e-01 -5.514361336827278137e-02 9.370900690555572510e-02 1.619363785721361637e-03 4.770895466208457947e-02 -2.479454725980758667e-01 -1.429199427366256714e-01
3.448386490345001221e-01 1.487101018428802490e-01 -9.990546852350234985e-02 9.218214452266693115e-02 2.833098731935024261e-02 8.529411256313323975e-02 -6.272818893194198608e-02 -3.272837027907371521e-02 -4.535872954875230789e-03 5.976267531514167786e-02 -1.539897620677947998e-01 -1.139364764094352722e-01
-1.407595723867416382e-01 -6.754235178232192993e-02 -1.176157146692276001e-01 -1.835771487094461918e-03 -3.883247077465057373e-02 -6.017270311713218689e-02 2.768865227699279785e-02 5.014837533235549927e-02 8.564756810665130615e-02 -8.801709115505218506e-02 5.275588855147361755e-02 -3.039773553609848022e-02
-1.430441141128540039e-01 -1.436474770307540894e-01 6.787275895476341248e-03 1.247403845191001892e-01 3.205623477697372437e-02 4.356941580772399902e-02 -6.865444779396057129e-02 -5.384851619601249695e-02 1.618720889091491699e-01 -7.463634759187698364e-02 5.105094611644744873e-02 -1.238487437367439270e-01
8.047424256801605225e-02 -5.007664859294891357e-02 2.938656695187091827e-02 -1.180755421519279480e-01 -1.346951127052307129e-01 7.878526300191879272e-02 2.972036041319370270e-02 -5.357220768928527832e-03 8.691809140145778656e-03 -3.949834033846855164e-03 9.589678049087524414e-02 -1.200323551893234253e-01
-2.919219732284545898e-01 8.556634187698364258e-02 -7.952816039323806763e-02 -5.296768248081207275e-02 -4.022305086255073547e-02 4.066778719425201416e-02 8.491966128349304199e-02 5.995556339621543884e-02 -2.678953297436237335e-02 1.803458435460925102e-04 3.227086737751960754e-02 8.670476078987121582e-02
-1.403604894876480103e-01 4.973445832729339600e-02 2.504294738173484802e-02 -5.326455458998680115e-02 1.053696498274803162e-01 -4.153886809945106506e-02 -8.751606941223144531e-02 -4.693671315908432007e-02 5.577001348137855530e-02 -4.577489197254180908e-02 -2.918405830860137939e-02 -7.607579976320266724e-02
9.557653963565826416e-02 8.549642562866210938e-02 -6.695573776960372925e-02 2.024390548467636108e-01 2.671675756573677063e-03 7.338353246450424194e-02 8.112918585538864136e-02 -8.076238632202148438e-02 4.281124100089073181e-02 -1.183772459626197815e-01 2.016185037791728973e-02 3.693444654345512390e-02
-1.327010709792375565e-02 6.555613875389099121e-02 1.271558851003646851e-01 2.138687856495380402e-02 -1.402525696903467178e-02 9.288863837718963623e-02 -2.031442523002624512e-02 5.483207851648330688e-02 -9.036578983068466187e-02 -5.993798258714377880e-04 2.822021022439002991e-02 1.490076333284378052e-01
-1.035495772957801819e-01 -1.404215842485427856e-01 9.163890779018402100e-02 6.049798056483268738e-02 5.437907949090003967e-02 -2.649572305381298065e-02 1.021596789360046387e-01 8.772431313991546631e-02 -8.678746968507766724e-02 -4.088681563735008240e-02 -1.987477838993072510e-01 -1.300698667764663696e-01
-9.106084704399108887e-02 -1.206056922674179077e-01 -1.037694048136472702e-02 -9.726727753877639771e-02 3.454537317156791687e-02 1.707545965909957886e-01 7.960391789674758911e-02 6.385123729705810547e-02 -2.058157511055469513e-02 6.159343942999839783e-02 -1.737650483846664429e-01 -1.083357930183410645e-01
1.782437264919281006e-01 -1.103405188769102097e-02 6.354431062936782837e-02 -4.170498996973037720e-02 -8.373196423053741455e-02 7.636050879955291748e-02 -4.661204293370246887e-02 1.521370112895965576e-01 -2.415968291461467743e-02 -3.218123689293861389e-02 5.034021660685539246e-02 -4.862726852297782898e-02
-6.869624555110931396e-02 -2.632268704473972321e-02 -7.873906940221786499e-02 -4.430697485804557800e-02 8.463966846466064453e-02 9.963248157873749733e-04 -3.076538257300853729e-02 1.650659367442131042e-02 8.857714384794235229e-02 7.484777271747589111e-02 -1.057824566960334778e-01 -8.168955892324447632e-02
5.263356957584619522e-03 -2.165696471929550171e-01 -9.562319517135620117e-02 3.092203661799430847e-02 -8.211529999971389771e-02 -4.596586897969245911e-02 -1.472875848412513733e-02 1.081897839903831482e-01 2.510146424174308777e-02 5.907865986227989197e-02 7.568050920963287354e-02 1.551244128495454788e-02
1.652204804122447968e-02 -6.559468060731887817e-02 -4.686396941542625427e-02 -8.990695327520370483e-02 -1.158945169299840927e-02 1.447665854357182980e-03 -8.939500153064727783e-02 5.556199699640274048e-02 8.376143127679824829e-02 -2.067966014146804810e-02 1.502722594887018204e-02 2.047717384994029999e-02
-1.700154878199100494e-02 -8.344918489456176758e-02 4.167511314153671265e-02 1.478820294141769409e-01 -8.632518351078033447e-02 2.193058468401432037e-02 -6.831932067871093750e-02 -1.146217212080955505e-01 -1.673550903797149658e-02 1.372291473671793938e-03 5.191517062485218048e-03 -2.960084564983844757e-02
-1.512029916048049927e-01 -1.657646745443344116e-01 -1.317878961563110352e-01 1.273818314075469971e-01 1.695914892479777336e-03 1.149741262197494507e-01 3.461009636521339417e-02 -7.676290720701217651e-02 -2.228209562599658966e-02 4.711611568927764893e-02 1.804996654391288757e-02 -1.184312775731086731e-01
1.555664539337158203e-01 9.708779305219650269e-02 -8.436022698879241943e-02 5.312892422080039978e-02 9.727473556995391846e-02 8.386347442865371704e-02 5.767828598618507385e-02 -2.672423608601093292e-03 -7.070930302143096924e-02 -1.207853928208351135e-01 1.814858242869377136e-02 1.013825740665197372e-02
1.138692498207092285e-01 -1.853500902652740479e-01 -4.825079441070556641e-02 -2.132135629653930664e-02 7.796517014503479004e-02 -2.610172517597675323e-02 -8.587417006492614746e-02 -9.604271501302719116e-02 3.666329011321067810e-02 -1.051838546991348267e-01 1.383033543825149536e-01 -5.448824167251586914e-02
-1.320420182310044765e-03 7.959087379276752472e-03 5.361453816294670105e-02 -1.308234035968780518e-01 -9.462410525884479284e-05 1.680344790220260620e-01 -5.692500248551368713e-02 -1.297644823789596558e-01 1.184671595692634583e-01 -1.038346663117408752e-01 1.417092978954315186e-01 3.633072227239608765e-02
6.862555630505084991e-03 8.688025176525115967e-02 -7.259552180767059326e-02 4.098425060510635376e-02 -4.796482622623443604e-02 1.529607772827148438e-01 5.882864072918891907e-02 7.622229307889938354e-02 -3.695936128497123718e-02 7.081500440835952759e-02 9.914699196815490723e-02 8.145187795162200928e-02
-8.921281248331069946e-02 -2.582252584397792816e-02 -1.316969096660614014e-01 2.281773090362548828e-02 -3.523756563663482666e-02 -1.068001687526702881e-01 4.438435286283493042e-02 3.291404619812965393e-02 2.523182891309261322e-02 1.394862532615661621e-01 -1.039373055100440979e-01 -2.489576116204261780e-02
-9.237731248140335083e-02 -1.096545830368995667e-01 -6.405223160982131958e-02 1.232829689979553223e-01 -9.530146420001983643e-02 1.290570199489593506e-01 -7.668870687484741211e-02 -9.586198627948760986e-02 7.511473447084426880e-02 5.262679420411586761e-03 -7.566148787736892700e-02 3.164092823863029480e-02
5.576170980930328369e-02 1.170038431882858276e-01 5.680905655026435852e-03 1.156806829385459423e-03 -1.398787200450897217e-01 3.424462303519248962e-02 -1.132296994328498840e-01 -9.020805358886718750e-02 5.436454713344573975e-02 -1.361285597085952759e-01 1.506512165069580078e-01 6.375915836542844772e-03
1.994349807500839233e-01 -2.308374270796775818e-02 5.700294300913810730e-02 -4.955342970788478851e-03 -1.057587191462516785e-01 5.356017500162124634e-02 7.666310761123895645e-03 1.358752101659774780e-01 8.230909705162048340e-02 -8.434790372848510742e-02 4.949793964624404907e-02 -1.274679154157638550e-01
-9.727446734905242920e-02 4.241355136036872864e-02 -1.563457250595092773e-01 -5.438924953341484070e-02 1.458131242543458939e-02 -1.852948963642120361e-01 -8.436400443315505981e-02 -2.509689331054687500e-02 3.605198115110397339e-02 6.475981790572404861e-04 2.409598380327224731e-01 -1.847491413354873657e-02
9.883641451597213745e-02 7.064130157232284546e-02 -4.507746547460556030e-03 -1.414575963281095028e-03 -7.321822643280029297e-02 2.187215955927968025e-03 -9.476602077484130859e-02 -1.663527339696884155e-01 -3.137392178177833557e-02 -1.332092881202697754e-01 2.448149584233760834e-02 8.590932935476303101e-02
8.348715305328369141e-02 3.624003008008003235e-02 7.888555526733398438e-02 9.036199003458023071e-02 3.584828972816467285e-02 6.950213760137557983e-02 7.669205963611602783e-02 -1.763257943093776703e-02 -2.367011308670043945e-01 -1.237902268767356873e-01 -5.125233530998229980e-02 1.805491149425506592e-01
-1.078101545572280884e-01 -3.646996617317199707e-02 2.190614864230155945e-02 1.589560955762863159e-01 -1.276524811983108521e-01 2.708819322288036346e-02 -8.189473301172256470e-02 -1.489034593105316162e-01 -1.001945231109857559e-02 5.873833224177360535e-02 7.347185164690017700e-02 -4.538219049572944641e-02
-8.978441357612609863e-02 1.090746819972991943e-01 1.612666100263595581e-01 3.531103953719139099e-02 -4.025093838572502136e-02 -3.106078505516052246e-02 -5.033050850033760071e-02 -1.238600388169288635e-01 -7.659622281789779663e-02 -8.982194960117340088e-02 -8.898631483316421509e-02 2.307018786668777466e-01
3.293992951512336731e-02 -4.863714426755905151e-02 -1.036664098501205444e-02 2.665101550519466400e-02 8.322101086378097534e-02 2.667174674570560455e-02 -2.088312059640884399e-02 1.825480954721570015e-03 -1.843544654548168182e-02 5.008789151906967163e-02 -1.320245582610368729e-02 -7.211407274007797241e-02
5.784922093152999878e-02 -7.518759812228381634e-04 4.756142571568489075e-02 -7.102759927511215210e-02 1.148228719830513000e-01 -2.337333746254444122e-02 -8.586623519659042358e-02 -2.161376178264617920e-03 -1.161553189158439636e-01 6.514108926057815552e-02 -7.364591211080551147e-02 1.763557083904743195e-02
3.470170125365257263e-02 -3.276179358363151550e-02 -4.947238788008689880e-02 1.166386902332305908e-01 1.992830820381641388e-02 -1.448290795087814331e-01 -5.989086627960205078e-02 2.463080920279026031e-02 -3.246284276247024536e-02 1.464197225868701935e-02 7.391177117824554443e-02 -2.819811180233955383e-02
2.877863049507141113e-01 -4.577443748712539673e-02 -9.885997325181961060e-02 2.812677063047885895e-02 -5.739272758364677429e-02 2.277110330760478973e-02 -9.315021336078643799e-03 1.150915306061506271e-02 3.908218070864677429e-02 -5.406786128878593445e-02 -1.989925839006900787e-02 1.101577728986740112e-01
3.634458407759666443e-02 -1.858307868242263794e-01 -1.092206537723541260e-01 2.357734143733978271e-01 -1.240528598427772522e-01 1.762825250625610352e-01 -5.008476972579956055e-02 1.652875915169715881e-02 7.607096433639526367e-02 9.696201980113983154e-02 -8.108784258365631104e-02 -3.207936882972717285e-02
2.544648051261901855e-01 6.286778301000595093e-02 -1.495474576950073242e-01 -2.308435738086700439e-02 -5.929859355092048645e-02 8.670346438884735107e-02 7.919753342866897583e-02 1.013996452093124390e-02 -1.033394932746887207e-01 -3.272749111056327820e-02 -6.086192280054092407e-02 4.989943653345108032e-02
5.491016432642936707e-02 -7.938823103904724121e-02 1.287707835435867310e-01 4.510972648859024048e-02 1.018354445695877075e-01 1.216874197125434875e-01 3.325484693050384521e-03 -7.359412312507629395e-02 -8.955108001828193665e-03 -6.279420852661132812e-02 -1.564704068005084991e-02 -1.657751649618148804e-01
-9.839675575494766235e-02 4.663624614477157593e-02 1.146879643201828003e-01 -1.240470930933952332e-01 5.479440558701753616e-03 8.525025844573974609e-02 8.362245559692382812e-02 4.834265261888504028e-02 -7.281082123517990112e-02 -1.750566251575946808e-02 -3.095630742609500885e-02 1.161567866802215576e-02
-8.906003087759017944e-02 1.699392311275005341e-02 1.563642174005508423e-01 -4.626800864934921265e-02 -9.032142162322998047e-02 1.441328823566436768e-01 -1.267528906464576721e-02 3.689302597194910049e-03 -3.102903440594673157e-02 -2.317969687283039093e-02 -2.390035688877105713e-01 -5.117121711373329163e-02
5.031817033886909485e-02 -5.359729286283254623e-03 -1.083391308784484863e-01 -1.094526425004005432e-01 -1.878281980752944946e-01 -1.362030208110809326e-01 -3.225310519337654114e-02 -7.624049484729766846e-02 1.108493655920028687e-01 -1.329230964183807373e-01 2.644380629062652588e-01 -9.718371555209159851e-03
6.392653286457061768e-02 -6.401441246271133423e-02 -1.413701176643371582e-01 6.797977536916732788e-02 -8.120622485876083374e-02 -6.347180157899856567e-02 3.525360673666000366e-02 7.038265466690063477e-02 1.259862780570983887e-01 5.299212038516998291e-02 -5.793465673923492432e-02 -6.723028421401977539e-02
-7.486418634653091431e-02 8.842855691909790039e-02 1.261061578989028931e-01 5.242131184786558151e-03 -9.753925353288650513e-02 5.635981634259223938e-02 4.028248414397239685e-02 -1.088590845465660095e-01 -4.217411205172538757e-02 -7.491630315780639648e-02 -6.601201742887496948e-02 1.567464768886566162e-01
9.521882236003875732e-02 -1.307848393917083740e-01 -1.262137442827224731e-01 -6.538024544715881348e-02 4.680153355002403259e-02 -2.012263610959053040e-02 -1.374278217554092407e-02 -4.895275458693504333e-02 1.797920316457748413e-01 -1.632901728153228760e-01 1.151734590530395508e-01 -1.837288215756416321e-02
6.533854641020298004e-03 -1.163267493247985840e-01 -1.328774541616439819e-01 1.581845432519912720e-01 -4.288496077060699463e-02 1.614271849393844604e-01 -1.685774773359298706e-01 -1.602727919816970825e-01 6.472170352935791016e-02 -3.079419210553169250e-02 -9.468052536249160767e-02 2.241764776408672333e-02
1.447719037532806396e-01 -1.064028516411781311e-01 7.224085181951522827e-02 -3.526272624731063843e-02 3.795460239052772522e-02 -6.700326688587665558e-03 -6.597161293029785156e-02 -2.588161826133728027e-02 1.541638523340225220e-01 -1.563218683004379272e-01 -7.723656296730041504e-02 -1.136055365204811096e-01
1.140966638922691345e-01 9.632948040962219238e-02 3.539452701807022095e-02 -1.127381622791290283e-02 7.982321828603744507e-02 2.676826901733875275e-03 -6.505829282104969025e-03 -3.173470869660377502e-02 -2.944138646125793457e-02 -1.920584030449390411e-02 -2.807679399847984314e-02 1.720464229583740234e-01
-4.932361468672752380e-02 -3.211727738380432129e-02 -6.554991751909255981e-02 9.668128192424774170e-02 1.162956506013870239e-01 8.531365543603897095e-03 -1.649470627307891846e-02 1.297844946384429932e-01 1.074591092765331268e-02 7.206187397241592407e-02 -1.735954284667968750e-01 -1.008587479591369629e-01
6.331625580787658691e-02 7.679120451211929321e-02 -1.236741393804550171e-01 -4.497054964303970337e-02 -7.735299319028854370e-02 6.841647624969482422e-02 6.617657840251922607e-02 -6.742180883884429932e-02 -9.097826480865478516e-02 -1.409588307142257690e-01 8.671400696039199829e-02 6.428299844264984131e-02
5.667262151837348938e-02 8.873848617076873779e-02 -2.109555155038833618e-02 5.590019375085830688e-02 -1.104941740632057190e-01 -1.169686987996101379e-01 -1.005373597145080566e-01 -8.965133875608444214e-02 2.147636748850345612e-02 -6.230899319052696228e-02 3.221965953707695007e-02 1.242160201072692871e-01
6.505614519119262695e-02 -2.247265353798866272e-02 -6.783955544233322144e-02 -3.354831412434577942e-02 -6.160819903016090393e-02 1.911431550979614258e-02 6.009653955698013306e-02 1.428985409438610077e-02 -4.608888924121856689e-02 4.480701871216297150e-03 9.824836999177932739e-02 3.823093324899673462e-02
6.913657486438751221e-02 -1.627334356307983398e-01 5.771170184016227722e-02 -5.061296746134757996e-02 -8.245720714330673218e-02 -1.819110959768295288e-01 -3.560176119208335876e-02 1.376421749591827393e-01 1.526464987546205521e-02 -8.570155501365661621e-02 1.726789474487304688e-01 3.688672930002212524e-02
5.707494169473648071e-02 -3.793203830718994141e-02 9.047130495309829712e-02 -9.539141505956649780e-02 2.814877405762672424e-02 1.999942660331726074e-01 -4.677562415599822998e-02 1.724502593278884888e-01 6.555709242820739746e-02 -1.824094951152801514e-01 4.120517987757921219e-03 3.121106885373592377e-03
2.830250188708305359e-02 -1.545103623357135803e-05 1.230623871088027954e-01 3.073612600564956665e-02 1.141752526164054871e-01 -3.496398776769638062e-02 8.990973234176635742e-02 -2.711213193833827972e-02 -7.754656672477722168e-02 -4.443024843931198120e-02 -7.569363713264465332e-02 2.034195885062217712e-02
7.328146696090698242e-02 -2.075432240962982178e-02 2.034937962889671326e-02 -1.046629995107650757e-02 9.728865325450897217e-02 1.537347286939620972e-01 3.966430574655532837e-02 7.268750574439764023e-03 7.025843858718872070e-02 -8.106998354196548462e-02 -1.360300183296203613e-01 -1.235033944249153137e-01
6.109051406383514404e-02 -1.187332347035408020e-01 4.959059506654739380e-02 8.207651227712631226e-02 1.385228708386421204e-02 -1.623343229293823242e-01 2.706202305853366852e-02 -8.772519230842590332e-02 5.461982637643814087e-02 -3.673817217350006104e-02 -8.213064819574356079e-02 -1.601856052875518799e-01
1.814790964126586914e-01 -1.160075068473815918e-01 -2.641494385898113251e-02 -1.096654981374740601e-01 -5.619781464338302612e-02 1.038356646895408630e-01 2.003451250493526459e-02 1.294275671243667603e-01 2.204929292201995850e-02 -6.529264897108078003e-02 5.494782701134681702e-02 -5.288186483085155487e-03
-1.339992880821228027e-01 -1.694131642580032349e-01 -9.866234846413135529e-03 -9.508746862411499023e-02 7.393994927406311035e-02 -8.019992709159851074e-02 8.734474331140518188e-02 -8.949469774961471558e-02 -3.463284671306610107e-02 -1.748865121044218540e-03 8.171069435775279999e-03 6.317673623561859131e-02
7.184172421693801880e-02 -7.665734738111495972e-02 1.069248318672180176e-01 9.776282310485839844e-02 -5.767925083637237549e-02 -8.214009553194046021e-02 -1.337377727031707764e-02 -5.886722356081008911e-02 -7.656998187303543091e-02 1.116390004754066467e-01 8.406223356723785400e-02 -9.371399879455566406e-02
-1.373066157102584839e-01 1.140521392226219177e-01 4.597516730427742004e-02 1.036986485123634338e-01 1.293652504682540894e-01 1.502368785440921783e-02 -5.749693885445594788e-02 6.060858443379402161e-02 1.543633732944726944e-02 2.323718741536140442e-02 -4.252139478921890259e-02 -4.371493589133024216e-03
-3.058673813939094543e-02 -1.073853299021720886e-01 8.043209090828895569e-03 -4.545262828469276428e-02 -9.741598367691040039e-02 1.100797876715660095e-01 -5.454270169138908386e-02 6.016273051500320435e-02 -3.230052813887596130e-02 7.081862539052963257e-02 4.645799100399017334e-02 -1.238673925399780273e-01
-9.325703233480453491e-02 -2.124018408358097076e-02 -7.995173335075378418e-02 1.135766413062810898e-02 7.809297181665897369e-03 -9.600798040628433228e-02 -5.693922936916351318e-02 -3.059321455657482147e-02 1.077868267893791199e-01 -6.063403934240341187e-02 1.158746108412742615e-01 -7.070762664079666138e-02
2.330274321138858795e-03 -1.992001086473464966e-01 -4.307142645120620728e-02 -6.285101175308227539e-02 -1.340765357017517090e-01 -1.994367130100727081e-02 -4.318607505410909653e-03 8.240421116352081299e-02 -2.345228642225265503e-01 8.155645430088043213e-02 1.130091771483421326e-01 3.075514733791351318e-02
2.637093886733055115e-02 1.701982878148555756e-02 6.868505477905273438e-02 2.073794044554233551e-02 1.151149272918701172e-01 1.361736804246902466e-01 1.191692724823951721e-01 8.992086350917816162e-02 -6.071455404162406921e-02 2.348609827458858490e-02 2.243643999099731445e-02 -1.169219892472028732e-02
1.437641084194183350e-01 1.158128157258033752e-01 9.465124458074569702e-03 -1.196323037147521973e-01 -1.512984186410903931e-01 5.575237795710563660e-03 -7.920866459608078003e-02 -1.547645330429077148e-01 -2.564948052167892456e-02 -5.415308848023414612e-02 -7.435350865125656128e-02 2.791081182658672333e-02
-1.894381642341613770e-01 1.446444690227508545e-01 9.807605296373367310e-02 -3.041818551719188690e-02 -7.602783851325511932e-03 5.876098945736885071e-02 3.487733379006385803e-02 -1.000011861324310303e-01 8.822818100452423096e-02 -3.443368524312973022e-02 -2.402473241090774536e-02 1.253013014793395996e-01
1.087415665388107300e-01 1.036885380744934082e-01 -3.665317548438906670e-03 -7.582637667655944824e-02 1.080751977860927582e-02 -5.770847573876380920e-02 -1.049097627401351929e-01 -2.962958812713623047e-02 -3.170179948210716248e-02 -5.054528266191482544e-02 1.937652379274368286e-02 -4.217362776398658752e-02
6.335885822772979736e-02 -1.283865869045257568e-01 -3.375972434878349304e-02 1.296044439077377319e-01 -9.809994697570800781e-02 1.074048653244972229e-01 9.142508357763290405e-02 -1.616411805152893066e-01 -1.228708177804946899e-01 2.488746345043182373e-01 4.946264624595642090e-02 -1.221720501780509949e-02
-2.562188170850276947e-02 -6.775678135454654694e-03 6.895607709884643555e-02 -4.521830007433891296e-02 -1.317540556192398071e-02 -4.901463538408279419e-02 5.327095091342926025e-02 -1.552333496510982513e-02 -3.333830088376998901e-02 -7.102314382791519165e-02 -1.304284553043544292e-03 -4.771538078784942627e-02
-1.534969061613082886e-01 6.409583240747451782e-02 8.042070269584655762e-02 1.099131479859352112e-01 5.238923430442810059e-02 1.489956863224506378e-03 4.423242434859275818e-02 3.961879014968872070e-02 -8.666558563709259033e-02 1.466573923826217651e-01 -6.859264522790908813e-02 5.336467176675796509e-02
-8.201202377676963806e-03 -2.655667960643768311e-01 -5.849090963602066040e-02 -1.580494455993175507e-02 -1.035750210285186768e-01 -3.190268948674201965e-02 1.197962909936904907e-01 -9.485781192779541016e-03 -1.526815742254257202e-01 1.155167911201715469e-02 -1.556613445281982422e-01 -1.984109729528427124e-02
1.145652681589126587e-01 -2.716379798948764801e-02 2.085274159908294678e-01 9.846998006105422974e-02 8.498886972665786743e-02 1.240746900439262390e-01 -2.983833290636539459e-02 -6.708230078220367432e-02 1.055562123656272888e-01 -1.344428211450576782e-01 -4.420210048556327820e-02 -1.191805079579353333e-01
-1.358379870653152466e-01 3.981377929449081421e-02 1.268194802105426788e-02 1.446441709995269775e-01 -8.092948049306869507e-02 3.704753145575523376e-02 -1.796316057443618774e-01 -5.655528604984283447e-02 1.319930255413055420e-01 3.177100047469139099e-02 1.010312959551811218e-01 -2.090684324502944946e-01
-7.996463775634765625e-02 -2.242102921009063721e-01 7.469803094863891602e-02 1.333988904953002930e-01 -1.133948266506195068e-01 1.708611659705638885e-02 5.492753535509109497e-02 9.777299314737319946e-02 -5.854948237538337708e-02 5.158725008368492126e-02 -4.141608625650405884e-02 -1.055551394820213318e-01
8.709428459405899048e-02 -2.677798829972743988e-02 1.493785679340362549e-01 3.740615770220756531e-02 6.122525036334991455e-02 2.586140334606170654e-01 1.391943544149398804e-01 1.945131421089172363e-01 -9.067712817341089249e-04 1.993095688521862030e-02 4.371896758675575256e-02 -7.572802901268005371e-02
-2.211687713861465454e-02 8.108844608068466187e-02 1.855440624058246613e-02 7.648658752441406250e-02 1.016673892736434937e-01 6.108487024903297424e-02 -3.630777448415756226e-02 -1.027140095829963684e-01 1.104370132088661194e-02 9.526068717241287231e-02 -7.866528630256652832e-02 1.634013950824737549e-01
-7.053963094949722290e-02 -5.553293507546186447e-03 7.219545543193817139e-02 -2.684492152184247971e-03 7.952563464641571045e-02 4.617476835846900940e-02 8.980222046375274658e-02 -8.876024931669235229e-02 -4.402944352477788925e-03 5.613905191421508789e-02 -4.261845722794532776e-02 6.059494614601135254e-02
-1.556541025638580322e-01 5.386373028159141541e-02 6.979096680879592896e-02 -1.025183796882629395e-01 -2.886969409883022308e-02 -1.558157503604888916e-01 -1.359814684838056564e-02 -1.401640772819519043e-01 2.471138909459114075e-02 1.012367978692054749e-01 4.264678864274173975e-04 -1.464800387620925903e-01
-2.355988509953022003e-02 -5.963428691029548645e-02 -1.131283193826675415e-01 -6.697076838463544846e-03 -7.550431787967681885e-02 2.325631491839885712e-02 5.165372509509325027e-03 -5.680400878190994263e-02 6.894097477197647095e-02 3.083906322717666626e-02 5.737640708684921265e-02 -2.011691406369209290e-02
-1.121086627244949341e-01 -1.458315178751945496e-02 -1.251703947782516479e-01 1.073458641767501831e-01 -1.386215537786483765e-01 9.822909533977508545e-02 2.276757732033729553e-02 -9.609290398657321930e-03 5.265701562166213989e-02 -4.367665573954582214e-02 -2.490684157237410545e-03 -1.059608161449432373e-01
-1.350077390670776367e-01 3.435763064771890640e-03 1.523524373769760132e-01 -4.901577159762382507e-02 5.573152378201484680e-02 6.604654341936111450e-02 7.156553212553262711e-03 -9.207127243280410767e-02 5.150222033262252808e-02 8.421850949525833130e-02 -1.321075707674026489e-01 2.495610155165195465e-02
-3.991988673806190491e-02 1.404009610414505005e-01 1.341660618782043457e-01 1.374066919088363647e-01 1.035540401935577393e-01 4.742991924285888672e-02 -4.654908552765846252e-02 -1.344889402389526367e-01 -4.392654821276664734e-02 5.793303251266479492e-02 -3.498584404587745667e-02 7.833508402109146118e-02
4.155435413122177124e-02 -2.109940946102142334e-01 7.949671894311904907e-02 -4.522673785686492920e-02 9.868283569812774658e-02 1.759213209152221680e-01 1.149050667881965637e-01 1.251709926873445511e-02 -3.050766512751579285e-02 -7.142996042966842651e-02 8.736102283000946045e-02 4.367757961153984070e-02
-6.939655169844627380e-03 -4.568099975585937500e-02 7.011876255273818970e-02 1.583200097084045410e-01 -5.270740017294883728e-03 1.836058944463729858e-01 -4.866803064942359924e-02 8.965392410755157471e-02 5.959488078951835632e-02 9.572347998619079590e-02 -1.372978836297988892e-01 -5.201558582484722137e-03
-1.630364656448364258e-01 -5.042918398976325989e-02 1.535913795232772827e-01 -1.463486813008785248e-02 6.376796960830688477e-02 -7.968624681234359741e-02 -5.707117542624473572e-02 -5.167810618877410889e-02 2.973695984110236168e-03 8.123953640460968018e-02 -1.342408806085586548e-01 1.131284981966018677e-01
-1.160841435194015503e-01 6.654647737741470337e-02 -1.124592777341604233e-02 -1.647357945330440998e-03 -5.222826451063156128e-02 -2.149745449423789978e-02 -1.323502138257026672e-02 -1.839565038681030273e-01 9.196229279041290283e-02 1.492062360048294067e-01 1.332075614482164383e-02 1.668641269207000732e-01
2.862315438687801361e-02 -2.717713825404644012e-02 -1.037658844143152237e-02 6.349217891693115234e-02 -8.945933543145656586e-03 -1.110226362943649292e-01 1.140181347727775574e-02 -4.836147651076316833e-02 1.638079062104225159e-02 6.986683607101440430e-02 -5.079125240445137024e-02 -2.039494365453720093e-02
-3.907667398452758789e-01 -1.237255707383155823e-02 -8.744885027408599854e-02 5.090028047561645508e-02 -5.939094722270965576e-02 5.607857182621955872e-02 3.790246695280075073e-02 5.707654356956481934e-02 2.452878095209598541e-02 1.095497682690620422e-01 8.731394261121749878e-02 1.017882227897644043e-01
-1.160169914364814758e-01 -4.833289235830307007e-02 2.422028337605297565e-04 -4.508104175329208374e-02 1.062485203146934509e-01 1.093449294567108154e-01 8.290719240903854370e-02 1.064386218786239624e-01 -3.371480852365493774e-02 7.007980346679687500e-02 -1.142925322055816650e-01 1.736273467540740967e-01
-2.237031906843185425e-01 5.025214329361915588e-02 -2.276079729199409485e-02 6.400136649608612061e-02 1.072606816887855530e-02 7.685106992721557617e-02 -4.378741234540939331e-02 -7.540160790085792542e-03 -7.936757057905197144e-02 1.666629463434219360e-01 5.910259857773780823e-02 8.147659897804260254e-02
-9.064834564924240112e-02 5.318200960755348206e-02 8.195321261882781982e-02 -3.364162519574165344e-03 1.743475943803787231e-01 -1.635261327028274536e-01 -6.043045967817306519e-02 -3.753542527556419373e-02 -2.136639058589935303e-01 1.343310028314590454e-01 -8.059997856616973877e-02 -7.162977755069732666e-02
-1.468324810266494751e-01 -1.572683751583099365e-01 2.249408885836601257e-02 2.297083847224712372e-02 -1.709629297256469727e-01 7.574048638343811035e-02 -9.104791283607482910e-02 -1.202514544129371643e-01 9.828213602304458618e-02 2.331162430346012115e-02 -2.527925185859203339e-02 -5.379597842693328857e-02
4.476706683635711670e-02 -6.417733430862426758e-02 1.788990385830402374e-02 1.919063180685043335e-02 1.276293098926544189e-01 2.366390526294708252e-01 1.727755367755889893e-01 1.286611258983612061e-01 -9.358792006969451904e-02 1.218953505158424377e-01 -1.412855237722396851e-01 -4.234864562749862671e-02
7.866185158491134644e-02 -6.924961507320404053e-02 7.411403954029083252e-02 -1.119982749223709106e-01 9.043852239847183228e-02 1.744057685136795044e-01 3.053379058837890625e-02 5.972104892134666443e-02 7.796220481395721436e-03 -8.563889563083648682e-02 -4.982959106564521790e-02 5.883901566267013550e-02
-5.880583077669143677e-02 -6.112090870738029480e-02 -1.889813318848609924e-02 1.780839711427688599e-01 3.322030976414680481e-02 1.532959640026092529e-01 7.953286916017532349e-02 1.102696284651756287e-01 -7.976436056196689606e-03 1.520909667015075684e-01 -5.539649352431297302e-02 -4.202193021774291992e-02
1.099105179309844971e-01 9.823665954172611237e-03 -2.550041489303112030e-02 -5.117975920438766479e-02 -1.839007064700126648e-02 -1.580646187067031860e-01 -3.724710270762443542e-02 1.304575353860855103e-01 1.511187255382537842e-01 -3.428283333778381348e-02 -5.342169478535652161e-02 -3.406235575675964355e-02
2.018253952264785767e-01 1.071665901690721512e-02 -1.764925718307495117e-01 6.704071164131164551e-02 -1.318103820085525513e-01 -1.449072808027267456e-01 -9.283782541751861572e-02 -4.976665601134300232e-02 9.721644222736358643e-02 -8.074036240577697754e-02 6.091533228754997253e-02 1.425887271761894226e-02
2.393387258052825928e-02 -1.567840203642845154e-02 -4.253233224153518677e-02 1.018927097320556641e-01 6.539167463779449463e-02 -6.342785060405731201e-02 -1.361276605166494846e-03 4.020526260137557983e-02 -3.787157358601689339e-03 6.955028325319290161e-02 -8.834604173898696899e-02 -1.156399026513099670e-01
-1.595513820648193359e-01 5.790956690907478333e-02 -1.962875761091709137e-02 -8.160348236560821533e-02 -3.865107521414756775e-02 2.486261725425720215e-02 -3.294697403907775879e-02 -9.322945773601531982e-02 -1.829591393470764160e-02 -4.482735320925712585e-02 4.835959151387214661e-02 9.807728230953216553e-02
1.348571926355361938e-01 -1.396993827074766159e-02 -2.563503198325634003e-02 1.289292871952056885e-01 -3.389570862054824829e-02 9.601072221994400024e-02 -7.224092260003089905e-03 4.340428486466407776e-02 -2.573795989155769348e-02 -9.634653478860855103e-02 -5.856379866600036621e-02 1.699559539556503296e-01
7.912143319845199585e-02 -6.263908743858337402e-02 -4.565884545445442200e-02 2.328592585399746895e-03 -4.696791991591453552e-02 -1.611297205090522766e-02 8.415982127189636230e-02 7.965389639139175415e-02 -4.714556038379669189e-02 -7.936803996562957764e-02 1.475396472960710526e-02 -3.491829149425029755e-03
-1.518312692642211914e-01 -1.741310209035873413e-01 3.811816126108169556e-02 -2.236447326140478253e-04 8.622677624225616455e-02 -1.562830209732055664e-01 8.592134714126586914e-02 3.914943709969520569e-02 -1.087664812803268433e-01 -7.249225676059722900e-02 4.757823422551155090e-02 -4.629306495189666748e-03
-4.284085705876350403e-02 5.842257291078567505e-02 -4.723099246621131897e-02 -3.779627755284309387e-02 2.684209682047367096e-02 -3.676303848624229431e-02 -6.964485347270965576e-02 1.674003154039382935e-02 7.454326003789901733e-02 -8.396780490875244141e-02 3.424497693777084351e-02 1.491728238761425018e-03
4.537815228104591370e-03 -1.379132121801376343e-01 -2.287699878215789795e-01 7.550056278705596924e-02 6.577837280929088593e-03 -1.244318559765815735e-01 2.750388905405998230e-02 1.749357022345066071e-02 9.290644526481628418e-02 2.173646539449691772e-01 -8.117926865816116333e-02 -7.152418792247772217e-02
-1.010940894484519958e-01 -7.006676495075225830e-02 -1.196337416768074036e-01 1.933973580598831177e-01 -4.713246226310729980e-02 1.039001867175102234e-01 -7.719287276268005371e-02 3.197214752435684204e-02 9.471703320741653442e-02 -2.406565472483634949e-02 5.856198072433471680e-02 -1.786976009607315063e-01
5.862343311309814453e-02 1.424239277839660645e-01 -8.470599353313446045e-02 -6.731259077787399292e-02 -8.773849159479141235e-02 -5.916830897331237793e-02 -2.629746682941913605e-03 8.381340652704238892e-02 -1.066889688372612000e-01 -7.471988350152969360e-02 -1.601099595427513123e-02 2.668496593832969666e-02
-6.454837322235107422e-02 5.069871991872787476e-02 4.087616130709648132e-02 4.950084537267684937e-02 7.739202678203582764e-02 9.171131998300552368e-03 8.371028304100036621e-02 -1.365414541214704514e-02 -4.989867657423019409e-02 -1.040595956146717072e-02 -7.371987402439117432e-02 2.654809877276420593e-02
-2.284589037299156189e-02 -3.497379645705223083e-02 1.041427999734878540e-01 9.052050113677978516e-02 2.932456787675619125e-03 1.209479048848152161e-01 -4.901374503970146179e-02 9.400299191474914551e-02 -2.541045844554901123e-02 6.194957345724105835e-02 -1.323065720498561859e-02 6.799811869859695435e-02
7.168505340814590454e-02 4.838356003165245056e-02 -7.077325135469436646e-02 8.252379298210144043e-02 -1.309912204742431641e-01 1.096954196691513062e-01 -4.036742076277732849e-02 -2.838843688368797302e-02 8.959573507308959961e-02 -6.419411301612854004e-02 -5.007061362266540527e-02 1.363603919744491577e-01
4.679742455482482910e-02 -9.773667901754379272e-02 1.297927834093570709e-02 -1.174369752407073975e-01 -2.245032042264938354e-02 1.490576267242431641e-01 4.683804139494895935e-02 -2.497319690883159637e-02 7.782245427370071411e-02 -8.969842642545700073e-02 7.474038004875183105e-02 -2.286739274859428406e-02
-4.269594550132751465e-01 2.499479353427886963e-01 -3.394005447626113892e-02 -2.155466377735137939e-01 -4.932486638426780701e-02 -2.781751155853271484e-01 -1.122323572635650635e-01 1.118899136781692505e-01 3.848981484770774841e-02 1.233981251716613770e-01 -1.232422217726707458e-01 -6.905390322208404541e-02
6.534229218959808350e-02 -6.533824838697910309e-03 1.754037290811538696e-01 -4.957692697644233704e-02 7.478671520948410034e-02 2.378752231597900391e-01 9.724729508161544800e-02 7.915759086608886719e-02 -3.886164352297782898e-02 2.988692745566368103e-02 -1.185115575790405273e-01 -6.119195371866226196e-02
1.661853492259979248e-01 -1.763276904821395874e-01 -3.971743956208229065e-02 -1.580189727246761322e-02 5.232506990432739258e-02 -9.434968978166580200e-02 -8.831381797790527344e-02 4.523560032248497009e-02 -1.583760380744934082e-01 -4.728760197758674622e-02 -6.713815778493881226e-02 -2.240402251482009888e-01
9.364188648760318756e-03 -3.312171250581741333e-02 -5.307408049702644348e-02 7.535392045974731445e-02 -8.175195753574371338e-02 -9.383959323167800903e-02 9.148445725440979004e-02 6.137412041425704956e-02 7.859450578689575195e-02 -1.212335005402565002e-02 6.253072619438171387e-02 -3.383061662316322327e-02
1.262994557619094849e-01 -1.343647390604019165e-01 1.280783712863922119e-01 9.369514137506484985e-02 1.287974789738655090e-02 -1.512020528316497803e-01 4.565874114632606506e-02 -1.274295598268508911e-01 7.239091396331787109e-02 1.003380566835403442e-01 1.705687493085861206e-01 -4.683141782879829407e-02
-1.607130765914916992e-01 4.292152449488639832e-02 7.900437712669372559e-02 3.127987496554851532e-03 -2.321173809468746185e-02 -5.711479857563972473e-02 9.138566441833972931e-03 1.963678188621997833e-02 6.780560314655303955e-02 6.802897155284881592e-02 -1.615934446454048157e-02 1.405566185712814331e-01
-1.925952881574630737e-01 9.888767451047897339e-02 3.189353644847869873e-02 5.846901983022689819e-02 -3.052353672683238983e-02 -7.896439731121063232e-02 -1.610884070396423340e-02 -1.197038888931274414e-01 3.163636475801467896e-02 1.084271818399429321e-01 -7.729580160230398178e-03 1.515121608972549438e-01
1.817904859781265259e-01 -1.921629905700683594e-02 -2.149853855371475220e-01 -1.178774237632751465e-01 -1.024621799588203430e-01 -2.512365765869617462e-02 -8.888685144484043121e-03 2.666721586138010025e-03 1.079258024692535400e-01 -2.855727076530456543e-01 1.965778023004531860e-01 2.779065258800983429e-02
2.836076356470584869e-02 1.165127288550138474e-02 1.124701574444770813e-01 -4.686982557177543640e-02 -6.296897679567337036e-02 -4.311718512326478958e-03 3.804245218634605408e-02 -3.738456964492797852e-02 9.312839806079864502e-02 -4.602775722742080688e-02 -3.183607757091522217e-02 -1.409169286489486694e-01
-9.453005343675613403e-02 8.645036141388118267e-04 1.674246490001678467e-01 1.352054327726364136e-01 1.031536012887954712e-01 2.171132117509841919e-01 1.826319098472595215e-02 -9.153863787651062012e-02 5.691254138946533203e-02 4.521733615547418594e-03 4.324101656675338745e-02 -4.662226885557174683e-02
-9.609952569007873535e-02 1.408817898482084274e-02 8.080863952636718750e-02 -7.331322878599166870e-02 -6.272870115935802460e-03 7.935200631618499756e-02 2.593249268829822540e-02 5.665360763669013977e-02 3.869637474417686462e-02 -2.923964522778987885e-02 -1.048809140920639038e-01 -1.424201484769582748e-02
3.942698240280151367e-02 -6.451237946748733521e-02 -9.417866915464401245e-02 1.108234748244285583e-01 -3.275452181696891785e-03 -3.688502311706542969e-02 -3.528247028589248657e-02 1.829248294234275818e-02 -1.636118814349174500e-02 -1.570582203567028046e-02 -2.820361591875553131e-02 1.498799175024032593e-01
-1.062538027763366699e-01 -4.433204233646392822e-02 1.565597765147686005e-02 2.429662039503455162e-03 2.051595002412796021e-01 -4.571593180298805237e-02 2.080631256103515625e-02 2.464501187205314636e-02 -2.859250456094741821e-02 1.536092907190322876e-01 -9.576271474361419678e-02 1.531381309032440186e-01
-1.334586087614297867e-02 -2.369626611471176147e-01 1.906128018163144588e-03 -4.136486724019050598e-02 -4.470130428671836853e-02 -2.705826461315155029e-01 1.470587402582168579e-02 -9.535293094813823700e-03 -1.291164606809616089e-01 -5.814655497670173645e-02 9.683544933795928955e-02 -2.017483487725257874e-02
-3.925032913684844971e-03 6.133206188678741455e-03 -7.128177583217620850e-02 1.446682214736938477e-02 9.276492148637771606e-02 -1.266932487487792969e-02 -1.774550229310989380e-02 1.440302282571792603e-02 4.947402328252792358e-02 3.194295614957809448e-02 4.085182398557662964e-02 -4.286934435367584229e-02
-1.040620952844619751e-01 -2.462354861199855804e-02 3.619235381484031677e-02 -3.765701502561569214e-02 9.540703147649765015e-02 -1.009512916207313538e-01 1.156447175890207291e-02 -5.817732959985733032e-02 2.514353767037391663e-02 -1.734261810779571533e-01 4.639658331871032715e-02 7.637096196413040161e-02
-1.058505731634795666e-03 -1.879675835371017456e-01 4.250727593898773193e-02 1.667056679725646973e-01 -2.301195822656154633e-02 1.259499043226242065e-01 -4.618633072823286057e-03 -1.237903954461216927e-03 1.821050769649446011e-03 1.101777777075767517e-01 -9.857378154993057251e-02 -6.968073546886444092e-02
1.833434961736202240e-02 4.463860020041465759e-02 2.912629395723342896e-02 5.653033405542373657e-02 7.885158061981201172e-02 -2.289799973368644714e-02 -5.834461376070976257e-02 7.298481650650501251e-03 9.828644990921020508e-02 -8.996113389730453491e-02 4.121216386556625366e-02 5.534589290618896484e-03
1.856261491775512695e-01 5.000197514891624451e-02 -1.099154353141784668e-01 -3.884332254528999329e-02 -9.536024183034896851e-02 -1.036136522889137268e-01 -1.422224752604961395e-02 -2.056667394936084747e-02 -1.925830915570259094e-02 -1.042134836316108704e-01 -1.529642939567565918e-02 9.110078215599060059e-02
-9.598635137081146240e-02 5.253562331199645996e-02 1.363634765148162842e-01 1.513585448265075684e-01 6.920994073152542114e-02 1.839026510715484619e-01 2.991737984120845795e-02 1.015286743640899658e-01 7.613518834114074707e-02 -2.398243406787514687e-03 -1.690502837300300598e-02 1.094636395573616028e-01
-1.439584493637084961e-01 9.346637874841690063e-02 1.014041006565093994e-01 1.146182939410209656e-01 4.430221859365701675e-03 -2.811302989721298218e-02 1.070011407136917114e-01 -1.046556159853935242e-01 7.814256846904754639e-02 8.434867113828659058e-02 3.997557330876588821e-03 3.272108361124992371e-02
-1.361710857599973679e-02 -7.719729095697402954e-02 -1.470340043306350708e-01 6.128846853971481323e-02 -3.164540231227874756e-02 -4.137983918190002441e-02 1.141295116394758224e-02 -7.921595871448516846e-02 6.516117602586746216e-02 1.170508097857236862e-03 -5.568150058388710022e-02 -1.792709380388259888e-01
6.332261115312576294e-02 -6.610811688005924225e-03 -1.957614906132221222e-02 -5.553287267684936523e-02 4.819322377443313599e-02 1.079304665327072144e-01 7.805280387401580811e-02 -5.847530066967010498e-02 -1.956145465373992920e-02 5.625497922301292419e-02 -6.734313070774078369e-02 -1.890994608402252197e-04
2.216785550117492676e-01 -6.966650020331144333e-03 1.299152243882417679e-02 1.225129589438438416e-01 -1.050850674510002136e-01 5.705672875046730042e-02 5.324555560946464539e-02 3.917048871517181396e-02 -1.502422094345092773e-01 6.625571288168430328e-03 -1.007136553525924683e-01 8.282068371772766113e-02
9.566035121679306030e-02 1.379066258668899536e-01 -8.246704190969467163e-02 -1.886966638267040253e-02 2.182333543896675110e-02 -7.762231677770614624e-02 -1.069530025124549866e-01 6.999032944440841675e-02 -5.110665783286094666e-02 -7.782300561666488647e-02 -1.087959632277488708e-01 5.070684850215911865e-02
-1.207281649112701416e-01 -4.151851311326026917e-02 -1.497295796871185303e-01 1.038051918148994446e-01 2.434281818568706512e-02 5.318591743707656860e-02 -8.125623315572738647e-02 -6.669086962938308716e-02 3.513202443718910217e-02 -4.536897316575050354e-02 1.831682957708835602e-02 -1.521517038345336914e-01
-1.851933449506759644e-01 -1.193952262401580811e-01 -6.264481693506240845e-02 3.334948420524597168e-02 -4.060852527618408203e-02 -8.632881194353103638e-02 2.614854089915752411e-02 -7.779766619205474854e-02 1.026759622618556023e-03 7.122080773115158081e-02 3.397079184651374817e-02 1.037479117512702942e-01
-5.405053123831748962e-02 4.800495505332946777e-02 6.291759014129638672e-02 2.985508181154727936e-02 2.782491408288478851e-02 1.214755997061729431e-01 1.023920327425003052e-01 1.067106127738952637e-01 -1.590118370950222015e-02 6.655340641736984253e-02 -1.031263098120689392e-01 4.676814377307891846e-02
-5.101395770907402039e-02 -1.497655268758535385e-02 9.480655938386917114e-02 -1.133840382099151611e-01 -5.344787612557411194e-02 1.693240255117416382e-01 1.321304887533187866e-01 -1.034882571548223495e-02 2.702303044497966766e-02 1.031410098075866699e-01 -1.064218878746032715e-01 -9.098786115646362305e-02
1.678021103143692017e-01 -6.795864552259445190e-02 6.700614839792251587e-02 4.511970560997724533e-03 7.109910249710083008e-02 1.472214758396148682e-01 9.301717579364776611e-02 1.227642595767974854e-01 -6.970369070768356323e-02 -1.576248407363891602e-01 -1.507279742509126663e-02 -5.897528678178787231e-02
6.196320988237857819e-03 3.642732650041580200e-02 1.480416953563690186e-01 -8.475339412689208984e-02 -7.989201694726943970e-02 1.444642990827560425e-01 -8.475330471992492676e-02 -4.067432507872581482e-02 9.124375879764556885e-02 -6.178419291973114014e-02 9.293084591627120972e-02 -8.053527772426605225e-02
1.176350340247154236e-01 7.253009080886840820e-02 -3.290427923202514648e-01 -1.005146186798810959e-03 -1.020121574401855469e-01 -9.112875908613204956e-02 -6.698071211576461792e-02 1.834668405354022980e-02 5.302470922470092773e-02 -2.221595868468284607e-02 2.475576251745223999e-01 9.850453585386276245e-02
-2.002613842487335205e-01 1.649649441242218018e-01 2.321631647646427155e-03 -1.538494229316711426e-01 -4.143544286489486694e-02 2.548224329948425293e-01 5.145886167883872986e-02 1.143270358443260193e-01 -6.001582369208335876e-02 7.342862337827682495e-02 -9.454634785652160645e-02 -1.856180094182491302e-02
3.794809803366661072e-02 -1.277991533279418945e-01 -1.821094006299972534e-02 5.491868406534194946e-02 1.009765192866325378e-01 1.348528861999511719e-01 4.063176363706588745e-02 -1.842008531093597412e-02 -4.220481589436531067e-02 5.352528393268585205e-02 5.499236658215522766e-02 1.180275008082389832e-01
-4.836674779653549194e-02 -1.113284155726432800e-01 -3.063587099313735962e-02 -3.280701814219355583e-03 3.387659788131713867e-02 1.441526226699352264e-02 -2.155225723981857300e-02 3.013067319989204407e-02 -9.669935703277587891e-02 -3.285428881645202637e-02 6.366884708404541016e-02 2.116119302809238434e-02
-1.811962723731994629e-01 9.760425239801406860e-02 1.173813641071319580e-01 -3.427680954337120056e-02 9.896782040596008301e-02 1.226875036954879761e-01 6.139371544122695923e-02 5.240316037088632584e-03 -4.145356640219688416e-02 6.486270576715469360e-02 -2.938415668904781342e-02 9.334836155176162720e-02
-5.538583174347877502e-02 -1.070280969142913818e-01 -5.665314197540283203e-02 -1.230379790067672729e-01 -9.934432804584503174e-03 4.532793536782264709e-02 -1.156545504927635193e-01 -2.503067553043365479e-01 2.922236919403076172e-01 1.680949889123439789e-02 -1.058914288878440857e-01 -5.497881770133972168e-02
6.134558469057083130e-02 3.640514612197875977e-02 -5.725562106817960739e-03 1.312157064676284790e-01 1.134270504117012024e-01 2.306304406374692917e-03 1.903175958432257175e-03 7.335592061281204224e-02 -7.704974710941314697e-02 7.907935231924057007e-02 -6.187796592712402344e-02 -1.012612059712409973e-01
2.064833641052246094e-01 -9.809040464460849762e-03 -1.004359498620033264e-01 -8.935373276472091675e-02 -8.595710992813110352e-02 6.796831637620925903e-02 -2.736626192927360535e-02 -3.785036131739616394e-02 -8.435290306806564331e-02 -4.774084314703941345e-02 6.047945097088813782e-02 1.106778308749198914e-01
-2.237956970930099487e-02 3.612085431814193726e-02 -5.531825497746467590e-02 2.073976770043373108e-02 -1.979964971542358398e-02 -1.787610165774822235e-02 -4.638714715838432312e-02 1.012340933084487915e-01 -6.278243660926818848e-02 6.962055712938308716e-02 2.333420142531394958e-02 -3.193911397829651833e-03
1.145217940211296082e-01 -4.128517583012580872e-02 -2.172992229461669922e-01 -5.636145174503326416e-02 -1.053577437996864319e-01 -1.794550865888595581e-01 -5.625402927398681641e-02 -4.073927551507949829e-02 1.798545718193054199e-01 -1.202589720487594604e-01 2.866666615009307861e-01 7.059245370328426361e-03
2.012032419443130493e-01 -6.819120794534683228e-02 -7.183013111352920532e-02 -6.421418488025665283e-02 -1.355018019676208496e-01 1.011245325207710266e-01 -6.706051994115114212e-03 -1.645786166191101074e-01 1.166252493858337402e-01 -6.833355128765106201e-02 2.326645851135253906e-01 5.625495314598083496e-02
-7.032268494367599487e-02 -2.819102816283702850e-02 9.482628852128982544e-02 -3.961476311087608337e-02 1.179932653903961182e-01 -6.621733307838439941e-02 2.458709478378295898e-02 -1.151593849062919617e-01 -8.962108939886093140e-02 -1.017170026898384094e-01 1.332151796668767929e-02 -2.266089868498966098e-04
4.639447107911109924e-02 -1.637580431997776031e-02 2.621659077703952789e-02 6.878642737865447998e-02 -7.344122976064682007e-03 -2.709352411329746246e-02 7.636234909296035767e-02 3.421834111213684082e-02 -1.377611160278320312e-01 1.275550425052642822e-01 4.393285140395164490e-02 1.181814745068550110e-01
5.010524764657020569e-02 -8.929949253797531128e-02 -7.648110389709472656e-02 -1.160138938575983047e-02 5.895831435918807983e-02 1.110613928176462650e-03 -4.346400499343872070e-02 -1.179454196244478226e-02 5.377371609210968018e-02 -1.276432871818542480e-01 9.913114458322525024e-02 -2.375709637999534607e-02
-2.785710096359252930e-01 8.831326663494110107e-02 1.599977142177522182e-03 -4.376147687435150146e-02 9.204248897731304169e-03 2.099721133708953857e-02 -3.764198720455169678e-02 3.933186829090118408e-02 1.368788778781890869e-01 1.222990900278091431e-01 8.916205912828445435e-02 1.559381037950515747e-01
-4.324495419859886169e-02 1.060910820960998535e-01 1.409249603748321533e-01 -4.020981863141059875e-02 8.796704560518264771e-02 8.728513121604919434e-02 -1.607739925384521484e-02 9.037461876869201660e-02 -2.635156363248825073e-02 2.865488640964031219e-02 -1.630689501762390137e-01 -1.818147674202919006e-02
3.352642431855201721e-02 -1.301887035369873047e-01 -8.370556682348251343e-02 -4.139701277017593384e-02 -1.122574284672737122e-01 7.985357195138931274e-03 1.714432798326015472e-02 8.450271934270858765e-02 5.194869637489318848e-02 -1.283645723015069962e-02 1.083051115274429321e-01 -3.158593922853469849e-02
-8.071640133857727051e-02 -6.837031990289688110e-02 5.553575977683067322e-02 -1.885276101529598236e-02 4.584465548396110535e-02 -3.444362431764602661e-03 1.707692258059978485e-02 2.416071668267250061e-02 -3.903573751449584961e-02 1.086970120668411255e-01 1.729368418455123901e-02 -1.056979317218065262e-02
9.495290927588939667e-03 5.824955180287361145e-02 9.634496271610260010e-02 -1.283599883317947388e-01 6.216229498386383057e-02 -2.205406576395034790e-01 1.109403669834136963e-01 3.447890654206275940e-02 -8.712650835514068604e-02 -9.946941584348678589e-02 -7.498596794903278351e-03 5.238207802176475525e-02
-7.122933864593505859e-02 4.362392798066139221e-02 1.129080578684806824e-01 -1.465287432074546814e-02 8.251509815454483032e-02 3.777635470032691956e-02 8.485085517168045044e-02 8.310475200414657593e-02 -1.786282509565353394e-01 6.279703229665756226e-02 2.328684926033020020e-02 -9.085086174309253693e-03
5.452311411499977112e-02 -1.082870587706565857e-01 -1.943352818489074707e-01 -6.187087669968605042e-02 -1.791136264801025391e-01 -1.546612828969955444e-01 4.765530675649642944e-02 1.002199575304985046e-01 1.220202296972274780e-01 -1.272402703762054443e-02 4.002656042575836182e-02 3.208544477820396423e-02
1.900496333837509155e-02 -8.148838579654693604e-02 8.839230984449386597e-02 -2.525028772652149200e-03 1.983322799205780029e-01 -5.172990728169679642e-03 1.673983186483383179e-01 -2.778998203575611115e-02 -1.521535217761993408e-01 2.250958234071731567e-02 -9.148595482110977173e-02 8.644607663154602051e-02
9.606800973415374756e-03 -5.735250562429428101e-02 -1.154882833361625671e-01 1.521757543087005615e-01 1.347894370555877686e-01 -7.396056503057479858e-02 -3.478330373764038086e-02 -7.023686170578002930e-02 -9.457390010356903076e-02 9.547068923711776733e-02 1.498258262872695923e-01 -1.156998649239540100e-01
2.005603164434432983e-02 8.764737099409103394e-02 -1.086523570120334625e-02 1.388321369886398315e-01 8.955785632133483887e-02 -9.740102291107177734e-02 -7.313612848520278931e-02 2.999610034748911858e-03 -7.180336862802505493e-02 1.467920392751693726e-01 -5.614229291677474976e-02 -1.122521534562110901e-01
1.928203850984573364e-01 -2.316517196595668793e-02 -2.096601761877536774e-02 -8.560094237327575684e-02 -1.820724159479141235e-01 -1.554093062877655029e-01 -1.490586102008819580e-01 -1.329977959394454956e-01 1.711816936731338501e-01 -2.332948148250579834e-01 1.730503439903259277e-01 3.106545656919479370e-02
-1.251903176307678223e-01 1.316671725362539291e-02 5.705398693680763245e-02 1.316888183355331421e-01 1.819725334644317627e-02 6.217323243618011475e-02 -8.675524592399597168e-02 1.512896083295345306e-02 9.020998328924179077e-02 -2.615751698613166809e-02 -7.678863406181335449e-02 -2.338361442089080811e-01
1.923478096723556519e-01 -1.611664593219757080e-01 9.978309273719787598e-03 -1.077001839876174927e-01 -9.875382483005523682e-02 -2.120138518512248993e-02 -4.021984338760375977e-02 1.427646577358245850e-01 7.927433587610721588e-03 -9.180939942598342896e-02 2.255138009786605835e-03 -5.806155502796173096e-02
-1.144180893898010254e-01 9.299568831920623779e-03 -5.441959947347640991e-03 1.139799356460571289e-01 1.127788722515106201e-01 -4.201681166887283325e-02 -9.251855313777923584e-02 1.833772473037242889e-02 -6.660711485892534256e-03 1.205080598592758179e-01 -2.795028127729892731e-02 5.003861337900161743e-02
7.217748463153839111e-02 3.915307670831680298e-02 -4.458317160606384277e-02 1.377212554216384888e-01 4.420593380928039551e-02 8.569991588592529297e-02 -4.546304419636726379e-02 1.255109161138534546e-01 -4.622996225953102112e-02 7.783022522926330566e-02 -2.038210444152355194e-02 1.149731106124818325e-03
2.006041109561920166e-01 7.455141097307205200e-02 4.970509931445121765e-02 1.069283783435821533e-01 -5.335858091711997986e-02 1.453123837709426880e-01 -2.928956039249897003e-02 -1.116752400994300842e-01 -9.799581766128540039e-02 4.192318767309188843e-02 -3.711201250553131104e-02 6.710875779390335083e-02
-2.068295627832412720e-01 4.488095641136169434e-02 3.964604809880256653e-02 -6.524720788002014160e-02 6.970354169607162476e-02 -7.210678607225418091e-02 -7.099843025207519531e-02 -1.101618260145187378e-02 -8.419942855834960938e-02 2.196093462407588959e-02 6.057487428188323975e-02 9.679289907217025757e-02
1.010330989956855774e-01 1.643319129943847656e-01 8.048723638057708740e-02 -1.261615753173828125e-01 5.236472561955451965e-02 3.610800579190254211e-02 -8.382544666528701782e-02 -2.803230471909046173e-02 -1.512493938207626343e-01 -1.189785823225975037e-01 -7.874372601509094238e-02 4.024462029337882996e-02
-5.161748081445693970e-02 -1.079652234911918640e-01 3.870598739013075829e-03 6.567236781120300293e-02 -7.634300738573074341e-02 1.536365449428558350e-01 -2.635576948523521423e-02 -1.314671635627746582e-01 1.181338578462600708e-01 8.938676863908767700e-02 -7.629761099815368652e-02 -1.562680453062057495e-01
9.894964843988418579e-02 -9.003674983978271484e-02 -1.056422889232635498e-01 -8.734843879938125610e-02 4.663594067096710205e-03 8.817746490240097046e-02 -9.406961500644683838e-03 -7.880061864852905273e-02 1.005978062748908997e-01 -3.036802262067794800e-02 2.411350607872009277e-03 -2.230583876371383667e-02
-7.719381898641586304e-02 2.093520388007164001e-02 -4.445956088602542877e-03 1.043368279933929443e-01 1.338576823472976685e-01 8.019252866506576538e-02 -2.794404327869415283e-02 1.209625452756881714e-01 3.377018496394157410e-02 -5.221502110362052917e-02 -1.404739767313003540e-01 -1.797337383031845093e-01
-6.348212808370590210e-02 -9.865151345729827881e-02 5.891995504498481750e-02 -7.392491400241851807e-02 8.751364424824714661e-03 1.254026498645544052e-02 -5.212168674916028976e-03 -3.423248603940010071e-02 6.915435194969177246e-02 -4.775261133909225464e-02 2.326617017388343811e-02 4.430343583226203918e-02
1.138128787279129028e-01 -2.253721840679645538e-02 6.757938116788864136e-02 -1.143536269664764404e-01 -8.105387538671493530e-02 -6.572970654815435410e-03 8.350691758096218109e-03 1.406475752592086792e-01 1.374018490314483643e-01 -1.427483409643173218e-01 6.043747067451477051e-02 -1.346966773271560669e-01
-7.669636607170104980e-02 2.640639990568161011e-02 3.533276170492172241e-02 -5.897849053144454956e-02 4.670820385217666626e-02 9.367279708385467529e-03 1.184416562318801880e-02 -9.444356709718704224e-02 1.865997910499572754e-04 9.078166633844375610e-02 6.775058805942535400e-03 6.870492547750473022e-02
-7.486367831006646156e-04 -1.352975219488143921e-01 2.556541562080383301e-02 8.094488829374313354e-02 -1.151521801948547363e-01 1.417558640241622925e-01 -6.750061362981796265e-02 6.055995076894760132e-02 -3.616958111524581909e-02 -1.743465475738048553e-02 -3.948263451457023621e-02 1.028919685631990433e-02
1.995483785867691040e-02 6.459832191467285156e-03 4.127565771341323853e-02 5.672395974397659302e-02 7.148935645818710327e-02 -8.538888394832611084e-02 3.826320916414260864e-02 -3.931143134832382202e-02 -4.289288818836212158e-02 -5.603277683258056641e-02 1.071970909833908081e-02 -5.327754467725753784e-02
6.745853275060653687e-02 -5.159384105354547501e-03 -4.182289820164442062e-03 -6.476134806871414185e-02 -9.829140454530715942e-02 -5.890216678380966187e-03 1.196087524294853210e-02 1.244796365499496460e-01 6.413441151380538940e-02 -1.213651746511459351e-01 -2.029710158240050077e-04 -8.279760926961898804e-02
4.546197131276130676e-02 -3.899244219064712524e-02 -2.752480097115039825e-02 -1.831146329641342163e-02 -5.021359398961067200e-02 1.072511598467826843e-01 6.757877767086029053e-02 8.476261049509048462e-02 -1.041668802499771118e-01 -1.660171896219253540e-02 1.092055663466453552e-01 5.354920774698257446e-02
1.383081078529357910e-01 -5.929360911250114441e-02 -2.300736028701066971e-03 -1.344239711761474609e-01 4.038103669881820679e-02 -7.297302037477493286e-02 1.119748428463935852e-01 1.209694594144821167e-01 1.450331509113311768e-01 -1.658854484558105469e-01 6.363189965486526489e-02 -1.501873135566711426e-02
1.313572227954864502e-01 -1.393104046583175659e-01 2.798153832554817200e-02 -9.287950396537780762e-02 -8.728426694869995117e-02 -2.018502056598663330e-01 8.481269329786300659e-02 1.011123284697532654e-01 -1.904440671205520630e-02 -2.042885869741439819e-01 -1.648009754717350006e-02 -1.935017257928848267e-01
-1.526569426059722900e-01 1.107820644974708557e-01 1.410430520772933960e-01 8.502637594938278198e-02 8.673933334648609161e-04 9.757728129625320435e-02 4.837409779429435730e-02 -8.667980320751667023e-03 8.861208334565162659e-03 3.522598370909690857e-02 -2.884251624345779419e-02 4.270557314157485962e-02
4.509053751826286316e-02 2.287616208195686340e-02 -4.958120733499526978e-02 -3.574586659669876099e-02 -6.549711804836988449e-03 -1.255596131086349487e-01 -3.194550285115838051e-03 -7.546906173229217529e-02 1.843331456184387207e-01 -2.264754772186279297e-01 9.171469509601593018e-02 7.579194381833076477e-03
6.851521134376525879e-02 -7.292383350431919098e-03 -1.405669152736663818e-01 3.505682200193405151e-02 3.353923186659812927e-02 1.711890399456024170e-01 5.586023442447185516e-03 -1.796696633100509644e-01 1.751797795295715332e-01 1.354016363620758057e-01 3.838870301842689514e-02 2.008858025074005127e-01
4.560896009206771851e-02 6.018698960542678833e-02 -4.553609061986207962e-03 7.357596606016159058e-02 9.169559180736541748e-02 7.553569972515106201e-02 8.415488153696060181e-02 -2.649166993796825409e-02 -1.613034605979919434e-01 1.320927888154983521e-01 -1.179887820035219193e-02 4.960114508867263794e-02
1.232029125094413757e-01 -1.252393145114183426e-02 -1.446393728256225586e-01 -6.723366677761077881e-02 -8.812911808490753174e-02 -1.532871462404727936e-02 -1.398434191942214966e-01 -4.137473553419113159e-02 1.251091659069061279e-01 -1.238791942596435547e-01 1.510019153356552124e-01 -4.776379559189081192e-03
7.523920387029647827e-02 -1.324410587549209595e-01 -1.496444940567016602e-01 -1.832915246486663818e-01 -5.159941688179969788e-02 -1.666413843631744385e-01 4.262160882353782654e-02 7.971737533807754517e-02 -1.692502200603485107e-01 -1.853249520063400269e-01 9.090246260166168213e-02 -1.121520996093750000e-01
-3.645916283130645752e-02 1.407738924026489258e-01 8.847157657146453857e-02 -3.568866476416587830e-02 -2.520482428371906281e-02 -1.544382572174072266e-01 -4.111373424530029297e-02 -9.033180773258209229e-03 -1.519166827201843262e-01 -3.041922114789485931e-02 -9.204798191785812378e-02 1.065767779946327209e-01
