-1.605858094990253448e-02 1.681984513998031616e-01 7.129649072885513306e-02 3.447940200567245483e-02 1.331596076488494873e-01 9.240411967039108276e-02 -2.604430541396141052e-02 8.803537115454673767e-03 -7.100009173154830933e-02 -1.095308810472488403e-01 -7.020511478185653687e-02 1.942211948335170746e-02 -4.502041637897491455e-02 8.968154340982437134e-02 -9.188117831945419312e-02 -9.777433238923549652e-03 1.623645052313804626e-02 -1.713497936725616455e-02 1.746967136859893799e-01 -4.876130521297454834e-01 -1.154525950551033020e-01 1.404316574335098267e-01 8.631546981632709503e-03 -1.296075582504272461e-01 -3.689991682767868042e-02 7.909535430371761322e-03 6.078860536217689514e-02 1.184686794877052307e-01 3.887563943862915039e-04 2.187363803386688232e-02 -3.333875536918640137e-02 -2.600510790944099426e-02 5.012605339288711548e-03 5.651195347309112549e-02 6.635743658989667892e-03 1.956708431243896484e-01 8.636581152677536011e-02 -6.786409020423889160e-02 4.813897982239723206e-02 -1.261160522699356079e-01 5.763005465269088745e-03 4.866799712181091309e-02 2.399773150682449341e-01 -1.395784616470336914e-01 -2.354711592197418213e-01 -5.213971808552742004e-02 6.725731492042541504e-02 -2.027966268360614777e-02 -5.590770021080970764e-02 -5.135400965809822083e-02 8.924304693937301636e-02 6.365520507097244263e-02 1.469778716564178467e-01 -7.170523703098297119e-02 -4.435555636882781982e-02 1.026403188705444336e+00 -8.438120037317276001e-02 -1.830457001924514771e-01 9.427315555512905121e-03 -5.865843500941991806e-03 7.366485148668289185e-02 -5.295690894126892090e-02 -1.079489244148135185e-03 -9.260196238756179810e-03 -3.207456693053245544e-02 9.211057424545288086e-02 -3.886257484555244446e-02 -4.092589914798736572e-01 1.086488962173461914e-01 3.743593394756317139e-02 -1.704017340671271086e-04 1.035537719726562500e+00 -3.387481272220611572e-01 3.647406771779060364e-02 -6.856777518987655640e-02 -1.104758232831954956e-01 5.328973010182380676e-02 2.987453341484069824e-01 -9.776527434587478638e-02 -1.626897215843200684e+00 1.532335728406906128e-01 -2.480486780405044556e-02 -3.822126192972064018e-03 -3.152872920036315918e-01 -1.416164170950651169e-02 6.202079355716705322e-02 -9.001689963042736053e-03 -3.742092549800872803e-01 -3.098249249160289764e-02 -1.431629154831171036e-02 1.110273480415344238e+00 -4.430032521486282349e-02 6.610997766256332397e-02 -5.394750237464904785e-01 -8.527643978595733643e-02 -1.938990056514739990e-01 3.951152414083480835e-02 -2.954202890396118164e-02 4.507538080215454102e-01 1.188025623559951782e-01 1.121029071509838104e-02 -3.645202890038490295e-02 -5.047260224819183350e-02 1.258114539086818695e-02 -4.708441495895385742e-01 -1.017362028360366821e-01 2.281858772039413452e-01 -1.049555242061614990e-01 5.935164168477058411e-02 6.528845429420471191e-02 -1.305373758077621460e-01 -5.320337414741516113e-01 -7.257962971925735474e-02 1.108993589878082275e-01 4.965032637119293213e-02 -1.670769066549837589e-03 -4.472296312451362610e-02 9.214492887258529663e-02 8.085022866725921631e-02 -1.447856277227401733e-01 2.833192981779575348e-02 6.966088712215423584e-02 -7.956141233444213867e-02 3.323153592646121979e-03 1.173853054642677307e-01 9.414709359407424927e-02 -1.235160902142524719e-01 -1.206847950816154480e-01 -7.983977347612380981e-02 2.054730355739593506e-01 3.556422889232635498e-02 -4.416596889495849609e-02 1.273713856935501099e-01 -6.160885468125343323e-02 1.773279160261154175e-01 -4.743336141109466553e-02 3.753401711583137512e-02 -7.581637799739837646e-02 -2.879158221185207367e-02 1.488817576318979263e-02 -5.223058164119720459e-02 -1.996437087655067444e-02 1.011684089899063110e-01 1.854439973831176758e-01 1.115577369928359985e-01 1.721999235451221466e-02 -1.539115607738494873e-02 6.221716105937957764e-02 -6.038868799805641174e-02 9.393650293350219727e-02 3.898398950695991516e-02 -4.884586110711097717e-02 3.651371970772743225e-02 1.400675624608993530e-02 -8.951898664236068726e-03 8.067360520362854004e-02 -1.072432613000273705e-03 -4.695364832878112793e-02 4.280158504843711853e-02 -1.363932043313980103e-01 2.016840130090713501e-02 9.689873456954956055e-02 1.605830043554306030e-01 -6.751358509063720703e-02 1.589038223028182983e-01 3.586924448609352112e-02 7.695985585451126099e-02 -2.373780123889446259e-02 1.313885897397994995e-01 -1.135756745934486389e-01 1.164942085742950439e-01 -8.411611616611480713e-02 -1.303068548440933228e-01 -2.467942982912063599e-02 -3.728013336658477783e-01 8.680926263332366943e-02 5.732094123959541321e-02 -1.572381258010864258e-01 3.208892419934272766e-02 -7.507509738206863403e-02 2.172861993312835693e-01 -5.534699931740760803e-02 1.389151215553283691e-01 7.089971750974655151e-02 3.173303976655006409e-02 -5.320336222648620605e-01 -1.489441990852355957e-01 6.814118474721908569e-03 1.319663971662521362e-02 6.975984573364257812e-02 -1.325576007366180420e-01 -2.132798731327056885e-02 5.778018385171890259e-02 3.455586358904838562e-02 6.096536666154861450e-02 -7.070912420749664307e-02 1.740985959768295288e-01 -1.727771162986755371e-01 1.190993860363960266e-01 -9.597921743988990784e-03 1.372257620096206665e-01 -5.190397799015045166e-02 -1.265886798501014709e-02 7.315798662602901459e-03 4.527882859110832214e-02 -1.953810900449752808e-01 -4.395097494125366211e-02 7.023902237415313721e-02 -3.551791012287139893e-01 1.962331086397171021e-01 -5.647603422403335571e-02 8.112512528896331787e-02 -2.535985410213470459e-02 -1.065108701586723328e-01 -1.246664375066757202e-01 5.794658139348030090e-02 -1.646726578474044800e-01 3.545675799250602722e-02 -1.538114398717880249e-01 6.261549144983291626e-02 -2.689222991466522217e-01 -2.343639731407165527e-01 -1.030377969145774841e-01 6.527045741677284241e-03 1.212773025035858154e-01 -1.233649030327796936e-01 -1.140193492174148560e-01 -1.554155051708221436e-01 2.196823619306087494e-02 -6.519316136837005615e-02 5.831784009933471680e-02 1.849988475441932678e-02 -9.039343148469924927e-02 1.423849612474441528e-01 -8.056831546127796173e-03 2.195119298994541168e-02 8.716715872287750244e-02 3.774095326662063599e-02 -6.816339492797851562e-02 1.364377737045288086e-01 -9.372443892061710358e-03 -7.884784787893295288e-02 6.982497125864028931e-02 -5.029306560754776001e-02 -5.442076325416564941e-01 6.187109742313623428e-03 5.693813785910606384e-02 -4.402589425444602966e-02 -5.038978457450866699e-01 -1.940315514802932739e-01 3.348241746425628662e-02 4.862382635474205017e-02 -8.841323107481002808e-02 8.646149933338165283e-02 -4.584954585880041122e-03 7.629717141389846802e-02 4.189372062683105469e-01 3.507940843701362610e-02 8.250316977500915527e-02 5.777115467935800552e-03 -1.269657462835311890e-01 -6.808835268020629883e-02 2.168609350919723511e-01 1.413645781576633453e-02 8.604678325355052948e-03 -1.459311414510011673e-02 3.301895037293434143e-02 1.052066832780838013e-01 1.722048386000096798e-03 -5.236874520778656006e-02 -1.641112864017486572e-01 7.369185914285480976e-04 -1.860478222370147705e-01 -1.856708228588104248e-01 5.644720047712326050e-02 2.979560494422912598e-01 4.660201370716094971e-01 -6.929109245538711548e-02 -8.089703321456909180e-02 -4.940411448478698730e-02 -1.496716886758804321e-01 -3.515818715095520020e-02 9.383334964513778687e-02 -3.106128796935081482e-02 -4.974886775016784668e-01 5.170313715934753418e-01 -1.965917460620403290e-02 -2.567319571971893311e-01 5.628513917326927185e-02 -3.890399336814880371e-01 -6.121019273996353149e-02 -8.140905946493148804e-02 -1.306114643812179565e-01 -2.299945354461669922e-01 -2.237015068531036377e-01 -2.169941365718841553e-01 1.032291650772094727e-01 -1.847217231988906860e-02 -6.150616332888603210e-03 1.100158318877220154e-01 -7.013550400733947754e-02 1.942266896367073059e-02 -4.673447832465171814e-02 1.216409653425216675e-01 1.094656735658645630e-01 -1.370531469583511353e-01 1.098209545016288757e-01 -7.869867980480194092e-02 1.024471968412399292e-01 -1.763684116303920746e-02 1.630638167262077332e-02 -1.714567244052886963e-01 4.529672861099243164e-02 4.957687482237815857e-02 3.580963611602783203e-02 -4.987997561693191528e-02 -2.145648747682571411e-02 -1.210284829139709473e-01 1.264954507350921631e-01 -1.261582784354686737e-02 -4.881330206990242004e-02 2.037038058042526245e-01 7.828187197446823120e-02 2.299186028540134430e-02 1.001012176275253296e-01 1.408565640449523926e-01 4.844617843627929688e-02 1.474096556194126606e-03 3.728238642215728760e-01 -3.538387641310691833e-02 -7.681253552436828613e-02 -8.379563689231872559e-02 -1.139467954635620117e-01 -1.780137419700622559e-02 3.056844696402549744e-02 3.016851097345352173e-02 -2.446875572204589844e-01 -4.963827133178710938e-02 -5.354690831154584885e-03 1.722964495420455933e-01 -2.345252409577369690e-02 6.593263149261474609e-02 -2.219302952289581299e-02 6.709627062082290649e-02 -3.636118024587631226e-03 -2.290194295346736908e-02 -3.620134666562080383e-02 1.511241495609283447e-01 1.779939830303192139e-01 1.549775898456573486e-01 1.597419232130050659e-01 -5.332378149032592773e-01 2.891012094914913177e-02 -3.021030426025390625e-01 -3.024221956729888916e-01 -4.036921262741088867e-01 7.761254906654357910e-02 1.300886571407318115e-01 2.538330852985382080e-01 -4.501573741436004639e-02 8.876352757215499878e-02 4.715150296688079834e-01 -1.005674246698617935e-03 4.089568927884101868e-02 -4.801538586616516113e-02 7.866091281175613403e-02 1.248664185404777527e-01 -5.112094432115554810e-02 -1.370608210563659668e-01 4.162870347499847412e-01 1.067370176315307617e-01 -8.385240286588668823e-02 6.443805694580078125e-01 -9.775363653898239136e-02 2.032353915274143219e-02 4.869368299841880798e-02 -1.079609170556068420e-01 -5.439075231552124023e-01 5.007640123367309570e-01 -1.029189527034759521e-01 -1.965702325105667114e-01 9.485402107238769531e-01 1.925641894340515137e-01 8.100473880767822266e-02 1.838755160570144653e-01 6.545934081077575684e-02 3.079456510022282600e-03 -9.434826672077178955e-03 5.322523787617683411e-02 9.996289759874343872e-02 -4.534835927188396454e-03 -2.553073875606060028e-02 3.169212723150849342e-03 5.926160141825675964e-02 -2.316664904356002808e-01 -9.100536257028579712e-02 -1.179384514689445496e-01 -1.024473831057548523e-02 -9.624426811933517456e-02 -6.034146249294281006e-02 -7.661905139684677124e-02 -1.442507505416870117e-01 1.811687648296356201e-02 1.036448717117309570e+00 -8.820056915283203125e-02 -9.794139117002487183e-02 -2.002056501805782318e-02 1.154927909374237061e-01 4.945627599954605103e-02 5.698776245117187500e-02 1.758083552122116089e-01 -1.436173170804977417e-01 -8.150104433298110962e-02 8.414530754089355469e-02 -2.146151289343833923e-02 3.603219985961914062e-02 -1.516785174608230591e-01 -3.005048334598541260e-01 -7.017894834280014038e-02 -5.797111615538597107e-02 -9.702374227344989777e-03 1.322617828845977783e-01 4.822036251425743103e-02 1.894045770168304443e-01 4.032672569155693054e-02 4.975639656186103821e-02 9.745836257934570312e-03 -1.251749992370605469e-01 4.177959635853767395e-02 1.194252632558345795e-02 -9.113980457186698914e-03 1.112629026174545288e-01 -3.199680745601654053e-01 4.475978910923004150e-01 6.862230598926544189e-02 -3.807833045721054077e-02 1.627603173255920410e-01 1.147944405674934387e-01 -2.931339852511882782e-02 2.582104876637458801e-02 -9.882505983114242554e-02 -5.154937133193016052e-02 1.770305931568145752e-01 5.503746494650840759e-02 -8.685795590281486511e-03 4.712369665503501892e-02 3.821485489606857300e-02 6.072227284312248230e-02 -1.025432199239730835e-01 -1.352458894252777100e-01 1.239403411746025085e-01 -9.723557531833648682e-02 2.779024839401245117e-01 1.742424070835113525e-02 9.038229472935199738e-03 1.190632358193397522e-01 -1.826202124357223511e-02 -4.959072545170783997e-02 -7.141180336475372314e-03 4.578317329287528992e-02 -3.072949945926666260e-01 4.731158167123794556e-02 1.913908310234546661e-02 3.567140176892280579e-02 -2.048129558563232422e+00 1.127416361123323441e-02 1.113498657941818237e-01 -1.048117876052856445e-01 -6.089730188250541687e-02 -1.039187908172607422e-01 3.449338674545288086e-02 1.681254059076309204e-01 6.294272094964981079e-02 -2.962817251682281494e-01 -1.530096232891082764e-01 3.639236092567443848e-02 8.799188584089279175e-02 -9.368255734443664551e-02 -1.090371310710906982e-01 5.994472652673721313e-02 2.056367322802543640e-02 -6.886313110589981079e-02 -6.528048217296600342e-02 -9.213276207447052002e-02 5.320499464869499207e-02 4.723126441240310669e-02 1.300211250782012939e-01 -2.640134096145629883e-02 6.796506047248840332e-02 -5.869245901703834534e-02 6.982382386922836304e-02 7.948147505521774292e-02 -1.329438667744398117e-02 -3.960562124848365784e-02 5.636446550488471985e-02 -4.501903429627418518e-02 1.901440024375915527e-01 -1.888739913702011108e-01 7.181609421968460083e-02 3.222664073109626770e-02 9.364057332277297974e-02 -8.926735073328018188e-02 -4.696460813283920288e-02 -4.024165123701095581e-02 -3.749497979879379272e-02 -2.894574105739593506e-01 -1.343810707330703735e-01 -1.132622268050909042e-02 -1.147158816456794739e-01 -3.439325690269470215e-01 -3.991915881633758545e-01 6.644395738840103149e-02 -8.380166441202163696e-02 -2.017708495259284973e-02 4.170443415641784668e-01 1.546103507280349731e-01 7.419317960739135742e-03 -5.786692351102828979e-02 -5.582570433616638184e-01 -3.332432359457015991e-02 -5.955365672707557678e-02 5.169761553406715393e-02 -8.604283444583415985e-03 1.375941187143325806e-02 8.740190416574478149e-02 1.076201722025871277e-01 -1.868592649698257446e-01 5.489261820912361145e-02 3.851593937724828720e-03 -8.030507713556289673e-03 1.549531333148479462e-02 1.535940051078796387e+00 -3.678493946790695190e-02 1.749315881170332432e-03 5.204943194985389709e-02 9.095364063978195190e-02 1.714843153953552246e+00 5.839180201292037964e-03 1.600714772939682007e-01 -4.780949093401432037e-03 -3.525862991809844971e-01 -7.794469594955444336e-02 -1.531014293432235718e-01 1.272095292806625366e-01 3.399739507585763931e-03 -4.265544936060905457e-02 1.342035681009292603e-01 -1.625294089317321777e-01 -3.812716901302337646e-02 -8.662290871143341064e-02 3.267278373241424561e-01 -5.008908733725547791e-02 5.327755212783813477e-02 -1.224433258175849915e-01 3.305505216121673584e-02 -5.398452654480934143e-02 -1.054804176092147827e-01 1.280797868967056274e-01 8.858112990856170654e-02 4.479294419288635254e-01 -6.780371069908142090e-02 -4.798554349690675735e-03 2.836195006966590881e-02 -7.786750048398971558e-02 -1.189569607377052307e-01 -2.082532644271850586e-01 1.368956565856933594e-01 2.079872339963912964e-01 -1.406089402735233307e-02 -1.948292106389999390e-01 3.380915895104408264e-02 4.613414034247398376e-02 -4.446263983845710754e-02 2.109648846089839935e-02 -8.001534938812255859e-01 1.352560222148895264e-01 -4.478074982762336731e-02 3.259910643100738525e-01 2.532284148037433624e-02 6.630372256040573120e-02 1.354282200336456299e-01 2.649016678333282471e-03 -1.146269682794809341e-02 -2.209922224283218384e-01 -1.068959087133407593e-01 1.382479369640350342e-01 -3.861264884471893311e-02 8.660320937633514404e-02 -1.329443231225013733e-02 5.434398353099822998e-02 4.004289954900741577e-02 4.008998349308967590e-02 2.319146879017353058e-02 -2.145964354276657104e-01 7.088310550898313522e-03 -6.046413257718086243e-02 8.866786956787109375e-02 3.239192962646484375e-01 -7.550554722547531128e-02 -1.823606155812740326e-02 1.349405497312545776e-01 -7.646095007658004761e-02 3.629850745201110840e-01 -4.990031570196151733e-02 1.368273049592971802e-01 -1.625587195158004761e-01 -2.098414860665798187e-02 -4.936258122324943542e-02 4.649478569626808167e-02 3.826019540429115295e-02 -5.272946879267692566e-02 4.064843989908695221e-03 -4.516324996948242188e-01 -5.001798644661903381e-02 6.799029558897018433e-02 -8.135506510734558105e-02 2.087708935141563416e-02 2.663203515112400055e-02 9.882239252328872681e-02 -7.295377552509307861e-02 5.888714268803596497e-02 1.050719320774078369e-01 1.949630491435527802e-02 5.840519443154335022e-02 1.652951985597610474e-01 -2.049165070056915283e-01 4.323568940162658691e-02 -2.101995795965194702e-01 -4.021756723523139954e-02 -1.882980167865753174e-01 -4.468482360243797302e-02 -5.649403855204582214e-02 -3.240617364645004272e-02 1.589861065149307251e-01 -1.010821014642715454e-02 9.991148114204406738e-01 3.226024284958839417e-02 1.562290489673614502e-01 8.113944932119920850e-05 1.930115669965744019e-01 -1.232999414205551147e-01 -1.448098123073577881e-01 -2.303136885166168213e-02 -8.191591501235961914e-02 1.154329534620046616e-02 6.284373998641967773e-02 -6.748259533196687698e-03 -5.383034795522689819e-02 -1.220625713467597961e-01 1.687324792146682739e-01 -1.440033689141273499e-02 1.155891828238964081e-02 -1.471722573041915894e-01 -6.713207811117172241e-02 -1.320568770170211792e-01 -6.007811427116394043e-02 -2.246359884738922119e-01 -1.867834827862679958e-03 2.318145334720611572e-02 1.064139604568481445e-01 -2.219919413328170776e-01 3.214959055185317993e-02 1.734346151351928711e-01 4.238669574260711670e-02 8.143758028745651245e-02 -6.200267672538757324e-01 6.151476874947547913e-02 -1.009811609983444214e-01 -2.582249604165554047e-02 1.007109209895133972e-01 -2.918237634003162384e-02 -7.316612452268600464e-02 -1.241296436637639999e-02 2.605305910110473633e-01 -5.450772494077682495e-02 1.123679995536804199e+00 -8.330972492694854736e-02 1.216784417629241943e-01 1.000901870429515839e-02 1.814928464591503143e-02 -7.990492135286331177e-02 1.265380531549453735e-02 -1.582395136356353760e-01 1.392705291509628296e-01 -5.063170194625854492e-02 -8.917540311813354492e-03 2.466111928224563599e-01 -1.624077704036608338e-04 1.251180469989776611e-01 -6.435315310955047607e-02 2.383311241865158081e-01 1.152698695659637451e-01 6.251261383295059204e-02 8.395741879940032959e-02 1.213340088725090027e-01 6.569477915763854980e-02 4.870801419019699097e-02 2.364598512649536133e-01 -7.318673655390739441e-03 -1.129905208945274353e-01 -1.389262080192565918e-01 -4.596835747361183167e-02 5.568911507725715637e-02 -1.073102001100778580e-03 -5.364714190363883972e-02 5.687505006790161133e-02 -3.367361053824424744e-02 6.098338589072227478e-02 1.235243119299411774e-02 -5.719796195626258850e-02 -1.375394910573959351e-01 -3.754739761352539062e-01 -8.924627304077148438e-02 5.196540802717208862e-02 6.030410155653953552e-02 1.153032928705215454e-01 -9.496376663446426392e-02 -6.747366487979888916e-02 -9.521019458770751953e-02 -5.272932350635528564e-02 -5.206766352057456970e-02 2.448591031134128571e-02 -7.880979776382446289e-02 -1.835443824529647827e-02 -7.905334979295730591e-02 1.133815199136734009e-02 1.162185519933700562e-01 -7.051509455777704716e-04 2.068437486886978149e-01 -1.669850796461105347e-01 2.302284725010395050e-02 2.707362473011016846e-01 -2.776125371456146240e-01 -6.640975922346115112e-02 3.880827501416206360e-02 -1.014939323067665100e-01 -5.145084485411643982e-02 4.187254235148429871e-02 6.945474445819854736e-02 -3.584967553615570068e-01 1.394734978675842285e-01 -8.485326543450355530e-03 1.492250263690948486e-01 9.308098256587982178e-02 6.759535074234008789e-01 1.197345834225416183e-02 3.999119997024536133e-02 1.129141598939895630e-01 2.233153134584426880e-01 7.126320153474807739e-02 -1.244810596108436584e-01 -6.741404533386230469e-02 7.990304380655288696e-02 -9.902892261743545532e-02 -4.542144760489463806e-02 -1.349468380212783813e-01 -1.601339727640151978e-01 -5.528742820024490356e-02 9.344486892223358154e-02 -3.997662365436553955e-01 1.045710965991020203e-02 1.912161111831665039e-01 -1.618342250585556030e-01 2.606697380542755127e-02 -5.417781323194503784e-02 8.568515628576278687e-02 5.282243490219116211e-01 4.129415005445480347e-02 6.913524121046066284e-02 8.729384094476699829e-02 -1.095828507095575333e-02 -9.649249166250228882e-02 1.561817973852157593e-01 -7.713057100772857666e-02 -4.739086329936981201e-02 6.347334980964660645e-01 -4.227280020713806152e-01 9.096249938011169434e-02 -5.380911752581596375e-02 -1.500442028045654297e+00 -9.776204824447631836e-03 9.697102010250091553e-02 -7.508408278226852417e-02 -5.945352092385292053e-02 -7.192677259445190430e-02 4.075158014893531799e-02 1.661725491285324097e-01 1.163568347692489624e-01 3.808306157588958740e-02 1.490333396941423416e-02 6.635732203722000122e-02 4.515893757343292236e-02 1.323346346616744995e-01 -3.221876546740531921e-02 -2.846609652042388916e-01 -1.580483317375183105e-01 5.940071772783994675e-03 -5.927289128303527832e-01 1.184521242976188660e-02 -7.378835976123809814e-02 1.827126182615756989e-02 -5.294876173138618469e-03 1.307621747255325317e-01 4.366942215710878372e-03 -1.040519326925277710e-01 -4.834088683128356934e-02 -7.947088032960891724e-02 -7.985331118106842041e-02 -6.722866743803024292e-02 5.745421629399061203e-03 -2.715275995433330536e-02 -7.333538681268692017e-02 -1.068687885999679565e-01 -4.894978553056716919e-02 4.820413142442703247e-02 3.144240751862525940e-02 5.089453458786010742e-01 8.717390149831771851e-02 4.047915711998939514e-02 1.689518839120864868e-01 -2.000503987073898315e-01 -1.533920526504516602e+00 2.039083279669284821e-03 1.707740724086761475e-01 8.002804219722747803e-02 -5.326269194483757019e-02 -1.648932322859764099e-02 1.195178553462028503e-01 2.317550592124462128e-02 -1.445298910140991211e+00 9.200031310319900513e-02 -3.302505910396575928e-01 8.332178741693496704e-02 1.976822912693023682e-01 7.083346843719482422e-01 -1.066148579120635986e-01 1.816922612488269806e-02 9.511240571737289429e-02 4.884335398674011230e-01 -6.875352561473846436e-02 -9.907013922929763794e-02 3.085148334503173828e-02 3.045546114444732666e-01 7.205328904092311859e-03 -8.720817416906356812e-02 3.901514410972595215e-02 -2.342898845672607422e-01 7.016657292842864990e-02 -3.102399222552776337e-02 -4.279617220163345337e-02 2.267273217439651489e-01 -1.038334295153617859e-01 -1.893113702535629272e-01 1.352729946374893188e-01 -9.942529723048210144e-04 2.030656635761260986e-01 -9.827173501253128052e-02 -7.733950018882751465e-02 4.337957873940467834e-02 1.145081296563148499e-01 -6.888904422521591187e-02 3.747740760445594788e-02 -7.578359544277191162e-02 -4.386926889419555664e-01 -7.512027025222778320e-02 1.637725979089736938e-01 2.855291366577148438e-01 2.022706270217895508e-01 6.301236152648925781e-02 2.432369813323020935e-02 -5.984104871749877930e-01 7.810986787080764771e-02 -4.275771975517272949e-01 5.139028429985046387e-01 -4.889740794897079468e-02 -2.311514616012573242e-01 1.843055784702301025e-01 7.913769781589508057e-02 7.250080257654190063e-02 2.074971497058868408e-01 1.568235605955123901e-01 1.113185752183198929e-02 -4.945886135101318359e-02 1.614098101854324341e-01 4.014159739017486572e-02 -5.141105055809020996e-01 -6.715213507413864136e-02 3.744385242462158203e-01 1.095023974776268005e-01 -6.345587372779846191e-01 7.213934063911437988e-01 -9.374805539846420288e-02 -8.177688717842102051e-02 2.762590162456035614e-02 5.505696311593055725e-02 -1.621223688125610352e-01 -6.878231465816497803e-02 1.673297137022018433e-01 2.450308017432689667e-02 -3.917819857597351074e-01 -3.907703235745429993e-02 -4.855421558022499084e-02 2.717136964201927185e-02 5.256410315632820129e-02 2.345455065369606018e-02 5.880488082766532898e-02 -4.015364497900009155e-02 -1.365386974066495895e-02 9.139883331954479218e-03 -3.366785943508148193e-01 6.845445036888122559e-01 -1.572992354631423950e-01 -1.247536577284336090e-02 1.996396929025650024e-01 1.420881152153015137e-01 -9.633819758892059326e-02 7.558083534240722656e-02 9.393059462308883667e-02 -1.675797253847122192e-01 5.563968792557716370e-02 -4.354047179222106934e-01 -2.917452901601791382e-02 2.207503840327262878e-02 9.769312292337417603e-02 -1.236025318503379822e-01 -9.648058563470840454e-02 -1.533612757921218872e-01 1.390081197023391724e-01 7.872904837131500244e-02 4.261726513504981995e-02 -3.995186984539031982e-01 7.172347605228424072e-02 9.448698163032531738e-02 -4.408446550369262695e-01 -1.781712099909782410e-02 1.155142337083816528e-01 -1.864943057298660278e-01 1.028725132346153259e-01 3.022913075983524323e-02 -2.996842563152313232e-02 6.566365808248519897e-02 -5.943161621689796448e-02 -1.622727066278457642e-01 -1.017536520957946777e-01 -1.247154921293258667e-01 -9.904747456312179565e-02 2.697645425796508789e-01 4.938079789280891418e-02 -4.731136187911033630e-02 -6.116047129034996033e-02 -1.258401721715927124e-01 -6.044718623161315918e-02 -1.350327860563993454e-02 -4.580928981304168701e-01 3.702137619256973267e-02 3.296897187829017639e-02 4.749622568488121033e-02 -7.550724595785140991e-02 -5.232104659080505371e-01 1.678373478353023529e-02 -8.514571003615856171e-03 -1.019316166639328003e-02 -7.642117142677307129e-02 -5.315461382269859314e-02 -1.450422108173370361e-01 4.616218432784080505e-02 4.041514173150062561e-02 9.325264394283294678e-02 8.746933192014694214e-02 -2.115971595048904419e-01 9.449619054794311523e-02 -2.343635410070419312e-01 -5.640328302979469299e-02 9.605240076780319214e-02 4.724568501114845276e-02 2.740990519523620605e-01 1.114667877554893494e-01 -1.923519670963287354e-01 -1.645295135676860809e-02 -3.052085824310779572e-02 7.692413032054901123e-02 4.262643307447433472e-02 4.127526283264160156e-02 -2.832129895687103271e-01 8.146625943481922150e-03 -9.773909300565719604e-02 -5.615223944187164307e-02 -1.079095974564552307e-01 -7.982614636421203613e-02 -1.951608806848526001e-02 -1.325693875551223755e-01 2.311214804649353027e-02 -1.600951701402664185e-01 -3.999010920524597168e-01 1.995169967412948608e-01 5.166679248213768005e-02 3.904827684164047241e-02 -5.818054080009460449e-02 -7.379247993230819702e-02 -1.431201491504907608e-02 -8.092770725488662720e-02 -5.158167332410812378e-02 9.991013258695602417e-02 -3.822413831949234009e-02 1.096279546618461609e-01 1.943207383155822754e-01 -3.605764210224151611e-01 2.660935372114181519e-02 1.339921504259109497e-01 7.237613946199417114e-02 -9.160774946212768555e-02 3.088975697755813599e-02 -4.231907427310943604e-02 5.199228227138519287e-02 -7.361704111099243164e-01 -7.146944403648376465e-01 -2.645647712051868439e-02 -1.103898361325263977e-01 1.462322771549224854e-01 -1.222196593880653381e-01 1.336490735411643982e-02 -2.310693264007568359e-02 -4.789653718471527100e-01 -2.789135463535785675e-02
1.693023443222045898e-01 4.631365463137626648e-02 1.783546060323715210e-01 -1.516048163175582886e-01 -1.040808558464050293e-01 3.381025418639183044e-02 -2.884428948163986206e-02 1.058558002114295959e-01 1.827658712863922119e-02 -1.028103753924369812e-01 7.016754895448684692e-02 -1.353276800364255905e-02 1.589048281311988831e-02 -6.469685584306716919e-02 2.078537084162235260e-02 7.322380691766738892e-02 -7.044019550085067749e-02 -1.096832156181335449e-01 2.753077261149883270e-02 -4.061067476868629456e-02 3.732680110260844231e-03 1.789281517267227173e-01 -1.178047526627779007e-02 -4.565788060426712036e-02 -1.705463603138923645e-02 -5.317112058401107788e-02 -1.486058980226516724e-01 -2.040122053585946560e-04 2.422417700290679932e-02 -6.270469166338443756e-03 4.332197830080986023e-02 -7.113721966743469238e-02 3.627170622348785400e-02 1.312848925590515137e-01 7.634989917278289795e-02 -9.574670344591140747e-02 7.118654996156692505e-02 -6.820723414421081543e-02 -1.943154074251651764e-02 1.049024285748600960e-03 6.611277908086776733e-02 1.437291353940963745e-01 -7.464685291051864624e-02 -1.650814712047576904e-02 -1.540698111057281494e-02 6.814315915107727051e-02 1.037149205803871155e-01 -8.651730418205261230e-02 -6.584483198821544647e-03 -1.649977266788482666e-02 -9.746513515710830688e-02 -5.878298357129096985e-02 2.196861803531646729e-02 5.034845322370529175e-02 7.781375944614410400e-02 5.005400627851486206e-02 -7.208127528429031372e-02 -4.409781470894813538e-02 4.941397160291671753e-02 -8.873143047094345093e-02 -8.601902425289154053e-02 1.323148608207702637e-01 7.810680568218231201e-02 -1.534229982644319534e-02 -3.147555142641067505e-02 -1.849085390567779541e-01 -4.998569935560226440e-02 7.296185195446014404e-02 1.055686250329017639e-01 7.542674243450164795e-02 1.522781443782150745e-03 -3.270449042320251465e-01 2.279786579310894012e-02 -3.068645000457763672e-01 -4.801100119948387146e-02 2.669485658407211304e-02 9.093613480217754841e-04 -2.718997299671173096e-01 -7.323490828275680542e-02 -1.444526016712188721e-01 1.945023387670516968e-01 -2.192645892500877380e-02 -3.940634895116090775e-03 4.160185903310775757e-02 3.867153450846672058e-02 -1.866970025002956390e-02 -8.158478885889053345e-02 -3.930438309907913208e-02 6.851980090141296387e-02 1.439859624952077866e-02 -1.678978502750396729e-01 -6.810107827186584473e-02 -8.167177438735961914e-02 1.557916551828384399e-01 2.931974083185195923e-02 -6.788167357444763184e-02 -7.243210077285766602e-02 1.076414287090301514e-01 2.100517787039279938e-02 1.579623520374298096e-01 1.849179156124591827e-02 3.959187120199203491e-02 7.108560204505920410e-02 -6.878573447465896606e-02 -1.474144607782363892e-01 -3.831981215626001358e-03 5.733586847782135010e-02 -2.627958357334136963e-02 6.097900867462158203e-02 7.390750944614410400e-02 -8.049737662076950073e-02 -3.050347566604614258e-01 9.647930972278118134e-03 -9.968122094869613647e-02 -1.056452933698892593e-02 -3.904980421066284180e-02 -3.345044702291488647e-02 -9.641966223716735840e-02 -1.298297047615051270e-01 6.553376466035842896e-02 1.032893732190132141e-01 -9.763010591268539429e-02 -6.830022484064102173e-02 3.033753857016563416e-02 -4.506141692399978638e-02 8.366036415100097656e-02 5.185755342245101929e-02 -1.323743462562561035e-01 -6.908553838729858398e-02 1.386894434690475464e-01 7.082728296518325806e-02 -1.188137661665678024e-02 -2.389226853847503662e-02 6.320272386074066162e-02 2.239843904972076416e-01 4.112287610769271851e-02 8.937780559062957764e-02 -6.264793127775192261e-02 -7.067950814962387085e-02 -5.536614358425140381e-02 -1.438414603471755981e-01 8.594321459531784058e-02 1.257098615169525146e-01 1.022998988628387451e-01 1.976165771484375000e-01 2.001970075070858002e-02 -9.054585546255111694e-02 -3.459391370415687561e-02 6.119559705257415771e-02 4.596143960952758789e-02 -8.171264082193374634e-02 9.694577753543853760e-02 -3.819997236132621765e-02 -2.719596493989229202e-03 2.403107937425374985e-03 -4.493183642625808716e-02 -4.276655986905097961e-02 -2.710703760385513306e-02 7.423464953899383545e-02 6.128796562552452087e-02 -3.025088608264923096e-01 6.625666748732328415e-03 -9.932867251336574554e-03 5.840506404638290405e-02 8.098398149013519287e-02 -4.033978283405303955e-02 -8.512104302644729614e-02 1.482091248035430908e-01 8.462043106555938721e-02 3.024153970181941986e-02 4.637738689780235291e-03 6.530892103910446167e-02 -1.608417630195617676e-01 6.896925717592239380e-02 5.172479897737503052e-02 -9.787864983081817627e-02 -4.735075868666172028e-03 8.076395839452743530e-02 -9.684546291828155518e-02 -8.332236111164093018e-02 1.287603229284286499e-01 1.587498188018798828e-01 -2.629663422703742981e-02 8.492896705865859985e-02 -5.729864537715911865e-02 7.932043075561523438e-02 5.553414300084114075e-02 -1.934250295162200928e-01 -6.548764556646347046e-02 6.660771369934082031e-02 4.666197299957275391e-02 8.282076567411422729e-02 -1.377186030149459839e-01 -3.316491609439253807e-03 5.163124948740005493e-02 -1.468506734818220139e-02 -2.943043708801269531e-01 -6.170734018087387085e-02 6.953781843185424805e-02 4.504910856485366821e-02 2.102784626185894012e-02 6.550591439008712769e-02 3.031194768846035004e-02 -1.031752452254295349e-01 -1.173524372279644012e-02 -9.246271848678588867e-02 -1.255984306335449219e-01 5.281201004981994629e-02 -8.788722753524780273e-02 1.196686998009681702e-01 -2.820892026647925377e-03 4.997830465435981750e-02 -1.131688151508569717e-02 -9.913557209074497223e-03 -2.356547676026821136e-02 6.489001959562301636e-02 3.755419049412012100e-03 7.120256195776164532e-04 -1.267130225896835327e-01 1.560817062854766846e-01 -1.835914736147969961e-05 4.474881663918495178e-02 -1.251634955406188965e-01 -5.624191090464591980e-02 -1.926938146352767944e-01 -1.463050246238708496e-01 1.285544484853744507e-01 -4.333383217453956604e-02 2.058132439851760864e-01 -5.869570001959800720e-02 1.684257015585899353e-02 -4.851866140961647034e-02 2.490498311817646027e-02 8.498092740774154663e-02 3.499188646674156189e-02 6.341636180877685547e-02 -8.238355815410614014e-02 1.727754324674606323e-01 -1.235779151320457458e-01 1.872774097137153149e-03 -7.822119444608688354e-02 8.532060682773590088e-02 1.009640246629714966e-01 3.501604497432708740e-02 1.384006626904010773e-02 8.133356273174285889e-02 -3.067143447697162628e-02 6.105677038431167603e-02 -4.924999549984931946e-02 -8.557765930891036987e-02 9.781643003225326538e-02 9.901064634323120117e-02 -3.884113579988479614e-02 9.624386578798294067e-02 4.109675437211990356e-02 5.595923960208892822e-02 -5.516500771045684814e-02 4.386023283004760742e-01 -3.432995080947875977e-02 -1.196884065866470337e-01 -1.043167188763618469e-01 3.640424460172653198e-02 4.158322885632514954e-02 1.352225095033645630e-01 8.500625938177108765e-02 -5.452455580234527588e-02 -6.517936289310455322e-02 8.391132205724716187e-02 5.366285890340805054e-02 3.495765849947929382e-02 -1.350611727684736252e-02 -7.639604806900024414e-02 2.468989603221416473e-02 5.162409041076898575e-03 -3.094823099672794342e-02 2.253323942422866821e-01 8.462504148483276367e-01 9.767568111419677734e-02 -5.930371582508087158e-02 -1.017037704586982727e-01 1.789208203554153442e-01 -1.037717312574386597e-01 5.487620458006858826e-02 2.397921308875083923e-02 9.556831419467926025e-02 -8.972779661417007446e-02 -3.685284405946731567e-02 2.308777347207069397e-02 -1.292995922267436981e-02 1.157655045390129089e-01 -1.096754223108291626e-01 5.665112659335136414e-02 -2.248725295066833496e-02 -1.482923179864883423e-01 -1.027940735220909119e-01 9.527551382780075073e-02 -2.026267647743225098e-01 5.869518220424652100e-02 2.233038842678070068e-02 1.634840518236160278e-01 -5.739257857203483582e-02 -8.439727872610092163e-02 4.260054975748062134e-02 1.709002256393432617e-02 1.022904068231582642e-01 -1.374900341033935547e-01 8.040483295917510986e-02 -4.978947341442108154e-02 6.482875347137451172e-02 -5.391585454344749451e-02 2.681510336697101593e-02 -5.242327600717544556e-02 -9.443506598472595215e-03 3.001202084124088287e-02 -8.783905953168869019e-02 -8.794835954904556274e-02 4.685505107045173645e-02 6.913504749536514282e-02 7.590881735086441040e-02 -2.418103255331516266e-02 1.128699108958244324e-01 1.672079861164093018e-01 4.880541469901800156e-03 1.961286179721355438e-02 -6.441766023635864258e-02 -1.187123730778694153e-01 5.025484040379524231e-02 -1.993364393711090088e-01 -4.882784485816955566e-01 -4.062059149146080017e-02 6.922037154436111450e-02 1.431373972445726395e-02 3.668873012065887451e-02 3.516960144042968750e-02 -1.338571403175592422e-02 9.535457938909530640e-02 -1.197355166077613831e-01 8.870188891887664795e-02 -5.798413977026939392e-02 -8.594238199293613434e-03 6.956526637077331543e-02 1.307682245969772339e-01 5.833762139081954956e-02 -1.122835353016853333e-01 5.284015461802482605e-02 -9.487748146057128906e-02 4.798497259616851807e-02 6.741624325513839722e-02 -6.972033064812421799e-03 1.271894127130508423e-01 1.541293710470199585e-01 -9.680651128292083740e-02 -2.774544432759284973e-02 -2.679107338190078735e-02 -6.680133938789367676e-02 -1.080863457173109055e-02 -5.075837671756744385e-02 -2.278034761548042297e-02 1.591679900884628296e-01 -2.139396406710147858e-02 -1.603438556194305420e-01 5.471082404255867004e-02 -9.036612510681152344e-02 -8.843928575515747070e-02 -1.047446280717849731e-01 6.124893948435783386e-02 3.572206187527626753e-04 -9.115127474069595337e-02 -8.047500997781753540e-02 2.004555910825729370e-01 1.001757085323333740e-01 7.305540144443511963e-02 4.298773407936096191e-01 -9.315686672925949097e-02 1.374831050634384155e-01 6.639803946018218994e-02 -7.504947483539581299e-02 -3.323872387409210205e-02 1.012021079659461975e-01 1.073440164327621460e-01 9.880601428449153900e-03 -9.508362412452697754e-02 1.953943371772766113e-01 -8.069689571857452393e-02 -4.825840890407562256e-02 -4.689949378371238708e-02 1.061076223850250244e-01 -7.603372633457183838e-02 -1.315259486436843872e-01 3.036538138985633850e-02 5.046990513801574707e-02 -8.004849404096603394e-02 3.609222546219825745e-02 -3.055176232010126114e-03 6.945350766181945801e-02 -4.121687728911638260e-03 2.138087898492813110e-02 -1.298525482416152954e-01 -5.269579961895942688e-02 -1.178596764802932739e-01 -4.788739234209060669e-02 2.326108813285827637e-01 -7.531369477510452271e-02 -5.615250393748283386e-02 -2.509784139692783356e-02 -2.782178483903408051e-02 -1.474098674952983856e-02 7.476457208395004272e-02 6.609511561691761017e-03 4.177798330783843994e-02 -3.639796972274780273e-01 -1.116441413760185242e-01 -6.847325712442398071e-02 1.594073139131069183e-02 -1.419677436351776123e-01 6.460822373628616333e-02 -2.543125674128532410e-02 1.845687045715749264e-03 1.778873614966869354e-02 -4.405550286173820496e-02 8.141712844371795654e-02 5.708621069788932800e-02 -3.352689743041992188e-02 1.325903683900833130e-01 -2.348353154957294464e-02 5.045815557241439819e-02 1.319127529859542847e-01 3.200286254286766052e-02 -1.349733909592032433e-03 -6.241751462221145630e-02 1.627289503812789917e-02 -3.955917060375213623e-02 -5.513573810458183289e-02 3.157520592212677002e-01 5.199959501624107361e-03 8.151954971253871918e-03 -5.830669775605201721e-02 -6.805004924535751343e-02 -7.269211858510971069e-02 -1.436827927827835083e-01 3.911603614687919617e-02 1.706442795693874359e-02 -3.694101795554161072e-02 -1.655168458819389343e-02 -1.539782155305147171e-03 -2.636802010238170624e-02 2.384434491395950317e-01 6.441650539636611938e-02 1.881561130285263062e-01 1.147421076893806458e-01 -1.798338890075683594e-01 5.560031533241271973e-02 2.186000160872936249e-02 7.006131857633590698e-02 -5.404746532440185547e-02 2.451488077640533447e-01 -7.680059224367141724e-02 -1.009590476751327515e-01 1.673948764801025391e-02 4.095629230141639709e-02 -2.147620320320129395e-01 -9.057441726326942444e-03 -1.019426435232162476e-01 4.153852351009845734e-03 1.992897503077983856e-02 -9.143530577421188354e-02 1.906816959381103516e-01 3.937369585037231445e-02 9.693610668182373047e-02 6.629276275634765625e-02 3.992946818470954895e-02 3.654894232749938965e-02 7.867539674043655396e-02 2.583982609212398529e-02 2.535130083560943604e-02 -4.820898175239562988e-02 -5.017735436558723450e-02 1.055189594626426697e-01 -6.542169302701950073e-02 8.729289472103118896e-02 8.607501536607742310e-02 -1.767675951123237610e-02 -3.328493912704288960e-04 1.923537813127040863e-02 -6.005140021443367004e-02 1.813743263483047485e-02 -4.181125015020370483e-02 -5.821951106190681458e-02 4.677892662584781647e-03 -2.608693204820156097e-03 -9.081985056400299072e-02 2.689112722873687744e-02 7.085922360420227051e-02 3.863427788019180298e-02 -3.315317630767822266e-02 4.143305718898773193e-01 1.458753049373626709e-01 -6.770568341016769409e-02 8.072903752326965332e-02 5.478904768824577332e-02 -5.674100294709205627e-02 3.577274084091186523e-02 6.963597238063812256e-02 6.799185276031494141e-02 2.995886467397212982e-02 1.967084109783172607e-01 -2.831368334591388702e-02 -9.588728100061416626e-02 6.152770668268203735e-02 -1.207972541451454163e-01 1.270196437835693359e-01 3.761602565646171570e-02 1.021970286965370178e-01 -8.968865126371383667e-02 -3.927100449800491333e-02 5.170649290084838867e-01 -1.397899817675352097e-02 -5.671134218573570251e-02 8.864364773035049438e-02 -5.838159844279289246e-02 9.374983608722686768e-02 -1.041433587670326233e-01 -7.885432243347167969e-02 -4.711229354143142700e-02 -1.933139748871326447e-02 2.957547269761562347e-02 8.099524676799774170e-02 6.898543238639831543e-02 1.965458504855632782e-02 -2.530865371227264404e-02 -1.155959442257881165e-01 2.625496983528137207e-01 4.107592627406120300e-03 6.741428375244140625e-02 -5.346549302339553833e-02 1.101030260324478149e-01 -1.722562909126281738e-01 -5.257883295416831970e-02 9.189650416374206543e-02 -1.287895143032073975e-01 1.215425953269004822e-01 6.507655978202819824e-02 -1.763292215764522552e-02 -2.172214537858963013e-01 2.739751944318413734e-04 6.398393213748931885e-02 -4.074940457940101624e-02 -8.314730972051620483e-02 -6.392653286457061768e-02 1.515398826450109482e-02 1.507998108863830566e-01 -9.311148524284362793e-02 1.656948029994964600e-02 -4.748829081654548645e-02 -4.985045641660690308e-02 4.666741192340850830e-02 -1.365582942962646484e-01 1.156697794795036316e-01 -1.097882390022277832e-01 2.558380961418151855e-01 -1.038537845015525818e-01 -5.534124746918678284e-02 2.003860427066683769e-03 3.634928911924362183e-02 9.615404531359672546e-03 6.151433289051055908e-02 -6.946696341037750244e-02 -1.157780084758996964e-02 -8.332069963216781616e-02 2.121372967958450317e-01 9.468349069356918335e-02 -4.548149590846151114e-04 -2.194775640964508057e-01 -1.812835782766342163e-01 -5.179245471954345703e-01 9.364252537488937378e-02 -8.670379966497421265e-02 1.979757994413375854e-01 6.587149947881698608e-02 7.834547758102416992e-02 3.495521843433380127e-01 4.343064129352569580e-02 -3.135679662227630615e-02 -2.454201877117156982e-02 -1.053228154778480530e-01 1.030128821730613708e-01 -6.791269779205322266e-02 -1.111716106534004211e-01 6.413009762763977051e-02 1.530721038579940796e-01 5.877733230590820312e-03 6.304534152150154114e-03 1.994547843933105469e-01 -1.622460223734378815e-02 7.651478052139282227e-02 9.856127202510833740e-02 -7.216717302799224854e-02 1.164891272783279419e-01 -9.944725036621093750e-02 6.777232140302658081e-02 -4.490640759468078613e-02 5.490576103329658508e-02 1.150855347514152527e-01 2.359881997108459473e-03 1.240509226918220520e-01 4.357327707111835480e-03 -1.014371812343597412e-01 -9.437912702560424805e-02 1.000046133995056152e-01 7.262276113033294678e-02 4.070077557116746902e-03 9.472406655550003052e-02 2.138659209012985229e-01 1.368582621216773987e-02 9.611705690622329712e-02 -4.530405998229980469e-02 6.196957826614379883e-02 -4.711647331714630127e-02 7.879325747489929199e-02 -4.468146339058876038e-02 -1.519991159439086914e-01 -8.868108503520488739e-03 -4.095576331019401550e-02 4.909863322973251343e-02 1.301653087139129639e-01 -2.988980151712894440e-02 -9.042789041996002197e-02 -1.898776553571224213e-02 9.331806562840938568e-03 -1.236320808529853821e-01 7.907211035490036011e-02 -3.715528547763824463e-01 1.452491134405136108e-01 1.590874344110488892e-01 2.428899332880973816e-02 -8.927705138921737671e-02 3.550261631608009338e-02 3.556032180786132812e-01 1.066769659519195557e-02 2.324015647172927856e-01 -8.715674281120300293e-02 -6.437020748853683472e-02 9.385027922689914703e-03 -2.562479116022586823e-02 -9.054409712553024292e-02 6.937620043754577637e-02 7.404783368110656738e-02 -5.617611482739448547e-02 5.035544186830520630e-02 1.019425541162490845e-01 -1.110903769731521606e-01 -1.034685783088207245e-02 7.298552989959716797e-02 -5.105959624052047729e-02 -1.072143763303756714e-01 1.423083338886499405e-02 -2.886795904487371445e-03 1.271769106388092041e-01 -2.420056797564029694e-02 4.375534355640411377e-01 3.152026981115341187e-02 -1.898512430489063263e-02 9.405447542667388916e-02 -4.251032136380672455e-03 1.705248951911926270e-01 -7.479557394981384277e-02 -1.446554809808731079e-01 2.419042028486728668e-02 1.223317980766296387e-01 1.019008606672286987e-01 5.820178613066673279e-02 6.033713370561599731e-02 -4.896008875221014023e-03 -2.841530442237854004e-01 6.957898288965225220e-02 3.417678410187363625e-03 4.836462810635566711e-02 7.971408963203430176e-02 -6.636226922273635864e-02 -3.564283847808837891e-01 -4.852261394262313843e-02 6.906409561634063721e-02 5.258758738636970520e-02 2.854563891887664795e-01 -1.043788194656372070e-01 5.066427867859601974e-03 -3.479374200105667114e-02 -1.173519417643547058e-01 1.594418436288833618e-01 2.237113565206527710e-02 6.335687637329101562e-02 9.084482491016387939e-02 -8.385707437992095947e-02 -8.796842396259307861e-02 7.582667469978332520e-02 8.832392841577529907e-02 -2.281179875135421753e-01 -8.725546300411224365e-02 1.623406559228897095e-01 -1.170276105403900146e-01 -4.669384658336639404e-02 2.050991654396057129e-01 6.205726414918899536e-02 -2.239136025309562683e-02 -6.541973352432250977e-02 4.879425093531608582e-02 -6.342372298240661621e-02 -2.202322781085968018e-01 7.361865043640136719e-02 -8.108746260404586792e-02 4.296740144491195679e-02 -2.916579879820346832e-02 -3.077241778373718262e-01 -4.622517898678779602e-02 -4.120717197656631470e-02 -9.956023097038269043e-02 -7.198318839073181152e-02 4.393978044390678406e-02 -5.842837318778038025e-02 8.739151060581207275e-02 -9.444719552993774414e-02 1.209773048758506775e-01 2.402237430214881897e-02 4.787046927958726883e-04 8.722725510597229004e-02 -5.093725398182868958e-02 6.117714568972587585e-02 8.218412287533283234e-03 3.339500352740287781e-02 -4.514314606785774231e-02 -4.900787472724914551e-01 4.569861292839050293e-01 -1.618882454931735992e-02 5.511876568198204041e-02 4.914522171020507812e-02 -5.326227843761444092e-02 6.744315475225448608e-02 7.773875445127487183e-02 -8.760140836238861084e-02 -1.183155179023742676e-01 1.755629926919937134e-01 6.629353761672973633e-02 1.862747669219970703e-01 1.304468214511871338e-01 -3.282349109649658203e-01 -1.352203637361526489e-01 -1.170624643564224243e-01 8.180867135524749756e-02 -4.513064026832580566e-01 4.000406712293624878e-02 -1.816180050373077393e-01 1.249253936111927032e-02 -4.464401304721832275e-02 -5.325631052255630493e-02 5.400736257433891296e-02 -6.374376243911683559e-04 5.718491971492767334e-02 -1.279509514570236206e-01 4.985239207744598389e-01 1.116163134574890137e-01 -3.110975213348865509e-02 6.510022282600402832e-02 2.199264802038669586e-02 -5.906569585204124451e-02 6.752292066812515259e-02 3.487875685095787048e-02 -1.292124837636947632e-01 -7.725833356380462646e-02 1.371502876281738281e-01 1.954179443418979645e-02 -7.670802995562553406e-03 1.430693566799163818e-01 -6.172805279493331909e-02 1.197242662310600281e-01 4.297488834708929062e-03 -1.850950121879577637e-01 -1.172523573040962219e-01 1.879344880580902100e-01 6.574004888534545898e-02 -2.588780522346496582e-01 -3.670370206236839294e-02 1.963424682617187500e-01 1.319108903408050537e-01 -2.114884927868843079e-02 -5.290352180600166321e-02 -4.778720811009407043e-02 5.385071784257888794e-02 3.123232908546924591e-02 1.584098637104034424e-01 -8.182201534509658813e-02 1.842661648988723755e-01 1.779489032924175262e-02 1.584296673536300659e-01 2.403701189905405045e-03 -5.678110197186470032e-02 1.845155470073223114e-02 -2.334687486290931702e-02 7.913856953382492065e-02 -2.950993478298187256e-01 7.301187515258789062e-02 -9.812355786561965942e-02 9.349962696433067322e-03 -2.014339901506900787e-02 -2.261309325695037842e-01 -3.231979012489318848e-01 -1.174863055348396301e-02 8.015089482069015503e-02 1.064211204648017883e-01 -3.602261841297149658e-02 -1.077706888318061829e-01 2.785361558198928833e-02 2.269773334264755249e-01 -2.652477938681840897e-03 -1.426142454147338867e-01 2.889160066843032837e-02 6.473182886838912964e-02 9.630361944437026978e-02 9.264125488698482513e-03 1.124261319637298584e-02 8.523731678724288940e-02 2.667223848402500153e-02 -8.465936034917831421e-02 1.051124334335327148e-01 2.234021303593181074e-05 -6.002434343099594116e-02 -7.749401032924652100e-02 -2.197417058050632477e-02 -6.263054907321929932e-02 -5.759024620056152344e-02 3.159461542963981628e-02 -5.781802348792552948e-03 -2.219464182853698730e-01 1.648158580064773560e-02 1.905563101172447205e-02 -7.648194432258605957e-01 -7.535722106695175171e-03 -5.218475311994552612e-02 1.197224855422973633e+00 3.060746490955352783e-01 2.214030176401138306e-01 1.000113263726234436e-01 1.637831516563892365e-02 -3.392333164811134338e-02 -7.112078368663787842e-02 -4.111120011657476425e-03 -1.150499060750007629e-01 1.332626640796661377e-01 8.448315411806106567e-02 1.112898811697959900e-02 -9.550023823976516724e-02 2.323869019746780396e-01 -3.717548772692680359e-02 1.524420380592346191e-01 2.431031763553619385e-01 -1.085887569934129715e-02 1.927902549505233765e-02 1.313564330339431763e-01 1.677910611033439636e-02 -8.921906352043151855e-03 1.117224022746086121e-01 -5.928653851151466370e-02 1.120385527610778809e-01 2.360030561685562134e-01 -7.938265055418014526e-02 -6.446324288845062256e-02 4.522301722317934036e-03 3.730712234973907471e-01 8.377970010042190552e-02 -9.849181771278381348e-02 -7.310998439788818359e-02 -8.061484992504119873e-02 4.250268638134002686e-02 4.114937782287597656e-02 1.775281876325607300e-01 2.964687161147594452e-02 2.852384448051452637e-01 1.970713883638381958e-01 6.165993865579366684e-03 7.404094189405441284e-02 2.265233099460601807e-01 1.666658967733383179e-01 -9.469754248857498169e-02 -1.188794989138841629e-02 7.575871795415878296e-02 -8.183345198631286621e-04 4.074390511959791183e-03 1.046517789363861084e-01 2.044072188436985016e-02 -3.260059654712677002e-02 4.477521404623985291e-02 -2.393582463264465332e-02 -2.537745796144008636e-02 -6.339533627033233643e-02 6.135549768805503845e-02 1.498085409402847290e-01 1.051336452364921570e-01 -9.481696039438247681e-02 1.592847332358360291e-02 -5.886567384004592896e-02 2.010358870029449463e-01 1.457694321870803833e-01 1.120826811529695988e-03 -2.592293359339237213e-02 6.577610224485397339e-02 -5.440095905214548111e-03 -2.963401563465595245e-02 5.058934912085533142e-02 -5.314699187874794006e-02 -2.491520345211029053e-02 -9.023810178041458130e-02 -5.967391133308410645e-01 1.085969582200050354e-01 9.575759619474411011e-02 4.680952429771423340e-02 9.754898399114608765e-02 1.451886296272277832e-01 4.709010571241378784e-02 1.341214776039123535e-01 -6.986899673938751221e-02 -3.192193061113357544e-02 -7.083813101053237915e-02 -9.366731345653533936e-02 1.035295650362968445e-01 6.689824908971786499e-02 3.937764093279838562e-02 2.112895436584949493e-02 -8.243658393621444702e-02 3.256094455718994141e-01 -1.888628900051116943e-01 9.960710257291793823e-02 -1.062796860933303833e-01 8.686468005180358887e-02 -6.734581291675567627e-02 1.105973273515701294e-01 3.285843878984451294e-02 -5.072643607854843140e-02 -7.103293389081954956e-02 -4.265094175934791565e-02 -1.363020390272140503e-01 -3.097803331911563873e-03 1.283493191003799438e-01 3.004352003335952759e-02 1.435914728790521622e-02 6.585511378943920135e-03 -1.963727409020066261e-04 -5.710673704743385315e-02 4.608832895755767822e-01 9.115121513605117798e-02 1.371178030967712402e-02 6.387459486722946167e-02 -8.300703018903732300e-02 -9.427995979785919189e-02 -1.043289452791213989e-01 3.835496604442596436e-01 -1.158797889947891235e-01 -9.665468242019414902e-04 -7.025042921304702759e-02 6.979774683713912964e-02 1.753938049077987671e-01 1.944308496604207903e-05 -2.928694784641265869e-01 -7.677534967660903931e-02 -1.014488339424133301e-01 3.406760282814502716e-03 -7.145999372005462646e-02 5.080607905983924866e-02 -1.871757768094539642e-02 3.342631459236145020e-02 1.170999854803085327e-01 -3.373466804623603821e-02 4.420236125588417053e-02 -8.109455555677413940e-02 -3.546508774161338806e-02 -1.051126196980476379e-01 4.813346266746520996e-02 -1.034332662820816040e-01 2.469192072749137878e-02 -4.497108235955238342e-02 4.266015812754631042e-02 -2.513631060719490051e-02 1.333528757095336914e-01 -1.305411010980606079e-01 -8.684192597866058350e-02 -1.272986680269241333e-01 -5.560209602117538452e-02 -1.794744748622179031e-03 -8.081767708063125610e-02 -1.104133278131484985e-01 -3.515530005097389221e-02 5.356833711266517639e-02 -9.724965319037437439e-03 -2.963456511497497559e-02 -1.210821326822042465e-02 1.609862595796585083e-01 -6.403502076864242554e-02 -4.261165112257003784e-02 -1.370067149400711060e-02 3.178638592362403870e-02 1.087765842676162720e-01 -9.148957580327987671e-02 1.042971611022949219e-01 5.244234949350357056e-02 5.334741994738578796e-02 1.010812595486640930e-01 -4.105919040739536285e-03 1.855843067169189453e-01 -3.179680090397596359e-03 -9.780930727720260620e-02 3.617964684963226318e-02 -1.372584607452154160e-02 4.211568087339401245e-02 -7.772712409496307373e-02 4.754839465022087097e-02 -5.833883211016654968e-02 -9.397483617067337036e-02 -2.413333803415298462e-01 1.952606812119483948e-02 -4.104973748326301575e-02 -5.196869969367980957e-01 1.347378492355346680e-01 1.485385373234748840e-02 1.026905924081802368e-01 -3.160166740417480469e-01 -5.400026217103004456e-02
-2.074669450521469116e-01 2.126897126436233521e-01 -1.169899553060531616e-01 -1.423813819885253906e+00 2.418282255530357361e-02 1.849712282419204712e-01 2.253760769963264465e-02 -2.812569029629230499e-02 -8.665612898766994476e-03 -1.258802711963653564e-01 4.090129211544990540e-02 -3.714523836970329285e-02 -4.446908459067344666e-02 -4.209760949015617371e-02 1.332525070756673813e-02 -9.249804168939590454e-02 -5.974643677473068237e-02 -4.070890694856643677e-02 4.037885367870330811e-02 -1.545817255973815918e-01 -3.351671621203422546e-02 -9.189824014902114868e-02 1.496381685137748718e-02 -1.289999037981033325e-01 -7.029197178781032562e-03 -1.127479970455169678e-02 9.569947421550750732e-02 -2.865433879196643829e-02 8.731299638748168945e-02 -2.898579230532050133e-03 3.832492744550108910e-03 -5.400541052222251892e-02 3.826588392257690430e-01 1.335851997137069702e-01 -4.925554990768432617e-02 7.499018218368291855e-03 1.721413992345333099e-02 7.331259548664093018e-02 -5.342436488717794418e-03 1.646954193711280823e-02 -3.862861916422843933e-02 1.214744150638580322e-01 -6.970633566379547119e-02 -7.264562249183654785e-01 -1.352434009313583374e-01 2.536368370056152344e-01 1.528984587639570236e-02 -2.178208716213703156e-02 5.083986092358827591e-03 -5.843699909746646881e-03 6.447789818048477173e-02 -3.748648613691329956e-02 1.246073916554450989e-01 -1.559878792613744736e-02 1.419025808572769165e-01 -4.449951052665710449e-01 -2.114059925079345703e-01 -5.533080920577049255e-02 -5.761096253991127014e-02 6.782514508813619614e-03 1.607274711132049561e-01 1.414923463016748428e-02 -9.513270854949951172e-02 -3.188129514455795288e-03 8.939728140830993652e-03 -4.219574481248855591e-02 -2.559016346931457520e-01 -8.446314930915832520e-01 7.967437617480754852e-03 -8.120371028780937195e-03 -5.229831859469413757e-02 2.203977346420288086e+00 -3.293544054031372070e-01 -3.851626068353652954e-02 -1.058042272925376892e-01 -8.340306580066680908e-03 -4.449313879013061523e-02 2.659731209278106689e-01 1.412742584943771362e-02 4.137678146362304688e-01 -1.528508365154266357e-01 -7.208865135908126831e-02 2.638792432844638824e-02 -1.505247801542282104e-01 -6.587348878383636475e-02 -5.642595514655113220e-02 -9.453798830509185791e-02 -6.316478550434112549e-02 2.247212082147598267e-02 -1.039425805211067200e-01 7.592647671699523926e-01 1.921878382563591003e-02 -6.877277791500091553e-02 -1.286259889602661133e-01 1.941183395683765411e-02 2.340302020311355591e-01 1.494756937026977539e-01 1.108832135796546936e-01 -1.167560592293739319e-01 1.415604948997497559e-01 1.030887737870216370e-01 4.048169776797294617e-02 -1.371638569980859756e-02 1.037542708218097687e-03 -2.092882394790649414e-01 6.879369169473648071e-02 3.103815615177154541e-01 -1.494711339473724365e-01 9.074021875858306885e-02 -2.820559591054916382e-02 6.547309458255767822e-02 1.087639927864074707e+00 4.793303087353706360e-02 3.263097256422042847e-02 -1.716445572674274445e-02 -3.439575806260108948e-02 -1.065042614936828613e-01 7.039041817188262939e-02 -2.178094536066055298e-02 -6.218970566987991333e-02 -1.455453038215637207e-01 -5.250212177634239197e-02 2.538378164172172546e-02 -1.543494407087564468e-02 4.091032966971397400e-02 1.050169486552476883e-02 -2.228677086532115936e-02 -7.448522001504898071e-02 6.974247097969055176e-02 2.771741896867752075e-02 -5.792860984802246094e-01 2.903393805027008057e-01 3.850086331367492676e-01 4.128450062125921249e-03 -6.123864650726318359e-02 5.745588988065719604e-02 4.345022141933441162e-02 7.477084174752235413e-03 -8.650691062211990356e-02 -4.556781146675348282e-03 -3.010451048612594604e-02 4.725058097392320633e-03 1.233472023159265518e-02 3.937352001667022705e-01 -1.541711688041687012e-01 -1.451795995235443115e-01 -2.549806535243988037e-01 1.669517531991004944e-02 -1.758539974689483643e-01 4.906989634037017822e-02 6.316870450973510742e-02 -1.198109313845634460e-01 2.575601823627948761e-02 2.191707491874694824e-02 5.488374456763267517e-02 -6.522402167320251465e-03 -3.199078515172004700e-02 5.755431950092315674e-02 9.406016767024993896e-02 -1.177580133080482483e-01 4.188818633556365967e-01 1.243299171328544617e-01 5.066887289285659790e-02 4.763585329055786133e-02 1.258013397455215454e-01 -3.152972832322120667e-02 -3.752499818801879883e-02 -2.009488409385085106e-03 1.226897723972797394e-02 -3.194678947329521179e-02 7.224342972040176392e-02 7.190841250121593475e-03 7.190187573432922363e-01 2.412096783518791199e-02 1.448182314634323120e-01 -5.604968592524528503e-02 1.312681585550308228e-01 7.459007948637008667e-02 8.403659611940383911e-02 9.380901604890823364e-02 4.138211160898208618e-02 -1.203007698059082031e-01 1.353416685014963150e-02 5.102246627211570740e-02 -1.611389964818954468e-02 2.624001353979110718e-02 1.215190589427947998e-01 9.329046308994293213e-02 -1.208496280014514923e-02 -1.874271593987941742e-02 -7.427030056715011597e-02 -3.019961714744567871e-01 -1.044136062264442444e-01 -5.760712176561355591e-02 -8.802475035190582275e-02 3.712254762649536133e-02 -1.293809711933135986e-01 -1.918501779437065125e-02 1.287593096494674683e-01 1.361372470855712891e-01 -3.156910091638565063e-02 8.221901953220367432e-03 3.273393958806991577e-02 -1.037026345729827881e-01 -6.803830713033676147e-02 1.484967619180679321e-01 3.746370598673820496e-02 -1.527662128210067749e-01 -4.149430692195892334e-01 7.522360235452651978e-02 8.490154519677162170e-03 2.335844784975051880e-01 1.312669459730386734e-02 -5.172301828861236572e-02 4.280118644237518311e-02 4.700069874525070190e-02 -3.123974800109863281e-01 1.001192107796669006e-01 -1.369629520922899246e-02 1.125187985599040985e-02 4.270272552967071533e-01 -9.971836954355239868e-02 -2.803657948970794678e-01 -3.946218267083168030e-02 3.928220570087432861e-01 7.732781767845153809e-02 -1.878438889980316162e-01 5.676798149943351746e-02 1.460752636194229126e-01 1.382232308387756348e+00 9.891814738512039185e-02 -1.485807728022336960e-02 9.775456041097640991e-02 1.199374068528413773e-02 8.291329443454742432e-02 -7.991781830787658691e-02 -7.587756216526031494e-02 -1.095765153877437115e-03 7.124201208353042603e-02 1.296188384294509888e-01 -7.385861873626708984e-02 3.847902640700340271e-02 9.378520399332046509e-02 4.124044999480247498e-02 -3.609741926193237305e-01 -1.639332473278045654e-01 1.881575435400009155e-01 9.101106971502304077e-02 1.387251317501068115e-01 -4.027648270130157471e-01 1.342209521681070328e-02 1.948754787445068359e-01 -3.967432130593806505e-04 1.423301100730895996e-01 1.591365784406661987e-02 -6.506694108247756958e-02 9.651234149932861328e-01 1.158539280295372009e-01 7.017116248607635498e-02 2.239014953374862671e-02 -6.885053217411041260e-02 1.142993289977312088e-02 1.841331124305725098e-01 9.318012744188308716e-02 1.209409907460212708e-01 -1.354169752448797226e-02 -3.281204961240291595e-03 1.105186045169830322e-01 1.181779131293296814e-01 1.847070083022117615e-02 3.110992722213268280e-02 7.318514585494995117e-02 2.564179599285125732e-01 9.118731319904327393e-02 -8.890099823474884033e-02 -2.331583350896835327e-01 -2.739257812500000000e-01 -2.022486552596092224e-02 5.340135470032691956e-02 -5.219410657882690430e-01 -9.600554592907428741e-03 -5.082059651613235474e-02 7.828450202941894531e-02 1.425453834235668182e-02 -1.092411577701568604e-01 -2.511494159698486328e-01 2.982725948095321655e-02 3.382032737135887146e-03 -1.262048725038766861e-02 3.994394559413194656e-03 -1.457801759243011475e-01 1.262582093477249146e-02 -2.002208866178989410e-02 -1.747293397784233093e-03 -1.430043876171112061e-01 -6.699905544519424438e-02 6.991853713989257812e-01 6.140484940260648727e-03 -8.443560451269149780e-02 9.629916399717330933e-02 -2.399369515478610992e-02 -1.189921237528324127e-02 -5.102689377963542938e-03 -1.157141849398612976e-01 6.993821263313293457e-02 -5.419697761535644531e-01 2.388635575771331787e-01 -4.614419862627983093e-02 -2.026153355836868286e-02 -1.057089567184448242e-01 -1.060844212770462036e-01 8.863197639584541321e-03 3.485344350337982178e-02 8.045211434364318848e-03 -1.470293849706649780e-02 8.006969839334487915e-02 1.128867641091346741e-02 3.317149877548217773e-01 1.139390543103218079e-01 1.189716812223196030e-02 -2.905280292034149170e-01 2.445738613605499268e-01 -9.753497689962387085e-02 5.237762629985809326e-02 -5.287275649607181549e-03 1.514257490634918213e-01 1.112381368875503540e-01 6.879424303770065308e-02 8.027494698762893677e-02 -2.970936894416809082e-01 5.095938965678215027e-02 5.327344872057437897e-03 -8.669714629650115967e-02 -1.992367208003997803e-03 -4.427633881568908691e-01 -1.318172067403793335e-01 -1.065030574798583984e+00 -3.608445823192596436e-01 -9.743283689022064209e-02 -3.411622950807213783e-03 -9.257905930280685425e-02 -4.263066686689853668e-03 -9.713714942336082458e-03 3.809585794806480408e-02 -1.676187962293624878e-01 4.286096617579460144e-02 2.487934008240699768e-02 -1.655055731534957886e-01 2.069012373685836792e-01 3.545742109417915344e-02 3.199798986315727234e-02 -1.759212613105773926e-01 7.141350209712982178e-02 3.973273932933807373e-01 6.602700054645538330e-02 -5.025487542152404785e-01 2.571688732132315636e-03 -5.431386455893516541e-02 3.019621362909674644e-03 -2.255945280194282532e-02 1.179930171929299831e-03 -9.334968775510787964e-02 -3.420133516192436218e-02 2.466846555471420288e-01 2.381690144538879395e-01 -2.340054884552955627e-02 -7.862014323472976685e-02 1.487259101122617722e-02 -7.442850619554519653e-02 2.121512964367866516e-02 1.823970302939414978e-02 9.718298912048339844e-02 5.330938100814819336e-02 -1.980171203613281250e-01 9.578573703765869141e-02 -2.314967662096023560e-02 8.164414204657077789e-03 -7.154975086450576782e-02 -5.209121704101562500e-01 4.715264961123466492e-02 -6.747222691774368286e-02 3.826847076416015625e-01 1.374156326055526733e-01 3.732244297862052917e-02 1.518625766038894653e-01 -2.572126314043998718e-02 -2.103090733289718628e-01 -7.582655549049377441e-02 7.560401409864425659e-02 -3.371249139308929443e-02 9.411764144897460938e-02 6.953024119138717651e-02 -2.817599661648273468e-02 1.796051859855651855e-02 -8.434175699949264526e-02 5.060664936900138855e-02 -9.131282567977905273e-02 -1.969322003424167633e-02 -2.841360494494438171e-02 8.916418254375457764e-02 -1.937431655824184418e-02 -4.212932884693145752e-01 2.277950346469879150e-01 2.433095425367355347e-01 -1.913077980279922485e-01 -1.522329002618789673e-01 1.957502961158752441e-02 1.822645962238311768e-01 -4.947214201092720032e-02 -1.563280820846557617e-04 5.360472202301025391e-01 2.371336519718170166e-02 -2.194244116544723511e-01 7.661322504281997681e-02 6.015290692448616028e-02 -9.078340604901313782e-03 -1.428055763244628906e-01 8.128762245178222656e-02 1.059758067131042480e-01 -1.961714401841163635e-02 8.912775665521621704e-02 1.315802484750747681e-01 2.290026247501373291e-01 -1.421416737139225006e-02 -7.363722473382949829e-02 -8.977868407964706421e-02 1.330791413784027100e-02 4.876698926091194153e-02 2.557139657437801361e-02 4.322244320064783096e-03 -1.604104936122894287e-01 -4.334565252065658569e-03 -6.008986234664916992e-01 -4.822659194469451904e-01 2.045908868312835693e-01 -2.931947633624076843e-02 2.378604412078857422e-01 2.162354588508605957e-01 5.450908094644546509e-02 7.414063066244125366e-02 -2.225230783224105835e-01 3.501587361097335815e-02 2.051320485770702362e-02 1.130700632929801941e-01 -9.445754438638687134e-02 -2.946225367486476898e-02 9.446193464100360870e-03 4.597562924027442932e-02 -7.876138389110565186e-02 7.123193889856338501e-02 5.274651646614074707e-01 -1.172596402466297150e-02 9.811235964298248291e-02 -2.264846116304397583e-02 -6.483592092990875244e-02 -1.071971431374549866e-01 -1.290654391050338745e-02 7.052870094776153564e-02 -4.643135517835617065e-02 -5.517407134175300598e-02 -6.414723396301269531e-01 3.816413879394531250e-02 3.760100528597831726e-02 -7.184540852904319763e-03 -6.613677144050598145e-01 8.503464609384536743e-02 -2.183883786201477051e-01 4.189955443143844604e-02 2.081376500427722931e-02 2.005502209067344666e-02 1.173001080751419067e-01 -1.033290922641754150e-01 9.467536211013793945e-02 1.034551188349723816e-01 3.814323619008064270e-02 -7.106197625398635864e-02 2.679047547280788422e-02 -2.960139140486717224e-02 -4.693551957607269287e-01 -1.634046584367752075e-01 9.922350198030471802e-02 5.155086144804954529e-02 4.357478767633438110e-02 -7.549568265676498413e-02 -2.856707945466041565e-02 1.715485751628875732e-01 9.293059259653091431e-02 2.991274185478687286e-02 5.519813671708106995e-02 7.739611715078353882e-02 9.276712685823440552e-02 4.958904162049293518e-02 -7.653115317225456238e-03 4.454087838530540466e-02 1.723887771368026733e-01 6.778871417045593262e-01 -2.215648740530014038e-01 1.450686007738113403e-01 1.872191950678825378e-02 -1.009298413991928101e-01 -1.351625006645917892e-02 -6.802315264940261841e-02 -1.336969137191772461e-01 -6.289201974868774414e-02 -6.291469931602478027e-02 1.704397499561309814e-01 -2.183196395635604858e-01 5.373098328709602356e-02 -2.901701927185058594e-01 -3.330956101417541504e-01 4.685089737176895142e-02 1.310083866119384766e-01 4.978537559509277344e-02 4.551489278674125671e-02 -2.843070626258850098e-01 -5.527693629264831543e-01 6.781743466854095459e-02 2.816616185009479523e-02 -2.690861001610755920e-02 -1.830704212188720703e-01 3.501109677017666399e-05 8.660748600959777832e-02 -2.468743324279785156e-01 3.525521897245198488e-04 1.105324104428291321e-01 3.554748371243476868e-02 1.490980386734008789e-01 -6.163845211267471313e-02 1.135671734809875488e-01 9.735058248043060303e-02 1.015723496675491333e-02 1.472531914710998535e+00 1.924056932330131531e-02 -5.973588675260543823e-02 -3.363678604364395142e-02 -1.731671392917633057e-01 -7.156535387039184570e-01 3.792087780311703682e-03 8.462253957986831665e-02 7.268160581588745117e-02 -1.314741969108581543e-01 -2.850339747965335846e-02 -1.759634912014007568e-01 -1.169275790452957153e-01 -1.085320301353931427e-02 -8.214519917964935303e-02 -6.081423908472061157e-02 6.633464712649583817e-03 2.787142246961593628e-02 8.424812555313110352e-02 -4.723587036132812500e-01 -1.332730054855346680e-01 5.455784499645233154e-02 -3.156589269638061523e-01 1.325237751007080078e-01 5.873061716556549072e-02 -1.320071220397949219e-01 2.481487989425659180e-01 -4.673658683896064758e-02 2.600542008876800537e-01 -1.563281007111072540e-02 2.484694123268127441e-02 -8.720815926790237427e-02 5.837626010179519653e-02 2.014338225126266479e-02 -3.182171583175659180e-01 9.748604893684387207e-02 1.803332269191741943e-01 6.140286847949028015e-02 -3.675073087215423584e-01 5.640152096748352051e-02 8.797921240329742432e-02 7.083525508642196655e-02 -1.023490503430366516e-01 4.063410758972167969e-01 -2.045082300901412964e-01 5.991310812532901764e-03 -1.694612354040145874e-01 5.521649960428476334e-03 -6.539139896631240845e-02 1.788673549890518188e-01 -3.182027861475944519e-02 -1.279795821756124496e-02 7.099166512489318848e-02 -3.347548469901084900e-02 -5.323018431663513184e-01 -6.005743634887039661e-04 7.773277908563613892e-02 -5.909531377255916595e-03 2.513789758086204529e-02 9.870579838752746582e-02 -4.861707333475351334e-03 1.955879330635070801e-01 2.322820872068405151e-01 -3.964889794588088989e-02 -1.550149451941251755e-02 -2.596420235931873322e-02 -1.656913310289382935e-01 8.543150871992111206e-02 8.738576434552669525e-03 1.341297477483749390e-01 -3.712299745529890060e-03 3.278001546859741211e-01 1.264088749885559082e-01 1.363852340728044510e-02 -2.221839278936386108e-01 7.827369496226310730e-03 -3.812110051512718201e-02 7.486402243375778198e-02 8.508847653865814209e-02 4.172876477241516113e-02 -2.625674707815051079e-03 -5.368536710739135742e-01 -6.514098495244979858e-02 1.271510273218154907e-01 -3.041310906410217285e-01 6.982064992189407349e-02 -6.016565859317779541e-02 1.007559150457382202e-01 -7.325389981269836426e-02 4.841816052794456482e-02 -2.112877219915390015e-01 -3.796284273266792297e-02 -3.086661100387573242e-01 -1.222396343946456909e-01 -1.074815988540649414e-01 5.181917548179626465e-02 -3.324107229709625244e-01 1.090478152036666870e-01 1.371252655982971191e+00 2.470718622207641602e-01 4.406852126121520996e-01 -1.134987920522689819e-01 1.105192303657531738e-01 -2.068114578723907471e-01 3.303396999835968018e-01 -1.047241762280464172e-01 -1.727471202611923218e-01 -1.230053603649139404e-03 7.993276417255401611e-02 -8.792100101709365845e-02 -2.848868072032928467e-01 2.351305214688181877e-03 -1.418846286833286285e-02 1.352101862430572510e-01 1.150174438953399658e-01 -6.435300223529338837e-03 -1.168130487203598022e-01 -1.093697920441627502e-01 4.399129003286361694e-02 4.765670746564865112e-02 7.376127876341342926e-03 1.536462269723415375e-02 -9.529794454574584961e-01 -4.440893605351448059e-02 2.607855945825576782e-02 -1.288345754146575928e-01 -9.545098990201950073e-02 -2.880527377128601074e-01 -1.509671062231063843e-01 1.305644214153289795e-01 9.164068847894668579e-02 4.092554748058319092e-02 -3.247415274381637573e-02 2.585432529449462891e-01 -2.674661874771118164e-01 -1.151278987526893616e-02 -8.317311108112335205e-02 4.679369926452636719e-01 2.743109315633773804e-02 3.270098567008972168e-02 3.543592616915702820e-02 2.332227490842342377e-02 2.547182440757751465e-01 -1.069094426929950714e-02 1.529182642698287964e-01 2.825852297246456146e-02 -1.452258293284103274e-04 3.047297243028879166e-03 4.784017205238342285e-01 -9.632257372140884399e-02 -2.439531311392784119e-02 -1.907000392675399780e-01 8.709589391946792603e-02 4.652721807360649109e-02 4.624319262802600861e-04 1.116250529885292053e-01 2.245288528501987457e-02 8.439927361905574799e-03 3.826683387160301208e-02 2.966921031475067139e-01 1.872077409643679857e-04 -1.680772937834262848e-02 1.612769961357116699e-01 -8.120378851890563965e-02 5.434649065136909485e-02 7.995160995051264763e-04 2.366061061620712280e-01 -9.139147400856018066e-02 -1.039178729057312012e+00 -6.726744025945663452e-02 1.908071339130401611e-01 -6.502462923526763916e-02 2.618746599182486534e-03 6.084038689732551575e-02 1.002450212836265564e-01 3.834767267107963562e-02 -1.041920017451047897e-02 -5.313788354396820068e-02 2.796504274010658264e-02 1.474987948313355446e-03 -2.827357947826385498e-01 1.794785857200622559e+00 -2.471892535686492920e-02 6.151306629180908203e-02 -4.170135781168937683e-02 -4.035647958517074585e-02 -7.231070846319198608e-02 -1.095192730426788330e-01 9.621636010706424713e-03 6.744880229234695435e-02 -8.238481823354959488e-04 6.942716985940933228e-02 -1.242951117455959320e-02 1.098567387089133263e-03 -8.749735355377197266e-02 4.470411315560340881e-02 1.134173013269901276e-02 1.336203068494796753e-01 2.680348753929138184e-01 -2.762642875313758850e-02 -8.081501722335815430e-02 -5.799808502197265625e-01 6.561839487403631210e-03 -4.011508077383041382e-02 1.029941290616989136e-01 1.551031600683927536e-02 6.684531271457672119e-02 3.194467350840568542e-02 6.631622463464736938e-02 -1.714309006929397583e-01 3.382050693035125732e-01 -2.403038740158081055e-01 9.141068905591964722e-02 6.768447160720825195e-01 -2.280281782150268555e-01 -1.441749650985002518e-02 2.613482475280761719e-01 3.495040815323591232e-03 -2.361805289983749390e-01 -4.572882503271102905e-02 -1.303808838129043579e-01 1.393837332725524902e-01 -2.756537497043609619e-01 3.676863270811736584e-04 4.119946807622909546e-02 -1.651915721595287323e-03 -9.037673473358154297e-03 -3.923730179667472839e-02 -4.775145649909973145e-02 -2.187393046915531158e-02 3.896820172667503357e-02 8.297723531723022461e-02 -1.775294542312622070e-02 5.088678747415542603e-02 -7.803431153297424316e-02 -9.961999654769897461e-01 1.190105639398097992e-02 6.911229342222213745e-02 1.667121239006519318e-02 6.701137870550155640e-02 -1.988343745470046997e-01 -1.429826915264129639e-01 3.550109267234802246e-02 -1.419752649962902069e-02 1.542191624641418457e+00 -9.178432822227478027e-02 5.265075713396072388e-02 -6.578135490417480469e-02 -1.785639971494674683e-01 -9.948508813977241516e-03 -4.944670572876930237e-02 -1.578517630696296692e-02 1.176166348159313202e-02 5.106577649712562561e-02 1.604327932000160217e-02 1.597835123538970947e-01 2.815405279397964478e-02 -5.087362974882125854e-02 7.362188771367073059e-03 5.569215491414070129e-02 -1.514662057161331177e-01 -7.325411587953567505e-02 6.567311286926269531e-02 5.921121686697006226e-02 -1.938759386539459229e-01 8.698132820427417755e-03 -3.412299454212188721e-01 -1.458794325590133667e-01 8.976009488105773926e-02 -1.652557998895645142e-01 2.766229771077632904e-02 4.813291877508163452e-02 2.330086752772331238e-02 -1.283961534500122070e-01 -1.214622613042593002e-02 6.311860680580139160e-02 9.303499758243560791e-02 4.386998340487480164e-02 -8.988317102193832397e-03 -9.761799126863479614e-03 -1.381876319646835327e-02 5.798039585351943970e-02 6.629434227943420410e-02 -6.702111661434173584e-02 1.286337338387966156e-02 -5.360274016857147217e-02 1.684617251157760620e-01 -2.245308831334114075e-02 1.084889546036720276e-01 2.584027647972106934e-01 5.060151815414428711e-01 -6.723587214946746826e-02 1.958453506231307983e-01 -5.458624288439750671e-02 -2.899965271353721619e-02 3.164480626583099365e-02 1.460946351289749146e-01 -3.398214578628540039e-01 -3.147712349891662598e-01 1.833808422088623047e-01 -4.907923638820648193e-01 2.326735854148864746e-02 -2.097806930541992188e-01 1.317326873540878296e-01 4.359971359372138977e-02 1.019202172756195068e-01 -7.372648268938064575e-02 1.974052488803863525e-01 9.580531716346740723e-02 -9.228412806987762451e-02 5.665246769785881042e-02 -9.478981494903564453e-01 -2.134984359145164490e-02 2.883940748870372772e-02 7.224927842617034912e-02 4.776502251625061035e-01 5.577581748366355896e-02 5.758779868483543396e-02 -1.003899127244949341e-01 -3.631546720862388611e-02 -2.875278890132904053e-02 8.525981009006500244e-02 -4.016858711838722229e-02 -1.513065099716186523e-01 6.552127748727798462e-02 -1.832100749015808105e-01 5.657105147838592529e-02 -1.471056323498487473e-02 -2.320401137694716454e-03 1.309229619801044464e-02 1.070457771420478821e-01 2.632032632827758789e-01 -2.280440926551818848e-01 5.780412629246711731e-02 -4.390026256442070007e-02 1.795095652341842651e-01 2.048939317464828491e-01 -1.567224226891994476e-02 -4.040834307670593262e-02 4.235733747482299805e-01 1.701812632381916046e-02 1.213701739907264709e-01 -7.995609939098358154e-02 -9.049567393958568573e-03 -6.777077168226242065e-02 2.188225686550140381e-01 -3.689409419894218445e-02 -1.936849653720855713e-01 -9.226411581039428711e-02 -1.831732690334320068e-01 9.484957158565521240e-02 5.484393984079360962e-02 2.384421648457646370e-03 -6.368800997734069824e-02 -4.146295413374900818e-02 3.446635603904724121e-02 6.200646236538887024e-02 6.256140768527984619e-02 -1.931973546743392944e-01 -2.475629895925521851e-01 1.790733635425567627e-02 4.991745948791503906e-02 -4.894717130810022354e-03 1.081246603280305862e-02 8.073125034570693970e-02 -3.177647292613983154e-01 4.090219736099243164e-01 2.294354513287544250e-02 7.691282033920288086e-01 6.472922395914793015e-03 3.469561040401458740e-02 -1.623164303600788116e-02 7.543858885765075684e-02 -5.723990872502326965e-02 -6.185455247759819031e-02 2.394675649702548981e-02 -9.232685714960098267e-02 -1.673182100057601929e-02 5.020736902952194214e-02 2.517092227935791016e-02 -9.731572866439819336e-02 -7.540497463196516037e-03 -8.300158381462097168e-02 -3.654807806015014648e-02 -5.455046296119689941e-01 4.665727261453866959e-03 1.901287585496902466e-02 1.475314702838659286e-02 -4.757591709494590759e-02 -4.847234487533569336e-01 -1.141820624470710754e-01 9.473325312137603760e-02 -4.415613785386085510e-02 4.517158865928649902e-01 -3.720007836818695068e-03 3.003793954849243164e-02 4.819422066211700439e-01 -6.946185231208801270e-02 -5.060442537069320679e-02 1.209963932633399963e-01 -5.165670439600944519e-02 -2.837707698345184326e-01 -1.747822016477584839e-01 -8.896296471357345581e-02 1.747190207242965698e-02 2.492429874837398529e-02 1.387051343917846680e-01 1.350618526339530945e-02 -7.718413323163986206e-02 1.169475615024566650e-01 -9.044529497623443604e-02 -6.196701899170875549e-02 5.916758254170417786e-02 -1.035137102007865906e-01 -4.632590711116790771e-02 1.972827911376953125e-01 1.345824748277664185e-01 -4.413793236017227173e-02 -6.780513375997543335e-02 -1.763971894979476929e-02 1.279713809490203857e-01 -2.345008216798305511e-02 -3.959809541702270508e-01 6.270479410886764526e-02 1.259281635284423828e-01 6.102449074387550354e-02 -5.030231922864913940e-02 4.892685711383819580e-01 -1.361504346132278442e-01 -3.583937883377075195e-02 3.070111013948917389e-02 8.149583637714385986e-02 3.569715470075607300e-02 -1.051644310355186462e-01 -5.322765186429023743e-02 -2.092222422361373901e-01 1.468086838722229004e-01 5.058969929814338684e-02 -6.050118803977966309e-01 4.184737801551818848e-01 1.061952337622642517e-01 1.972099021077156067e-02 4.051059484481811523e-01 -1.009424477815628052e-01 4.005441665649414062e-01 -6.118772085756063461e-03 8.699090480804443359e-01 3.136904537677764893e-02 -6.738885492086410522e-02 -6.001808121800422668e-02 -1.222432926297187805e-01 4.612961038947105408e-02 -2.298050522804260254e-01 9.084740281105041504e-02 4.556063562631607056e-02 -3.315859660506248474e-02 8.964470028877258301e-02 4.678290337324142456e-02 -1.130155995488166809e-01 -1.927416622638702393e-01 6.617708504199981689e-02 -8.989175409078598022e-02 -1.583093553781509399e-01 -2.096389979124069214e-01 1.030820235610008240e-01 2.572346478700637817e-02 3.124143742024898529e-02 1.145864501595497131e-01 7.291661947965621948e-02 6.436748802661895752e-02 9.063221514225006104e-02 -3.764997422695159912e-02 3.604302555322647095e-02 -4.025682434439659119e-02 2.640717923641204834e-01 2.771532833576202393e-01 -9.707327187061309814e-02 6.124947592616081238e-02 -7.736547384411096573e-03 -3.264020010828971863e-02 3.200200945138931274e-02 3.347983583807945251e-02 1.215959638357162476e-01 -3.987307846546173096e-02 -3.713229000568389893e-01 8.902412839233875275e-03 -1.164946332573890686e-01 2.066743820905685425e-01 1.868422478437423706e-01 7.747987983748316765e-04 9.653106331825256348e-02 4.552031308412551880e-02 -1.884970627725124359e-02
2.214994840323925018e-02 -8.227757364511489868e-02 -4.718037322163581848e-02 -5.472271889448165894e-02 9.306789189577102661e-02 -1.005585342645645142e-01 1.287764869630336761e-02 9.431445598602294922e-02 -1.012208685278892517e-01 -8.746991306543350220e-02 -3.913435619324445724e-03 -1.177882179617881775e-01 -2.356177940964698792e-02 6.489244103431701660e-02 -9.432812035083770752e-02 -1.459302473813295364e-02 -3.264677897095680237e-02 -3.772016987204551697e-02 2.677871286869049072e-02 -5.587983876466751099e-02 4.585709422826766968e-02 2.707478404045104980e-02 6.953224539756774902e-02 7.230854034423828125e-02 7.250797003507614136e-02 5.412326008081436157e-02 2.637333422899246216e-02 -6.448870897293090820e-02 9.810625016689300537e-02 2.435257472097873688e-02 -3.053038567304611206e-02 -8.232773840427398682e-02 5.809133406728506088e-03 -5.340206250548362732e-02 -7.851368933916091919e-02 -1.050534322857856750e-01 5.022993311285972595e-02 6.891602277755737305e-02 1.760708866640925407e-03 2.233756473287940025e-03 5.801363289356231689e-02 4.969384521245956421e-03 6.157179176807403564e-02 8.302878588438034058e-03 -6.018246058374643326e-04 8.033145219087600708e-02 -1.877576299011707306e-02 -4.640096053481101990e-02 -1.197578310966491699e-01 -8.567697554826736450e-02 9.544361382722854614e-02 1.608931086957454681e-02 5.065641179680824280e-02 8.909177035093307495e-02 2.146346122026443481e-02 -7.765945047140121460e-02 3.630372881889343262e-02 -8.963644504547119141e-03 -5.090706422924995422e-02 -4.767628386616706848e-02 -4.646733403205871582e-03 8.862443268299102783e-02 6.426817737519741058e-03 7.032687962055206299e-02 -3.897077590227127075e-02 2.878892049193382263e-02 -4.376144707202911377e-02 2.365939691662788391e-02 -5.689857061952352524e-03 8.574640750885009766e-02 3.493812307715415955e-02 -5.765302106738090515e-02 -2.109324093908071518e-03 -1.611448824405670166e-02 1.725536771118640900e-02 -7.107275724411010742e-02 -1.089317798614501953e-01 2.836974337697029114e-02 -1.022809669375419617e-01 1.492594089359045029e-02 9.817276149988174438e-02 -7.672612369060516357e-02 -1.085633113980293274e-01 2.450565434992313385e-02 -9.991166740655899048e-02 4.697574675083160400e-02 5.677043274044990540e-02 -2.375954389572143555e-02 6.577571481466293335e-02 -4.264385253190994263e-02 -5.397954583168029785e-02 -2.662466652691364288e-02 2.051165141165256500e-02 -9.216223657131195068e-02 8.990836143493652344e-02 -2.929728105664253235e-02 -8.555542677640914917e-02 1.522503048181533813e-02 9.059654176235198975e-02 1.750404201447963715e-02 1.008547022938728333e-01 -9.674844890832901001e-02 -8.065762370824813843e-02 -8.208452165126800537e-02 4.147825390100479126e-02 -7.967969030141830444e-02 -4.919051751494407654e-02 3.023203089833259583e-02 -2.697104774415493011e-02 -7.216931879520416260e-02 8.372009545564651489e-02 -4.083121567964553833e-02 6.217534840106964111e-02 -9.539388120174407959e-02 -7.118885219097137451e-02 3.149413317441940308e-02 6.610535085201263428e-02 -2.619952335953712463e-02 7.559465616941452026e-02 6.893413513898849487e-02 6.461893022060394287e-02 -9.735398739576339722e-02 -4.148004576563835144e-02 -9.145873785018920898e-02 2.792476210743188858e-03 7.300356030464172363e-02 -8.893862366676330566e-02 -9.144837409257888794e-02 9.155477583408355713e-02 6.020362302660942078e-02 -5.000134184956550598e-02 2.678101137280464172e-02 -9.886886924505233765e-02 5.013457313179969788e-02 -1.106923967599868774e-01 -8.039293438196182251e-02 -8.518907427787780762e-02 -9.794358909130096436e-02 -8.004863560199737549e-02 -3.435442969202995300e-02 -8.561488986015319824e-02 -7.996698841452598572e-03 2.837931923568248749e-02 9.309031814336776733e-02 -1.005249544978141785e-01 8.904689550399780273e-02 -4.092426970601081848e-02 -6.697398424148559570e-02 8.173247426748275757e-02 -1.455512642860412598e-02 8.662224560976028442e-02 4.215026274323463440e-02 -7.230915944091975689e-04 -2.978559583425521851e-02 8.005446940660476685e-02 7.899735122919082642e-03 3.986487165093421936e-02 -8.198181539773941040e-02 -2.523376606404781342e-02 4.291567206382751465e-02 -3.049890697002410889e-02 8.013663813471794128e-03 5.872530862689018250e-02 4.036623984575271606e-02 9.739370644092559814e-02 -1.052645593881607056e-01 -6.921501457691192627e-02 4.273247718811035156e-02 2.497864514589309692e-02 -1.353186648339033127e-02 -8.319637179374694824e-02 -1.831007748842239380e-02 -1.504233572632074356e-02 -4.046789556741714478e-02 5.712243542075157166e-02 4.669672995805740356e-02 -5.077157169580459595e-02 -9.972367435693740845e-02 -9.119365364313125610e-02 -4.849142581224441528e-02 -5.617494881153106689e-02 -1.057350412011146545e-01 -3.958973661065101624e-02 1.552388165146112442e-02 8.048374205827713013e-02 6.668495386838912964e-02 -2.498584426939487457e-02 6.174634024500846863e-02 5.344135314226150513e-02 6.897247582674026489e-02 -1.054960042238235474e-01 -1.098517403006553650e-01 -7.752474397420883179e-03 1.168322283774614334e-02 9.249907918274402618e-03 -9.214001893997192383e-02 -8.296446502208709717e-02 -9.160410612821578979e-02 -3.904411196708679199e-02 6.851179897785186768e-02 -8.267251402139663696e-02 -3.278617188334465027e-02 -7.558546215295791626e-02 6.267155706882476807e-02 1.207902189344167709e-02 3.240713477134704590e-02 4.156254976987838745e-02 -2.323184348642826080e-02 -3.148742765188217163e-02 -5.033060163259506226e-02 -8.883491973392665386e-04 -9.402012079954147339e-02 8.393073827028274536e-02 -6.956616789102554321e-02 -1.956434547901153564e-02 3.933235071599483490e-03 8.005520701408386230e-02 7.223054766654968262e-02 -1.998212002217769623e-02 -4.615965485572814941e-02 1.004633679986000061e-01 -6.964470446109771729e-02 -1.437011267989873886e-02 7.225410640239715576e-02 -9.627181291580200195e-02 -4.293677210807800293e-02 -1.518299453891813755e-03 9.192912280559539795e-02 -8.128901571035385132e-02 2.451495267450809479e-02 -5.864418298006057739e-02 -5.092107877135276794e-02 6.259089708328247070e-02 -6.784582138061523438e-02 7.579582277685403824e-03 -2.653004601597785950e-03 8.328884840011596680e-02 3.337724134325981140e-02 -1.052337288856506348e-01 -2.672627381980419159e-02 -7.617548108100891113e-02 2.594689838588237762e-03 -7.945015281438827515e-02 7.952042669057846069e-02 4.675906896591186523e-02 -1.766043342649936676e-02 3.891391679644584656e-02 7.472549378871917725e-02 -6.867160648107528687e-02 5.657565221190452576e-02 7.687795907258987427e-02 2.027527987957000732e-02 -7.952257245779037476e-02 -4.124205559492111206e-03 9.349387884140014648e-02 -6.743676960468292236e-02 -7.052126526832580566e-02 3.953266143798828125e-02 -3.004989773035049438e-02 -7.362072821706533432e-03 3.933817893266677856e-02 -2.346464060246944427e-02 5.272585898637771606e-02 5.336829274892807007e-02 -1.166131347417831421e-01 9.900901466608047485e-02 -1.962023228406906128e-02 -2.186956442892551422e-02 -3.134811669588088989e-02 -7.173608988523483276e-02 -9.226912260055541992e-02 8.883188664913177490e-02 8.083900064229965210e-02 5.429600179195404053e-02 -1.810846664011478424e-02 -4.752948135137557983e-02 5.980183184146881104e-02 4.441244900226593018e-02 1.653669215738773346e-02 -4.566603340208530426e-03 -6.474664807319641113e-02 -1.844447106122970581e-02 3.563693538308143616e-02 4.127705097198486328e-02 -3.324966505169868469e-02 1.300226245075464249e-02 -4.389575868844985962e-02 -7.083430886268615723e-02 2.239819616079330444e-02 4.402229189872741699e-02 3.429031372070312500e-02 8.520355075597763062e-02 -8.247158676385879517e-02 7.607369869947433472e-02 3.374527022242546082e-02 6.738300621509552002e-02 2.519062347710132599e-02 -4.064219072461128235e-02 9.058973193168640137e-02 -6.332243233919143677e-02 4.730691388249397278e-02 7.924322038888931274e-02 -8.928275108337402344e-02 -7.789903879165649414e-02 1.868894137442111969e-02 7.073770463466644287e-02 8.943115174770355225e-02 -2.047652937471866608e-02 -1.033678725361824036e-01 -9.214019030332565308e-02 -3.850343450903892517e-02 8.572810143232345581e-02 -6.472569704055786133e-02 -7.140296697616577148e-02 1.872590184211730957e-02 4.750784114003181458e-02 -1.187735889106988907e-02 1.834538020193576813e-02 -1.229788362979888916e-02 8.168157190084457397e-02 -4.757841303944587708e-02 4.546330124139785767e-02 1.637656707316637039e-03 1.987182535231113434e-02 -4.957320168614387512e-02 -6.062638480216264725e-03 1.784581504762172699e-02 -2.095773071050643921e-02 -3.818551078438758850e-02 -1.076494231820106506e-01 3.170323744416236877e-02 -9.904850274324417114e-03 -8.660327643156051636e-02 -6.636098027229309082e-02 -6.329323351383209229e-02 5.417128652334213257e-02 -5.452089011669158936e-02 -3.844002261757850647e-02 -5.897371470928192139e-02 -1.315457187592983246e-02 -3.323904052376747131e-02 -5.134063586592674255e-02 1.041933428496122360e-02 3.640982136130332947e-02 9.057236462831497192e-02 3.279161825776100159e-02 -6.527757272124290466e-03 5.225964635610580444e-02 -9.156336635351181030e-02 -9.085864573717117310e-02 2.083269506692886353e-02 -5.781355872750282288e-02 4.178625345230102539e-02 -7.448694668710231781e-03 6.448937207460403442e-02 -5.381843820214271545e-02 1.045067608356475830e-01 -5.008817836642265320e-02 -5.680745095014572144e-02 -2.034322358667850494e-03 9.949297457933425903e-02 -2.610468119382858276e-02 5.641198158264160156e-02 -6.624484062194824219e-02 2.805567532777786255e-02 1.806211657822132111e-02 -5.570644512772560120e-03 4.745128098875284195e-03 -3.213006630539894104e-02 7.686620950698852539e-02 -8.381649106740951538e-02 8.099212497472763062e-02 -9.537476301193237305e-02 -5.878499522805213928e-02 -6.035035476088523865e-02 -6.397356837987899780e-02 -4.401392862200737000e-02 7.692535221576690674e-02 -1.767374761402606964e-02 -3.123937919735908508e-02 -6.373309530317783356e-03 -5.667735636234283447e-02 -5.977955646812915802e-03 6.148169934749603271e-02 1.847460283897817135e-03 -1.028854027390480042e-01 5.864360928535461426e-02 -6.847642362117767334e-03 9.577268734574317932e-03 8.941677957773208618e-02 -4.629293084144592285e-02 2.439882420003414154e-02 -3.093595989048480988e-02 3.271613735705614090e-03 1.195949036628007889e-02 -8.741093426942825317e-02 -1.117477566003799438e-01 4.687760956585407257e-03 5.861300975084304810e-02 -6.682276725769042969e-02 -2.955773100256919861e-02 -8.737835288047790527e-02 1.027807872742414474e-02 -4.525862634181976318e-02 9.174791723489761353e-02 -1.668952964246273041e-02 -8.000912517309188843e-02 -3.131261840462684631e-02 3.904316946864128113e-02 -1.949468255043029785e-02 -5.357591807842254639e-02 -7.383389025926589966e-02 3.711574152112007141e-02 3.493843600153923035e-02 -1.066280454397201538e-01 -1.104990616440773010e-01 -3.972887247800827026e-02 4.073308780789375305e-02 8.002483285963535309e-03 2.647771872580051422e-02 -1.158392950892448425e-01 -8.697000145912170410e-02 -6.963219493627548218e-02 -2.276220917701721191e-02 2.692454867064952850e-02 5.612789839506149292e-02 -4.278193414211273193e-02 1.240695919841527939e-02 -7.591198384761810303e-02 -7.281187921762466431e-02 1.023988705128431320e-02 -4.944267496466636658e-02 6.954053044319152832e-02 2.718293480575084686e-02 1.381055638194084167e-02 1.545367669314146042e-02 -8.631680160760879517e-02 5.572732537984848022e-02 -4.562919214367866516e-02 6.984872370958328247e-02 -3.162417188286781311e-02 -2.203144365921616554e-03 5.182734876871109009e-02 9.339403361082077026e-02 7.423408329486846924e-02 -5.522578209638595581e-02 5.166906118392944336e-02 -9.489544481039047241e-02 -9.361366927623748779e-02 -3.855469822883605957e-02 -3.662183880805969238e-02 -6.017635017633438110e-02 -2.294824458658695221e-02 1.478041894733905792e-02 1.475580385886132717e-03 -6.996420770883560181e-02 -1.271194964647293091e-01 6.929743289947509766e-02 9.245581924915313721e-03 -9.018319845199584961e-02 5.728213116526603699e-02 -9.156939387321472168e-02 -1.097045093774795532e-01 -1.119994595646858215e-01 -5.568933114409446716e-02 1.991823315620422363e-03 -9.075028821825981140e-03 -8.114655315876007080e-02 7.825307548046112061e-02 -6.313782930374145508e-02 4.630066081881523132e-02 -2.499959059059619904e-02 -2.855034917593002319e-02 2.667262405157089233e-02 -9.438189677894115448e-03 -2.039825078099966049e-03 -8.996273577213287354e-02 -7.396078109741210938e-02 -5.621110647916793823e-02 8.012249320745468140e-02 8.595327287912368774e-02 2.249984256923198700e-02 8.691478520631790161e-02 -3.068791236728429794e-03 -1.981097459793090820e-02 -1.061656624078750610e-01 8.265478163957595825e-02 4.737915843725204468e-02 -6.568121165037155151e-02 6.410671025514602661e-02 -9.621061384677886963e-02 -3.887455537915229797e-02 5.337949097156524658e-02 6.874328851699829102e-02 -2.991285175085067749e-02 -7.125169038772583008e-02 -3.660770133137702942e-02 4.873381182551383972e-02 6.330030411481857300e-02 1.018195785582065582e-02 -9.434471279382705688e-02 6.345715373754501343e-02 -7.782057672739028931e-02 2.642355859279632568e-02 -2.340257540345191956e-02 -3.939684107899665833e-02 -7.538949139416217804e-03 7.942836731672286987e-02 -9.846597909927368164e-03 -4.902882874011993408e-02 2.554553002119064331e-02 -1.842218451201915741e-02 5.425846949219703674e-02 -1.140543147921562195e-01 8.430604636669158936e-02 -6.034617498517036438e-02 -8.280550688505172729e-02 -1.184707060456275940e-01 -1.033956408500671387e-01 -2.955435216426849365e-02 -6.938036531209945679e-03 -4.051252454519271851e-02 -1.065218150615692139e-01 4.023194313049316406e-03 2.403697744011878967e-02 8.148017525672912598e-02 -1.223876848816871643e-01 -2.789660543203353882e-02 -5.066217854619026184e-02 9.488554671406745911e-03 -3.462640568614006042e-02 1.496255956590175629e-02 -6.672036647796630859e-02 4.776537045836448669e-02 -2.369737438857555389e-02 -9.371446073055267334e-02 9.431195259094238281e-02 -9.937439113855361938e-02 3.600486367940902710e-02 -7.448880374431610107e-02 -1.932488754391670227e-02 9.923251718282699585e-02 -1.013293862342834473e-01 9.012398868799209595e-02 -4.838502407073974609e-02 -2.870047930628061295e-03 -6.685744225978851318e-02 -3.597732633352279663e-02 7.764338515698909760e-03 9.469614177942276001e-02 5.842915922403335571e-02 -1.124355010688304901e-02 9.965834021568298340e-02 -5.702941864728927612e-02 2.810201048851013184e-02 2.073266915977001190e-02 -5.642050132155418396e-02 8.213414996862411499e-02 5.426306650042533875e-02 1.420451328158378601e-02 5.216662585735321045e-02 8.514209091663360596e-02 -5.843317881226539612e-02 -7.533790171146392822e-02 -1.071458458900451660e-01 -1.034607067704200745e-01 -8.937453478574752808e-02 2.124805934727191925e-02 5.723335966467857361e-02 -5.755786970257759094e-02 2.578337304294109344e-02 7.753442227840423584e-02 -6.844872236251831055e-02 -5.432591959834098816e-02 -5.859170481562614441e-02 3.537231683731079102e-02 -1.558105740696191788e-02 -4.679997265338897705e-02 5.986914411187171936e-02 -9.732984937727451324e-03 7.741742581129074097e-02 -8.403477817773818970e-02 -1.481976825743913651e-02 -4.196014255285263062e-03 -9.016155451536178589e-02 -4.673770442605018616e-02 9.143716096878051758e-02 -3.304532915353775024e-02 1.994552463293075562e-02 -5.596984922885894775e-02 3.238948434591293335e-02 -1.811906136572360992e-02 8.616851270198822021e-02 4.998609423637390137e-03 -2.580367401242256165e-02 -6.835579872131347656e-02 9.688843041658401489e-02 8.753853850066661835e-03 -2.682487666606903076e-02 -1.236344035714864731e-02 -3.587736189365386963e-02 -5.078999325633049011e-02 9.609139710664749146e-02 1.288272067904472351e-02 -8.640779554843902588e-02 -1.089172512292861938e-01 2.455981215462088585e-03 -1.070574447512626648e-01 1.323065534234046936e-02 -5.322406813502311707e-02 3.133619949221611023e-02 5.334330350160598755e-02 7.842428982257843018e-02 4.460421577095985413e-02 5.807328596711158752e-02 -3.864160180091857910e-02 2.370589599013328552e-02 6.507365498691797256e-03 7.683044672012329102e-02 -8.372077345848083496e-02 -9.623938798904418945e-02 -6.963501125574111938e-02 -2.907967567443847656e-02 -2.387659065425395966e-02 8.395996689796447754e-02 -3.090115496888756752e-03 3.388578817248344421e-02 4.939725995063781738e-02 5.106568336486816406e-02 -1.226119324564933777e-02 5.746977031230926514e-02 1.522029191255569458e-02 9.152612090110778809e-02 -9.480233490467071533e-02 8.585799485445022583e-02 -1.006952598690986633e-01 -9.482380747795104980e-02 7.256111130118370056e-03 -9.271629154682159424e-03 1.427784003317356110e-02 6.085821241140365601e-02 -6.310988217592239380e-02 -9.127233177423477173e-02 -7.878839224576950073e-02 -8.092371746897697449e-03 -5.676049366593360901e-02 8.446548879146575928e-02 5.739194527268409729e-02 1.449784915894269943e-02 -3.901801258325576782e-02 6.702449917793273926e-02 -7.606839388608932495e-02 -1.070247963070869446e-01 -2.037755027413368225e-02 -1.016641706228256226e-01 6.799998134374618530e-02 -2.776189474388957024e-03 -4.688844829797744751e-02 -1.231449469923973083e-01 7.582180202007293701e-02 -7.175710052251815796e-02 6.517847627401351929e-02 3.376745805144309998e-02 4.307889565825462341e-02 6.819591671228408813e-02 -6.133447587490081787e-02 -9.039116650819778442e-02 -7.787871360778808594e-02 2.101248688995838165e-02 1.170866936445236206e-02 -2.581224218010902405e-02 -1.126733571290969849e-01 -6.335426867008209229e-02 -5.352206644602119923e-04 7.426995784044265747e-03 -5.503445863723754883e-04 -8.465777337551116943e-02 -7.587490230798721313e-02 -1.162220910191535950e-02 -3.139618039131164551e-02 -6.923774629831314087e-02 -4.050224274396896362e-02 -7.572735100984573364e-02 -1.823310740292072296e-02 3.138307482004165649e-02 2.644206024706363678e-02 -1.750861667096614838e-02 7.682169973850250244e-02 1.986612193286418915e-02 6.903646141290664673e-02 6.193774938583374023e-02 -2.463454753160476685e-02 -1.511188340373337269e-03 -8.300164341926574707e-02 5.979590117931365967e-02 -4.242591385263949633e-04 -8.488293737173080444e-02 -4.906669259071350098e-02 -7.814794778823852539e-02 7.334538549184799194e-02 4.276461899280548096e-02 5.093576759099960327e-02 -2.153538912534713745e-02 -9.946949034929275513e-02 -1.159007549285888672e-01 9.442659467458724976e-02 -5.849573016166687012e-02 -4.682176187634468079e-02 8.402328938245773315e-02 -8.462817221879959106e-02 -1.043450832366943359e-01 6.416519731283187866e-02 -7.110933214426040649e-02 -9.396707266569137573e-02 1.380560360848903656e-02 -1.176471859216690063e-01 -7.221496850252151489e-02 6.936494261026382446e-02 -7.039328664541244507e-02 -4.629641398787498474e-02 2.463938295841217041e-02 -5.847537890076637268e-02 -2.079948782920837402e-02 -1.167047917842864990e-01 -9.052955359220504761e-02 7.417887449264526367e-02 -3.045594878494739532e-02 -1.156494114547967911e-02 -1.160259172320365906e-01 -2.533967047929763794e-02 -2.290578000247478485e-02 1.509499124949797988e-04 -9.333837777376174927e-02 7.154365628957748413e-02 3.059571608901023865e-02 -1.393863558769226074e-02 -6.915669888257980347e-02 -8.197518438100814819e-02 -7.190726697444915771e-02 -1.267549842596054077e-01 3.144815098494291306e-03 7.507152855396270752e-02 -4.701467230916023254e-03 4.777174815535545349e-02 -9.517058730125427246e-02 1.193848066031932831e-02 -7.862233370542526245e-02 -7.890118658542633057e-02 9.332109987735748291e-02 6.521638482809066772e-02 3.081879019737243652e-02 -6.919690221548080444e-02 7.297607511281967163e-02 -4.035384580492973328e-02 3.631909936666488647e-02 -3.863280639052391052e-02 -5.798297375440597534e-02 -6.609922647476196289e-02 -8.336877822875976562e-02 6.132053211331367493e-02 -9.603074193000793457e-02 6.981865316629409790e-02 -5.069635435938835144e-02 -9.677419066429138184e-02 7.436455227434635162e-03 5.112697836011648178e-03 1.462982036173343658e-02 -7.274797558784484863e-02 9.040676057338714600e-03 -1.160373911261558533e-01 1.847967691719532013e-02 -9.465353190898895264e-02 1.455740351229906082e-02 -4.405437037348747253e-02 -7.762318849563598633e-02 4.706192389130592346e-02 6.454163789749145508e-02 4.426777362823486328e-02 -2.619948051869869232e-02 -7.877980917692184448e-02 8.488559722900390625e-02 7.106754928827285767e-02 4.904043674468994141e-02 -8.480179309844970703e-02 -4.542876780033111572e-02 4.573000967502593994e-02 -2.916360460221767426e-02 -6.625173985958099365e-02 9.366007894277572632e-02 -6.610411405563354492e-02 1.414229534566402435e-02 8.027169853448867798e-02 1.114274468272924423e-02 8.342495560646057129e-02 -7.479619234800338745e-02 -1.197118610143661499e-01 -2.127848006784915924e-02 8.419799059629440308e-02 -8.104125410318374634e-02 7.575383782386779785e-02 9.915892779827117920e-02 -1.538996957242488861e-02 8.937937021255493164e-02 6.745572388172149658e-02 4.943246394395828247e-02 7.282223552465438843e-02 -8.495025336742401123e-02 6.341417133808135986e-02 -5.534189566969871521e-02 5.320528149604797363e-02 -1.059875190258026123e-01 5.160185322165489197e-02 9.698279201984405518e-02 -7.882455736398696899e-02 7.395555078983306885e-02 6.318584084510803223e-02 7.693845033645629883e-02 3.540402045473456383e-03 -1.058104932308197021e-01 9.251175075769424438e-02 3.180035576224327087e-02 -3.910919278860092163e-02 -1.545943692326545715e-02 -2.270521037280559540e-02 -4.970830678939819336e-02 -7.085622102022171021e-02 6.577264517545700073e-02 6.195554137229919434e-02 -5.418930202722549438e-02 3.157104179263114929e-02 4.384103417396545410e-02 5.478609353303909302e-02 -7.202821969985961914e-02 5.488614737987518311e-02 3.970889002084732056e-02 -1.919820904731750488e-02 -4.382613673806190491e-02 -1.130977272987365723e-01 -3.846748173236846924e-02 7.044263929128646851e-02 2.490842342376708984e-02 -4.696166142821311951e-02 -6.867536157369613647e-02 -1.028735116124153137e-01 -3.876854106783866882e-02 -1.042317748069763184e-01 4.052817448973655701e-02 3.748250380158424377e-02 1.179333776235580444e-02 -7.883178442716598511e-02 